{"learner":{"attributes":{"scikit_learn":"{\"_estimator_type\": \"regressor\"}"},"feature_names":["temperature_2m_mean","precipitation_sum","wind_speed_10m_max","wind_direction_10m_dominant"],"feature_types":["float","float","float","float"],"gradient_booster":{"model":{"gbtree_model_param":{"num_parallel_tree":"1","num_trees":"100"},"iteration_indptr":[0,1,2,3,4,5,6,7,8,9,10,11,12,13,14,15,16,17,18,19,20,21,22,23,24,25,26,27,28,29,30,31,32,33,34,35,36,37,38,39,40,41,42,43,44,45,46,47,48,49,50,51,52,53,54,55,56,57,58,59,60,61,62,63,64,65,66,67,68,69,70,71,72,73,74,75,76,77,78,79,80,81,82,83,84,85,86,87,88,89,90,91,92,93,94,95,96,97,98,99,100],"tree_info":[0,0,0,0,0,0,0,0,0,0,0,0,0,0,0,0,0,0,0,0,0,0,0,0,0,0,0,0,0,0,0,0,0,0,0,0,0,0,0,0,0,0,0,0,0,0,0,0,0,0,0,0,0,0,0,0,0,0,0,0,0,0,0,0,0,0,0,0,0,0,0,0,0,0,0,0,0,0,0,0,0,0,0,0,0,0,0,0,0,0,0,0,0,0,0,0,0,0,0,0],"trees":[{"base_weights":[2.8537236E-6,2.2665707E1,-2.6350916E1,3.811405E1,9.375382E0,-5.428949E0,-3.6493164E1,4.5038975E1,2.9826275E1,1.7285526E1,-1.2841594E1,1.385769E1,-1.1841954E1,-3.803602E1,1.307255E1,4.6713776E1,3.221364E1,2.8849533E1,1.3090723E2,1.5302018E1,4.5257023E1,-4.687139E1,-6.4605927E0,2.2424936E1,-1.4578436E1,-1.5443837E1,8.089895E0,-4.2100105E1,-2.3531487E1,3.0338303E1,-7.5934916E0,4.549449E1,9.406575E1,4.595386E1,1.9776539E1,3.167527E1,7.400834E0,5.6304127E1,2.6041284E0,3.1582808E1,1.1950133E1,1.3420964E2,2.0379654E1,6.065748E0,-5.9858486E1,5.032983E0,-1.1044619E1,3.7398975E1,7.939967E0,9.309304E0,-2.1846806E1,2.6414144E0,-2.1102316E1,1.0231042E1,-1.4511316E1,-4.2492554E1,3.530413E1,-2.80164E1,-5.885832E0,1.4876316E1,4.394075E1,-4.5911316E1,1.232477E1,1.4810298E1,1.0954053E1,1.2178507E1,7.025413E1,2.4541283E0,1.41897E1,1.2249236E1,1.125418E0,1.0756985E1,6.834436E0,3.8711975E0,-1.4018808E1,6.0387006E0,1.2417363E1,8.384703E0,2.4089806E0,7.5499344E0,1.0317217E2,1.6957432E1,1.5319264E0,-7.145872E0,4.121363E0,-3.545872E0,-1.834561E1,-6.0381804E-2,4.57098E0,-9.895353E0,-1.4881822E0,1.1834885E1,-9.2782897E-1,4.9689093E0,6.9417876E-1,-5.4278293E0,7.1666055E0,-1.4802756E0,-8.98519E0,-9.9346185E-1,1.4757226E1,-2.1301003E0,-8.144395E0,2.2254684E0,1.2006193E1,-6.818808E0,2.7541285E0,-7.071604E0,-1.3491437E1,-8.660783E0,7.8721714E0,2.9327407E0,-4.484642E0,-2.7958717E0,5.7197247E0,1.4792791E1,9.541283E-1,-1.927829E0,-2.102783E1,9.499342E-1,7.5811925E0],"categories":[],"categories_nodes":[],"categories_segments":[],"categories_sizes":[],"default_left":[0,0,0,0,0,0,0,0,0,0,0,0,0,0,0,0,0,0,0,0,0,0,0,0,0,0,0,0,0,0,0,0,0,0,0,0,0,0,0,0,0,0,0,0,0,0,0,0,0,0,0,0,0,0,0,0,0,0,0,0,0,0,0,0,0,0,0,0,0,0,0,0,0,0,0,0,0,0,0,0,0,0,0,0,0,0,0,0,0,0,0,0,0,0,0,0,0,0,0,0,0,0,0,0,0,0,0,0,0,0,0,0,0,0,0,0,0,0,0,0,0],"id":0,"left_children":[1,3,5,7,9,11,13,15,17,19,21,23,25,27,29,31,33,35,37,39,41,43,45,47,49,51,53,55,57,59,61,63,65,67,69,71,73,-1,-1,75,77,79,81,83,85,87,89,91,93,95,97,99,101,103,105,107,-1,109,111,113,115,117,119,-1,-1,-1,-1,-1,-1,-1,-1,-1,-1,-1,-1,-1,-1,-1,-1,-1,-1,-1,-1,-1,-1,-1,-1,-1,-1,-1,-1,-1,-1,-1,-1,-1,-1,-1,-1,-1,-1,-1,-1,-1,-1,-1,-1,-1,-1,-1,-1,-1,-1,-1,-1,-1,-1,-1,-1,-1,-1],"loss_changes":[1.79537E6,3.314293E5,2.9475388E5,4.1528625E4,1.5311531E5,5.644092E4,7.207575E4,7.194625E3,3.0087781E4,3.492672E4,4.94232E4,2.8099523E4,2.4677867E4,5.253375E4,1.0578002E4,1.62743125E4,7.6356133E3,2.0433031E4,1.9188477E4,3.2419953E4,9.020697E4,2.5113062E4,1.0276836E4,1.8790117E4,4.8912505E3,2.9732898E4,2.713268E3,4.9396125E4,1.5742078E4,2.711456E3,1.1250987E4,1.03373125E4,5.042971E4,7.8171875E2,9.293952E3,1.037675E4,1.2816359E4,0E0,0E0,1.0625875E4,3.113496E4,1.971399E5,1.8481154E4,2.1615022E3,1.0792969E3,2.9939336E3,1.8390451E4,3.6924727E3,2.193304E3,3.2287483E3,2.7304014E3,1.956032E4,1.8515172E4,3.8089556E3,1.1821641E3,3.209975E4,0E0,8.1614844E3,6.107657E3,1.0899882E3,1.5937695E3,4.323627E3,1.1056066E3,0E0,0E0,0E0,0E0,0E0,0E0,0E0,0E0,0E0,0E0,0E0,0E0,0E0,0E0,0E0,0E0,0E0,0E0,0E0,0E0,0E0,0E0,0E0,0E0,0E0,0E0,0E0,0E0,0E0,0E0,0E0,0E0,0E0,0E0,0E0,0E0,0E0,0E0,0E0,0E0,0E0,0E0,0E0,0E0,0E0,0E0,0E0,0E0,0E0,0E0,0E0,0E0,0E0,0E0,0E0,0E0,0E0,0E0],"parents":[2147483647,0,0,1,1,2,2,3,3,4,4,5,5,6,6,7,7,8,8,9,9,10,10,11,11,12,12,13,13,14,14,15,15,16,16,17,17,18,18,19,19,20,20,21,21,22,22,23,23,24,24,25,25,26,26,27,27,28,28,29,29,30,30,31,31,32,32,33,33,34,34,35,35,36,36,39,39,40,40,41,41,42,42,43,43,44,44,45,45,46,46,47,47,48,48,49,49,50,50,51,51,52,52,53,53,54,54,55,55,57,57,58,58,59,59,60,60,61,61,62,62],"right_children":[2,4,6,8,10,12,14,16,18,20,22,24,26,28,30,32,34,36,38,40,42,44,46,48,50,52,54,56,58,60,62,64,66,68,70,72,74,-1,-1,76,78,80,82,84,86,88,90,92,94,96,98,100,102,104,106,108,-1,110,112,114,116,118,120,-1,-1,-1,-1,-1,-1,-1,-1,-1,-1,-1,-1,-1,-1,-1,-1,-1,-1,-1,-1,-1,-1,-1,-1,-1,-1,-1,-1,-1,-1,-1,-1,-1,-1,-1,-1,-1,-1,-1,-1,-1,-1,-1,-1,-1,-1,-1,-1,-1,-1,-1,-1,-1,-1,-1,-1,-1,-1],"split_conditions":[1E-1,2.4509752E1,2.2185493E2,2.2589918E1,1.7148247E1,2.3724335E1,3.2601706E2,1.3163342E2,2.4470167E1,3.2566418E1,2.5700335E1,1.710284E1,2.9847252E1,2.6755585E1,1.3009903E1,1.3048518E2,1.0948973E1,1.6485485E1,1.1183201E1,8.701454E1,1.343802E2,1.3813794E2,2.33152E2,8.000001E-1,6.682985E1,9.5314445E1,2.1509103E2,1.2480001E2,3.0125336E1,3.3832037E2,1.4973577E1,1.31412325E1,1.7208603E1,1.3299165E2,2.1726418E1,1.12619896E2,2.0974478E2,5.6304127E1,2.6041284E0,2.5725334E1,1.1435313E1,1.22803215E2,1.692738E2,9.7823515E0,2.4592003E1,2.9933668E1,2.6740134E2,1.4678342E2,2.2377085E1,2.0784925E1,2.2037252E1,9.2E0,5E-1,1.9164719E1,2.184373E2,1.31041975E1,3.530413E1,3.331508E1,1.859845E1,1.0239453E1,5.1000004E0,1.4154915E1,1.8875126E1,1.4810298E1,1.0954053E1,1.2178507E1,7.025413E1,2.4541283E0,1.41897E1,1.2249236E1,1.125418E0,1.0756985E1,6.834436E0,3.8711975E0,-1.4018808E1,6.0387006E0,1.2417363E1,8.384703E0,2.4089806E0,7.5499344E0,1.0317217E2,1.6957432E1,1.5319264E0,-7.145872E0,4.121363E0,-3.545872E0,-1.834561E1,-6.0381804E-2,4.57098E0,-9.895353E0,-1.4881822E0,1.1834885E1,-9.2782897E-1,4.9689093E0,6.9417876E-1,-5.4278293E0,7.1666055E0,-1.4802756E0,-8.98519E0,-9.9346185E-1,1.4757226E1,-2.1301003E0,-8.144395E0,2.2254684E0,1.2006193E1,-6.818808E0,2.7541285E0,-7.071604E0,-1.3491437E1,-8.660783E0,7.8721714E0,2.9327407E0,-4.484642E0,-2.7958717E0,5.7197247E0,1.4792791E1,9.541283E-1,-1.927829E0,-2.102783E1,9.499342E-1,7.5811925E0],"split_indices":[1,0,3,0,2,0,3,3,0,0,0,2,0,0,2,3,2,2,2,3,3,3,3,1,3,3,3,1,0,3,2,2,2,3,0,3,3,0,0,0,2,3,3,3,0,0,3,3,0,3,0,1,1,2,3,2,0,2,2,2,1,2,2,0,0,0,0,0,0,0,0,0,0,0,0,0,0,0,0,0,0,0,0,0,0,0,0,0,0,0,0,0,0,0,0,0,0,0,0,0,0,0,0,0,0,0,0,0,0,0,0,0,0,0,0,0,0,0,0,0,0],"split_type":[0,0,0,0,0,0,0,0,0,0,0,0,0,0,0,0,0,0,0,0,0,0,0,0,0,0,0,0,0,0,0,0,0,0,0,0,0,0,0,0,0,0,0,0,0,0,0,0,0,0,0,0,0,0,0,0,0,0,0,0,0,0,0,0,0,0,0,0,0,0,0,0,0,0,0,0,0,0,0,0,0,0,0,0,0,0,0,0,0,0,0,0,0,0,0,0,0,0,0,0,0,0,0,0,0,0,0,0,0,0,0,0,0,0,0,0,0,0,0,0,0],"sum_hessian":[3.004E3,1.615E3,1.389E3,7.46E2,8.69E2,4.54E2,9.35E2,4.04E2,3.42E2,6.41E2,2.28E2,1.13E2,3.41E2,9.07E2,2.8E1,3.55E2,4.9E1,3.4E2,2E0,6E2,4.1E1,3.5E1,1.93E2,8.7E1,2.6E1,2.89E2,5.2E1,7.07E2,2E2,1.5E1,1.3E1,3.48E2,7E0,2.2E1,2.7E1,3E2,4E1,1E0,1E0,1.01E2,4.99E2,8E0,3.3E1,7E0,2.8E1,5.5E1,1.38E2,4.2E1,4.5E1,6E0,2E1,6.9E1,2.2E2,4.8E1,4E0,7.06E2,1E0,1.59E2,4.1E1,8E0,7E0,4E0,9E0,2.4E2,1.08E2,6E0,1E0,1E0,2.1E1,1.1E1,1.6E1,2.02E2,9.8E1,3.7E1,3E0,4.8E1,5.3E1,9.7E1,4.02E2,6E0,2E0,9E0,2.4E1,1E0,6E0,1E0,2.7E1,3.7E1,1.8E1,2.9E1,1.09E2,4E1,2E0,1.7E1,2.8E1,2E0,4E0,7E0,1.3E1,6.2E1,7E0,6.7E1,1.53E2,4.5E1,3E0,3E0,1E0,8.3E1,6.23E2,1.57E2,2E0,1.5E1,2.6E1,1E0,7E0,6E0,1E0,2E0,2E0,6E0,3E0],"tree_param":{"num_deleted":"0","num_feature":"4","num_nodes":"121","size_leaf_vector":"1"}},{"base_weights":[1.2292587E-1,1.6070969E1,-1.8418196E1,2.995441E1,8.311253E0,-3.7530131E0,-2.5527428E1,3.2596077E1,2.3185713E1,1.5031508E1,-6.1522994E0,1.838593E1,-6.5932903E0,-2.7292538E1,-2.5949497E0,3.315273E1,1.2875286E1,2.103377E1,6.3057377E1,1.356989E1,4.3649826E1,-1.815355E1,-7.036987E-1,3.0623484E1,5.9206557E0,4.0641926E-2,-1.1034355E1,-3.434693E1,-2.1662539E1,-9.563796E0,2.0651539E1,3.0110281E1,3.607505E1,2.221376E1,4.26202E0,2.8645058E1,1.2762497E1,5.971601E1,1.5193184E1,1.2239376E1,3.6883488E1,9.11563E1,5.8374796E0,8.025281E-1,-3.605178E1,6.2131658E0,-4.93654E0,3.4532158E1,4.9273682E-1,1.3051728E1,-7.507341E0,1.5835071E1,-1.0596837E1,-2.4808212E1,-8.219138E-1,-3.495895E1,3.000851E1,-2.3663246E1,-7.8536158E0,1.0943085E-1,-1.7572998E1,1.0742016E1,1.0507665E1,1.1605418E1,8.623356E0,1.0915449E1,1.08136E0,1.26102E0,7.492546E0,-7.8474164E-1,7.86102E0,1.1173403E1,7.3333335E0,6.646518E0,1.2552681E0,5.255843E0,1.8531533E-1,6.1738772E0,2.275579E0,8.425198E0,2.0797962E1,6.8142047E0,4.0278214E1,2.9518857E0,-2.4410577E0,-1.070111E1,1.147565E0,-2.4552324E0,-1.1830568E1,3.2771692E-1,6.9939437E0,-2.4613867E0,3.9786904E0,3.7889558E-1,1.0796096E1,-9.8701864E-1,1.77617E0,1.7524251E0,1.104824E1,-1.4347721E0,-3.681282E0,1.0602692E1,3.253693E0,3.157439E-1,-7.6564813E0,9.814858E0,-8.803049E0,-1.2875988E0,2.5816395E0,-6.1861796E0,-1.0783632E1,-7.2419147E0,1.2391963E0,1.7434288E0,-3.673504E0,-5.041886E0,1.5536023E0,-7.2361684E0,1.935254E0,5.184292E0,-1.6997601E0],"categories":[],"categories_nodes":[],"categories_segments":[],"categories_sizes":[],"default_left":[0,0,0,0,0,0,0,0,0,0,0,0,0,0,0,0,0,0,0,0,0,0,0,0,0,0,0,0,0,0,0,0,0,0,0,0,0,0,0,0,0,0,0,0,0,0,0,0,0,0,0,0,0,0,0,0,0,0,0,0,0,0,0,0,0,0,0,0,0,0,0,0,0,0,0,0,0,0,0,0,0,0,0,0,0,0,0,0,0,0,0,0,0,0,0,0,0,0,0,0,0,0,0,0,0,0,0,0,0,0,0,0,0,0,0,0,0,0,0,0,0],"id":1,"left_children":[1,3,5,7,9,11,13,15,17,19,21,23,25,27,29,31,33,35,37,39,41,43,45,47,49,51,53,55,57,59,61,63,65,67,69,71,73,-1,75,77,79,81,83,85,87,89,91,93,95,97,99,101,103,105,107,109,-1,111,113,115,117,-1,119,-1,-1,-1,-1,-1,-1,-1,-1,-1,-1,-1,-1,-1,-1,-1,-1,-1,-1,-1,-1,-1,-1,-1,-1,-1,-1,-1,-1,-1,-1,-1,-1,-1,-1,-1,-1,-1,-1,-1,-1,-1,-1,-1,-1,-1,-1,-1,-1,-1,-1,-1,-1,-1,-1,-1,-1,-1,-1],"loss_changes":[8.8885825E5,1.7384525E5,1.4482306E5,9.597094E3,1.00984805E5,2.8731957E4,3.7816938E4,4.117875E3,1.2916719E4,2.9064484E4,2.1565928E4,7.751002E3,1.1902982E4,3.3769312E4,1.121359E4,2.4879688E3,9.5097656E2,9.644273E3,4.9050445E4,2.0517445E4,6.0543145E4,3.49748E4,6.706053E3,3.0450352E3,2.6833965E3,2.7553904E4,3.402047E4,3.507722E4,1.3241172E4,4.1080894E3,2.0834712E3,1.2652969E3,1.8805938E3,1.9342139E2,1.275815E3,2.051711E3,6.191911E3,0E0,2.2652551E2,2.4725156E4,8.330402E3,4.1202867E4,1.1986084E3,5.759003E3,4.6745625E3,7.592702E3,8.554307E3,1.0677695E3,1.0160858E2,2.8706243E3,7.111029E1,6.040465E3,1.7065465E4,2.7831617E4,4.616864E3,4.6761562E3,0E0,5.7147344E3,3.8517056E3,2.2307815E3,4.7172295E3,0E0,1.3029431E3,0E0,0E0,0E0,0E0,0E0,0E0,0E0,0E0,0E0,0E0,0E0,0E0,0E0,0E0,0E0,0E0,0E0,0E0,0E0,0E0,0E0,0E0,0E0,0E0,0E0,0E0,0E0,0E0,0E0,0E0,0E0,0E0,0E0,0E0,0E0,0E0,0E0,0E0,0E0,0E0,0E0,0E0,0E0,0E0,0E0,0E0,0E0,0E0,0E0,0E0,0E0,0E0,0E0,0E0,0E0,0E0,0E0,0E0],"parents":[2147483647,0,0,1,1,2,2,3,3,4,4,5,5,6,6,7,7,8,8,9,9,10,10,11,11,12,12,13,13,14,14,15,15,16,16,17,17,18,18,19,19,20,20,21,21,22,22,23,23,24,24,25,25,26,26,27,27,28,28,29,29,30,30,31,31,32,32,33,33,34,34,35,35,36,36,38,38,39,39,40,40,41,41,42,42,43,43,44,44,45,45,46,46,47,47,48,48,49,49,50,50,51,51,52,52,53,53,54,54,55,55,57,57,58,58,59,59,60,60,62,62],"right_children":[2,4,6,8,10,12,14,16,18,20,22,24,26,28,30,32,34,36,38,40,42,44,46,48,50,52,54,56,58,60,62,64,66,68,70,72,74,-1,76,78,80,82,84,86,88,90,92,94,96,98,100,102,104,106,108,110,-1,112,114,116,118,-1,120,-1,-1,-1,-1,-1,-1,-1,-1,-1,-1,-1,-1,-1,-1,-1,-1,-1,-1,-1,-1,-1,-1,-1,-1,-1,-1,-1,-1,-1,-1,-1,-1,-1,-1,-1,-1,-1,-1,-1,-1,-1,-1,-1,-1,-1,-1,-1,-1,-1,-1,-1,-1,-1,-1,-1,-1,-1,-1],"split_conditions":[1E-1,2.3502419E1,2.2185493E2,1.1628563E2,1.61198E1,2.2344086E1,3.0831476E2,1.7148247E1,1.784816E1,3.2454163E1,2.6829504E1,7E-1,2.4939087E1,2.5224337E1,3.345078E2,7.50809E1,3.5226883E1,1.2605142E1,1.8228943E1,3.2601706E2,1.692738E2,2.0974478E2,1.8014393E1,1.21639725E2,1.6746773E1,1.4E0,2.6755585E1,1.2480001E2,2.9180582E1,1.3009903E1,1.0086427E1,2.3561562E1,1.6299694E1,2.0390999E1,1.8720863E1,1.2853993E2,2.2344086E1,5.971601E1,1.9734436E1,1.0736289E2,1.4404499E1,1.22803215E2,2.7349597E2,1.6311234E1,1.7057314E1,2.7574857E2,3.3397915E1,2.030975E1,1.8720863E1,2.2037252E1,2.23229E1,2E-1,1.3009903E1,2.0784925E1,3.0316002E1,1.1792404E1,3.000851E1,2.9890594E2,1.7423777E1,2.4611832E1,2.6829504E1,1.0742016E1,2.3E0,1.1605418E1,8.623356E0,1.0915449E1,1.08136E0,1.26102E0,7.492546E0,-7.8474164E-1,7.86102E0,1.1173403E1,7.3333335E0,6.646518E0,1.2552681E0,5.255843E0,1.8531533E-1,6.1738772E0,2.275579E0,8.425198E0,2.0797962E1,6.8142047E0,4.0278214E1,2.9518857E0,-2.4410577E0,-1.070111E1,1.147565E0,-2.4552324E0,-1.1830568E1,3.2771692E-1,6.9939437E0,-2.4613867E0,3.9786904E0,3.7889558E-1,1.0796096E1,-9.8701864E-1,1.77617E0,1.7524251E0,1.104824E1,-1.4347721E0,-3.681282E0,1.0602692E1,3.253693E0,3.157439E-1,-7.6564813E0,9.814858E0,-8.803049E0,-1.2875988E0,2.5816395E0,-6.1861796E0,-1.0783632E1,-7.2419147E0,1.2391963E0,1.7434288E0,-3.673504E0,-5.041886E0,1.5536023E0,-7.2361684E0,1.935254E0,5.184292E0,-1.6997601E0],"split_indices":[1,0,3,3,2,0,3,2,2,0,0,1,0,0,3,3,3,2,2,3,3,3,2,3,2,1,0,1,0,2,2,3,2,0,2,3,0,0,2,3,2,3,3,3,2,3,0,0,2,0,2,1,2,3,0,2,0,3,2,0,0,0,1,0,0,0,0,0,0,0,0,0,0,0,0,0,0,0,0,0,0,0,0,0,0,0,0,0,0,0,0,0,0,0,0,0,0,0,0,0,0,0,0,0,0,0,0,0,0,0,0,0,0,0,0,0,0,0,0,0,0],"split_type":[0,0,0,0,0,0,0,0,0,0,0,0,0,0,0,0,0,0,0,0,0,0,0,0,0,0,0,0,0,0,0,0,0,0,0,0,0,0,0,0,0,0,0,0,0,0,0,0,0,0,0,0,0,0,0,0,0,0,0,0,0,0,0,0,0,0,0,0,0,0,0,0,0,0,0,0,0,0,0,0,0,0,0,0,0,0,0,0,0,0,0,0,0,0,0,0,0,0,0,0,0,0,0,0,0,0,0,0,0,0,0,0,0,0,0,0,0,0,0,0,0],"sum_hessian":[3.004E3,1.615E3,1.389E3,5.78E2,1.037E3,4.54E2,9.35E2,4.13E2,1.65E2,7.08E2,3.29E2,5.1E1,4.03E2,8.68E2,6.7E1,4.01E2,1.2E1,1.58E2,7E0,6.75E2,3.3E1,1.02E2,2.27E2,2.5E1,2.6E1,1.62E2,2.41E2,3.83E2,4.85E2,5.2E1,1.5E1,2.02E2,1.99E2,5E0,7E0,8.1E1,7.7E1,1E0,6E0,6.4E2,3.5E1,1.4E1,1.9E1,5E1,5.2E1,8.6E1,1.41E2,2.2E1,3E0,1.7E1,9E0,6.5E1,9.7E1,1.02E2,1.39E2,3.82E2,1E0,4.23E2,6.2E1,2.4E1,2.8E1,5E0,1E1,2.4E1,1.78E2,1.97E2,2E0,1E0,4E0,6E0,1E0,2.4E1,5.7E1,3.6E1,4.1E1,5E0,1E0,2.28E2,4.12E2,2.9E1,6E0,6E0,8E0,1.5E1,4E0,3E0,4.7E1,6E0,4.6E1,6.7E1,1.9E1,1.2E2,2.1E1,1E0,2.1E1,2E0,1E0,1.4E1,3E0,7E0,2E0,1.2E1,5.3E1,5.5E1,4.2E1,7E0,9.5E1,1.02E2,3.7E1,2.6E1,3.56E2,4.16E2,7E0,1.5E1,4.7E1,5E0,1.9E1,2.2E1,6E0,7E0,3E0],"tree_param":{"num_deleted":"0","num_feature":"4","num_nodes":"121","size_leaf_vector":"1"}},{"base_weights":[1.6887935E-1,1.1379564E1,-1.2864671E1,2.120923E1,5.8855786E0,-2.564538E0,-1.7857937E1,2.4855812E1,1.807414E1,1.2233684E1,-2.6682715E0,7.7117214E0,-5.982459E0,-1.8058905E1,2.5507235E1,2.1569075E1,2.601628E1,1.7112213E1,4.0936794E1,1.0974028E1,3.9427128E1,2.578686E0,-7.9506392E0,1.3175786E1,-8.026854E0,-9.579441E0,4.9980485E-1,-1.9316813E1,-1.7365046E0,2.7052242E1,1.922564E1,2.7370527E1,2.0718624E1,2.0827251E1,1.027497E1,5.075861E1,1.3895529E1,1.8014696E1,7.7653656E0,1.14543976E2,1.1164877E1,-1.4814312E1,3.4648094E0,-2.3368067E1,-1.5169867E0,-5.404022E0,1.453653E1,3.1723845E0,-1.6777588E1,2.02821E0,-1.4460251E1,3.1441345E1,-1.0777295E0,-2.2663515E1,-1.2671705E1,-6.860492E0,1.5345236E1,2.2872345E0,8.636209E0,6.0329638E0,1.8553236E0,8.316737E0,2.3047383E0,1.6832998E0,7.3658023E0,6.3870263E0,7.867279E-1,7.8614955E0,1.8527117E0,5.451195E0,1.5393765E0,3.4513962E0,1.4207172E1,5.220495E0,1.3936412E0,3.4192126E0,7.44821E1,-1.0889949E1,7.589938E0,1.4996934E0,-1.5221194E1,3.0541031E0,3.1888172E-2,-1.0153963E1,-4.791857E0,-4.0697985E0,9.440443E-1,6.285026E0,2.283599E0,2.6568675E0,-3.9753823E0,-1.7847044E0,-7.722595E0,-7.6235194E0,2.5789688E0,4.6265253E-1,-5.4466767E0,1.0680369E1,1.5962873E0,-1.4312372E0,1.7155629E0,-8.00332E0,-5.616721E0,-4.1765885E0,3.8637662E-1,-4.9143915E0,-4.488112E-1,7.3841276E0,1.6204573E0],"categories":[],"categories_nodes":[],"categories_segments":[],"categories_sizes":[],"default_left":[0,0,0,0,0,0,0,0,0,0,0,0,0,0,0,0,0,0,0,0,0,0,0,0,0,0,0,0,0,0,0,0,0,0,0,0,0,0,0,0,0,0,0,0,0,0,0,0,0,0,0,0,0,0,0,0,0,0,0,0,0,0,0,0,0,0,0,0,0,0,0,0,0,0,0,0,0,0,0,0,0,0,0,0,0,0,0,0,0,0,0,0,0,0,0,0,0,0,0,0,0,0,0,0,0,0,0,0,0],"id":2,"left_children":[1,3,5,7,9,11,13,15,17,19,21,23,25,27,-1,29,31,33,35,37,39,41,43,45,47,49,51,53,55,57,59,61,63,65,67,-1,69,71,73,75,77,79,81,83,85,-1,87,89,91,93,95,97,99,101,103,105,107,-1,-1,-1,-1,-1,-1,-1,-1,-1,-1,-1,-1,-1,-1,-1,-1,-1,-1,-1,-1,-1,-1,-1,-1,-1,-1,-1,-1,-1,-1,-1,-1,-1,-1,-1,-1,-1,-1,-1,-1,-1,-1,-1,-1,-1,-1,-1,-1,-1,-1,-1,-1],"loss_changes":[4.39222E5,8.714572E4,7.144372E4,6.170078E3,5.6396805E4,1.6027303E4,2.088825E4,4.4959375E2,6.2270234E3,1.998293E4,1.229885E4,9.909372E3,7.9790615E3,1.9164E4,0E0,4.4361328E2,8.0322656E2,7.507789E3,3.9268227E4,1.2759641E4,5.3918375E4,3.4882808E3,2.1885625E4,3.869294E3,2.9932715E3,1.2493369E4,6.03768E3,1.9016406E4,6.057087E3,4.547246E2,5.214004E2,8.1941406E2,2.3529414E3,1.5956406E3,6.9560117E3,0E0,3.1891333E2,3.345695E4,1.1764455E4,9.372667E4,1.433657E4,8.0829155E3,4.802968E3,4.496258E3,8.865175E3,0E0,3.4822227E3,1.4242487E3,1.4970781E3,1.2113977E4,9.193822E3,4.6251416E2,2.98897E3,8.613125E3,5.1316914E3,2.6824133E3,1.3416648E3,0E0,0E0,0E0,0E0,0E0,0E0,0E0,0E0,0E0,0E0,0E0,0E0,0E0,0E0,0E0,0E0,0E0,0E0,0E0,0E0,0E0,0E0,0E0,0E0,0E0,0E0,0E0,0E0,0E0,0E0,0E0,0E0,0E0,0E0,0E0,0E0,0E0,0E0,0E0,0E0,0E0,0E0,0E0,0E0,0E0,0E0,0E0,0E0,0E0,0E0,0E0,0E0],"parents":[2147483647,0,0,1,1,2,2,3,3,4,4,5,5,6,6,7,7,8,8,9,9,10,10,11,11,12,12,13,13,15,15,16,16,17,17,18,18,19,19,20,20,21,21,22,22,23,23,24,24,25,25,26,26,27,27,28,28,29,29,30,30,31,31,32,32,33,33,34,34,36,36,37,37,38,38,39,39,40,40,41,41,42,42,43,43,44,44,46,46,47,47,48,48,49,49,50,50,51,51,52,52,53,53,54,54,55,55,56,56],"right_children":[2,4,6,8,10,12,14,16,18,20,22,24,26,28,-1,30,32,34,36,38,40,42,44,46,48,50,52,54,56,58,60,62,64,66,68,-1,70,72,74,76,78,80,82,84,86,-1,88,90,92,94,96,98,100,102,104,106,108,-1,-1,-1,-1,-1,-1,-1,-1,-1,-1,-1,-1,-1,-1,-1,-1,-1,-1,-1,-1,-1,-1,-1,-1,-1,-1,-1,-1,-1,-1,-1,-1,-1,-1,-1,-1,-1,-1,-1,-1,-1,-1,-1,-1,-1,-1,-1,-1,-1,-1,-1,-1],"split_conditions":[1E-1,2.3502419E1,2.2185493E2,1.1726277E1,1.4904173E1,2.3724335E1,1.2480001E2,6.8415924E1,1.8014393E1,3.2454163E1,2.33152E2,1.6746773E1,2.7247667E1,3.0831476E2,2.5507235E1,3.5226883E1,1.2853993E2,1.12619896E2,1.8228943E1,1.1435313E1,1.343802E2,2.801375E1,2.6773712E2,2.3561562E1,1.02435486E2,9.5314445E1,2.74245E1,2.6108671E1,3.345078E2,8.891343E0,2.2887835E1,2.3461832E1,1.3299165E2,1.7373497E1,2.1332666E1,5.075861E1,2.2151419E1,1.1165805E1,8.349446E1,8.585228E1,1.6502707E2,1.1877171E1,1.2413601E2,2.6285166E1,2.802225E1,-5.404022E0,1E0,2.23229E1,2.2543083E1,4E-1,4E-1,1.3237038E1,3.0185411E1,2.6740134E2,3.0984749E1,2.4741415E1,7.0000005E-1,2.2872345E0,8.636209E0,6.0329638E0,1.8553236E0,8.316737E0,2.3047383E0,1.6832998E0,7.3658023E0,6.3870263E0,7.867279E-1,7.8614955E0,1.8527117E0,5.451195E0,1.5393765E0,3.4513962E0,1.4207172E1,5.220495E0,1.3936412E0,3.4192126E0,7.44821E1,-1.0889949E1,7.589938E0,1.4996934E0,-1.5221194E1,3.0541031E0,3.1888172E-2,-1.0153963E1,-4.791857E0,-4.0697985E0,9.440443E-1,6.285026E0,2.283599E0,2.6568675E0,-3.9753823E0,-1.7847044E0,-7.722595E0,-7.6235194E0,2.5789688E0,4.6265253E-1,-5.4466767E0,1.0680369E1,1.5962873E0,-1.4312372E0,1.7155629E0,-8.00332E0,-5.616721E0,-4.1765885E0,3.8637662E-1,-4.9143915E0,-4.488112E-1,7.3841276E0,1.6204573E0],"split_indices":[1,0,3,2,2,0,1,3,2,0,3,2,0,3,0,3,3,3,2,2,3,3,3,3,3,3,0,0,3,2,0,0,3,2,0,0,0,2,3,3,3,3,3,0,0,0,1,2,0,1,1,2,0,3,0,0,1,0,0,0,0,0,0,0,0,0,0,0,0,0,0,0,0,0,0,0,0,0,0,0,0,0,0,0,0,0,0,0,0,0,0,0,0,0,0,0,0,0,0,0,0,0,0,0,0,0,0,0,0],"split_type":[0,0,0,0,0,0,0,0,0,0,0,0,0,0,0,0,0,0,0,0,0,0,0,0,0,0,0,0,0,0,0,0,0,0,0,0,0,0,0,0,0,0,0,0,0,0,0,0,0,0,0,0,0,0,0,0,0,0,0,0,0,0,0,0,0,0,0,0,0,0,0,0,0,0,0,0,0,0,0,0,0,0,0,0,0,0,0,0,0,0,0,0,0,0,0,0,0,0,0,0,0,0,0,0,0,0,0,0,0],"sum_hessian":[3.004E3,1.615E3,1.389E3,5.78E2,1.037E3,4.54E2,9.35E2,2.64E2,3.14E2,5.95E2,4.42E2,1.13E2,3.41E2,9.34E2,1E0,7.4E1,1.9E2,3.03E2,1.1E1,5.7E2,2.5E1,2.22E2,2.2E2,8.4E1,2.9E1,2.19E2,1.22E2,8.67E2,6.7E1,1.9E1,5.5E1,1.48E2,4.2E1,1.95E2,1.08E2,1E0,1E1,1.77E2,3.93E2,6E0,1.9E1,1E1,2.12E2,6.4E1,1.56E2,3E0,8.1E1,1.3E1,1.6E1,6.5E1,1.54E2,5E0,1.17E2,5.75E2,2.92E2,5.2E1,1.5E1,2E0,1.7E1,5.1E1,4E0,1.45E2,3E0,9E0,3.3E1,1.9E2,5E0,2.1E1,8.7E1,6E0,4E0,1.46E2,3.1E1,9.5E1,2.98E2,4E0,2E0,4E0,1.5E1,7E0,3E0,7E1,1.42E2,2.5E1,3.9E1,4.3E1,1.13E2,4.1E1,4E1,1E1,3E0,8E0,8E0,1.2E1,5.3E1,2.9E1,1.25E2,4E0,1E0,7.6E1,4.1E1,2.82E2,2.93E2,2.68E2,2.4E1,1.8E1,3.4E1,7E0,8E0],"tree_param":{"num_deleted":"0","num_feature":"4","num_nodes":"109","size_leaf_vector":"1"}},{"base_weights":[1.8140936E-1,8.079115E0,-9.000514E0,1.3746631E1,3.2035818E0,-1.806448E0,-1.2488013E1,1.3367745E1,1.032544E2,7.0753007E0,-3.674606E0,3.0553756E0,-6.098282E0,-1.2655959E1,2.1681149E1,1.7140556E1,1.0455249E1,4.4801353E1,1.6631265E0,-1.1036303E0,1.0175499E1,-1.4983374E1,-1.8695714E-1,1.1281411E1,-3.9914598E0,-1.6335827E1,-7.4944097E-1,-1.051236E0,-1.3875544E1,1.6235455E1,2.2510744E1,1.6012606E1,6.944504E0,3.8926108E0,-1.5935946E1,3.2857903E1,8.908556E0,6.8660326E0,-1.7368626E1,-1.2466297E0,1.4792603E1,9.688519E0,1.770734E1,7.9687805E0,-9.693962E0,-1.8215187E1,2.5335323E1,6.0321594E1,-1.9042742E0,-1.9605225E1,6.386532E0,-1.7496853E1,-9.452143E0,5.270746E0,3.8044775E0,1.1438092E1,6.1314507E0,4.2844906E0,1.4329482E1,2.3162582E0,-1.8907375E0,6.9464546E-1,1.1532515E1,-2.080708E0,-9.453727E0,1.0774186E0,1.9407578E1,1.1664412E1,2.37612E0,-4.6937785E0,3.695148E0,-5.5750346E0,4.4226313E0,-8.4584975E-1,2.7370298E0,5.4826736E0,-6.756478E-2,4.2417493E0,-1.3313968E0,-5.6080794E0,2.990787E0,-1.4647772E0,-6.5813556E0,-7.211615E0,-5.3087354E-1,5.747017E-1,9.750995E0,4.4632463E0,2.2681473E1,-1.2929039E0,2.550733E0,-8.341451E-1,-8.078525E0,6.188383E0,1.4804462E-1,-6.4897695E0,-4.522942E0,-3.3641715E0,-5.8321714E-1],"categories":[],"categories_nodes":[],"categories_segments":[],"categories_sizes":[],"default_left":[0,0,0,0,0,0,0,0,0,0,0,0,0,0,0,0,0,0,0,0,0,0,0,0,0,0,0,0,0,0,0,0,0,0,0,0,0,0,0,0,0,0,0,0,0,0,0,0,0,0,0,0,0,0,0,0,0,0,0,0,0,0,0,0,0,0,0,0,0,0,0,0,0,0,0,0,0,0,0,0,0,0,0,0,0,0,0,0,0,0,0,0,0,0,0,0,0,0,0],"id":3,"left_children":[1,3,5,7,9,11,13,15,17,19,21,23,25,27,-1,29,31,-1,-1,33,35,37,39,41,43,45,47,49,51,53,55,57,59,61,63,65,67,69,71,73,75,77,-1,79,81,83,85,87,89,91,93,95,97,-1,-1,-1,-1,-1,-1,-1,-1,-1,-1,-1,-1,-1,-1,-1,-1,-1,-1,-1,-1,-1,-1,-1,-1,-1,-1,-1,-1,-1,-1,-1,-1,-1,-1,-1,-1,-1,-1,-1,-1,-1,-1,-1,-1,-1,-1],"loss_changes":[2.1798367E5,4.460953E4,3.485157E4,2.3952922E4,2.3194457E4,9.512727E3,1.42384375E4,8.0070625E3,1.2680633E4,1.4134693E4,1.2381674E4,1.2450078E4,1.3239436E4,1.3218406E4,0E0,1.2045E3,8.1417266E3,0E0,0E0,1.1474329E4,1.1317152E4,3.9758633E3,3.8439375E3,6.957045E3,7.988832E3,6.9616387E3,1.1399167E4,1.2545232E4,1.3386266E4,1.1043359E3,6.4485156E2,8.276699E3,2.732878E3,6.231631E3,5.2489375E3,1.9332752E4,1.1065287E4,1.1744377E3,2.8875547E3,3.7119534E3,8.4102295E2,6.161339E3,0E0,2.2132195E3,4.5467686E3,7.6191816E3,6.092219E2,9.587988E2,3.9917578E3,3.1286064E3,5.444968E3,4.3184844E3,5.0443164E3,0E0,0E0,0E0,0E0,0E0,0E0,0E0,0E0,0E0,0E0,0E0,0E0,0E0,0E0,0E0,0E0,0E0,0E0,0E0,0E0,0E0,0E0,0E0,0E0,0E0,0E0,0E0,0E0,0E0,0E0,0E0,0E0,0E0,0E0,0E0,0E0,0E0,0E0,0E0,0E0,0E0,0E0,0E0,0E0,0E0,0E0],"parents":[2147483647,0,0,1,1,2,2,3,3,4,4,5,5,6,6,7,7,8,8,9,9,10,10,11,11,12,12,13,13,15,15,16,16,19,19,20,20,21,21,22,22,23,23,24,24,25,25,26,26,27,27,28,28,29,29,30,30,31,31,32,32,33,33,34,34,35,35,36,36,37,37,38,38,39,39,40,40,41,41,43,43,44,44,45,45,46,46,47,47,48,48,49,49,50,50,51,51,52,52],"right_children":[2,4,6,8,10,12,14,16,18,20,22,24,26,28,-1,30,32,-1,-1,34,36,38,40,42,44,46,48,50,52,54,56,58,60,62,64,66,68,70,72,74,76,78,-1,80,82,84,86,88,90,92,94,96,98,-1,-1,-1,-1,-1,-1,-1,-1,-1,-1,-1,-1,-1,-1,-1,-1,-1,-1,-1,-1,-1,-1,-1,-1,-1,-1,-1,-1,-1,-1,-1,-1,-1,-1,-1,-1,-1,-1,-1,-1,-1,-1,-1,-1,-1,-1],"split_conditions":[1E-1,2.4509752E1,2.2185493E2,2.4470167E1,1.5905319E1,2.4939087E1,1.2480001E2,1.1726277E1,1.1183201E1,2.6108671E1,2.6549751E1,1.4E0,2.6285166E1,1.2245294E1,2.1681149E1,1.1435313E1,2.2151419E1,4.4801353E1,1.6631265E0,2.5635168E1,5.2765083E1,1.231976E2,3.1843243E2,2.484617E1,8.8602875E1,1.8998314E1,2.6336836E1,2.5750958E2,2.5599752E1,2.3172918E1,1.1440979E1,1.7709658E1,2.4339918E1,1.5696165E1,1.3896187E1,2.9898842E1,2.6227417E1,9.7823515E0,3.134378E2,3.3397915E1,1.8511143E1,1.5978484E1,1.770734E1,7.42159E0,7.5000005E0,1.5334956E2,2.5039331E1,9E-1,1.859845E1,2.4939087E1,1.7000002E0,2.6370035E2,4.6E0,5.270746E0,3.8044775E0,1.1438092E1,6.1314507E0,4.2844906E0,1.4329482E1,2.3162582E0,-1.8907375E0,6.9464546E-1,1.1532515E1,-2.080708E0,-9.453727E0,1.0774186E0,1.9407578E1,1.1664412E1,2.37612E0,-4.6937785E0,3.695148E0,-5.5750346E0,4.4226313E0,-8.4584975E-1,2.7370298E0,5.4826736E0,-6.756478E-2,4.2417493E0,-1.3313968E0,-5.6080794E0,2.990787E0,-1.4647772E0,-6.5813556E0,-7.211615E0,-5.3087354E-1,5.747017E-1,9.750995E0,4.4632463E0,2.2681473E1,-1.2929039E0,2.550733E0,-8.341451E-1,-8.078525E0,6.188383E0,1.4804462E-1,-6.4897695E0,-4.522942E0,-3.3641715E0,-5.8321714E-1],"split_indices":[1,0,3,0,2,0,1,2,2,0,0,1,0,2,0,2,0,0,0,0,3,3,3,0,3,2,0,3,0,0,2,2,0,2,2,3,0,3,3,0,2,2,0,2,1,3,0,1,2,0,1,3,1,0,0,0,0,0,0,0,0,0,0,0,0,0,0,0,0,0,0,0,0,0,0,0,0,0,0,0,0,0,0,0,0,0,0,0,0,0,0,0,0,0,0,0,0,0,0],"split_type":[0,0,0,0,0,0,0,0,0,0,0,0,0,0,0,0,0,0,0,0,0,0,0,0,0,0,0,0,0,0,0,0,0,0,0,0,0,0,0,0,0,0,0,0,0,0,0,0,0,0,0,0,0,0,0,0,0,0,0,0,0,0,0,0,0,0,0,0,0,0,0,0,0,0,0,0,0,0,0,0,0,0,0,0,0,0,0,0,0,0,0,0,0,0,0,0,0,0,0],"sum_hessian":[3.004E3,1.615E3,1.389E3,7.46E2,8.69E2,4.54E2,9.35E2,7.44E2,2E0,5.56E2,3.13E2,2.13E2,2.41E2,9.34E2,1E0,3.22E2,4.22E2,1E0,1E0,1.53E2,4.03E2,7.3E1,2.4E2,9.8E1,1.15E2,8.2E1,1.59E2,8.9E1,8.45E2,2.79E2,4.3E1,1.62E2,2.6E2,1.15E2,3.8E1,2E1,3.83E2,7E0,6.6E1,2.25E2,1.5E1,9.6E1,2E0,3.7E1,7.8E1,7.9E1,3E0,2E0,1.57E2,2.5E1,6.4E1,4.63E2,3.82E2,2E2,7.9E1,3E0,4E1,1.55E2,7E0,2.46E2,1.4E1,1.11E2,4E0,2.5E1,1.3E1,1.1E1,9E0,1.1E1,3.72E2,1E0,6E0,6.4E1,2E0,1.96E2,2.9E1,1.2E1,3E0,7.3E1,2.3E1,2E0,3.5E1,5.7E1,2.1E1,5.8E1,2.1E1,1E0,2E0,1E0,1E0,1.28E2,2.9E1,8E0,1.7E1,1.8E1,4.6E1,1.68E2,2.95E2,3.09E2,7.3E1],"tree_param":{"num_deleted":"0","num_feature":"4","num_nodes":"99","size_leaf_vector":"1"}},{"base_weights":[1.8609023E-1,5.737386E0,-6.267925E0,7.031601E0,-5.921993E0,-6.1083585E-1,-8.57714E0,1.081176E1,4.570601E0,7.743796E0,-8.8353195E0,2.7365682E0,-4.038871E0,-8.7104435E0,1.8428976E1,1.0393262E1,4.862753E1,3.7316859E0,1.9754091E1,9.705474E0,-7.077479E0,-1.1776723E1,2.7205875E0,1.531017E1,-4.043666E-1,-2.0848751E1,-8.320366E-1,-9.718839E0,-9.1185427E-1,1.1837886E1,6.6027656E0,4.09954E1,3.692508E0,3.0547175E0,2.1862873E1,2.7954464E1,5.444929E0,-3.41986E0,1.0909346E1,-2.0461634E1,-9.15512E0,-1.4072349E0,1.5305089E1,8.10401E0,1.02679825E1,-1.1140938E0,1.7398634E1,-3.0881617E1,1.1123241E0,-2.7099619E1,2.284072E0,-2.7752235E0,-1.0952012E1,-2.2839217E0,1.5349368E1,-5.2101445E-1,3.6337044E0,1.6015483E0,6.117255E0,-1.528592E0,3.374846E0,2.3093693E0,8.6516656E-2,4.1625362E1,2.5674915E0,5.230254E0,1.7558285E1,7.065262E-1,6.0327334E0,4.463074E0,3.9636564E-1,-8.96819E-1,-7.141984E0,-8.938319E-1,-4.4104986E0,3.1314447E0,-1.385832E0,5.8054247E0,1.0378541E0,4.43905E0,-6.903589E-1,2.6207683E0,-1.1857957E0,3.7929463E0,-1.1525813E1,-2.2562268E0,7.9922366E0,-1.3576124E1,-2.4152827E0,5.7020893E0,-4.4403848E-1,-3.4263399E0,9.286366E-1,-2.8735826E0,-4.1605363E0,-1.5910541E0,1.8951629E0,6.0059924E0,-1.9955064E-1],"categories":[],"categories_nodes":[],"categories_segments":[],"categories_sizes":[],"default_left":[0,0,0,0,0,0,0,0,0,0,0,0,0,0,0,0,0,0,0,0,0,0,0,0,0,0,0,0,0,0,0,0,0,0,0,0,0,0,0,0,0,0,0,0,0,0,0,0,0,0,0,0,0,0,0,0,0,0,0,0,0,0,0,0,0,0,0,0,0,0,0,0,0,0,0,0,0,0,0,0,0,0,0,0,0,0,0,0,0,0,0,0,0,0,0,0,0,0,0],"id":4,"left_children":[1,3,5,7,9,11,13,15,17,19,21,23,25,27,-1,29,31,33,35,37,-1,39,41,43,45,47,49,51,53,55,57,-1,59,61,63,65,67,-1,69,71,73,75,77,79,-1,81,-1,83,85,87,89,91,93,95,97,-1,-1,-1,-1,-1,-1,-1,-1,-1,-1,-1,-1,-1,-1,-1,-1,-1,-1,-1,-1,-1,-1,-1,-1,-1,-1,-1,-1,-1,-1,-1,-1,-1,-1,-1,-1,-1,-1,-1,-1,-1,-1,-1,-1],"loss_changes":[1.0769955E5,2.4426652E4,1.8152945E4,1.3486398E4,6.518111E3,4.6469604E3,9.74593E3,8.562781E3,1.1173641E4,2.0115961E3,4.5867773E3,8.1022285E3,1.0763953E4,7.7450938E3,0E0,3.0321133E3,2.322752E4,1.0219026E4,5.245449E3,8.3577783E2,0E0,2.2488896E3,1.4760421E3,5.311539E3,6.9035215E3,7.084991E3,1.3894993E4,7.444836E3,2.578567E3,1.5485742E3,2.662813E3,0E0,3.893662E2,1.0389031E4,4.5466984E4,8.307129E3,7.6822144E2,0E0,1.00746606E3,1.3314951E3,2.833505E3,8.853139E2,2.6857104E2,2.1928967E3,0E0,4.6199316E3,0E0,7.7034863E3,2.6246406E3,5.860283E3,9.596277E3,6.786081E3,2.8351953E3,2.7865254E3,6.864951E2,0E0,0E0,0E0,0E0,0E0,0E0,0E0,0E0,0E0,0E0,0E0,0E0,0E0,0E0,0E0,0E0,0E0,0E0,0E0,0E0,0E0,0E0,0E0,0E0,0E0,0E0,0E0,0E0,0E0,0E0,0E0,0E0,0E0,0E0,0E0,0E0,0E0,0E0,0E0,0E0,0E0,0E0,0E0,0E0],"parents":[2147483647,0,0,1,1,2,2,3,3,4,4,5,5,6,6,7,7,8,8,9,9,10,10,11,11,12,12,13,13,15,15,16,16,17,17,18,18,19,19,21,21,22,22,23,23,24,24,25,25,26,26,27,27,28,28,29,29,30,30,32,32,33,33,34,34,35,35,36,36,38,38,39,39,40,40,41,41,42,42,43,43,45,45,47,47,48,48,49,49,50,50,51,51,52,52,53,53,54,54],"right_children":[2,4,6,8,10,12,14,16,18,20,22,24,26,28,-1,30,32,34,36,38,-1,40,42,44,46,48,50,52,54,56,58,-1,60,62,64,66,68,-1,70,72,74,76,78,80,-1,82,-1,84,86,88,90,92,94,96,98,-1,-1,-1,-1,-1,-1,-1,-1,-1,-1,-1,-1,-1,-1,-1,-1,-1,-1,-1,-1,-1,-1,-1,-1,-1,-1,-1,-1,-1,-1,-1,-1,-1,-1,-1,-1,-1,-1,-1,-1,-1,-1,-1,-1],"split_conditions":[1E-1,1.8998314E1,1.882309E2,2.3502419E1,1.4678342E2,2.4939087E1,1.2480001E2,1.8014393E1,3.2601706E2,2.4703976E1,3.1566002E1,4E-1,1.0308831E1,2.7941E1,1.8428976E1,1.1628563E2,2.2091002E1,3.3160164E1,2.7687836E1,1.9022177E1,-7.077479E0,2.6133524E2,3.4018246E1,2.3791002E1,2.4884756E1,2.3999996E0,2.5210165E1,1.31041975E1,2.946723E2,1.8799332E1,2.184373E2,4.09954E1,1.2534225E2,1.2605142E1,1.343802E2,1.4404499E1,1.8345877E1,-3.41986E0,2.8845171E1,2.4741415E1,2.7349597E2,2.0188908E1,2.34E1,2.2207666E1,1.02679825E1,7.231207E1,1.7398634E1,9.7823515E0,2.6414583E1,1.02435486E2,1.0826168E2,2.5930304E2,7.4E0,1.6E0,3.1363916E1,-5.2101445E-1,3.6337044E0,1.6015483E0,6.117255E0,-1.528592E0,3.374846E0,2.3093693E0,8.6516656E-2,4.1625362E1,2.5674915E0,5.230254E0,1.7558285E1,7.065262E-1,6.0327334E0,4.463074E0,3.9636564E-1,-8.96819E-1,-7.141984E0,-8.938319E-1,-4.4104986E0,3.1314447E0,-1.385832E0,5.8054247E0,1.0378541E0,4.43905E0,-6.903589E-1,2.6207683E0,-1.1857957E0,3.7929463E0,-1.1525813E1,-2.2562268E0,7.9922366E0,-1.3576124E1,-2.4152827E0,5.7020893E0,-4.4403848E-1,-3.4263399E0,9.286366E-1,-2.8735826E0,-4.1605363E0,-1.5910541E0,1.8951629E0,6.0059924E0,-1.9955064E-1],"split_indices":[1,2,3,0,3,0,1,2,3,2,0,1,2,0,0,3,0,0,0,2,0,3,0,0,0,1,0,2,3,0,3,0,3,2,3,2,2,0,0,0,3,2,2,0,0,3,0,3,0,3,3,3,1,1,0,0,0,0,0,0,0,0,0,0,0,0,0,0,0,0,0,0,0,0,0,0,0,0,0,0,0,0,0,0,0,0,0,0,0,0,0,0,0,0,0,0,0,0,0],"split_type":[0,0,0,0,0,0,0,0,0,0,0,0,0,0,0,0,0,0,0,0,0,0,0,0,0,0,0,0,0,0,0,0,0,0,0,0,0,0,0,0,0,0,0,0,0,0,0,0,0,0,0,0,0,0,0,0,0,0,0,0,0,0,0,0,0,0,0,0,0,0,0,0,0,0,0,0,0,0,0,0,0,0,0,0,0,0,0,0,0,0,0,0,0,0,0,0,0,0,0],"sum_hessian":[3.004E3,1.615E3,1.389E3,1.454E3,1.61E2,4.03E2,9.86E2,5.72E2,8.82E2,2.8E1,1.33E2,2.04E2,1.99E2,9.85E2,1E0,5.67E2,5E0,8.37E2,4.5E1,2.7E1,1E0,1.06E2,2.7E1,4E1,1.64E2,3.1E1,1.68E2,8.72E2,1.13E2,4.09E2,1.58E2,1E0,4E0,8.08E2,2.9E1,2.8E1,1.7E1,1E0,2.6E1,2.3E1,8.3E1,2.1E1,6E0,3E1,1E1,1.63E2,1E0,2.1E1,1E1,1.7E1,1.51E2,1.32E2,7.4E2,1.05E2,8E0,8E0,4.01E2,1.46E2,1.2E1,2E0,2E0,3.01E2,5.07E2,2E0,2.7E1,2.2E1,6E0,1.5E1,2E0,1.8E1,8E0,4E0,1.9E1,4E1,4.3E1,4E0,1.7E1,4E0,2E0,1.8E1,1.2E1,3.6E1,1.27E2,3E0,1.8E1,8E0,2E0,8E0,9E0,2.7E1,1.24E2,5.3E1,7.9E1,5.06E2,2.34E2,7.8E1,2.7E1,6E0,2E0],"tree_param":{"num_deleted":"0","num_feature":"4","num_nodes":"99","size_leaf_vector":"1"}},{"base_weights":[1.8168662E-1,4.033195E0,-4.4611673E0,3.6313214E0,2.627432E1,-5.5766892E0,1.2376636E1,7.2079906E0,1.614636E0,-1.6423943E1,4.0606674E1,-7.343479E0,-1.1323333E0,1.7258984E1,4.1602407E0,7.477735E0,-1.0796581E1,8.0398476E-1,1.4997363E1,-1.939072E1,6.515236E-1,5.8893875E1,-6.993599E0,-7.4657707E0,1.566463E1,1.6161288E0,-2.9304993E0,1.320962E1,3.417388E1,-3.006153E1,9.917089E0,7.597129E0,-1.7779251E1,-4.824602E0,-5.4735336E0,4.425988E0,-1.8055284E0,2.404561E1,-2.1057229E-1,-1.1097589E0,-2.138944E1,1.09731964E2,7.160697E0,-1.0435242E1,1.1079445E1,-4.876717E0,-9.400699E0,-6.1961606E-2,3.4707336E1,-4.8227825E0,4.5776043E0,1.5108818E1,-1.3357956E1,-5.1849465E0,-1.3475282E1,2.1275373E1,2.8192894E0,2.466196E0,7.5583637E-1,-1.2258363E0,-6.774827E0,2.126584E0,-4.058028E0,1.6288E0,-1.6538103E0,-6.8319616E0,-1.9054398E-1,5.6655636E0,3.1473001E1,4.8595934E0,-3.5749202E0,-7.2547064E0,-1.113731E0,1.20459385E1,5.0781757E1,-6.7191243E-1,3.6702554E0,-2.4847642E-1,4.2790303E0,-9.0871155E-1,-3.2165053E0,-6.036247E0,-2.6800566E0,4.71484E0,-4.6220222E-1,1.6637547E1,-3.434108E0,-1.8702817E0,1.6215535E0,3.8194463E0,2.2883989E-2,5.0510597E0,-2.4498751E-2,-5.131227E0,-3.179329E-1,-2.069719E0,-2.635071E-1,3.88553E0,1.1746321E1,-3.1176255E0,1.7837782E0],"categories":[],"categories_nodes":[],"categories_segments":[],"categories_sizes":[],"default_left":[0,0,0,0,0,0,0,0,0,0,0,0,0,0,0,0,0,0,0,0,0,0,0,0,0,0,0,0,0,0,0,0,0,0,0,0,0,0,0,0,0,0,0,0,0,0,0,0,0,0,0,0,0,0,0,0,0,0,0,0,0,0,0,0,0,0,0,0,0,0,0,0,0,0,0,0,0,0,0,0,0,0,0,0,0,0,0,0,0,0,0,0,0,0,0,0,0,0,0,0,0],"id":5,"left_children":[1,3,5,7,9,11,13,15,17,19,21,23,25,27,29,31,33,35,37,39,-1,41,43,45,-1,47,49,51,-1,53,55,57,59,-1,61,63,65,67,69,-1,71,73,75,-1,77,79,81,83,85,87,89,91,93,95,-1,97,99,-1,-1,-1,-1,-1,-1,-1,-1,-1,-1,-1,-1,-1,-1,-1,-1,-1,-1,-1,-1,-1,-1,-1,-1,-1,-1,-1,-1,-1,-1,-1,-1,-1,-1,-1,-1,-1,-1,-1,-1,-1,-1,-1,-1],"loss_changes":[5.3753375E4,1.4589922E4,2.5670158E4,1.1637383E4,1.8413957E4,1.0034707E4,3.337999E3,2.907293E3,1.1205523E4,4.8346558E2,1.9562344E4,7.0542695E3,1.8086359E3,1.9238762E4,6.799438E3,1.8659824E3,1.6518579E2,9.232817E3,8.1237676E3,1.4041724E2,0E0,4.1294496E4,3.901206E3,4.532961E3,0E0,8.054005E3,3.1619253E3,2.8255908E3,0E0,1.6149463E3,2.2779644E3,1.7902734E3,1.0504913E2,0E0,7.028808E2,4.108449E3,1.3924362E4,1.3458578E4,4.610949E3,0E0,2.0644678E2,2.634529E4,4.566365E2,0E0,2.0138367E2,4.2117734E3,2.4345352E3,3.267259E3,7.339129E3,2.5889858E3,1.650676E3,1.2876191E3,1.6615607E2,1.6086151E1,0E0,1.1298794E3,8.46627E2,0E0,0E0,0E0,0E0,0E0,0E0,0E0,0E0,0E0,0E0,0E0,0E0,0E0,0E0,0E0,0E0,0E0,0E0,0E0,0E0,0E0,0E0,0E0,0E0,0E0,0E0,0E0,0E0,0E0,0E0,0E0,0E0,0E0,0E0,0E0,0E0,0E0,0E0,0E0,0E0,0E0,0E0,0E0,0E0],"parents":[2147483647,0,0,1,1,2,2,3,3,4,4,5,5,6,6,7,7,8,8,9,9,10,10,11,11,12,12,13,13,14,14,15,15,16,16,17,17,18,18,19,19,21,21,22,22,23,23,25,25,26,26,27,27,29,29,30,30,31,31,32,32,34,34,35,35,36,36,37,37,38,38,40,40,41,41,42,42,44,44,45,45,46,46,47,47,48,48,49,49,50,50,51,51,52,52,53,53,55,55,56,56],"right_children":[2,4,6,8,10,12,14,16,18,20,22,24,26,28,30,32,34,36,38,40,-1,42,44,46,-1,48,50,52,-1,54,56,58,60,-1,62,64,66,68,70,-1,72,74,76,-1,78,80,82,84,86,88,90,92,94,96,-1,98,100,-1,-1,-1,-1,-1,-1,-1,-1,-1,-1,-1,-1,-1,-1,-1,-1,-1,-1,-1,-1,-1,-1,-1,-1,-1,-1,-1,-1,-1,-1,-1,-1,-1,-1,-1,-1,-1,-1,-1,-1,-1,-1,-1,-1],"split_conditions":[1.8338849E2,3.2566418E1,3.2601706E2,2.3264917E1,1.2224107E1,2.7310417E1,1.4458382E1,2.0907913E1,1.692738E2,3.375833E1,3.3560413E1,1.2480001E2,1.7208603E1,1.4404499E1,1.4973577E1,1.69E1,2.199538E1,1.0736289E2,1.48257065E1,3.2920834E1,6.515236E-1,1.4747921E1,1.4113653E1,1.8430452E1,1.566463E1,1.710284E1,3.183683E1,1.4113653E1,3.417388E1,1E-1,2.5335167E1,1.3163342E2,2.087433E1,-4.824602E0,2.23229E1,1.6299694E1,1.1128904E2,1.477755E1,2.8930593E1,-1.1097589E0,1E-1,3.3160164E1,3.2920834E1,-1.0435242E1,1.4689588E1,2.9079282E2,2.4066698E2,2.7687836E1,3.1273252E1,2.5699057E1,2.0188908E1,2.9003504E1,1E-1,2.0949335E1,-1.3475282E1,2.472017E1,1.5617529E1,2.466196E0,7.5583637E-1,-1.2258363E0,-6.774827E0,2.126584E0,-4.058028E0,1.6288E0,-1.6538103E0,-6.8319616E0,-1.9054398E-1,5.6655636E0,3.1473001E1,4.8595934E0,-3.5749202E0,-7.2547064E0,-1.113731E0,1.20459385E1,5.0781757E1,-6.7191243E-1,3.6702554E0,-2.4847642E-1,4.2790303E0,-9.0871155E-1,-3.2165053E0,-6.036247E0,-2.6800566E0,4.71484E0,-4.6220222E-1,1.6637547E1,-3.434108E0,-1.8702817E0,1.6215535E0,3.8194463E0,2.2883989E-2,5.0510597E0,-2.4498751E-2,-5.131227E0,-3.179329E-1,-2.069719E0,-2.635071E-1,3.88553E0,1.1746321E1,-3.1176255E0,1.7837782E0],"split_indices":[3,0,3,0,2,0,2,2,3,0,0,1,2,2,2,1,2,3,2,0,0,2,2,2,0,2,0,2,0,1,0,3,0,0,2,2,3,2,0,0,1,0,0,0,2,3,3,0,0,2,2,0,1,0,0,0,2,0,0,0,0,0,0,0,0,0,0,0,0,0,0,0,0,0,0,0,0,0,0,0,0,0,0,0,0,0,0,0,0,0,0,0,0,0,0,0,0,0,0,0,0],"split_type":[0,0,0,0,0,0,0,0,0,0,0,0,0,0,0,0,0,0,0,0,0,0,0,0,0,0,0,0,0,0,0,0,0,0,0,0,0,0,0,0,0,0,0,0,0,0,0,0,0,0,0,0,0,0,0,0,0,0,0,0,0,0,0,0,0,0,0,0,0,0,0,0,0,0,0,0,0,0,0,0,0,0,0,0,0,0,0,0,0,0,0,0,0,0,0,0,0,0,0,0,0],"sum_hessian":[3.004E3,1.642E3,1.362E3,1.614E3,2.8E1,1.278E3,8.4E1,5.81E2,1.033E3,7E0,2.1E1,9.14E2,3.64E2,5.2E1,3.2E1,5.73E2,8E0,9.75E2,5.8E1,6E0,1E0,1.5E1,6E0,9.13E2,1E0,1.44E2,2.2E2,5.1E1,1E0,4E0,2.8E1,5.71E2,2E0,3E0,5E0,4.08E2,5.67E2,3.6E1,2.2E1,1E0,5E0,7E0,8E0,2E0,4E0,3.92E2,5.21E2,1.38E2,6E0,1.76E2,4.4E1,4.8E1,3E0,2E0,2E0,1E1,1.8E1,5.08E2,6.3E1,1E0,1E0,2E0,3E0,3.71E2,3.7E1,2.9E1,5.38E2,3.5E1,1E0,9E0,1.3E1,4E0,1E0,4E0,3E0,3E0,5E0,1E0,3E0,2.99E2,9.3E1,2E1,5.01E2,1.1E1,1.27E2,4E0,2E0,1.55E2,2.1E1,1.5E1,2.9E1,4.3E1,5E0,2E0,1E0,1E0,1E0,8E0,2E0,3E0,1.5E1],"tree_param":{"num_deleted":"0","num_feature":"4","num_nodes":"101","size_leaf_vector":"1"}},{"base_weights":[1.6929288E-1,3.1198583E0,-3.2611263E0,3.402873E0,-1.24852295E1,5.5355916E0,-3.6690538E0,6.323839E0,2.1165764E0,-1.8921515E1,-8.642825E0,4.171155E0,1.3314936E1,-4.249815E0,3.0717113E0,7.3444457E0,-1.2749102E1,1.7853855E0,1.9977863E1,-2.075193E1,-3.6716652E-1,2.444247E1,-1.3676884E1,7.124621E0,-1.1603984E1,-1.6923901E0,-5.343027E0,5.231645E0,-5.9200044E0,4.554959E0,1.3154949E1,3.2372754E0,-1.690756E1,2.8113947E0,-2.1932304E0,7.0740695E0,4.293147E1,-6.831263E0,-2.7371247E0,-6.23564E-1,1.1622676E1,-1.3283176E0,-1.6058043E1,-9.255827E0,1.0768338E1,-8.591919E-1,-4.825846E0,7.880275E-1,-6.4626207E0,-3.1110195E1,-5.0635834E0,-1.3418554E1,6.067418E0,-9.192784E0,6.3914475E0,1.9087725E0,-1.9922253E0,2.7069018E0,1.137314E1,-5.732741E-1,2.7067306E0,2.1800287E0,-5.568706E0,6.9585395E-1,7.732091E0,4.001884E0,-1.0619467E0,2.6529715E0,-2.3887677E0,2.5287645E1,2.8586307E0,-2.6069024E0,3.113363E0,-5.2671394E0,7.393776E-1,-5.478181E0,1.0203209E0,2.5903254E0,1.0902744E1,-8.439545E-1,7.504166E-1,2.6429071E0,-2.9420355E-1,-6.822763E0,-9.5291567E-1,-1.4332049E1,4.9869063E-1,-2.1207833E0,-7.34375E-1,-7.5474424E0,3.2700303E0,1.423198E0,5.3644595E0,-7.278164E0,-1.6699138E0,2.5482864E0,-3.0298692E-1],"categories":[],"categories_nodes":[],"categories_segments":[],"categories_sizes":[],"default_left":[0,0,0,0,0,0,0,0,0,0,0,0,0,0,0,0,0,0,0,0,0,0,0,0,0,0,0,0,0,0,0,0,0,0,0,0,0,0,0,0,0,0,0,0,0,0,0,0,0,0,0,0,0,0,0,0,0,0,0,0,0,0,0,0,0,0,0,0,0,0,0,0,0,0,0,0,0,0,0,0,0,0,0,0,0,0,0,0,0,0,0,0,0,0,0,0,0],"id":6,"left_children":[1,3,5,7,9,11,13,15,17,19,21,23,-1,25,27,29,31,33,35,37,-1,39,41,43,45,47,49,51,53,55,57,59,61,63,65,67,69,-1,-1,-1,-1,71,73,75,77,79,-1,81,83,85,87,89,91,93,95,-1,-1,-1,-1,-1,-1,-1,-1,-1,-1,-1,-1,-1,-1,-1,-1,-1,-1,-1,-1,-1,-1,-1,-1,-1,-1,-1,-1,-1,-1,-1,-1,-1,-1,-1,-1,-1,-1,-1,-1,-1,-1],"loss_changes":[3.042581E4,7.179503E3,5.008215E3,5.9530938E3,5.536582E2,3.1011807E3,5.215793E3,9.534633E3,6.4950425E3,2.9854175E2,3.6653635E3,2.9247456E3,0E0,3.4130254E3,2.0896516E3,7.412117E3,1.7167014E3,4.4352407E3,5.6200713E3,3.5344238E0,0E0,1.2182618E3,5.0793994E2,3.203328E3,4.677787E2,4.359329E3,6.0132715E3,1.4219268E3,9.0490137E2,6.376602E3,1.4898906E4,1.9593968E2,9.34959E2,9.687545E3,4.7115776E3,4.4284735E2,8.867708E3,0E0,0E0,0E0,0E0,4.3487424E2,4.5977686E2,1.2018308E3,2.032852E3,3.3303017E1,0E0,3.456315E3,6.6687183E3,4.994295E3,4.436744E3,1.41619E3,1.2128828E3,7.938672E2,8.639873E1,0E0,0E0,0E0,0E0,0E0,0E0,0E0,0E0,0E0,0E0,0E0,0E0,0E0,0E0,0E0,0E0,0E0,0E0,0E0,0E0,0E0,0E0,0E0,0E0,0E0,0E0,0E0,0E0,0E0,0E0,0E0,0E0,0E0,0E0,0E0,0E0,0E0,0E0,0E0,0E0,0E0,0E0],"parents":[2147483647,0,0,1,1,2,2,3,3,4,4,5,5,6,6,7,7,8,8,9,9,10,10,11,11,13,13,14,14,15,15,16,16,17,17,18,18,19,19,21,21,22,22,23,23,24,24,25,25,26,26,27,27,28,28,29,29,30,30,31,31,32,32,33,33,34,34,35,35,36,36,41,41,42,42,43,43,44,44,45,45,47,47,48,48,49,49,50,50,51,51,52,52,53,53,54,54],"right_children":[2,4,6,8,10,12,14,16,18,20,22,24,-1,26,28,30,32,34,36,38,-1,40,42,44,46,48,50,52,54,56,58,60,62,64,66,68,70,-1,-1,-1,-1,72,74,76,78,80,-1,82,84,86,88,90,92,94,96,-1,-1,-1,-1,-1,-1,-1,-1,-1,-1,-1,-1,-1,-1,-1,-1,-1,-1,-1,-1,-1,-1,-1,-1,-1,-1,-1,-1,-1,-1,-1,-1,-1,-1,-1,-1,-1,-1,-1,-1,-1,-1],"split_conditions":[1E-1,2.6319422E1,2.2344086E1,1.1726277E1,2.7684914E1,1.2480001E2,2.9847252E1,3.0185411E1,3.429568E2,3.1566002E1,2.7887802E1,2.23229E1,1.3314936E1,1.4154915E1,2.0780453E1,1.1019764E1,1.0514218E1,2.3511931E2,1.4113653E1,2.8302086E1,-3.6716652E-1,2.4741415E1,2.5180582E1,2.0390999E1,2.200142E1,2.5571169E1,1.4264361E1,2.9898842E1,2.378453E1,2.6227417E1,1.5626831E2,1.8338849E2,2.9898842E1,3.3160164E1,1.3891522E1,3.1164331E1,1.5158522E1,-6.831263E0,-2.7371247E0,-6.23564E-1,1.1622676E1,2.5122252E1,3.331508E1,9E-1,2.2293085E1,3.1700449E1,-4.825846E0,9.114471E0,9.5416975E0,2.5403503E1,2.5599752E1,3.0446167E1,2.6E0,2.391804E2,3.0851831E1,1.9087725E0,-1.9922253E0,2.7069018E0,1.137314E1,-5.732741E-1,2.7067306E0,2.1800287E0,-5.568706E0,6.9585395E-1,7.732091E0,4.001884E0,-1.0619467E0,2.6529715E0,-2.3887677E0,2.5287645E1,2.8586307E0,-2.6069024E0,3.113363E0,-5.2671394E0,7.393776E-1,-5.478181E0,1.0203209E0,2.5903254E0,1.0902744E1,-8.439545E-1,7.504166E-1,2.6429071E0,-2.9420355E-1,-6.822763E0,-9.5291567E-1,-1.4332049E1,4.9869063E-1,-2.1207833E0,-7.34375E-1,-7.5474424E0,3.2700303E0,1.423198E0,5.3644595E0,-7.278164E0,-1.6699138E0,2.5482864E0,-3.0298692E-1],"split_indices":[1,2,0,2,2,1,0,0,3,0,2,2,0,2,2,2,2,3,2,0,0,0,0,0,0,0,2,3,2,0,3,3,3,0,2,0,2,0,0,0,0,0,2,1,0,2,0,2,2,0,0,0,1,3,0,0,0,0,0,0,0,0,0,0,0,0,0,0,0,0,0,0,0,0,0,0,0,0,0,0,0,0,0,0,0,0,0,0,0,0,0,0,0,0,0,0,0],"split_type":[0,0,0,0,0,0,0,0,0,0,0,0,0,0,0,0,0,0,0,0,0,0,0,0,0,0,0,0,0,0,0,0,0,0,0,0,0,0,0,0,0,0,0,0,0,0,0,0,0,0,0,0,0,0,0,0,0,0,0,0,0,0,0,0,0,0,0,0,0,0,0,0,0,0,0,0,0,0,0,0,0,0,0,0,0,0,0,0,0,0,0,0,0,0,0,0,0],"sum_hessian":[3.004E3,1.615E3,1.389E3,1.587E3,2.8E1,6.1E1,1.328E3,4.84E2,1.103E3,9E0,1.9E1,6E1,1E0,1.223E3,1.05E2,4.6E2,2.4E1,1.084E3,1.9E1,8E0,1E0,2E0,1.7E1,5.1E1,9E0,3.67E2,8.56E2,8.5E1,2E1,3.12E2,1.48E2,5E0,1.9E1,8.62E2,2.22E2,1.3E1,6E0,6E0,2E0,1E0,1E0,3E0,1.4E1,9E0,4.2E1,3E0,6E0,2.42E2,1.25E2,8E0,8.48E2,3E0,8.2E1,1.6E1,4E0,2.69E2,4.3E1,1.28E2,2E1,3E0,2E0,1E0,1.8E1,8.45E2,1.7E1,1.7E1,2.05E2,1.2E1,1E0,2E0,4E0,2E0,1E0,1.3E1,1E0,5E0,4E0,4E1,2E0,2E0,1E0,4.3E1,1.99E2,2E1,1.05E2,5E0,3E0,4.79E2,3.69E2,2E0,1E0,7.5E1,7E0,2E0,1.4E1,3E0,1E0],"tree_param":{"num_deleted":"0","num_feature":"4","num_nodes":"97","size_leaf_vector":"1"}},{"base_weights":[1.3204473E-1,2.2145717E0,-2.2891753E0,1.5421529E1,2.0310183E0,-2.3451438E0,1.1317695E1,6.807432E0,2.964527E1,3.7217422E0,5.853586E-1,-5.6955785E-1,-3.3338172E0,1.03540125E1,-6.426705E0,5.4794086E1,3.5971618E0,3.376535E0,8.682679E1,-4.6454177E0,3.0218337E0,3.70608E-1,-4.8357606E0,1.9864294E1,-3.4869795E0,1.7991211E0,7.6178985E0,2.1873062E1,2.3033575E1,-5.023651E-1,1.9492905E0,3.0364738E0,1.2506798E1,3.708439E1,1.9876683E0,1.7854239E0,-7.401222E0,2.0685564E1,2.3634531E0,4.8747077E0,-1.2821306E0,5.732693E0,-9.954086E0,-5.3190575E0,4.6820667E1,-3.6983738E0,1.2235383E1,2.764274E0,-1.4040009E0,8.863838E0,9.790398E-1,8.6196786E-1,-1.0880322E0,9.7154814E-1,-4.5135236E0,1.2993543E1,3.2991153E-1,-1.5715666E0,7.716257E0,-9.485676E0,-1.7264216E0,5.051461E-1,4.0240425E1,7.1570334E0,6.041413E-1,-6.068262E0,1.7302655E0,-1.6337444E0,7.3333293E-1,2.117874E0,-2.5687432E0,-7.2534366E0,-1.7931656E0,4.381973E0,-5.0489383E0,1.8289774E1,2.7795262E0,-4.748997E0,-1.0362787E0,4.1875463E0,-1.0078149E0],"categories":[],"categories_nodes":[],"categories_segments":[],"categories_sizes":[],"default_left":[0,0,0,0,0,0,0,0,0,0,0,0,0,0,0,0,0,0,0,0,0,0,0,0,0,0,0,0,0,0,0,0,0,0,0,0,0,0,0,0,0,0,0,0,0,0,0,0,0,0,0,0,0,0,0,0,0,0,0,0,0,0,0,0,0,0,0,0,0,0,0,0,0,0,0,0,0,0,0,0,0],"id":7,"left_children":[1,3,5,7,9,11,-1,13,15,17,19,21,23,25,-1,27,29,31,33,35,37,39,41,43,45,47,-1,49,-1,51,-1,53,55,-1,-1,57,59,61,63,65,67,69,71,73,75,77,79,-1,-1,-1,-1,-1,-1,-1,-1,-1,-1,-1,-1,-1,-1,-1,-1,-1,-1,-1,-1,-1,-1,-1,-1,-1,-1,-1,-1,-1,-1,-1,-1,-1,-1],"loss_changes":[1.5157049E4,3.8861567E3,3.2014834E3,2.4937349E3,3.8963374E3,2.436455E3,0E0,1.723595E3,5.04353E3,2.0792844E4,1.0987186E4,1.9992395E3,3.2386074E3,1.7555109E3,0E0,1.215626E3,6.271702E1,2.237877E3,8.0322734E3,4.8690815E3,6.7892314E3,3.050887E3,4.925414E3,4.3221523E3,2.9932988E3,5.2355786E2,0E0,3.319552E2,0E0,4.2060722E1,0E0,2.6349297E3,9.088656E3,0E0,0E0,1.4088864E4,7.4738564E3,4.5044523E4,4.220543E3,2.5820251E3,4.668194E3,6.294894E2,3.3060757E3,1.1632605E3,1.0288447E3,2.5395654E3,3.6934875E2,0E0,0E0,0E0,0E0,0E0,0E0,0E0,0E0,0E0,0E0,0E0,0E0,0E0,0E0,0E0,0E0,0E0,0E0,0E0,0E0,0E0,0E0,0E0,0E0,0E0,0E0,0E0,0E0,0E0,0E0,0E0,0E0,0E0,0E0],"parents":[2147483647,0,0,1,1,2,2,3,3,4,4,5,5,7,7,8,8,9,9,10,10,11,11,12,12,13,13,15,15,16,16,17,17,18,18,19,19,20,20,21,21,22,22,23,23,24,24,25,25,27,27,29,29,31,31,32,32,35,35,36,36,37,37,38,38,39,39,40,40,41,41,42,42,43,43,44,44,45,45,46,46],"right_children":[2,4,6,8,10,12,-1,14,16,18,20,22,24,26,-1,28,30,32,34,36,38,40,42,44,46,48,-1,50,-1,52,-1,54,56,-1,-1,58,60,62,64,66,68,70,72,74,76,78,80,-1,-1,-1,-1,-1,-1,-1,-1,-1,-1,-1,-1,-1,-1,-1,-1,-1,-1,-1,-1,-1,-1,-1,-1,-1,-1,-1,-1,-1,-1,-1,-1,-1,-1],"split_conditions":[1E-1,8.766573E0,1.2480001E2,1.0463893E2,2.4509752E1,1.51884165E1,1.1317695E1,2.4993086E1,2.6227417E1,2.4470167E1,2.669725E1,7.5000005E0,9.7823515E0,2.4062838E1,-6.426705E0,2.5403503E1,2.8747663E1,1.7709658E1,1.1183201E1,1.05722664E2,3.855459E1,2.4339918E1,1.0514218E1,2.4960167E1,3.1540726E2,2.2151419E1,7.6178985E0,2.2887835E1,2.3033575E1,2.6525335E1,1.9492905E0,1.7373497E1,1.8228943E1,3.708439E1,1.9876683E0,1.4458382E1,1.1063135E2,3.5226883E1,2.6796175E1,2.3561562E1,1.20694E1,1.99E1,1.1128904E2,2E-1,2.6336836E1,1.5315873E1,3.1363916E1,2.764274E0,-1.4040009E0,8.863838E0,9.790398E-1,8.6196786E-1,-1.0880322E0,9.7154814E-1,-4.5135236E0,1.2993543E1,3.2991153E-1,-1.5715666E0,7.716257E0,-9.485676E0,-1.7264216E0,5.051461E-1,4.0240425E1,7.1570334E0,6.041413E-1,-6.068262E0,1.7302655E0,-1.6337444E0,7.3333293E-1,2.117874E0,-2.5687432E0,-7.2534366E0,-1.7931656E0,4.381973E0,-5.0489383E0,1.8289774E1,2.7795262E0,-4.748997E0,-1.0362787E0,4.1875463E0,-1.0078149E0],"split_indices":[1,2,1,3,0,2,0,0,0,0,0,1,3,0,0,0,0,2,2,3,3,0,2,0,3,0,0,0,0,0,0,2,2,0,0,2,3,3,0,3,2,1,3,1,0,2,0,0,0,0,0,0,0,0,0,0,0,0,0,0,0,0,0,0,0,0,0,0,0,0,0,0,0,0,0,0,0,0,0,0,0],"split_type":[0,0,0,0,0,0,0,0,0,0,0,0,0,0,0,0,0,0,0,0,0,0,0,0,0,0,0,0,0,0,0,0,0,0,0,0,0,0,0,0,0,0,0,0,0,0,0,0,0,0,0,0,0,0,0,0,0,0,0,0,0,0,0,0,0,0,0,0,0,0,0,0,0,0,0,0,0,0,0,0,0],"sum_hessian":[3.004E3,1.615E3,1.389E3,2.1E1,1.594E3,1.388E3,1E0,1.4E1,7E0,7.34E2,8.6E2,4.97E2,8.91E2,1.3E1,1E0,3E0,4E0,7.32E2,2E0,2.73E2,5.87E2,4.08E2,8.9E1,5E0,8.86E2,9E0,4E0,2E0,1E0,2E0,2E0,7.07E2,2.5E1,1E0,1E0,8.2E1,1.91E2,2E1,5.67E2,1.09E2,2.99E2,2.9E1,6E1,3E0,2E0,8.75E2,1.1E1,4E0,5E0,1E0,1E0,1E0,1E0,7E2,7E0,6E0,1.9E1,6.4E1,1.8E1,1.1E1,1.8E2,1.8E1,2E0,8E0,5.59E2,3E0,1.06E2,1.41E2,1.58E2,2.7E1,2E0,1.2E1,4.8E1,1E0,2E0,1E0,1E0,1.6E1,8.59E2,1E1,1E0],"tree_param":{"num_deleted":"0","num_feature":"4","num_nodes":"81","size_leaf_vector":"1"}},{"base_weights":[1.402936E-1,1.6448883E0,-1.7029666E0,1.4041173E0,1.4212882E1,-2.2729445E0,6.813093E0,1.0266271E0,9.415603E0,5.027489E1,-5.162891E-1,-2.3253984E0,9.620041E0,9.99803E0,1.491434E0,1.3019269E0,-8.227906E0,1.4601836E1,-1.1260397E0,-3.175972E0,4.7470585E1,-1.8768545E1,1.4967642E1,-4.3167944E0,-1.5717682E0,7.0901594E0,2.4181097E1,-2.3817432E1,5.8036027E0,2.3719015E0,-4.402094E-1,-1.274678E1,3.875999E0,1.1187476E1,6.3226208E1,-9.151992E0,5.8337793E0,4.6821938E0,-7.548745E0,-3.5950333E1,1.541336E0,8.886591E1,-6.547127E0,2.8171918E-1,-6.313181E0,-3.1531262E0,3.9432505E-1,1.654737E1,4.149264E0,-4.2244697E0,-1.06413765E1,1.2937395E1,1.3680596E0,9.044565E-1,-8.725324E-1,-9.539456E0,6.832865E-2,-7.2871146E0,-2.611393E0,-3.6629422E0,2.9768164E0,7.7567844E0,8.3477694E-1,1.8947388E0,2.6557055E1,3.3326879E0,-3.6011407E0,3.113626E0,-2.4370022E0,2.0168748E-1,3.709756E0,-1.2576085E1,-9.150891E-1,-1.7737404E0,1.2643772E0,3.9071056E1,9.1860586E-1,-2.254739E0,4.7093585E-1,7.890694E0,-1.7109795E0,-1.7179209E0,-1.5345323E1,-3.0493615E0,-4.3820763E-1,-2.2918017E-1,4.385094E0,7.552277E0,-1.6953507E-1,4.574979E0,1.6519254E-1,-1.7457001E0,-1.5531121E-1,2.3504853E0,7.1796794E0,-9.7456557E-1,2.0575736E0],"categories":[],"categories_nodes":[],"categories_segments":[],"categories_sizes":[],"default_left":[0,0,0,0,0,0,0,0,0,0,0,0,0,0,0,0,0,0,0,0,0,0,0,0,0,0,0,0,0,0,0,0,0,0,0,0,0,0,0,0,0,0,0,0,0,0,0,0,0,0,0,0,0,0,0,0,0,0,0,0,0,0,0,0,0,0,0,0,0,0,0,0,0,0,0,0,0,0,0,0,0,0,0,0,0,0,0,0,0,0,0,0,0,0,0,0,0],"id":8,"left_children":[1,3,5,7,9,11,13,15,17,19,21,23,-1,25,27,29,31,33,35,37,-1,39,41,43,45,47,-1,49,51,53,55,57,59,61,63,65,67,69,-1,71,73,75,77,79,81,83,85,87,89,91,-1,93,95,-1,-1,-1,-1,-1,-1,-1,-1,-1,-1,-1,-1,-1,-1,-1,-1,-1,-1,-1,-1,-1,-1,-1,-1,-1,-1,-1,-1,-1,-1,-1,-1,-1,-1,-1,-1,-1,-1,-1,-1,-1,-1,-1,-1],"loss_changes":[8.336746E3,4.988085E3,6.5731943E3,4.904754E3,1.6492025E4,2.356754E3,1.4257664E3,3.9674004E3,4.007456E3,5.243773E4,6.7811035E3,1.8931978E3,0E0,1.0310044E4,3.7397183E3,2.8138826E3,2.5107273E3,7.4276943E3,1.4498701E3,1.3272312E3,0E0,3.8939727E3,2.125057E4,3.1873818E3,2.8616128E3,1.3775996E3,0E0,9.918169E2,8.99926E2,3.183107E3,1.2051328E4,1.3283682E3,1.3856177E3,5.722535E3,3.7599434E3,8.267144E2,9.7239636E2,1.7655087E2,0E0,1.0505991E3,1.4447412E2,1.0250572E4,9.8286865E1,1.6657691E4,6.074089E3,6.036992E3,6.7817827E3,1.7857554E3,1.6294336E3,1.4719135E1,0E0,4.295996E2,5.0388467E2,0E0,0E0,0E0,0E0,0E0,0E0,0E0,0E0,0E0,0E0,0E0,0E0,0E0,0E0,0E0,0E0,0E0,0E0,0E0,0E0,0E0,0E0,0E0,0E0,0E0,0E0,0E0,0E0,0E0,0E0,0E0,0E0,0E0,0E0,0E0,0E0,0E0,0E0,0E0,0E0,0E0,0E0,0E0,0E0],"parents":[2147483647,0,0,1,1,2,2,3,3,4,4,5,5,6,6,7,7,8,8,9,9,10,10,11,11,13,13,14,14,15,15,16,16,17,17,18,18,19,19,21,21,22,22,23,23,24,24,25,25,27,27,28,28,29,29,30,30,31,31,32,32,33,33,34,34,35,35,36,36,37,37,39,39,40,40,41,41,42,42,43,43,44,44,45,45,46,46,47,47,48,48,49,49,51,51,52,52],"right_children":[2,4,6,8,10,12,14,16,18,20,22,24,-1,26,28,30,32,34,36,38,-1,40,42,44,46,48,-1,50,52,54,56,58,60,62,64,66,68,70,-1,72,74,76,78,80,82,84,86,88,90,92,-1,94,96,-1,-1,-1,-1,-1,-1,-1,-1,-1,-1,-1,-1,-1,-1,-1,-1,-1,-1,-1,-1,-1,-1,-1,-1,-1,-1,-1,-1,-1,-1,-1,-1,-1,-1,-1,-1,-1,-1,-1,-1,-1,-1,-1,-1],"split_conditions":[1.882309E2,3.2566418E1,3.2601706E2,1.692738E2,1.343802E2,1.2480001E2,1.4458382E1,1.6190266E2,2.9403913E1,1.22803215E2,1.6502707E2,2.482325E1,9.620041E0,1.4404499E1,1.4973577E1,2.4884756E1,2E-1,2.9372252E1,3.0185411E1,3.3160164E1,4.7470585E1,1.4565548E1,1.692738E2,2.3607668E1,8E-1,1.0308831E1,2.4181097E1,1E-1,2.5335167E1,1.4E0,2.4960167E1,1.6376392E2,2.4394081E1,1.1298495E1,1.1966953E1,9.220499E0,1.8014917E2,5.6181736E1,-7.548745E0,1E-1,3.2920834E1,3.3397915E1,1E-1,4.3999996E0,3.216986E2,2.587017E1,2.7887802E1,3E-1,3.345078E2,2.0949335E1,-1.06413765E1,2.472017E1,1.8345877E1,9.044565E-1,-8.725324E-1,-9.539456E0,6.832865E-2,-7.2871146E0,-2.611393E0,-3.6629422E0,2.9768164E0,7.7567844E0,8.3477694E-1,1.8947388E0,2.6557055E1,3.3326879E0,-3.6011407E0,3.113626E0,-2.4370022E0,2.0168748E-1,3.709756E0,-1.2576085E1,-9.150891E-1,-1.7737404E0,1.2643772E0,3.9071056E1,9.1860586E-1,-2.254739E0,4.7093585E-1,7.890694E0,-1.7109795E0,-1.7179209E0,-1.5345323E1,-3.0493615E0,-4.3820763E-1,-2.2918017E-1,4.385094E0,7.552277E0,-1.6953507E-1,4.574979E0,1.6519254E-1,-1.7457001E0,-1.5531121E-1,2.3504853E0,7.1796794E0,-9.7456557E-1,2.0575736E0],"split_indices":[3,0,3,3,3,1,2,3,0,3,3,0,0,2,2,0,1,0,0,0,0,2,3,0,1,2,0,1,0,1,0,3,0,2,2,2,3,3,0,1,0,0,1,1,3,0,2,1,3,0,0,0,2,0,0,0,0,0,0,0,0,0,0,0,0,0,0,0,0,0,0,0,0,0,0,0,0,0,0,0,0,0,0,0,0,0,0,0,0,0,0,0,0,0,0,0,0],"split_type":[0,0,0,0,0,0,0,0,0,0,0,0,0,0,0,0,0,0,0,0,0,0,0,0,0,0,0,0,0,0,0,0,0,0,0,0,0,0,0,0,0,0,0,0,0,0,0,0,0,0,0,0,0,0,0,0,0,0,0,0,0,0,0,0,0,0,0,0,0,0,0,0,0,0,0,0,0,0,0,0,0,0,0,0,0,0,0,0,0,0,0,0,0,0,0,0,0],"sum_hessian":[3.004E3,1.654E3,1.35E3,1.624E3,3E1,1.266E3,8.4E1,1.552E3,7.2E1,8E0,2.2E1,1.265E3,1E0,5.2E1,3.2E1,1.508E3,4.4E1,4.8E1,2.4E1,6E0,2E0,1E1,1.2E1,3.46E2,9.19E2,5.1E1,1E0,4E0,2.8E1,9.34E2,5.74E2,3.2E1,1.2E1,4.6E1,2E0,1.1E1,1.3E1,5E0,1E0,5E0,5E0,2E0,1E1,1.05E2,2.41E2,5.09E2,4.1E2,1.1E1,4E1,2E0,2E0,1E1,1.8E1,8.33E2,1.01E2,1.1E1,5.63E2,7E0,2.5E1,3E0,9E0,1.6E1,3E1,1E0,1E0,1E0,1E1,1E1,3E0,4E0,1E0,4E0,1E0,1E0,4E0,1E0,1E0,9E0,1E0,1.9E1,8.6E1,2.39E2,2E0,9.8E1,4.11E2,3.8E2,3E1,7E0,4E0,9E0,3.1E1,1E0,1E0,8E0,2E0,1E1,8E0],"tree_param":{"num_deleted":"0","num_feature":"4","num_nodes":"97","size_leaf_vector":"1"}},{"base_weights":[1.3788979E-1,1.2630562E0,-1.1703165E0,1.0897269E1,1.0863211E0,1.122595E1,-1.2864131E0,2.11619E0,2.1541967E1,4.476371E0,6.740594E-1,-6.1655426E0,2.7013737E1,-1.6098123E0,2.6907053E0,1.7036888E1,-2.2980232E0,3.654284E1,3.463671E0,1.6603677E0,8.01158E0,-2.865425E-1,2.7122667E0,3.589008E0,-1.118092E1,3.851512E1,-1.159818E0,1.1181226E0,-2.1859941E0,1.5481224E1,1.6080779E0,1.3064667E0,5.9437776E0,-5.6688704E0,2.0430317E0,2.089077E1,1.956829E1,-2.8438072E0,2.6715696E0,5.331152E0,-2.0443015E0,1.0626806E1,6.3998547E0,-6.1504656E-1,8.999891E0,2.9121302E1,1.4918231E0,-4.52458E0,-5.4599304E0,5.165192E0,1.409237E1,-2.874265E0,2.352347E0,-1.256471E0,9.801671E0,-6.1946588E0,-1.5897368E0,3.726994E0,1.4664125E1,-6.605098E0,2.9577968E0,1.6637101E0,-5.472948E0,1.1208404E0,8.560217E0,-1.4936326E0,-1.4176789E-1,-7.176111E-1,2.3701859E0,-1.7387797E0,1.4216508E0,2.970387E0,2.031962E-2,-8.497243E-2,-6.264156E0,1.2117245E0,8.054624E0,3.7640663E1,3.4336574E0,-3.0086496E0,7.387488E-1,-2.1357148E0,-7.2386175E-2,9.8613894E-1,-1.1085416E0,3.4234634E1,9.3456194E-2,3.7289655E0,-2.5301356E0,2.3300219E0,-6.208976E-1,4.352148E0,-1.0459511E0,-4.494468E0,4.649832E-1,2.684839E0,2.8366977E-1],"categories":[],"categories_nodes":[],"categories_segments":[],"categories_sizes":[],"default_left":[0,0,0,0,0,0,0,0,0,0,0,0,0,0,0,0,0,0,0,0,0,0,0,0,0,0,0,0,0,0,0,0,0,0,0,0,0,0,0,0,0,0,0,0,0,0,0,0,0,0,0,0,0,0,0,0,0,0,0,0,0,0,0,0,0,0,0,0,0,0,0,0,0,0,0,0,0,0,0,0,0,0,0,0,0,0,0,0,0,0,0,0,0,0,0,0,0],"id":9,"left_children":[1,3,5,7,9,11,13,15,17,19,21,23,25,27,29,31,33,35,37,39,41,43,45,-1,47,49,51,53,55,57,59,-1,-1,-1,61,63,-1,65,-1,67,69,-1,71,73,75,77,79,-1,81,-1,-1,-1,-1,83,85,87,89,91,-1,93,95,-1,-1,-1,-1,-1,-1,-1,-1,-1,-1,-1,-1,-1,-1,-1,-1,-1,-1,-1,-1,-1,-1,-1,-1,-1,-1,-1,-1,-1,-1,-1,-1,-1,-1,-1,-1],"loss_changes":[4.424687E3,2.7397297E3,2.0148799E3,2.665099E3,2.216352E3,3.7360056E3,1.7767104E3,1.1588246E3,3.3989014E3,1.6989858E3,2.77513E3,7.7022437E2,2.3129146E3,2.0064729E3,1.4152311E3,5.452417E1,1.0473582E3,1.7801787E3,2.6558243E2,1.3300054E3,3.130919E3,2.9463438E3,1.458931E4,0E0,5.155957E1,9.20625E1,3.0251855E2,4.610553E3,2.5070278E3,2.9584773E3,1.0948279E3,0E0,0E0,0E0,9.538407E2,6.8009937E2,0E0,1.789738E1,0E0,9.912783E2,1.2744093E3,0E0,1.6178506E3,6.2610283E3,2.8135332E3,3.2624309E4,4.8892075E3,0E0,3.2915665E1,0E0,0E0,0E0,0E0,1.9622845E3,4.748222E4,5.7764004E3,4.13824E3,5.949181E2,0E0,9.795661E2,1.0042934E3,0E0,0E0,0E0,0E0,0E0,0E0,0E0,0E0,0E0,0E0,0E0,0E0,0E0,0E0,0E0,0E0,0E0,0E0,0E0,0E0,0E0,0E0,0E0,0E0,0E0,0E0,0E0,0E0,0E0,0E0,0E0,0E0,0E0,0E0,0E0,0E0],"parents":[2147483647,0,0,1,1,2,2,3,3,4,4,5,5,6,6,7,7,8,8,9,9,10,10,11,11,12,12,13,13,14,14,15,15,16,16,17,17,18,18,19,19,20,20,21,21,22,22,24,24,25,25,26,26,27,27,28,28,29,29,30,30,34,34,35,35,37,37,39,39,40,40,42,42,43,43,44,44,45,45,46,46,48,48,53,53,54,54,55,55,56,56,57,57,59,59,60,60],"right_children":[2,4,6,8,10,12,14,16,18,20,22,24,26,28,30,32,34,36,38,40,42,44,46,-1,48,50,52,54,56,58,60,-1,-1,-1,62,64,-1,66,-1,68,70,-1,72,74,76,78,80,-1,82,-1,-1,-1,-1,84,86,88,90,92,-1,94,96,-1,-1,-1,-1,-1,-1,-1,-1,-1,-1,-1,-1,-1,-1,-1,-1,-1,-1,-1,-1,-1,-1,-1,-1,-1,-1,-1,-1,-1,-1,-1,-1,-1,-1,-1,-1],"split_conditions":[1E-1,8.891343E0,9.7823515E0,1.0463893E2,2.1275331E1,2.4960167E1,2.9847252E1,2.5946444E1,1.1549273E2,9.166423E1,2.8390999E1,2E-1,2.6662836E1,2.3724335E1,3.0010752E1,1.9449331E1,3.3147007E1,1.1405369E2,1.3163342E2,5.3997047E1,9.225059E1,3.2900052E2,2.8633669E1,3.589008E0,4.8999996E0,2.5571169E1,3.0010752E1,2.3461832E1,3E-1,9.0000004E-1,3.0185411E1,1.3064667E0,5.9437776E0,-5.6688704E0,2.4993086E1,8.4963045E0,1.956829E1,2.1275331E1,2.6715696E0,1.0787993E1,2.0745169E1,1.0626806E1,1.22803215E2,3.0456027E2,2.6285166E1,3.855459E1,1.1269782E1,-4.52458E0,2.3326418E1,5.165192E0,1.409237E1,-2.874265E0,2.352347E0,2.2344086E1,2.348475E1,2.4793753E1,4E-1,2.9933668E1,1.4664125E1,2.391804E2,1.35515E1,1.6637101E0,-5.472948E0,1.1208404E0,8.560217E0,-1.4936326E0,-1.4176789E-1,-7.176111E-1,2.3701859E0,-1.7387797E0,1.4216508E0,2.970387E0,2.031962E-2,-8.497243E-2,-6.264156E0,1.2117245E0,8.054624E0,3.7640663E1,3.4336574E0,-3.0086496E0,7.387488E-1,-2.1357148E0,-7.2386175E-2,9.8613894E-1,-1.1085416E0,3.4234634E1,9.3456194E-2,3.7289655E0,-2.5301356E0,2.3300219E0,-6.208976E-1,4.352148E0,-1.0459511E0,-4.494468E0,4.649832E-1,2.684839E0,2.8366977E-1],"split_indices":[1,2,3,3,0,0,0,3,3,3,0,1,0,0,0,0,3,3,3,3,3,3,0,0,1,0,0,0,1,1,0,0,0,0,0,2,0,0,0,2,0,0,3,3,0,3,2,0,0,0,0,0,0,0,0,0,1,0,0,3,2,0,0,0,0,0,0,0,0,0,0,0,0,0,0,0,0,0,0,0,0,0,0,0,0,0,0,0,0,0,0,0,0,0,0,0,0],"split_type":[0,0,0,0,0,0,0,0,0,0,0,0,0,0,0,0,0,0,0,0,0,0,0,0,0,0,0,0,0,0,0,0,0,0,0,0,0,0,0,0,0,0,0,0,0,0,0,0,0,0,0,0,0,0,0,0,0,0,0,0,0,0,0,0,0,0,0,0,0,0,0,0,0,0,0,0,0,0,0,0,0,0,0,0,0,0,0,0,0,0,0,0,0,0,0,0,0],"sum_hessian":[3.004E3,1.615E3,1.389E3,2.8E1,1.587E3,1.2E1,1.377E3,1.6E1,1.2E1,1.71E2,1.416E3,6E0,6E0,1.274E3,1.03E2,3E0,1.3E1,6E0,6E0,9.6E1,7.5E1,9.63E2,4.53E2,1E0,5E0,4E0,2E0,2.22E2,1.052E3,7E0,9.6E1,1E0,2E0,2E0,1.1E1,5E0,1E0,3E0,3E0,4.8E1,4.8E1,3E0,7.2E1,9.31E2,3.2E1,1.9E1,4.34E2,2E0,3E0,2E0,2E0,1E0,1E0,1.75E2,4.7E1,1.35E2,9.17E2,6E0,1E0,1.3E1,8.3E1,1E1,1E0,2E0,3E0,1E0,2E0,1.2E1,3.6E1,3.1E1,1.7E1,4.6E1,2.6E1,9.17E2,1.4E1,2.6E1,6E0,2E0,1.7E1,3.3E1,4.01E2,2E0,1E0,6.1E1,1.14E2,3E0,4.4E1,1.4E1,1.21E2,4.4E1,8.73E2,2E0,4E0,6E0,7E0,2E1,6.3E1],"tree_param":{"num_deleted":"0","num_feature":"4","num_nodes":"97","size_leaf_vector":"1"}},{"base_weights":[1.4788727E-1,1.4500707E0,-8.0223733E-1,9.639669E-1,8.204152E0,-5.373749E0,-3.6072186E-1,1.0999556E0,-1.3637372E1,5.900043E0,6.921645E1,4.7073246E1,-6.3801546E0,-4.9162623E-1,2.2631256E1,2.7776542E-1,4.724648E0,-1.5391022E1,5.8486867E-1,6.9732485E0,-1.7039078E1,3.3099586E1,-1.9521813E0,4.4267006E0,1.6756262E1,-3.3311698E0,-1.5684292E1,-7.49835E-1,8.969292E0,1.934574E1,9.338715E0,1.5002578E0,-6.065213E0,1.3970309E1,2.2691594E-1,-4.868347E0,-2.1594748E1,2.2807724E0,1.3940688E1,-1.0162906E1,-1.3453674E-1,1.431532E1,-7.425761E0,-2.2965265E1,6.270861E0,1.1782806E0,-1.5566751E0,4.1714935E1,2.4051392E0,1.4805695E1,1.7031097E-1,6.757611E-1,-1.9637386E0,-6.4487176E0,-1.125427E0,1.8493694E0,2.0117481E1,-1.9943345E0,1.3964266E0,5.7460785E-1,-2.112934E0,-7.757264E-1,-7.4638186E0,1.8683839E-1,1.2279557E1,9.440583E0,2.0360568E0,-1.6168901E0,1.5563484E0,-1.5426613E0,6.102181E0,-3.585571E0,-1.0125753E0,3.400818E-1,-7.7707424E0,3.9285648E0,-9.5176125E-1,4.0407187E-1,-1.1281364E1,-2.7554073E0,-3.812332E-1,-3.3891368E0,1.2575378E0,4.3991318E-1,5.332179E0,1.6867294E0,-2.4279077E0],"categories":[],"categories_nodes":[],"categories_segments":[],"categories_sizes":[],"default_left":[0,0,0,0,0,0,0,0,0,0,0,0,0,0,0,0,0,0,0,0,0,0,0,0,0,0,0,0,0,0,0,0,0,0,0,0,0,0,0,0,0,0,0,0,0,0,0,0,0,0,0,0,0,0,0,0,0,0,0,0,0,0,0,0,0,0,0,0,0,0,0,0,0,0,0,0,0,0,0,0,0,0,0,0,0,0,0],"id":10,"left_children":[1,3,5,7,9,11,13,15,17,19,21,23,25,27,29,31,33,35,-1,37,39,-1,-1,-1,-1,41,43,45,47,-1,49,51,53,55,57,59,61,63,65,-1,67,69,71,73,75,77,79,-1,81,83,85,-1,-1,-1,-1,-1,-1,-1,-1,-1,-1,-1,-1,-1,-1,-1,-1,-1,-1,-1,-1,-1,-1,-1,-1,-1,-1,-1,-1,-1,-1,-1,-1,-1,-1,-1,-1],"loss_changes":[3.7190593E3,4.15517E3,3.5060288E3,2.3659717E3,1.1540836E4,8.376125E3,4.7845903E3,3.4974268E3,3.3067993E2,2.1621443E3,1.0058217E4,2.7171387E1,4.2313467E3,3.86161E3,4.4049634E3,7.4376646E3,9.020668E3,5.4766724E2,0E0,2.5837676E3,1.1339476E3,0E0,0E0,0E0,0E0,8.415646E3,6.0586426E3,2.392916E3,3.5528027E4,0E0,3.984662E2,4.881258E3,5.453319E3,2.9008375E4,4.505632E3,8.725499E1,3.1029492E2,3.1145571E3,3.7989648E3,0E0,1.1186912E2,2.683812E3,1.6829795E3,2.0112988E3,6.8599603E2,3.0197075E3,2.352352E3,0E0,1.051084E3,1.7190784E2,2.2571329E2,0E0,0E0,0E0,0E0,0E0,0E0,0E0,0E0,0E0,0E0,0E0,0E0,0E0,0E0,0E0,0E0,0E0,0E0,0E0,0E0,0E0,0E0,0E0,0E0,0E0,0E0,0E0,0E0,0E0,0E0,0E0,0E0,0E0,0E0,0E0,0E0],"parents":[2147483647,0,0,1,1,2,2,3,3,4,4,5,5,6,6,7,7,8,8,9,9,10,10,11,11,12,12,13,13,14,14,15,15,16,16,17,17,19,19,20,20,25,25,26,26,27,27,28,28,30,30,31,31,32,32,33,33,34,34,35,35,36,36,37,37,38,38,40,40,41,41,42,42,43,43,44,44,45,45,46,46,48,48,49,49,50,50],"right_children":[2,4,6,8,10,12,14,16,18,20,22,24,26,28,30,32,34,36,-1,38,40,-1,-1,-1,-1,42,44,46,48,-1,50,52,54,56,58,60,62,64,66,-1,68,70,72,74,76,78,80,-1,82,84,86,-1,-1,-1,-1,-1,-1,-1,-1,-1,-1,-1,-1,-1,-1,-1,-1,-1,-1,-1,-1,-1,-1,-1,-1,-1,-1,-1,-1,-1,-1,-1,-1,-1,-1,-1,-1],"split_conditions":[1.3797913E1,1.35515E1,1.4404499E1,3.2920834E1,3.2454163E1,2.3561562E1,3.429568E2,2.7310417E1,3.4018246E1,2.782703E2,1.3684735E1,2.2589918E1,1.4264361E1,3.3397915E1,1.4458382E1,2.5571169E1,2.8930593E1,1.2096214E1,5.8486867E-1,2.4916E1,1.3755579E1,3.3099586E1,-1.9521813E0,4.4267006E0,1.6756262E1,8.474628E1,1.777689E2,1.5107817E2,1.343802E2,1.934574E1,1.6267857E1,1.31041975E1,2.5725334E1,2.8747663E1,1.1592894E1,1.0308831E1,5.6181736E1,7.6000004E0,2.6018501E1,-1.0162906E1,2.3363916E1,1.3896187E1,2.5912249E1,2.030975E1,1.4345898E1,3.3160164E1,1.692738E2,4.1714935E1,1.5379206E1,2.1605585E1,2.4038918E1,6.757611E-1,-1.9637386E0,-6.4487176E0,-1.125427E0,1.8493694E0,2.0117481E1,-1.9943345E0,1.3964266E0,5.7460785E-1,-2.112934E0,-7.757264E-1,-7.4638186E0,1.8683839E-1,1.2279557E1,9.440583E0,2.0360568E0,-1.6168901E0,1.5563484E0,-1.5426613E0,6.102181E0,-3.585571E0,-1.0125753E0,3.400818E-1,-7.7707424E0,3.9285648E0,-9.5176125E-1,4.0407187E-1,-1.1281364E1,-2.7554073E0,-3.812332E-1,-3.3891368E0,1.2575378E0,4.3991318E-1,5.332179E0,1.6867294E0,-2.4279077E0],"split_indices":[2,2,2,0,0,3,3,0,0,3,2,0,2,0,2,0,0,2,0,0,2,0,0,0,0,3,3,3,3,0,2,2,0,0,2,2,3,1,0,0,0,2,0,0,2,0,3,0,2,0,0,0,0,0,0,0,0,0,0,0,0,0,0,0,0,0,0,0,0,0,0,0,0,0,0,0,0,0,0,0,0,0,0,0,0,0,0],"split_type":[0,0,0,0,0,0,0,0,0,0,0,0,0,0,0,0,0,0,0,0,0,0,0,0,0,0,0,0,0,0,0,0,0,0,0,0,0,0,0,0,0,0,0,0,0,0,0,0,0,0,0,0,0,0,0,0,0,0,0,0,0,0,0,0,0,0,0,0,0,0,0,0,0,0,0,0,0,0,0,0,0,0,0,0,0,0,0],"sum_hessian":[3.004E3,1.267E3,1.737E3,1.183E3,8.4E1,1.52E2,1.585E3,1.173E3,1E1,8.2E1,2E0,2E0,1.5E2,1.577E3,8E0,9.57E2,2.16E2,9E0,1E0,7.9E1,3E0,1E0,1E0,1E0,1E0,1.14E2,3.6E1,1.536E3,4.1E1,1E0,7E0,8.03E2,1.54E2,7E1,1.46E2,4E0,5E0,4.8E1,3.1E1,1E0,2E0,2.1E1,9.3E1,2.7E1,9E0,4.53E2,1.083E3,1E0,4E1,4E0,3E0,7.35E2,6.8E1,1.9E1,1.35E2,6.2E1,8E0,5.7E1,8.9E1,1E0,3E0,1E0,4E0,4.7E1,1E0,8E0,2.3E1,1E0,1E0,5E0,1.6E1,4.3E1,5E1,3E0,2.4E1,5E0,4E0,4.52E2,1E0,3.8E1,1.045E3,4E0,3.6E1,1E0,3E0,2E0,1E0],"tree_param":{"num_deleted":"0","num_feature":"4","num_nodes":"87","size_leaf_vector":"1"}},{"base_weights":[1.4172895E-1,1.0640112E0,-5.5261976E-1,4.6866366E-1,4.00841E0,-6.644474E-1,1.858044E1,7.20885E-1,-1.7403034E1,1.637588E1,9.466411E-1,-4.471597E0,-2.9992256E-1,4.2825565E1,7.165962E0,1.1166069E-1,4.8289986E0,-2.4328753E1,-2.9596622E0,1.102219E2,9.109685E0,-7.703897E-1,1.8057783E1,1.0848803E1,-5.5542374E0,4.779356E0,-7.232815E-1,1.6443878E1,2.827627E0,1.1518402E1,-6.6078186E-2,1.3494233E0,-4.683628E0,1.3859275E1,1.9449213E0,-9.977049E0,-8.716257E0,-2.4531424E0,4.9835305E0,1.1935456E0,4.8406315E1,-3.264866E0,4.779728E1,-4.7451887E0,1.6619415E0,5.78248E1,4.4327188E0,1.7389903E0,-7.299571E0,3.1936042E0,4.061293E1,-4.933633E0,-2.6211572E-1,3.7392655E-1,4.1324377E0,2.1382005E0,-4.8396606E0,2.8711188E-1,6.0438585E0,-2.422651E0,1.2709248E0,3.0452983E0,9.778635E0,2.860854E0,-3.2316577E-1,-4.059935E0,1.03673175E-1,4.0095523E-1,1.8416337E0,1.9763511E0,-3.3882213E0,-3.9100983E0,2.7157057E1,-7.962615E-1,-7.0410514E0,9.926905E0,2.048728E-1,4.3734865E0,2.8134651E1,-4.521057E0,2.804616E0,3.4202378E0,-4.5323E0,-4.035172E0,-7.25013E-1,-4.5478186E-1,3.2803752E0,3.54577E1,-2.499E0,-7.1877427E0,-6.9826305E-1,1.8978523E0,-1.928464E-1,-1.14125066E-1,-2.0637224E0],"categories":[],"categories_nodes":[],"categories_segments":[],"categories_sizes":[],"default_left":[0,0,0,0,0,0,0,0,0,0,0,0,0,0,0,0,0,0,0,0,0,0,0,0,0,0,0,0,0,0,0,0,0,0,0,0,0,0,0,0,0,0,0,0,0,0,0,0,0,0,0,0,0,0,0,0,0,0,0,0,0,0,0,0,0,0,0,0,0,0,0,0,0,0,0,0,0,0,0,0,0,0,0,0,0,0,0,0,0,0,0,0,0,0,0],"id":11,"left_children":[1,3,5,7,9,11,13,15,17,19,21,23,25,27,29,31,33,35,37,39,41,43,45,-1,47,49,51,-1,-1,53,55,57,59,61,63,65,-1,-1,67,-1,-1,69,71,73,75,77,79,81,83,85,87,89,91,-1,-1,-1,93,-1,-1,-1,-1,-1,-1,-1,-1,-1,-1,-1,-1,-1,-1,-1,-1,-1,-1,-1,-1,-1,-1,-1,-1,-1,-1,-1,-1,-1,-1,-1,-1,-1,-1,-1,-1,-1,-1],"loss_changes":[1.9249464E3,2.2611677E3,3.6817683E3,4.85824E3,8.201492E3,2.3662468E3,2.460568E3,2.6548918E3,1.4284556E3,2.8317762E4,5.155474E3,6.7557085E3,3.3537146E3,6.845039E2,2.5257727E2,5.496592E3,3.5410745E3,3.8830615E2,2.894117E2,1.5655516E4,1.9784459E4,1.5547705E3,8.412929E3,0E0,1.8711445E3,6.689077E3,2.7927703E3,0E0,0E0,9.871875E1,1.7184727E2,5.409121E3,5.7827896E3,1.9619307E3,2.4191665E3,1.5150854E2,0E0,0E0,4.435028E0,0E0,0E0,2.6059033E3,2.7170629E4,2.3260771E3,3.0542798E3,4.8529404E3,1.3872792E3,4.8925415E3,3.5115635E3,4.2455283E3,1.9969355E4,6.9849023E3,3.259709E3,0E0,0E0,0E0,2.466581E1,0E0,0E0,0E0,0E0,0E0,0E0,0E0,0E0,0E0,0E0,0E0,0E0,0E0,0E0,0E0,0E0,0E0,0E0,0E0,0E0,0E0,0E0,0E0,0E0,0E0,0E0,0E0,0E0,0E0,0E0,0E0,0E0,0E0,0E0,0E0,0E0,0E0,0E0],"parents":[2147483647,0,0,1,1,2,2,3,3,4,4,5,5,6,6,7,7,8,8,9,9,10,10,11,11,12,12,13,13,14,14,15,15,16,16,17,17,18,18,19,19,20,20,21,21,22,22,24,24,25,25,26,26,29,29,30,30,31,31,32,32,33,33,34,34,35,35,38,38,41,41,42,42,43,43,44,44,45,45,46,46,47,47,48,48,49,49,50,50,51,51,52,52,56,56],"right_children":[2,4,6,8,10,12,14,16,18,20,22,24,26,28,30,32,34,36,38,40,42,44,46,-1,48,50,52,-1,-1,54,56,58,60,62,64,66,-1,-1,68,-1,-1,70,72,74,76,78,80,82,84,86,88,90,92,-1,-1,-1,94,-1,-1,-1,-1,-1,-1,-1,-1,-1,-1,-1,-1,-1,-1,-1,-1,-1,-1,-1,-1,-1,-1,-1,-1,-1,-1,-1,-1,-1,-1,-1,-1,-1,-1,-1,-1,-1,-1],"split_conditions":[1.3891522E1,2.802225E1,3.429568E2,2.777117E1,2.8930593E1,1.4512064E1,1.4458382E1,2.5750958E2,1.6376392E2,3.855459E1,1.3608762E1,2.3561562E1,1.4904173E1,2.6796175E1,1.6267857E1,2.5246168E1,1.0587918E1,2.7847914E1,2.7941E1,2.8302086E1,2.8747663E1,1.1592894E1,1.3684735E1,1.0848803E1,8.701454E1,3.3397915E1,1.5517629E1,1.6443878E1,2.827627E0,2.1605585E1,1.8799332E1,2.5180582E1,1.2864649E1,2.5725334E1,1E-1,1.1525623E1,-8.716257E0,-2.4531424E0,1E-1,1.1935456E0,4.8406315E1,1.2791429E2,1.1090103E1,1.1480557E1,1.1659777E1,2.9617004E1,2.9130587E1,1.4264361E1,1.388142E2,1.4799459E1,3.3560413E1,5.2765083E1,1.5905319E1,3.7392655E-1,4.1324377E0,2.1382005E0,2.4038918E1,2.8711188E-1,6.0438585E0,-2.422651E0,1.2709248E0,3.0452983E0,9.778635E0,2.860854E0,-3.2316577E-1,-4.059935E0,1.03673175E-1,4.0095523E-1,1.8416337E0,1.9763511E0,-3.3882213E0,-3.9100983E0,2.7157057E1,-7.962615E-1,-7.0410514E0,9.926905E0,2.048728E-1,4.3734865E0,2.8134651E1,-4.521057E0,2.804616E0,3.4202378E0,-4.5323E0,-4.035172E0,-7.25013E-1,-4.5478186E-1,3.2803752E0,3.54577E1,-2.499E0,-7.1877427E0,-6.9826305E-1,1.8978523E0,-1.928464E-1,-1.14125066E-1,-2.0637224E0],"split_indices":[2,0,3,0,0,2,2,3,3,3,2,3,2,0,2,0,2,0,0,0,0,2,2,0,3,0,2,0,0,0,0,0,2,0,1,2,0,0,1,0,0,3,2,2,2,0,0,2,3,2,0,3,2,0,0,0,0,0,0,0,0,0,0,0,0,0,0,0,0,0,0,0,0,0,0,0,0,0,0,0,0,0,0,0,0,0,0,0,0,0,0,0,0,0,0],"split_type":[0,0,0,0,0,0,0,0,0,0,0,0,0,0,0,0,0,0,0,0,0,0,0,0,0,0,0,0,0,0,0,0,0,0,0,0,0,0,0,0,0,0,0,0,0,0,0,0,0,0,0,0,0,0,0,0,0,0,0,0,0,0,0,0,0,0,0,0,0,0,0,0,0,0,0,0,0,0,0,0,0,0,0,0,0,0,0,0,0,0,0,0,0,0,0],"sum_hessian":[3.004E3,1.29E3,1.714E3,1.074E3,2.16E2,1.705E3,9E0,1.06E3,1.4E1,4.2E1,1.74E2,1.48E2,1.557E3,2E0,7E0,9.24E2,1.36E2,9E0,5E0,2E0,4E1,1.59E2,1.5E1,3E0,1.45E2,1.19E2,1.438E3,1E0,1E0,4E0,3E0,7.35E2,1.89E2,3.2E1,1.04E2,3E0,6E0,3E0,2E0,1E0,1E0,3.1E1,9E0,6E1,9.9E1,3E0,1.2E1,2.8E1,1.17E2,1.15E2,4E0,1.41E2,1.297E3,1E0,3E0,1E0,2E0,7.21E2,1.4E1,1.37E2,5.2E1,2.8E1,4E0,2.9E1,7.5E1,2E0,1E0,1E0,1E0,1.4E1,1.7E1,4E0,5E0,5.5E1,5E0,2E0,9.7E1,2E0,1E0,2E0,1E1,1.8E1,1E1,5.1E1,6.6E1,7.2E1,4.3E1,1E0,3E0,1.6E1,1.25E2,7E1,1.227E3,1E0,1E0],"tree_param":{"num_deleted":"0","num_feature":"4","num_nodes":"95","size_leaf_vector":"1"}},{"base_weights":[1.5594925E-1,3.7262099E0,1.0018954E-2,-4.3857232E-1,7.759475E0,-8.433757E0,1.165615E-1,1.6012735E0,-1.1714836E1,1.3732216E1,-2.4459E0,7.439561E-1,-1.9952394E1,7.9648525E-1,-6.648242E-1,8.542713E0,-4.088686E0,1.670514E1,-1.8200291E0,2.659715E0,-2.1358057E1,6.673584E0,-9.725887E0,-3.5322838E1,4.8557215E0,6.3502216E-1,1.9539457E1,-3.3283195E1,-5.6585187E-1,-6.324224E-1,1.929974E1,7.554371E-1,-1.48213005E1,2.4903763E1,6.9500284E0,-2.4801688E0,2.8595939E0,-3.1897871E0,1.5865268E1,-3.322127E1,3.9142206E0,-7.7302933E0,1.1304668E1,5.0206513E0,-1.58968725E1,-3.764845E1,-2.158849E0,-2.199332E0,7.0779066E0,4.3680298E-1,9.250538E0,8.6745E1,-5.6564194E-1,-2.886866E0,-1.13887005E1,7.9185276E0,-7.819529E-1,2.8414516E0,-4.059852E0,7.282949E0,3.0830705E0,-4.7583726E-1,5.0683665E0,-7.049351E0,1.2203889E0,1.0791189E1,5.1885047E0,-1.8392228E-1,5.897214E0,-3.430523E0,3.755507E-1,6.3835473E0,-1.6801267E0,-1.1564071E1,-2.5866566E0,-3.1275482E0,5.3146366E-2,5.7859936E0,2.573342E0,-8.983899E-1,-7.4474683E0,-5.8242083E0,-1.3058997E1,-2.0454617E0,1.4076829E0,2.8058348E0,9.0646036E-2,8.95539E0,1.9206364E-1,4.2600176E-1,3.860925E1,6.0005397E-1,-2.4223678E0,-9.820942E-1,3.3173149E0,-3.1360862E0,-1.6788383E-1],"categories":[],"categories_nodes":[],"categories_segments":[],"categories_sizes":[],"default_left":[0,0,0,0,0,0,0,0,0,0,0,0,0,0,0,0,0,0,0,0,0,0,0,0,0,0,0,0,0,0,0,0,0,0,0,0,0,0,0,0,0,0,0,0,0,0,0,0,0,0,0,0,0,0,0,0,0,0,0,0,0,0,0,0,0,0,0,0,0,0,0,0,0,0,0,0,0,0,0,0,0,0,0,0,0,0,0,0,0,0,0,0,0,0,0,0,0],"id":12,"left_children":[1,3,5,7,9,11,13,15,-1,17,19,21,23,25,27,29,31,33,35,37,39,41,43,45,47,49,51,53,55,57,59,61,63,65,67,-1,-1,69,71,73,-1,75,77,-1,79,81,-1,83,-1,85,87,89,91,-1,-1,93,95,-1,-1,-1,-1,-1,-1,-1,-1,-1,-1,-1,-1,-1,-1,-1,-1,-1,-1,-1,-1,-1,-1,-1,-1,-1,-1,-1,-1,-1,-1,-1,-1,-1,-1,-1,-1,-1,-1,-1,-1],"loss_changes":[1.5655952E3,1.9855283E3,2.5990896E3,4.709383E3,3.690831E3,3.820575E3,1.5162789E3,2.2862295E3,0E0,1.7873574E3,2.277645E3,1.3686342E3,6.2725044E3,4.605723E3,4.268369E3,2.578332E3,1.6748799E3,2.3862295E3,5.911237E2,1.518279E3,2.4742476E3,1.0212664E3,1.5723849E3,3.8319336E2,9.772374E2,2.581508E3,1.761433E4,7.753223E1,2.4355576E3,2.0833496E3,2.893667E2,8.9598376E2,1.7345222E3,8.093721E2,1.5497634E3,0E0,0E0,5.2702924E2,8.1635986E2,1.9166406E2,0E0,8.7084946E1,7.3986084E1,0E0,7.319988E2,1.2012598E2,0E0,2.2298166E2,0E0,1.7751628E3,6.011784E3,1.0556035E4,2.2808255E2,0E0,0E0,1.1956323E3,2.7746172E3,0E0,0E0,0E0,0E0,0E0,0E0,0E0,0E0,0E0,0E0,0E0,0E0,0E0,0E0,0E0,0E0,0E0,0E0,0E0,0E0,0E0,0E0,0E0,0E0,0E0,0E0,0E0,0E0,0E0,0E0,0E0,0E0,0E0,0E0,0E0,0E0,0E0,0E0,0E0,0E0],"parents":[2147483647,0,0,1,1,2,2,3,3,4,4,5,5,6,6,7,7,9,9,10,10,11,11,12,12,13,13,14,14,15,15,16,16,17,17,18,18,19,19,20,20,21,21,22,22,23,23,24,24,25,25,26,26,27,27,28,28,29,29,30,30,31,31,32,32,33,33,34,34,37,37,38,38,39,39,41,41,42,42,44,44,45,45,47,47,49,49,50,50,51,51,52,52,55,55,56,56],"right_children":[2,4,6,8,10,12,14,16,-1,18,20,22,24,26,28,30,32,34,36,38,40,42,44,46,48,50,52,54,56,58,60,62,64,66,68,-1,-1,70,72,74,-1,76,78,-1,80,82,-1,84,-1,86,88,90,92,-1,-1,94,96,-1,-1,-1,-1,-1,-1,-1,-1,-1,-1,-1,-1,-1,-1,-1,-1,-1,-1,-1,-1,-1,-1,-1,-1,-1,-1,-1,-1,-1,-1,-1,-1,-1,-1,-1,-1,-1,-1,-1,-1],"split_conditions":[9.220499E0,1.0463893E2,9.5416975E0,2.5571169E1,2.1999998E0,1E-1,1.8338849E2,5.750081E1,-1.1714836E1,2.8302086E1,2.5635168E1,2.4339918E1,1.6E0,1.8014917E2,9.6932955E0,3.3147007E1,2.4062838E1,8.766573E0,2.9003504E1,2.5144083E1,2.6414583E1,9.3669195E0,9.3669195E0,2.6755585E1,2.5514917E1,3.2454163E1,2.8930593E1,2.1186834E1,1.0514218E1,8.654986E0,4.9155315E1,2.6999998E0,8.891343E0,1.1825906E2,1.3959787E2,-2.4801688E0,2.8595939E0,3.9000003E0,5.3E0,2.4999998E0,3.9142206E0,1.9449331E1,1.9955584E1,5.0206513E0,6.8415924E1,2.3363916E1,-2.158849E0,2.4993086E1,7.0779066E0,9.6932955E0,1.343802E2,2.8081247E1,1.4747921E1,-2.886866E0,-1.13887005E1,2.4420168E1,1.9303333E2,2.8414516E0,-4.059852E0,7.282949E0,3.0830705E0,-4.7583726E-1,5.0683665E0,-7.049351E0,1.2203889E0,1.0791189E1,5.1885047E0,-1.8392228E-1,5.897214E0,-3.430523E0,3.755507E-1,6.3835473E0,-1.6801267E0,-1.1564071E1,-2.5866566E0,-3.1275482E0,5.3146366E-2,5.7859936E0,2.573342E0,-8.983899E-1,-7.4474683E0,-5.8242083E0,-1.3058997E1,-2.0454617E0,1.4076829E0,2.8058348E0,9.0646036E-2,8.95539E0,1.9206364E-1,4.2600176E-1,3.860925E1,6.0005397E-1,-2.4223678E0,-9.820942E-1,3.3173149E0,-3.1360862E0,-1.6788383E-1],"split_indices":[2,3,2,0,1,1,3,3,0,0,0,0,1,3,2,3,0,2,0,0,0,2,2,0,0,0,0,0,2,2,3,1,2,3,3,0,0,1,1,1,0,0,0,0,3,0,0,0,0,2,3,0,2,0,0,0,3,0,0,0,0,0,0,0,0,0,0,0,0,0,0,0,0,0,0,0,0,0,0,0,0,0,0,0,0,0,0,0,0,0,0,0,0,0,0,0,0],"split_type":[0,0,0,0,0,0,0,0,0,0,0,0,0,0,0,0,0,0,0,0,0,0,0,0,0,0,0,0,0,0,0,0,0,0,0,0,0,0,0,0,0,0,0,0,0,0,0,0,0,0,0,0,0,0,0,0,0,0,0,0,0,0,0,0,0,0,0,0,0,0,0,0,0,0,0,0,0,0,0,0,0,0,0,0,0,0,0,0,0,0,0,0,0,0,0,0,0],"sum_hessian":[3.004E3,1.17E2,2.887E3,5.8E1,5.9E1,3.5E1,2.852E3,5.6E1,2E0,3.7E1,2.2E1,2E1,1.5E1,1.525E3,1.327E3,2.5E1,3.1E1,3.1E1,6E0,1.8E1,4E0,1.3E1,7E0,9E0,6E0,1.513E3,1.2E1,3E0,1.324E3,1.4E1,1.1E1,2.2E1,9E0,1.6E1,1.5E1,4E0,2E0,1.3E1,5E0,3E0,1E0,3E0,1E1,1E0,6E0,8E0,1E0,5E0,1E0,1.48E3,3.3E1,2E0,1E1,1E0,2E0,3.2E1,1.292E3,8E0,6E0,6E0,5E0,2E1,2E0,6E0,3E0,5E0,1.1E1,1E1,5E0,4E0,9E0,4E0,1E0,2E0,1E0,2E0,1E0,1E0,9E0,3E0,3E0,3E0,5E0,3E0,2E0,2.1E1,1.459E3,9E0,2.4E1,1E0,1E0,8E0,2E0,7E0,2.5E1,2.8E1,1.264E3],"tree_param":{"num_deleted":"0","num_feature":"4","num_nodes":"97","size_leaf_vector":"1"}},{"base_weights":[1.19496554E-1,1.01470634E-1,8.140403E0,-2.9888526E-1,9.960211E-1,-7.73806E-2,-6.5529623E0,8.827576E-1,2.696751E1,4.5460634E0,-2.7178434E-1,-7.4649467E0,8.592894E0,-2.0037243E1,9.952492E-1,1.9286015E1,-6.9011283E0,2.2785444E0,2.8191475E1,-8.964542E0,-1.3416994E-1,5.7030673E0,-8.5231905E0,-6.6304107E0,-1.767111E0,3.9022388E0,1.4818752E-1,-3.8331301E0,7.276223E-1,-5.1427245E-1,3.5926347E0,3.8897142E0,1.0910811E1,5.6377707E0,-5.468828E0,7.236752E-2,-6.6711223E-1,-7.178027E0,-2.0762687E0,8.8674164E-1,1.2520886E1,-1.824245E-1,1.0572867E0],"categories":[],"categories_nodes":[],"categories_segments":[],"categories_sizes":[],"default_left":[0,0,0,0,0,0,0,0,0,0,0,0,0,0,0,0,0,0,0,0,0,0,0,0,0,0,0,0,0,0,0,0,0,0,0,0,0,0,0,0,0,0,0],"id":13,"left_children":[1,3,-1,5,7,9,11,13,15,17,19,21,-1,23,25,-1,27,29,31,33,35,-1,37,-1,-1,39,41,-1,-1,-1,-1,-1,-1,-1,-1,-1,-1,-1,-1,-1,-1,-1,-1],"loss_changes":[1.4606014E3,1.0761459E3,0E0,2.8753909E3,2.7089602E3,1.8042579E3,2.492787E3,2.19912E3,5.499453E3,4.2786953E3,2.3027722E3,2.1232305E3,0E0,1.5819458E1,2.2697544E3,0E0,1.9539703E2,2.9243535E3,4.0004785E2,8.0575703E3,1.488547E3,0E0,1.5127173E3,0E0,0E0,7.324578E3,1.8277106E3,0E0,0E0,0E0,0E0,0E0,0E0,0E0,0E0,0E0,0E0,0E0,0E0,0E0,0E0,0E0,0E0],"parents":[2147483647,0,0,1,1,3,3,4,4,5,5,6,6,7,7,8,8,9,9,10,10,11,11,13,13,14,14,16,16,17,17,18,18,19,19,20,20,22,22,25,25,26,26],"right_children":[2,4,-1,6,8,10,12,14,16,18,20,22,-1,24,26,-1,28,30,32,34,36,-1,38,-1,-1,40,42,-1,-1,-1,-1,-1,-1,-1,-1,-1,-1,-1,-1,-1,-1,-1,-1],"split_conditions":[1.2480001E2,2.6755585E1,8.140403E0,2.6525335E1,3.331508E1,2.5946444E1,1.64E1,4.820629E0,2.6796175E1,2.5539331E1,3.1809315E1,6.8415924E1,8.592894E0,1.5042659E1,1.343802E2,1.9286015E1,2.6938921E1,2.0784925E1,7.568264E0,1.0464797E1,7.5000005E0,5.7030673E0,9.042862E1,-6.6304107E0,-1.767111E0,1.3383096E2,2.8499402E2,-3.8331301E0,7.276223E-1,-5.1427245E-1,3.5926347E0,3.8897142E0,1.0910811E1,5.6377707E0,-5.468828E0,7.236752E-2,-6.6711223E-1,-7.178027E0,-2.0762687E0,8.8674164E-1,1.2520886E1,-1.824245E-1,1.0572867E0],"split_indices":[1,0,0,0,2,3,1,3,0,0,3,3,0,2,3,0,0,3,3,2,1,0,3,0,0,3,3,0,0,0,0,0,0,0,0,0,0,0,0,0,0,0,0],"split_type":[0,0,0,0,0,0,0,0,0,0,0,0,0,0,0,0,0,0,0,0,0,0,0,0,0,0,0,0,0,0,0,0,0,0,0,0,0,0,0,0,0,0,0],"sum_hessian":[3.004E3,3.003E3,1E0,2.075E3,9.28E2,2.005E3,7E1,9.25E2,3E0,8E1,1.925E3,6.9E1,1E0,4E0,9.21E2,1E0,2E0,7.4E1,6E0,2.9E1,1.896E3,2E0,6.7E1,3E0,1E0,2.07E2,7.14E2,1E0,1E0,5.3E1,2.1E1,3E0,3E0,7E0,2.2E1,1.608E3,2.88E2,5E0,6.2E1,2.03E2,4E0,5.84E2,1.3E2],"tree_param":{"num_deleted":"0","num_feature":"4","num_nodes":"43","size_leaf_vector":"1"}},{"base_weights":[1.01184785E-1,1.1196924E0,-2.4532548E-1,5.7279485E-1,1.7935715E1,-3.859309E0,4.349385E-2,3.4351203E-1,8.040138E0,2.0101368E0,1.287447E2,-5.218468E0,7.6059175E0,5.4262075E0,-1.6634881E-1,6.4559704E-1,-2.6584991E1,5.1565204E0,1.2441905E1,-8.517762E0,1.3312378E1,5.9554585E1,-1.6194626E0,-1.6700734E0,-1.0602968E1,2.466235E1,2.5504746E0,2.8230023E0,3.6194168E1,-1.233686E1,-2.4818696E-2,4.4826162E-1,8.686766E0,-1.1550993E1,-3.5200028E0,2.978389E0,2.518908E0,4.640526E0,-1.3115536E0,-1.3310025E1,8.5341185E-1,1.9462772E1,-2.8728795E0,-5.3575027E-1,-1.7650358E1,-3.2606644E1,-7.013884E0,1.0986113E1,-1.6817575E0,-3.084385E0,4.3311214E0,5.271144E0,-1.006098E1,-1.1232007E1,4.0998756E1,2.8234756E0,-1.7410826E1,6.013672E0,-2.3302954E-1,3.2058057E-1,-1.1719209E0,1.2476922E1,-4.0037018E-1,-1.7648194E0,1.5118728E0,-1.5498688E0,-5.148917E0,3.9850996E0,-1.6725203E0,6.7754407E0,-8.270188E-1,-8.4931564E-1,6.6591973E0,-6.6524405E0,7.457783E-1,-1.6392859E1,-2.536903E0,-7.2091436E-1,-5.8072095E0,-4.030546E0,2.1257414E-1,3.9553308E-1,3.4423954E0,-5.351356E0,1.3182633E0,1.3151551E-2,-4.2185783E0,-9.672041E0,-1.1084862E0,6.135624E-1,2.0104069E1,-8.577152E0,-4.313392E-2],"categories":[],"categories_nodes":[],"categories_segments":[],"categories_sizes":[],"default_left":[0,0,0,0,0,0,0,0,0,0,0,0,0,0,0,0,0,0,0,0,0,0,0,0,0,0,0,0,0,0,0,0,0,0,0,0,0,0,0,0,0,0,0,0,0,0,0,0,0,0,0,0,0,0,0,0,0,0,0,0,0,0,0,0,0,0,0,0,0,0,0,0,0,0,0,0,0,0,0,0,0,0,0,0,0,0,0,0,0,0,0,0,0],"id":14,"left_children":[1,3,5,7,9,11,13,15,17,19,21,23,25,27,29,31,33,35,37,39,41,-1,-1,43,45,47,49,51,53,55,57,59,61,-1,-1,-1,63,-1,-1,65,67,69,-1,71,73,75,77,-1,-1,79,-1,81,83,85,-1,-1,87,89,91,-1,-1,-1,-1,-1,-1,-1,-1,-1,-1,-1,-1,-1,-1,-1,-1,-1,-1,-1,-1,-1,-1,-1,-1,-1,-1,-1,-1,-1,-1,-1,-1,-1,-1],"loss_changes":[1.0608094E3,7.006764E3,2.3413848E3,1.264217E3,4.2093938E4,2.6264812E3,2.3480515E3,5.8660107E3,2.1508936E2,2.7311462E3,2.9149309E4,2.829135E3,1.4892001E3,6.1452583E3,3.4464038E3,1.125913E3,9.642803E2,1.637706E2,4.7472205E2,5.5026855E2,1.7348967E3,0E0,0E0,1.6400833E3,4.4307095E3,1.6530803E3,1.0492189E3,2.3555854E3,3.012397E4,2.7019333E3,2.489557E3,1.8843302E3,5.6609424E3,0E0,0E0,0E0,2.6260162E2,0E0,0E0,1.6235815E2,4.7359543E2,6.8658936E2,0E0,4.550258E3,6.0175757E2,3.795371E3,2.912999E3,0E0,0E0,4.41381E2,0E0,1.505149E3,1.4273771E3,1.6016516E2,0E0,0E0,3.7454155E3,1.5839949E4,4.840031E3,0E0,0E0,0E0,0E0,0E0,0E0,0E0,0E0,0E0,0E0,0E0,0E0,0E0,0E0,0E0,0E0,0E0,0E0,0E0,0E0,0E0,0E0,0E0,0E0,0E0,0E0,0E0,0E0,0E0,0E0,0E0,0E0,0E0,0E0],"parents":[2147483647,0,0,1,1,2,2,3,3,4,4,5,5,6,6,7,7,8,8,9,9,10,10,11,11,12,12,13,13,14,14,15,15,16,16,17,17,18,18,19,19,20,20,23,23,24,24,25,25,26,26,27,27,28,28,29,29,30,30,31,31,32,32,36,36,39,39,40,40,41,41,43,43,44,44,45,45,46,46,49,49,51,51,52,52,53,53,56,56,57,57,58,58],"right_children":[2,4,6,8,10,12,14,16,18,20,22,24,26,28,30,32,34,36,38,40,42,-1,-1,44,46,48,50,52,54,56,58,60,62,-1,-1,-1,64,-1,-1,66,68,70,-1,72,74,76,78,-1,-1,80,-1,82,84,86,-1,-1,88,90,92,-1,-1,-1,-1,-1,-1,-1,-1,-1,-1,-1,-1,-1,-1,-1,-1,-1,-1,-1,-1,-1,-1,-1,-1,-1,-1,-1,-1,-1,-1,-1,-1,-1,-1],"split_conditions":[2.3502419E1,2.3461832E1,2.392225E1,2.9724088E2,2.644762E2,1.69E1,3.855459E1,2.8826178E2,2.3057669E1,2.348475E1,2.348475E1,1.5124284E1,2.4494075E2,3.5226883E1,4.7941525E1,2.8442278E1,1.81041E1,2.087433E1,3.2601706E2,1.1339276E2,1.4216064E2,5.9554585E1,-1.6194626E0,8E0,6.682985E1,2.382225E1,2.8274728E2,2.9758669E1,2.7247667E1,1.0514218E1,7.50809E1,1.4493939E2,2.9237675E1,-1.1550993E1,-3.5200028E0,2.978389E0,2.1026419E1,4.640526E0,-1.3115536E0,1.1212135E1,1.2012487E2,1.710284E1,-2.8728795E0,1.8000001E0,2.382225E1,2.3640999E1,2.80505E2,1.0986113E1,-1.6817575E0,1.6267857E1,4.3311214E0,2.5180582E1,1.4904173E1,2.4562498E1,4.0998756E1,2.8234756E0,1.2267762E1,7.3661705E1,7.698118E1,3.2058057E-1,-1.1719209E0,1.2476922E1,-4.0037018E-1,-1.7648194E0,1.5118728E0,-1.5498688E0,-5.148917E0,3.9850996E0,-1.6725203E0,6.7754407E0,-8.270188E-1,-8.4931564E-1,6.6591973E0,-6.6524405E0,7.457783E-1,-1.6392859E1,-2.536903E0,-7.2091436E-1,-5.8072095E0,-4.030546E0,2.1257414E-1,3.9553308E-1,3.4423954E0,-5.351356E0,1.3182633E0,1.3151551E-2,-4.2185783E0,-9.672041E0,-1.1084862E0,6.135624E-1,2.0104069E1,-8.577152E0,-4.313392E-2],"split_indices":[0,0,0,3,3,1,3,3,0,0,0,2,3,3,3,2,2,0,3,3,3,0,0,1,3,0,3,0,0,2,3,3,2,0,0,0,0,0,0,2,3,2,0,1,0,0,3,0,0,2,0,0,2,0,0,0,2,3,3,0,0,0,0,0,0,0,0,0,0,0,0,0,0,0,0,0,0,0,0,0,0,0,0,0,0,0,0,0,0,0,0,0,0],"split_type":[0,0,0,0,0,0,0,0,0,0,0,0,0,0,0,0,0,0,0,0,0,0,0,0,0,0,0,0,0,0,0,0,0,0,0,0,0,0,0,0,0,0,0,0,0,0,0,0,0,0,0,0,0,0,0,0,0,0,0,0,0,0,0,0,0,0,0,0,0,0,0,0,0,0,0,0,0,0,0,0,0,0,0,0,0,0,0,0,0,0,0,0,0],"sum_hessian":[3.004E3,7.62E2,2.242E3,7.39E2,2.3E1,1.65E2,2.077E3,7.18E2,2.1E1,2.1E1,2E0,1.48E2,1.7E1,7.7E1,2E3,7.11E2,7E0,1.4E1,7E0,1.1E1,1E1,1E0,1E0,9E1,5.8E1,3E0,1.4E1,7.2E1,5E0,2.2E1,1.978E3,6.95E2,1.6E1,3E0,4E0,4E0,1E1,6E0,1E0,7E0,4E0,8E0,2E0,8.5E1,5E0,7E0,5.1E1,2E0,1E0,1E1,4E0,6.1E1,1.1E1,4E0,1E0,4E0,1.8E1,6.5E1,1.913E3,6.09E2,8.6E1,3E0,1.3E1,2E0,8E0,3E0,4E0,1E0,3E0,7E0,1E0,7.8E1,7E0,4E0,1E0,3E0,4E0,3.8E1,1.3E1,2E0,8E0,3.8E1,2.3E1,7E0,4E0,1E0,3E0,8E0,1E1,6.2E1,3E0,5E0,1.908E3],"tree_param":{"num_deleted":"0","num_feature":"4","num_nodes":"93","size_leaf_vector":"1"}},{"base_weights":[9.872803E-2,8.3014935E-2,7.0951314E0,3.6380017E-1,-9.9068236E-1,3.421801E-2,1.8770125E0,-2.541267E0,2.2065537E0,1.201282E-1,-1.1096296E1,-5.6229486E0,3.392844E0,-2.9773972E0,6.8200865E0,6.9903435E1,8.483742E-1,3.0164715E-2,3.498394E1,-7.811718E0,-5.190685E0,3.863796E0,-9.8743925E0,3.123365E1,1.9001596E0,-6.3453803E0,-1.870793E0,-1.0735741E0,8.367247E0,5.0621395E1,-5.7862215E0,-9.4088453E-1,9.664465E0,9.2394486E-2,-8.009674E-1,2.6924076E1,-3.4305954E-1,7.804676E-1,-3.3384674E0,-3.025273E0,3.1788988E0,-3.6653686E0,1.8800472E0,2.8378654E1,5.2203593E0,2.6152194E0,-4.3336887E-2,-3.067788E0,-6.0276735E-1,2.413446E0,-8.1330615E-1,-1.9778985E0,2.3227034E0,2.8572059E0,7.547768E-1,-3.1200693E0,1.6343309E-2,9.991892E0,-5.3654805E-2],"categories":[],"categories_nodes":[],"categories_segments":[],"categories_sizes":[],"default_left":[0,0,0,0,0,0,0,0,0,0,0,0,0,0,0,0,0,0,0,0,0,0,0,0,0,0,0,0,0,0,0,0,0,0,0,0,0,0,0,0,0,0,0,0,0,0,0,0,0,0,0,0,0,0,0,0,0,0,0],"id":15,"left_children":[1,3,-1,5,7,9,11,13,15,17,19,21,23,25,27,29,31,33,35,-1,37,39,41,43,45,47,49,51,53,-1,-1,55,57,-1,-1,-1,-1,-1,-1,-1,-1,-1,-1,-1,-1,-1,-1,-1,-1,-1,-1,-1,-1,-1,-1,-1,-1,-1,-1],"loss_changes":[1.1100979E3,9.0600134E2,0E0,1.1879054E3,3.0941826E3,1.8726648E3,4.862135E3,1.7350703E3,1.8697377E4,6.093106E3,1.1885316E3,2.9420825E3,1.4693577E4,1.4863928E3,2.410252E2,3.851506E4,3.179721E3,1.4553073E3,9.994868E3,0E0,5.841518E2,2.266685E3,1.9679165E3,1.4130025E4,4.7125176E3,1.6453071E3,2.554546E3,2.4568028E2,8.433667E1,0E0,0E0,1.5823666E3,7.9182354E3,0E0,0E0,0E0,0E0,0E0,0E0,0E0,0E0,0E0,0E0,0E0,0E0,0E0,0E0,0E0,0E0,0E0,0E0,0E0,0E0,0E0,0E0,0E0,0E0,0E0,0E0],"parents":[2147483647,0,0,1,1,3,3,4,4,5,5,6,6,7,7,8,8,9,9,10,10,11,11,12,12,13,13,14,14,15,15,16,16,17,17,18,18,20,20,21,21,22,22,23,23,24,24,25,25,26,26,27,27,28,28,31,31,32,32],"right_children":[2,4,-1,6,8,10,12,14,16,18,20,22,24,26,28,30,32,34,36,-1,38,40,42,44,46,48,50,52,54,-1,-1,56,58,-1,-1,-1,-1,-1,-1,-1,-1,-1,-1,-1,-1,-1,-1,-1,-1,-1,-1,-1,-1,-1,-1,-1,-1,-1,-1],"split_conditions":[1.2480001E2,1.985556E1,7.0951314E0,1.6870138E1,4.2999997E0,3.3560413E1,1.2534225E2,2.9724088E2,4.3999996E0,3.3397915E1,1.6502707E2,6.40176E1,1.3299165E2,2.5144083E1,2.0140705E1,2.348475E1,2.7887802E1,1.5905319E1,1.4747921E1,-7.811718E0,2.0430452E2,2.0784925E1,1.9130875E1,2.2091002E1,2.33152E2,2.6133524E2,2.5368082E1,2.8633669E1,3.2900052E2,5.0621395E1,-5.7862215E0,2.2543083E1,2.6087607E2,9.2394486E-2,-8.009674E-1,2.6924076E1,-3.4305954E-1,7.804676E-1,-3.3384674E0,-3.025273E0,3.1788988E0,-3.6653686E0,1.8800472E0,2.8378654E1,5.2203593E0,2.6152194E0,-4.3336887E-2,-3.067788E0,-6.0276735E-1,2.413446E0,-8.1330615E-1,-1.9778985E0,2.3227034E0,2.8572059E0,7.547768E-1,-3.1200693E0,1.6343309E-2,9.991892E0,-5.3654805E-2],"split_indices":[1,2,0,2,1,0,3,3,1,0,3,3,3,0,2,0,2,2,2,0,3,3,2,0,3,3,0,0,3,0,0,0,3,0,0,0,0,0,0,0,0,0,0,0,0,0,0,0,0,0,0,0,0,0,0,0,0,0,0],"split_type":[0,0,0,0,0,0,0,0,0,0,0,0,0,0,0,0,0,0,0,0,0,0,0,0,0,0,0,0,0,0,0,0,0,0,0,0,0,0,0,0,0,0,0,0,0,0,0,0,0,0,0,0,0,0,0,0,0,0,0],"sum_hessian":[3.004E3,3.003E3,1E0,2.381E3,6.22E2,1.956E3,4.25E2,4.19E2,2.03E2,1.942E3,1.4E1,7.1E1,3.54E2,4.01E2,1.8E1,3E0,2E2,1.938E3,4E0,3E0,1.1E1,2.2E1,4.9E1,1.7E1,3.37E2,9.8E1,3.03E2,3E0,1.5E1,1E0,2E0,1.67E2,3.3E1,1.758E3,1.8E2,1E0,3E0,5E0,6E0,7E0,1.5E1,4.3E1,6E0,2E0,1.5E1,7.7E1,2.6E2,5.1E1,4.7E1,2.3E1,2.8E2,2E0,1E0,1.2E1,3E0,1.5E1,1.52E2,9E0,2.4E1],"tree_param":{"num_deleted":"0","num_feature":"4","num_nodes":"59","size_leaf_vector":"1"}},{"base_weights":[1.0594736E-1,9.259856E-2,6.030863E0,1.9977044E-2,3.5959613E0,8.3573425E-1,-2.7701467E-1,3.8108826E1,1.7801214E0,1.0526527E-2,4.9997783E0,-4.9639697E0,2.327159E-2,2.2885466E1,-5.736493E0,-1.0723326E1,3.9517078E0,-2.9878727E-1,1.2421085E1,7.885237E0,-6.8453345E0,2.985369E0,-1.0474363E1,-2.1339834E0,2.654479E-1,-2.0956974E1,1.6549866E0,5.3397003E1,8.437978E-1,3.245173E-2,-2.1456842E0,2.5026914E-1,6.4021177E0,3.0565235E-1,5.328579E0,-5.2352414E0,2.0945842E0,1.4773992E0,-2.634348E0,-7.3743653E0,-8.401946E-1,-3.132915E-1,-4.760087E0,2.3386173E0,-2.1154812E-2,-1.2843721E0,-9.194115E0,1.0392414E0,-8.372429E-1,2.3905615E1,1.23037726E-1,-2.2648343E-1,3.728183E0],"categories":[],"categories_nodes":[],"categories_segments":[],"categories_sizes":[],"default_left":[0,0,0,0,0,0,0,0,0,0,0,0,0,0,0,0,0,0,0,0,0,0,0,0,0,0,0,0,0,0,0,0,0,0,0,0,0,0,0,0,0,0,0,0,0,0,0,0,0,0,0,0,0],"id":16,"left_children":[1,3,-1,5,7,9,11,13,15,17,19,21,23,-1,-1,25,27,29,31,33,35,37,39,41,43,45,47,49,51,-1,-1,-1,-1,-1,-1,-1,-1,-1,-1,-1,-1,-1,-1,-1,-1,-1,-1,-1,-1,-1,-1,-1,-1],"loss_changes":[8.0027826E2,7.6420447E2,0E0,7.1348364E2,3.7550212E3,2.7008015E3,3.038753E3,8.0131934E3,1.644362E3,2.5257747E3,4.497193E3,5.725788E3,1.0611118E3,0E0,0E0,1.174761E3,7.7921914E3,1.791373E3,1.6357441E3,7.102717E3,3.9346064E3,1.2754576E3,8.266559E3,3.0511575E3,4.619945E3,6.767383E2,4.9883347E1,4.1461357E3,9.168129E2,0E0,0E0,0E0,0E0,0E0,0E0,0E0,0E0,0E0,0E0,0E0,0E0,0E0,0E0,0E0,0E0,0E0,0E0,0E0,0E0,0E0,0E0,0E0,0E0],"parents":[2147483647,0,0,1,1,3,3,4,4,5,5,6,6,7,7,8,8,9,9,10,10,11,11,12,12,15,15,16,16,17,17,18,18,19,19,20,20,21,21,22,22,23,23,24,24,25,25,26,26,27,27,28,28],"right_children":[2,4,-1,6,8,10,12,14,16,18,20,22,24,-1,-1,26,28,30,32,34,36,38,40,42,44,46,48,50,52,-1,-1,-1,-1,-1,-1,-1,-1,-1,-1,-1,-1,-1,-1,-1,-1,-1,-1,-1,-1,-1,-1,-1,-1],"split_conditions":[1.2480001E2,3.3160164E1,6.030863E0,1.0736289E2,1.343802E2,9.770332E1,1.1549273E2,3.3560413E1,1.6502707E2,9.2E0,8E-1,2.3264917E1,2.312475E1,2.2885466E1,-5.736493E0,1.4565548E1,1.692738E2,9.4502945E1,2.3640999E1,2.3461832E1,1.4799459E1,1.6746773E1,2.5144083E1,2.3057669E1,2.3502419E1,1.2144331E1,1.710284E1,3.3397915E1,2E-1,3.245173E-2,-2.1456842E0,2.5026914E-1,6.4021177E0,3.0565235E-1,5.328579E0,-5.2352414E0,2.0945842E0,1.4773992E0,-2.634348E0,-7.3743653E0,-8.401946E-1,-3.132915E-1,-4.760087E0,2.3386173E0,-2.1154812E-2,-1.2843721E0,-9.194115E0,1.0392414E0,-8.372429E-1,2.3905615E1,1.23037726E-1,-2.2648343E-1,3.728183E0],"split_indices":[1,0,0,3,3,3,3,0,3,1,1,0,0,0,0,2,3,3,0,0,2,2,0,0,0,2,2,0,1,0,0,0,0,0,0,0,0,0,0,0,0,0,0,0,0,0,0,0,0,0,0,0,0],"split_type":[0,0,0,0,0,0,0,0,0,0,0,0,0,0,0,0,0,0,0,0,0,0,0,0,0,0,0,0,0,0,0,0,0,0,0,0,0,0,0,0,0,0,0,0,0,0,0,0,0,0,0,0,0],"sum_hessian":[3.004E3,3.003E3,1E0,2.943E3,6E1,7.85E2,2.158E3,2E0,5.8E1,6.56E2,1.29E2,1.29E2,2.029E3,1E0,1E0,8E0,5E1,6.41E2,1.5E1,1.04E2,2.5E1,5.3E1,7.6E1,2.04E2,1.825E3,4E0,4E0,2E0,4.8E1,6.06E2,3.5E1,7E0,8E0,6.2E1,4.2E1,1.4E1,1.1E1,4.6E1,7E0,2.6E1,5E1,1.9E2,1.4E1,7.7E1,1.748E3,2E0,2E0,3E0,1E0,1E0,1E0,4.3E1,5E0],"tree_param":{"num_deleted":"0","num_feature":"4","num_nodes":"53","size_leaf_vector":"1"}},{"base_weights":[8.5923195E-2,2.1335377E-1,-1.8031843E0,1.2713575E-1,1.7460192E1,-5.829858E0,1.1151676E0,1.2547266E0,-7.101423E-2,4.731406E1,7.8723717E-1,-8.3081455E0,-4.914194E0,1.6524752E1,1.2380545E-1,4.1951215E-1,8.944765E0,-4.3476715E0,9.6655704E-2,8.205362E0,3.056233E1,-5.5669193E0,4.3057213E0,7.6140704E0,-6.045367E0,-5.5128174E0,4.2612658E0,1.4614164E0,-4.367159E0,2.2774177E0,2.313002E1,1.0774939E0,-8.909085E0,7.7246766E0,1.2678076E-2,-3.8625082E-1,5.0970306E0,-3.0011797E0,1.1616178E0,9.421328E0,-1.8863153E0,-6.8326335E0,-5.285426E0,-6.1915812E0,3.856548E0,1.4369937E1,-6.690813E-3,2.1703808E-1,2.4381886E0,-2.4205983E0,1.6810459E0,1.6586125E0,-2.1293993E-1,1.2235818E1,6.509086E-1,1.45876E0,-2.0519726E0,-1.2933877E1,-1.473204E0,1.045157E0,8.735406E0,-5.679108E-1,9.17352E-2,-8.0130273E-1,6.2748986E-1,5.848412E-1,3.378637E0,-8.612118E-1,1.6002846E-1,-1.0526428E0,-3.6118596E0,9.617226E-1,-2.1488676E0,1.3541272E1,4.7214728E-2,5.6994734E0,-8.3632123E-1],"categories":[],"categories_nodes":[],"categories_segments":[],"categories_sizes":[],"default_left":[0,0,0,0,0,0,0,0,0,0,0,0,0,0,0,0,0,0,0,0,0,0,0,0,0,0,0,0,0,0,0,0,0,0,0,0,0,0,0,0,0,0,0,0,0,0,0,0,0,0,0,0,0,0,0,0,0,0,0,0,0,0,0,0,0,0,0,0,0,0,0,0,0,0,0,0,0],"id":17,"left_children":[1,3,5,7,9,11,13,15,17,19,21,-1,23,-1,25,27,29,31,33,35,-1,37,39,-1,41,43,45,47,49,51,53,55,57,59,61,63,-1,-1,-1,65,67,-1,69,71,-1,73,75,-1,-1,-1,-1,-1,-1,-1,-1,-1,-1,-1,-1,-1,-1,-1,-1,-1,-1,-1,-1,-1,-1,-1,-1,-1,-1,-1,-1,-1,-1],"loss_changes":[7.2377844E2,4.1851387E3,2.2392388E3,6.263694E2,6.9312827E3,1.4655093E3,5.93181E3,2.687414E3,1.7106248E3,9.83301E3,2.4753958E2,0E0,2.826353E3,0E0,2.588835E3,1.8965513E3,3.8250222E3,2.2367778E3,1.4706809E3,3.084627E2,0E0,2.0625925E2,2.3950374E2,0E0,8.45876E2,6.655674E2,2.7612715E3,1.5288875E3,2.554845E3,2.855813E2,4.722498E3,1.2919019E3,6.4895664E3,2.16669E3,1.2696636E3,2.2570866E1,0E0,0E0,0E0,3.3061462E1,1.1059206E1,0E0,8.457156E2,4.4283728E2,0E0,8.301344E3,2.484228E3,0E0,0E0,0E0,0E0,0E0,0E0,0E0,0E0,0E0,0E0,0E0,0E0,0E0,0E0,0E0,0E0,0E0,0E0,0E0,0E0,0E0,0E0,0E0,0E0,0E0,0E0,0E0,0E0,0E0,0E0],"parents":[2147483647,0,0,1,1,2,2,3,3,4,4,5,5,6,6,7,7,8,8,9,9,10,10,12,12,14,14,15,15,16,16,17,17,18,18,19,19,21,21,22,22,24,24,25,25,26,26,27,27,28,28,29,29,30,30,31,31,32,32,33,33,34,34,35,35,39,39,40,40,42,42,43,43,45,45,46,46],"right_children":[2,4,6,8,10,12,14,16,18,20,22,-1,24,-1,26,28,30,32,34,36,-1,38,40,-1,42,44,46,48,50,52,54,56,58,60,62,64,-1,-1,-1,66,68,-1,70,72,-1,74,76,-1,-1,-1,-1,-1,-1,-1,-1,-1,-1,-1,-1,-1,-1,-1,-1,-1,-1,-1,-1,-1,-1,-1,-1,-1,-1,-1,-1,-1,-1],"split_conditions":[2.5932495E1,2.5699057E1,8.000001E-1,2.2344086E1,2.6798264E2,1.3383096E2,9.0000004E-1,1.6563911E1,2.2768087E1,2.6108671E1,1E-1,-8.3081455E0,2.184373E2,1.6524752E1,2.7887802E1,1.231976E2,2.2037252E1,1.31412325E1,2.2887835E1,3.3000002E0,3.056233E1,3.144375E1,1.5000001E0,7.6140704E0,2.4238907E2,2.6796175E1,2.9237675E1,1.1209858E2,1.4875424E2,1.7709658E1,1.8228943E1,2.2589918E1,1.3276144E1,1.4113653E1,1.08955765E1,2.392225E1,5.0970306E0,-3.0011797E0,1.1616178E0,3E-1,2.4038918E1,-6.8326335E0,2.7574857E2,1.4000001E0,3.856548E0,2.5976474E2,1.3000001E0,2.1703808E-1,2.4381886E0,-2.4205983E0,1.6810459E0,1.6586125E0,-2.1293993E-1,1.2235818E1,6.509086E-1,1.45876E0,-2.0519726E0,-1.2933877E1,-1.473204E0,1.045157E0,8.735406E0,-5.679108E-1,9.17352E-2,-8.0130273E-1,6.2748986E-1,5.848412E-1,3.378637E0,-8.612118E-1,1.6002846E-1,-1.0526428E0,-3.6118596E0,9.617226E-1,-2.1488676E0,1.3541272E1,4.7214728E-2,5.6994734E0,-8.3632123E-1],"split_indices":[2,2,1,0,3,3,1,2,0,0,1,0,3,0,2,3,0,2,0,1,0,0,1,0,3,0,2,3,3,2,2,0,2,2,2,0,0,0,0,1,0,0,3,1,0,3,1,0,0,0,0,0,0,0,0,0,0,0,0,0,0,0,0,0,0,0,0,0,0,0,0,0,0,0,0,0,0],"split_type":[0,0,0,0,0,0,0,0,0,0,0,0,0,0,0,0,0,0,0,0,0,0,0,0,0,0,0,0,0,0,0,0,0,0,0,0,0,0,0,0,0,0,0,0,0,0,0,0,0,0,0,0,0,0,0,0,0,0,0,0,0,0,0,0,0,0,0,0,0,0,0,0,0,0,0,0,0],"sum_hessian":[3.004E3,2.815E3,1.89E2,2.802E3,1.3E1,7.9E1,1.1E2,4.18E2,2.384E3,4E0,9E0,2E0,7.7E1,1E0,1.09E2,3.78E2,4E1,8.9E1,2.295E3,3E0,1E0,3E0,6E0,2E0,7.5E1,4.6E1,6.3E1,3.11E2,6.7E1,2.8E1,1.2E1,4.1E1,4.8E1,2.4E1,2.271E3,2E0,1E0,2E0,1E0,3E0,3E0,2E0,7.3E1,4.5E1,1E0,1.8E1,4.5E1,2.81E2,3E1,4.9E1,1.8E1,1.3E1,1.5E1,6E0,6E0,2.8E1,1.3E1,4E0,4.4E1,2.1E1,3E0,3.02E2,1.969E3,1E0,1E0,1E0,2E0,2E0,1E0,5.9E1,1.4E1,4E0,4.1E1,5E0,1.3E1,5E0,4E1],"tree_param":{"num_deleted":"0","num_feature":"4","num_nodes":"77","size_leaf_vector":"1"}},{"base_weights":[8.44103E-2,2.70362E0,-2.2636494E-2,-7.5961804E-1,6.064077E0,-3.9880826E0,1.8083896E-1,6.9367635E-1,-8.435702E0,1.7960556E1,3.32557E0,1.0292767E0,-7.1141367E0,2.513351E0,-1.6400032E-1,1.8719718E0,-1.5386732E1,8.807943E0,3.1775642E1,-7.6039915E0,5.9102054E0,-5.237421E0,6.049863E0,-4.6261806E0,-2.388309E1,-1.2054521E-1,6.8385577E0,-1.751349E1,-7.660188E-2,2.9321304E-1,1.0913183E1,3.1716157E-2,-6.175837E0,1.3635857E1,-1.1351594E0,1.3574967E1,-1.2970643E0,3.863557E0,-1.9844252E1,1.3396548E1,-2.6202817E0,-8.7836485E0,2.042945E0,1.4653151E1,2.9300225E0,-3.1303425E1,-3.1216514E0,-3.264756E1,1.0371361E1,4.652596E0,-3.6900558E0,1.7014451E-1,9.987696E0,-1.8049545E1,-8.166509E0,-5.5727696E0,7.663194E-3,3.053158E0,-1.8359835E-1,4.033845E0,6.6285706E-1,5.141112E0,1.3266983E0,5.4166723E-2,3.3417847E0,-1.0707604E0,-8.851366E0,1.0037239E0,5.359162E0,-5.3261743E0,6.8182373E-1,-1.6004524E0,-9.594686E0,1.5425708E0,-1.7606812E0,7.9634795E0,1.8795205E0,-6.867819E-1,1.704825E0,-2.506991E0,-1.0850043E1,2.1250174E0,-1.5047759E0,-1.4709464E1,-2.9202204E0,6.698319E-1,3.9972806E0,8.267331E-1,3.6284492E0,-3.6619186E-1,-3.8372502E0,8.389412E-1,-4.2334085E0,4.0204706E0,-1.0963283E0,3.5115853E-1,-4.8427386E0,-5.3008217E-1,-5.0381794E0,1.5238979E0,-2.673515E-2],"categories":[],"categories_nodes":[],"categories_segments":[],"categories_sizes":[],"default_left":[0,0,0,0,0,0,0,0,0,0,0,0,0,0,0,0,0,0,0,0,0,0,0,0,0,0,0,0,0,0,0,0,0,0,0,0,0,0,0,0,0,0,0,0,0,0,0,0,0,0,0,0,0,0,0,0,0,0,0,0,0,0,0,0,0,0,0,0,0,0,0,0,0,0,0,0,0,0,0,0,0,0,0,0,0,0,0,0,0,0,0,0,0,0,0,0,0,0,0,0,0],"id":18,"left_children":[1,3,5,7,9,11,13,15,-1,17,19,21,23,25,27,29,31,33,35,37,39,41,43,45,47,49,51,53,55,57,59,-1,-1,61,-1,-1,-1,63,65,67,69,71,73,75,77,79,81,83,85,87,89,91,93,-1,95,97,99,-1,-1,-1,-1,-1,-1,-1,-1,-1,-1,-1,-1,-1,-1,-1,-1,-1,-1,-1,-1,-1,-1,-1,-1,-1,-1,-1,-1,-1,-1,-1,-1,-1,-1,-1,-1,-1,-1,-1,-1,-1,-1,-1,-1],"loss_changes":[8.425971E2,1.3778978E3,2.3309648E3,2.365419E3,1.8949863E3,2.2188416E3,2.2107432E3,1.1088096E3,0E0,1.1110073E3,1.4573876E3,1.7621228E3,3.519189E3,4.0336438E3,3.630241E3,7.675902E2,3.243816E2,5.379335E2,2.141277E3,1.4803271E3,2.653451E3,6.6339044E2,7.891334E2,2.9928071E3,3.6410435E3,3.7825173E3,2.812268E3,4.292632E3,1.1041565E3,4.2673987E2,1.4665906E2,0E0,0E0,1.17763794E2,0E0,0E0,0E0,1.5876776E2,6.808015E2,9.280359E2,1.5213356E3,1.1895093E3,2.5084476E2,6.316881E2,3.5782446E2,1.4416333E2,1.4660298E3,2.9014521E3,4.2347443E1,1.3077437E3,2.838535E3,1.6898091E3,4.2870693E3,0E0,8.3808453E2,1.507736E3,1.1535054E3,0E0,0E0,0E0,0E0,0E0,0E0,0E0,0E0,0E0,0E0,0E0,0E0,0E0,0E0,0E0,0E0,0E0,0E0,0E0,0E0,0E0,0E0,0E0,0E0,0E0,0E0,0E0,0E0,0E0,0E0,0E0,0E0,0E0,0E0,0E0,0E0,0E0,0E0,0E0,0E0,0E0,0E0,0E0,0E0],"parents":[2147483647,0,0,1,1,2,2,3,3,4,4,5,5,6,6,7,7,9,9,10,10,11,11,12,12,13,13,14,14,15,15,16,16,17,17,18,18,19,19,20,20,21,21,22,22,23,23,24,24,25,25,26,26,27,27,28,28,29,29,30,30,33,33,37,37,38,38,39,39,40,40,41,41,42,42,43,43,44,44,45,45,46,46,47,47,48,48,49,49,50,50,51,51,52,52,54,54,55,55,56,56],"right_children":[2,4,6,8,10,12,14,16,-1,18,20,22,24,26,28,30,32,34,36,38,40,42,44,46,48,50,52,54,56,58,60,-1,-1,62,-1,-1,-1,64,66,68,70,72,74,76,78,80,82,84,86,88,90,92,94,-1,96,98,100,-1,-1,-1,-1,-1,-1,-1,-1,-1,-1,-1,-1,-1,-1,-1,-1,-1,-1,-1,-1,-1,-1,-1,-1,-1,-1,-1,-1,-1,-1,-1,-1,-1,-1,-1,-1,-1,-1,-1,-1,-1,-1,-1,-1],"split_conditions":[9.220499E0,1.0463893E2,1.0144082E1,2.5571169E1,1.1549273E2,2.3018751E1,1.1440979E1,1.0025676E2,-8.435702E0,2.5403503E1,1.3048518E2,8.229925E1,1.0086427E1,1.0966713E1,1.1480557E1,9.114471E0,8.4963045E0,1.063712E2,2.6227417E1,1.21639725E2,2.4E0,2.1811834E1,2.0521166E1,2.3286833E1,2.6260752E1,1.0514218E1,2.294375E1,4.7941525E1,1.1592894E1,1.6311234E1,8.349446E1,3.1716157E-2,-6.175837E0,2.4175333E1,-1.1351594E0,1.3574967E1,-1.2970643E0,1E-1,2.4993086E1,1E-1,3.6000001E0,2.1768084E1,9.83268E0,9.5314445E1,2.1399332E1,2.3057669E1,3.855459E1,9.332136E1,2.7083084E1,2.6285166E1,2.6164331E1,2.2487833E1,2.9301416E1,-1.8049545E1,2.4470167E1,2.6478918E1,1.1726277E1,3.053158E0,-1.8359835E-1,4.033845E0,6.6285706E-1,5.141112E0,1.3266983E0,5.4166723E-2,3.3417847E0,-1.0707604E0,-8.851366E0,1.0037239E0,5.359162E0,-5.3261743E0,6.8182373E-1,-1.6004524E0,-9.594686E0,1.5425708E0,-1.7606812E0,7.9634795E0,1.8795205E0,-6.867819E-1,1.704825E0,-2.506991E0,-1.0850043E1,2.1250174E0,-1.5047759E0,-1.4709464E1,-2.9202204E0,6.698319E-1,3.9972806E0,8.267331E-1,3.6284492E0,-3.6619186E-1,-3.8372502E0,8.389412E-1,-4.2334085E0,4.0204706E0,-1.0963283E0,3.5115853E-1,-4.8427386E0,-5.3008217E-1,-5.0381794E0,1.5238979E0,-2.673515E-2],"split_indices":[2,3,2,0,3,0,2,3,0,0,3,3,2,2,2,2,2,3,0,3,1,0,0,0,0,2,0,3,2,3,3,0,0,0,0,0,0,1,0,1,1,0,2,3,0,0,3,3,0,0,0,0,0,0,0,0,2,0,0,0,0,0,0,0,0,0,0,0,0,0,0,0,0,0,0,0,0,0,0,0,0,0,0,0,0,0,0,0,0,0,0,0,0,0,0,0,0,0,0,0,0],"split_type":[0,0,0,0,0,0,0,0,0,0,0,0,0,0,0,0,0,0,0,0,0,0,0,0,0,0,0,0,0,0,0,0,0,0,0,0,0,0,0,0,0,0,0,0,0,0,0,0,0,0,0,0,0,0,0,0,0,0,0,0,0,0,0,0,0,0,0,0,0,0,0,0,0,0,0,0,0,0,0,0,0,0,0,0,0,0,0,0,0,0,0,0,0,0,0,0,0,0,0,0,0],"sum_hessian":[3.004E3,1.17E2,2.887E3,5.8E1,5.9E1,1.4E2,2.747E3,5.6E1,2E0,1E1,4.9E1,5.4E1,8.6E1,3.53E2,2.394E3,5.3E1,3E0,7E0,3E0,9E0,4E1,2.4E1,3E1,7.6E1,1E1,2.2E2,1.33E2,1.1E1,2.383E3,4.6E1,7E0,1E0,2E0,5E0,2E0,2E0,1E0,5E0,4E0,2.1E1,1.9E1,1.6E1,8E0,7E0,2.3E1,3E0,7.3E1,8E0,2E0,9.4E1,1.26E2,4.3E1,9E1,1E0,1E1,3.5E1,2.348E3,3E0,4.3E1,5E0,2E0,3E0,2E0,4E0,1E0,2E0,2E0,7E0,1.4E1,4E0,1.5E1,1.5E1,1E0,6E0,2E0,2E0,5E0,8E0,1.5E1,1E0,2E0,1.1E1,6.2E1,4E0,4E0,1E0,1E0,7.6E1,1.8E1,1E2,2.6E1,3.7E1,6E0,7.2E1,1.8E1,5E0,5E0,2.7E1,8E0,4.3E1,2.305E3],"tree_param":{"num_deleted":"0","num_feature":"4","num_nodes":"101","size_leaf_vector":"1"}},{"base_weights":[4.3347623E-2,-2.842694E-2,3.507819E0,-1.4213367E-1,2.2005827E0,3.234918E1,1.9818546E0,5.953379E-2,-2.9798932E0,2.934014E-1,9.687661E0,1.94429E1,-4.885769E0,-1.1814607E1,3.4780939E0,-1.6949919E-1,3.626563E0,-7.8418927E0,9.005333E-2,-2.5088198E0,5.4122596E0,1.47101965E1,2.3745258E0,-8.160412E0,-3.2969804E0,2.2262999E1,1.1069198E0,-1.0582389E-1,-2.2477123E1,3.0207186E1,1.8182894E0,-2.0390835E1,-4.992257E0,1.675766E1,-8.1990755E-1,4.5262785E0,-7.042388E0,1.0620668E1,-2.5655334E0,3.0041988E0,1.9337345E1,5.3463492E0,-3.977909E-1,-1.9290882E0,1.3854413E0,-3.6443025E-1,2.0310022E1,-4.952097E0,3.9256651E0,6.772303E-2,-6.301828E-1,-7.215078E0,-1.9557462E0,4.266764E1,5.873641E-1,2.7876836E-1,4.663467E0,-1.2097321E-1,-7.904036E0,5.576913E-1,-4.2069163E0,9.287981E0,5.749615E-1,1.046014E-2,-4.692544E0,2.9195952E0,-3.9846766E-1,-4.0064435E0,-8.644473E-1,7.6692624E0,1.9670812E0,-1.4468398E0,5.032608E0,2.7597754E0,-1.8771813E0,7.145592E0,1.3260293E0,-2.554721E0,6.232116E-1,1.3093524E0,-2.8920274E0,-2.5564196E0,2.5630417E-1,-2.159186E0,1.4537296E0],"categories":[],"categories_nodes":[],"categories_segments":[],"categories_sizes":[],"default_left":[0,0,0,0,0,0,0,0,0,0,0,0,0,0,0,0,0,0,0,0,0,0,0,0,0,0,0,0,0,0,0,0,0,0,0,0,0,0,0,0,0,0,0,0,0,0,0,0,0,0,0,0,0,0,0,0,0,0,0,0,0,0,0,0,0,0,0,0,0,0,0,0,0,0,0,0,0,0,0,0,0,0,0,0,0],"id":19,"left_children":[1,3,5,7,9,11,13,15,17,19,21,-1,-1,23,25,27,29,31,33,35,37,39,41,-1,43,45,47,49,51,53,55,57,59,61,63,65,67,69,71,73,75,-1,77,-1,-1,79,-1,81,83,-1,-1,-1,-1,-1,-1,-1,-1,-1,-1,-1,-1,-1,-1,-1,-1,-1,-1,-1,-1,-1,-1,-1,-1,-1,-1,-1,-1,-1,-1,-1,-1,-1,-1,-1,-1],"loss_changes":[7.473258E2,7.4673303E2,2.6205527E3,1.6042887E3,2.0390853E3,5.7916377E3,1.2590178E3,2.1394355E3,2.776957E3,1.6631583E3,1.0302542E3,0E0,0E0,6.9666986E2,2.3806396E3,3.4933354E3,7.5393506E3,2.472917E3,1.7579297E3,2.423933E3,1.7308636E3,8.627185E2,5.637878E2,0E0,1.5369873E2,6.193417E3,8.563028E2,1.624225E3,1.8940918E1,3.1365924E4,1.8039203E3,1.5369634E3,3.738391E3,1.2053301E3,1.3941783E3,9.2723096E2,1.1697239E3,1.3505403E3,8.2308234E2,4.0181396E2,6.9690186E2,0E0,2.588092E2,0E0,0E0,2.6139438E2,0E0,3.3887943E2,3.8283997E2,0E0,0E0,0E0,0E0,0E0,0E0,0E0,0E0,0E0,0E0,0E0,0E0,0E0,0E0,0E0,0E0,0E0,0E0,0E0,0E0,0E0,0E0,0E0,0E0,0E0,0E0,0E0,0E0,0E0,0E0,0E0,0E0,0E0,0E0,0E0,0E0],"parents":[2147483647,0,0,1,