{"learner":{"attributes":{"scikit_learn":"{\"_estimator_type\": \"regressor\"}"},"feature_names":["temperature_2m_mean","precipitation_sum","wind_speed_10m_max","wind_direction_10m_dominant"],"feature_types":["float","float","float","float"],"gradient_booster":{"model":{"gbtree_model_param":{"num_parallel_tree":"1","num_trees":"100"},"iteration_indptr":[0,1,2,3,4,5,6,7,8,9,10,11,12,13,14,15,16,17,18,19,20,21,22,23,24,25,26,27,28,29,30,31,32,33,34,35,36,37,38,39,40,41,42,43,44,45,46,47,48,49,50,51,52,53,54,55,56,57,58,59,60,61,62,63,64,65,66,67,68,69,70,71,72,73,74,75,76,77,78,79,80,81,82,83,84,85,86,87,88,89,90,91,92,93,94,95,96,97,98,99,100],"tree_info":[0,0,0,0,0,0,0,0,0,0,0,0,0,0,0,0,0,0,0,0,0,0,0,0,0,0,0,0,0,0,0,0,0,0,0,0,0,0,0,0,0,0,0,0,0,0,0,0,0,0,0,0,0,0,0,0,0,0,0,0,0,0,0,0,0,0,0,0,0,0,0,0,0,0,0,0,0,0,0,0,0,0,0,0,0,0,0,0,0,0,0,0,0,0,0,0,0,0,0,0],"trees":[{"base_weights":[-8.4293197E-7,-1.560754E0,5.403813E0,2.6671928E-1,-7.8584146E0,1.0269794E1,4.1744666E0,4.4872255E0,-7.49946E-1,-6.7261004E0,-2.2069979E1,9.1381445E0,2.0110016E0,1.1355522E0,1.10623665E1,-1.1013228E0,1.5887133E1,-7.3421407E0,8.769187E0,-1.0315465E0,-7.076784E0,3.1543446E0,1.4248088E1,-3.760417E0,6.4071407E0,-4.942533E-1,1.860252E1,-4.1128674E0,1.5711061E1,2.641839E-1,-5.5282063E0,1.2318454E1,7.607646E0,-6.5394607E0,-1.6160887E1,-3.6753953E0,2.2342268E1,9.899951E0,-3.3518443E0,1.1739471E1,1.0124605E1,1.6776022E1,-7.310761E0,5.2172294E0,6.749526E0,1.7218415E0,-1.6100363E0,9.40268E0,-1.3753952E0,-3.6304743E0,1.4095258E0,9.689527E0,3.426607E0,-3.0316538E-1,1.0365103E0,-2.820417E0,-6.5649116E-1,3.246048E-1,2.8807561E0,-2.1149437E0,5.224605E0,-1.3973197E0,-5.967706E0,1.0224606E1,-1.9315464E0,5.909526E0,1.2032166E0,-2.769244E0,1.5321648E-1,5.33515E0,-1.100527E0,6.2459207E0,5.246048E-1,2.3095257E0,-2.6255803E0,9.468454E0,1.3238946E0],"categories":[],"categories_nodes":[],"categories_segments":[],"categories_sizes":[],"default_left":[0,0,0,0,0,0,0,0,0,0,0,0,0,0,0,0,0,0,0,0,0,0,0,0,0,0,0,0,0,0,0,0,0,0,0,0,0,0,0,0,0,0,0,0,0,0,0,0,0,0,0,0,0,0,0,0,0,0,0,0,0,0,0,0,0,0,0,0,0,0,0,0,0,0,0,0,0],"id":0,"left_children":[1,3,5,7,9,-1,11,13,15,17,19,21,23,25,27,29,31,33,35,-1,-1,37,39,41,43,45,47,49,51,53,55,-1,57,59,61,-1,63,65,67,69,-1,71,73,75,-1,-1,-1,-1,-1,-1,-1,-1,-1,-1,-1,-1,-1,-1,-1,-1,-1,-1,-1,-1,-1,-1,-1,-1,-1,-1,-1,-1,-1,-1,-1,-1,-1],"loss_changes":[7.489409E3,7.9316636E3,6.90978E3,2.2989658E3,2.3458096E3,0E0,2.0434617E3,2.2793616E3,2.5429182E3,1.4485137E3,2.3026367E2,1.7285151E3,3.449308E3,2.0019376E3,2.5336929E3,2.5645146E3,1.5634971E3,8.853247E2,1.9856003E3,0E0,0E0,1.2620524E3,1.1203135E3,4.424419E3,1.3569548E3,2.0051149E3,1.9160857E3,6.90376E2,1.5519692E3,1.3254257E3,1.2730327E3,0E0,9.375235E1,1.7120732E3,3.7950684E2,0E0,1.5709517E3,7.288712E2,3.4533295E2,2.7660337E3,0E0,5.1048926E2,1.1705481E3,1.4073934E3,0E0,0E0,0E0,0E0,0E0,0E0,0E0,0E0,0E0,0E0,0E0,0E0,0E0,0E0,0E0,0E0,0E0,0E0,0E0,0E0,0E0,0E0,0E0,0E0,0E0,0E0,0E0,0E0,0E0,0E0,0E0,0E0,0E0],"parents":[2147483647,0,0,1,1,2,2,3,3,4,4,6,6,7,7,8,8,9,9,10,10,11,11,12,12,13,13,14,14,15,15,16,16,17,17,18,18,21,21,22,22,23,23,24,24,25,25,26,26,27,27,28,28,29,29,30,30,32,32,33,33,34,34,36,36,37,37,38,38,39,39,41,41,42,42,43,43],"right_children":[2,4,6,8,10,-1,12,14,16,18,20,22,24,26,28,30,32,34,36,-1,-1,38,40,42,44,46,48,50,52,54,56,-1,58,60,62,-1,64,66,68,70,-1,72,74,76,-1,-1,-1,-1,-1,-1,-1,-1,-1,-1,-1,-1,-1,-1,-1,-1,-1,-1,-1,-1,-1,-1,-1,-1,-1,-1,-1,-1,-1,-1,-1,-1,-1],"split_conditions":[2.7569084E1,1.803237E1,1.0548061E1,5.843264E1,2.58E1,1.0269794E1,2.8975336E1,2.3969084E1,2.44E1,1.89E1,1.935314E1,2.8073256E1,1.692738E2,1.5787753E1,1.5642271E1,1.9779608E2,2.3391998E1,1.4800001E1,2.3346167E1,-1.0315465E0,-7.076784E0,1.4813682E1,2.2505037E1,1.1808878E1,3.310659E1,2.2054499E1,4.7489597E1,1.4480773E1,9.605998E0,2.5379501E1,2.8413416E2,1.2318454E1,2.78E1,1.31E1,2.3831581E1,-3.6753953E0,2.52E1,2.7817E1,1E-1,1.803237E1,1.0124605E1,3.0450335E1,3.6209553E1,1.7116951E2,6.749526E0,1.7218415E0,-1.6100363E0,9.40268E0,-1.3753952E0,-3.6304743E0,1.4095258E0,9.689527E0,3.426607E0,-3.0316538E-1,1.0365103E0,-2.820417E0,-6.5649116E-1,3.246048E-1,2.8807561E0,-2.1149437E0,5.224605E0,-1.3973197E0,-5.967706E0,1.0224606E1,-1.9315464E0,5.909526E0,1.2032166E0,-2.769244E0,1.5321648E-1,5.33515E0,-1.100527E0,6.2459207E0,5.246048E-1,2.3095257E0,-2.6255803E0,9.468454E0,1.3238946E0],"split_indices":[0,2,2,3,1,0,0,0,1,1,2,0,3,2,3,3,0,1,0,0,0,2,2,2,0,0,3,2,2,0,3,0,1,1,0,0,1,0,1,2,0,0,3,3,0,0,0,0,0,0,0,0,0,0,0,0,0,0,0,0,0,0,0,0,0,0,0,0,0,0,0,0,0,0,0,0,0],"split_type":[0,0,0,0,0,0,0,0,0,0,0,0,0,0,0,0,0,0,0,0,0,0,0,0,0,0,0,0,0,0,0,0,0,0,0,0,0,0,0,0,0,0,0,0,0,0,0,0,0,0,0,0,0,0,0,0,0,0,0,0,0,0,0,0,0,0,0,0,0,0,0,0,0,0,0,0,0],"sum_hessian":[8.86E2,6.88E2,1.98E2,5.34E2,1.54E2,7E0,1.91E2,1.03E2,4.31E2,1.44E2,1E1,5.7E1,1.34E2,6.9E1,3.4E1,4.23E2,8E0,1.39E2,5E0,1E0,9E0,2.7E1,3E1,5.8E1,7.6E1,6.4E1,5E0,8E0,2.6E1,3.24E2,9.9E1,1E0,7E0,1.29E2,1E1,2E0,3E0,1.3E1,1.4E1,2.8E1,2E0,8E0,5E1,7.2E1,4E0,2.8E1,3.6E1,3E0,2E0,4E0,4E0,4E0,2.2E1,2.32E2,9.2E1,4.5E1,5.4E1,2E0,5E0,1.27E2,2E0,3E0,7E0,2E0,1E0,4E0,9E0,5E0,9E0,2E1,8E0,6E0,2E0,4E0,4.6E1,1E0,7.1E1],"tree_param":{"num_deleted":"0","num_feature":"4","num_nodes":"77","size_leaf_vector":"1"}},{"base_weights":[8.702339E-2,-1.0575953E0,4.0496125E0,3.5881948E-1,-5.3503532E0,2.5246572E1,3.145314E0,3.819933E0,-4.763387E-1,-4.902453E0,-5.7720466E0,1.6279839E0,8.19083E0,2.5575101E0,1.3587593E1,1.1925054E0,9.19789E0,-7.231952E-1,1.2296311E1,-4.5991507E0,-1.3809626E1,8.458785E0,1.0547574E0,8.805578E0,-1.8139483E0,-3.4425518E-1,2.093189E1,-1.4776E-1,1.6091934E1,2.3692274E-1,-3.8860512E0,1.0470686E1,4.0808454E0,-4.758639E0,3.1856954E0,9.356953E-1,-5.646457E0,1.7451303E1,1.5342807E0,-2.7007313E0,4.5039124E0,-4.536563E0,1.769869E0,1.2231016E0,-1.140079E0,7.287078E0,1.1247631E0,-1.466545E0,3.093415E0,5.659222E0,1.3671405E0,-8.492588E-2,3.4534874E0,-6.756468E-1,-3.4039142E0,-1.8023759E-1,1.4883752E0,-3.7614214E-1,-1.5646645E0,3.7340145E0,8.806019E0,-5.8075756E-1,4.115978E0,-1.7471621E0,1.8460009E0,1.6883773E0,-2.9204633E0,-2.4361458E0,1.4698689E0],"categories":[],"categories_nodes":[],"categories_segments":[],"categories_sizes":[],"default_left":[0,0,0,0,0,0,0,0,0,0,0,0,0,0,0,0,0,0,0,0,0,0,0,0,0,0,0,0,0,0,0,0,0,0,0,0,0,0,0,0,0,0,0,0,0,0,0,0,0,0,0,0,0,0,0,0,0,0,0,0,0,0,0,0,0,0,0,0,0],"id":1,"left_children":[1,3,5,7,9,11,13,15,17,19,-1,-1,-1,21,23,25,27,29,31,33,35,37,39,-1,41,43,45,47,49,51,53,-1,55,57,-1,-1,-1,59,61,63,65,67,-1,-1,-1,-1,-1,-1,-1,-1,-1,-1,-1,-1,-1,-1,-1,-1,-1,-1,-1,-1,-1,-1,-1,-1,-1,-1,-1],"loss_changes":[4.0274075E3,4.191264E3,3.7350984E3,1.502029E3,9.695093E2,1.7786816E2,1.143748E3,1.416181E3,1.3300044E3,3.876494E2,0E0,0E0,0E0,1.6139506E3,2.4811929E3,2.1003008E3,2.128546E3,1.2520472E3,1.3433179E3,4.461516E2,4.829265E2,2.2771682E3,1.9162933E3,0E0,1.5276926E2,1.008688E3,1.9745947E2,7.941655E2,5.215786E2,1.8618129E3,1.1446282E3,0E0,3.1832848E1,2.5288599E2,0E0,0E0,0E0,5.87688E2,9.5684924E2,1.9991648E3,1.2871384E3,2.0887856E2,0E0,0E0,0E0,0E0,0E0,0E0,0E0,0E0,0E0,0E0,0E0,0E0,0E0,0E0,0E0,0E0,0E0,0E0,0E0,0E0,0E0,0E0,0E0,0E0,0E0,0E0,0E0],"parents":[2147483647,0,0,1,1,2,2,3,3,4,4,5,5,6,6,7,7,8,8,9,9,13,13,14,14,15,15,16,16,17,17,18,18,19,19,20,20,21,21,22,22,24,24,25,25,26,26,27,27,28,28,29,29,30,30,32,32,33,33,37,37,38,38,39,39,40,40,41,41],"right_children":[2,4,6,8,10,12,14,16,18,20,-1,-1,-1,22,24,26,28,30,32,34,36,38,40,-1,42,44,46,48,50,52,54,-1,56,58,-1,-1,-1,60,62,64,66,68,-1,-1,-1,-1,-1,-1,-1,-1,-1,-1,-1,-1,-1,-1,-1,-1,-1,-1,-1,-1,-1,-1,-1,-1,-1,-1,-1],"split_conditions":[2.7569084E1,1.7414476E1,1.0548061E1,5.843264E1,3.4900005E1,6.340114E0,3.3508893E2,2.3969084E1,2.44E1,3.2030374E2,-5.7720466E0,1.6279839E0,8.19083E0,1.27279215E1,3.4218845E2,1.5787753E1,3.309507E1,1.9779608E2,2.3391998E1,3.0254993E2,2.4042E1,1.4934306E2,1.692738E2,8.805578E0,1.5629971E1,2.2054499E1,4.7489597E1,2.5554502E1,1.337825E1,1.6645864E1,1.6478603E1,1.0470686E1,2.74E1,1.1800458E2,3.1856954E0,9.356953E-1,-5.646457E0,1.3232623E2,2.6294012E2,2E-1,2.226477E1,3.535692E2,1.769869E0,1.2231016E0,-1.140079E0,7.287078E0,1.1247631E0,-1.466545E0,3.093415E0,5.659222E0,1.3671405E0,-8.492588E-2,3.4534874E0,-6.756468E-1,-3.4039142E0,-1.8023759E-1,1.4883752E0,-3.7614214E-1,-1.5646645E0,3.7340145E0,8.806019E0,-5.8075756E-1,4.115978E0,-1.7471621E0,1.8460009E0,1.6883773E0,-2.9204633E0,-2.4361458E0,1.4698689E0],"split_indices":[0,2,2,3,1,3,3,0,1,3,0,0,0,2,3,2,3,3,0,3,0,3,3,0,2,0,3,0,2,2,2,0,1,3,0,0,0,3,3,1,2,3,0,0,0,0,0,0,0,0,0,0,0,0,0,0,0,0,0,0,0,0,0,0,0,0,0,0,0],"split_type":[0,0,0,0,0,0,0,0,0,0,0,0,0,0,0,0,0,0,0,0,0,0,0,0,0,0,0,0,0,0,0,0,0,0,0,0,0,0,0,0,0,0,0,0,0,0,0,0,0,0,0,0,0,0,0,0,0,0,0,0,0,0,0,0,0,0,0,0,0],"sum_hessian":[8.86E2,6.88E2,1.98E2,5.18E2,1.7E2,7E0,1.91E2,1E2,4.18E2,1.66E2,4E0,1E0,6E0,1.82E2,9E0,6.8E1,3.2E1,4.11E2,7E0,1.62E2,4E0,3.6E1,1.46E2,4E0,5E0,6.4E1,4E0,1.4E1,1.8E1,3.16E2,9.5E1,1E0,6E0,1.61E2,1E0,1E0,3E0,1.5E1,2.1E1,7E1,7.6E1,4E0,1E0,2.8E1,3.6E1,3E0,1E0,1E1,4E0,1.4E1,4E0,3.03E2,1.3E1,7.9E1,1.6E1,1E0,5E0,1.9E1,1.42E2,1.2E1,3E0,1.7E1,4E0,5.2E1,1.8E1,7.1E1,5E0,3E0,1E0],"tree_param":{"num_deleted":"0","num_feature":"4","num_nodes":"69","size_leaf_vector":"1"}},{"base_weights":[1.21059686E-1,1.6734723E0,-1.4316256E0,1.3924345E0,2.6070103E1,-2.5188892E0,1.8138245E0,-2.5898638E-1,4.5548162E0,3.297384E1,-2.3172571E-1,3.5313041E0,-2.9167652E0,1.0116028E1,3.2474867E-1,2.684324E-1,-7.795772E0,1.0736882E1,3.4172785E0,2.0384247E0,1.6726667E1,1.2895809E1,-3.2234533E0,-1.6231256E1,-2.647922E0,1.030943E1,4.5918794E0,-2.8572052E0,4.6629114E0,4.021126E0,-5.131827E-1,-1.1671105E1,2.5459683E0,1.9132685E1,6.6482058E0,1.0353848E1,2.2719612E0,-7.232872E-1,1.5110524E1,-6.3940997E0,4.076865E-1,-6.230566E0,-1.4313325E0,1.371057E0,-3.2876518E0,1.0416247E1,-5.8807144E0,-5.380492E0,1.9537365E0,2.5797224E0,1.0109815E1,3.3009848E-1,2.2754865E0,1.3840024E0,-3.7843364E-1,-6.128013E0,-1.3611737E0,1.6024115E0,-6.089676E-1,8.737727E0,2.7930908E0,-1.7290587E0,2.9158635E0,1.7551681E0,5.5155997E0,-5.1441044E-1,1.3531768E0,5.882798E0,3.2282257E-1,4.309708E-1,-2.3815918E0,1.5356575E0,-2.2740488E0,-7.4190474E-1,1.6547831E0,-5.010511E-1,-1.358211E0,1.0505745E0,3.5121276E0,6.8027574E-1,-2.3891675E0,-3.486132E-2,-2.468142E0,-4.7611326E-2,3.132953E0,2.3607045E-1,4.3453617E0,3.9146514E0,-2.8920617E0],"categories":[],"categories_nodes":[],"categories_segments":[],"categories_sizes":[],"default_left":[0,0,0,0,0,0,0,0,0,0,0,0,0,0,0,0,0,0,0,0,0,0,0,0,0,0,0,0,0,0,0,0,0,0,0,0,0,0,0,0,0,0,0,0,0,0,0,0,0,0,0,0,0,0,0,0,0,0,0,0,0,0,0,0,0,0,0,0,0,0,0,0,0,0,0,0,0,0,0,0,0,0,0,0,0,0,0,0,0],"id":2,"left_children":[1,3,5,7,9,11,13,15,17,19,-1,21,23,25,27,29,31,33,35,-1,-1,37,39,41,43,-1,45,47,49,51,53,55,57,59,61,63,65,-1,67,69,71,-1,-1,73,75,77,79,81,83,85,87,-1,-1,-1,-1,-1,-1,-1,-1,-1,-1,-1,-1,-1,-1,-1,-1,-1,-1,-1,-1,-1,-1,-1,-1,-1,-1,-1,-1,-1,-1,-1,-1,-1,-1,-1,-1,-1,-1],"loss_changes":[2.140428E3,3.0079297E3,1.571294E3,2.2990457E3,9.520381E2,8.119065E2,1.3813273E3,1.154855E3,1.0251909E3,2.0067734E3,0E0,1.3699231E3,1.0774077E3,2.1194126E3,1.338491E3,7.998835E2,7.911904E2,6.623396E2,1.0013264E3,0E0,0E0,3.415321E2,1.5227655E2,2.1289954E2,7.9639453E2,0E0,9.7619867E2,6.903177E2,4.3914355E2,4.808875E2,8.7275244E2,7.817766E2,8.759065E1,4.159209E2,7.0406964E2,5.4346106E2,1.00729553E3,0E0,4.8400488E2,9.606787E1,3.0222668E2,0E0,0E0,6.987706E2,5.258274E2,4.825598E1,1.1990495E2,5.5351025E2,3.6032617E2,6.5024146E2,7.6429675E2,0E0,0E0,0E0,0E0,0E0,0E0,0E0,0E0,0E0,0E0,0E0,0E0,0E0,0E0,0E0,0E0,0E0,0E0,0E0,0E0,0E0,0E0,0E0,0E0,0E0,0E0,0E0,0E0,0E0,0E0,0E0,0E0,0E0,0E0,0E0,0E0,0E0,0E0],"parents":[2147483647,0,0,1,1,2,2,3,3,4,4,5,5,6,6,7,7,8,8,9,9,11,11,12,12,13,13,14,14,15,15,16,16,17,17,18,18,21,21,22,22,23,23,24,24,26,26,27,27,28,28,29,29,30,30,31,31,32,32,33,33,34,34,35,35,36,36,38,38,39,39,40,40,43,43,44,44,45,45,46,46,47,47,48,48,49,49,50,50],"right_children":[2,4,6,8,10,12,14,16,18,20,-1,22,24,26,28,30,32,34,36,-1,-1,38,40,42,44,-1,46,48,50,52,54,56,58,60,62,64,66,-1,68,70,72,-1,-1,74,76,78,80,82,84,86,88,-1,-1,-1,-1,-1,-1,-1,-1,-1,-1,-1,-1,-1,-1,-1,-1,-1,-1,-1,-1,-1,-1,-1,-1,-1,-1,-1,-1,-1,-1,-1,-1,-1,-1,-1,-1,-1,-1],"split_conditions":[1.4297258E1,1.4264361E1,2.8052414E1,2.56045E1,2.3867002E1,4.7489597E1,2.8648252E1,2.81652E2,8.701454E1,2.3550333E1,-2.3172571E-1,2.286492E1,4.9506718E1,1.21204956E2,2.5866983E2,9.686609E0,2.49545E1,2.602117E1,1.0548061E1,2.0384247E0,1.6726667E1,1.4372974E1,2.4917002E1,2.2258667E1,1.187038E2,1.030943E1,1.8792551E1,3.0144083E1,2.0211363E1,2.3358665E1,4.3195293E1,3.1113998E2,2.5341997E1,4.113912E1,2.6164919E1,2.7283669E1,1.4079752E2,-7.232872E-1,1.7414476E1,2.3275331E1,2.6108671E1,-6.230566E0,-1.4313325E0,1.5787753E1,1.803237E1,1.3557207E2,1E-1,2.9302416E1,2E-1,3.310659E1,2.34E1,3.3009848E-1,2.2754865E0,1.3840024E0,-3.7843364E-1,-6.128013E0,-1.3611737E0,1.6024115E0,-6.089676E-1,8.737727E0,2.7930908E0,-1.7290587E0,2.9158635E0,1.7551681E0,5.5155997E0,-5.1441044E-1,1.3531768E0,5.882798E0,3.2282257E-1,4.309708E-1,-2.3815918E0,1.5356575E0,-2.2740488E0,-7.4190474E-1,1.6547831E0,-5.010511E-1,-1.358211E0,1.0505745E0,3.5121276E0,6.8027574E-1,-2.3891675E0,-3.486132E-2,-2.468142E0,-4.7611326E-2,3.132953E0,2.3607045E-1,4.3453617E0,3.9146514E0,-2.8920617E0],"split_indices":[2,2,0,0,0,3,0,3,3,0,0,0,3,3,3,2,0,0,2,0,0,2,0,0,3,0,2,0,2,0,3,3,0,3,0,0,3,0,2,0,0,0,0,2,2,3,1,0,1,0,2,0,0,0,0,0,0,0,0,0,0,0,0,0,0,0,0,0,0,0,0,0,0,0,0,0,0,0,0,0,0,0,0,0,0,0,0,0,0],"split_type":[0,0,0,0,0,0,0,0,0,0,0,0,0,0,0,0,0,0,0,0,0,0,0,0,0,0,0,0,0,0,0,0,0,0,0,0,0,0,0,0,0,0,0,0,0,0,0,0,0,0,0,0,0,0,0,0,0,0,0,0,0,0,0,0,0,0,0,0,0,0,0,0,0,0,0,0,0,0,0,0,0,0,0,0,0,0,0,0,0],"sum_hessian":[8.86E2,4.43E2,4.43E2,4.39E2,4E0,3.32E2,1.11E2,2.89E2,1.5E2,3E0,1E0,2E1,3.12E2,1.6E1,9.5E1,2.71E2,1.8E1,2.2E1,1.28E2,2E0,1E0,8E0,1.2E1,5E0,3.07E2,2E0,1.4E1,5.5E1,4E1,4.6E1,2.25E2,1.3E1,5E0,6E0,1.6E1,1.7E1,1.11E2,1E0,7E0,6E0,6E0,3E0,2E0,4.2E1,2.65E2,9E0,5E0,3.6E1,1.9E1,3E1,1E1,2.6E1,2E1,2.8E1,1.97E2,5E0,8E0,3E0,2E0,2E0,4E0,3E0,1.3E1,1.2E1,5E0,4E1,7.1E1,5E0,2E0,1E0,5E0,4E0,2E0,2.2E1,2E1,1.16E2,1.49E2,2E0,7E0,1E0,4E0,1.3E1,2.3E1,1.6E1,3E0,2.7E1,3E0,9E0,1E0],"tree_param":{"num_deleted":"0","num_feature":"4","num_nodes":"89","size_leaf_vector":"1"}},{"base_weights":[1.4112279E-1,-4.878586E-1,2.3181431E0,2.9564846E-1,-2.6885061E0,1.7582718E1,1.8340937E0,8.03734E-2,1.8329477E1,-2.2716246E0,-1.1419618E1,9.4640696E-1,5.9512157E0,5.1212068E0,4.2908165E-1,-1.10071465E-1,9.499357E0,6.377543E0,5.52673E-1,-1.4823515E0,-4.435638E0,-4.3838313E-1,-1.2633484E1,-7.9796324E0,6.2394104E0,-2.3996119E-1,9.97102E0,6.002982E-1,-2.1091886E0,8.975241E0,3.9065144E0,-2.681058E0,6.058619E0,-2.6671283E0,-1.2502667E1,-4.1778536E0,-7.315979E-1,-5.793011E-1,-2.7027118E0,1.7536606E1,2.9416018E0,-2.7883625E0,2.1598783E0,6.595637E0,2.9956055E-1,8.379772E-2,5.1065097E0,-1.0693849E0,1.1548868E0,1.308888E0,3.8242724E-2,-9.2328006E-1,1.9261388E0,7.8610986E-1,6.712929E0,-9.744355E-1,2.9115727E0,6.2412643E-1,-4.464951E0,1.2011819E0,7.1407347E0,1.8352737E0,-1.0184183E0,-1.1381862E0,2.2191243E0,1.2122524E0,-2.0393817E0,-2.100119E0,9.478894E-1],"categories":[],"categories_nodes":[],"categories_segments":[],"categories_sizes":[],"default_left":[0,0,0,0,0,0,0,0,0,0,0,0,0,0,0,0,0,0,0,0,0,0,0,0,0,0,0,0,0,0,0,0,0,0,0,0,0,0,0,0,0,0,0,0,0,0,0,0,0,0,0,0,0,0,0,0,0,0,0,0,0,0,0,0,0,0,0,0,0],"id":3,"left_children":[1,3,5,7,9,11,13,15,17,19,21,-1,-1,23,25,27,29,-1,-1,31,33,-1,35,37,39,41,43,45,47,-1,49,51,53,55,57,-1,-1,-1,-1,59,61,63,65,-1,67,-1,-1,-1,-1,-1,-1,-1,-1,-1,-1,-1,-1,-1,-1,-1,-1,-1,-1,-1,-1,-1,-1,-1,-1],"loss_changes":[1.2157046E3,1.1887845E3,1.4381246E3,1.9745835E3,6.3287E2,1.326018E2,8.937787E2,9.051193E2,2.5058337E2,2.906164E2,7.824365E1,0E0,0E0,8.994535E2,8.76996E2,7.042216E2,1.0250797E3,0E0,0E0,1.1823274E3,6.229182E2,0E0,5.8290405E1,1.3735992E1,1.9602378E3,7.9495483E2,1.039188E3,1.9243646E3,1.1411628E3,0E0,1.4968155E1,4.2398273E2,9.512513E2,3.118644E2,3.086836E2,0E0,0E0,0E0,0E0,9.22219E2,8.8610126E2,6.733349E2,1.1563739E3,0E0,1.4738904E2,0E0,0E0,0E0,0E0,0E0,0E0,0E0,0E0,0E0,0E0,0E0,0E0,0E0,0E0,0E0,0E0,0E0,0E0,0E0,0E0,0E0,0E0,0E0,0E0],"parents":[2147483647,0,0,1,1,2,2,3,3,4,4,5,5,6,6,7,7,8,8,9,9,10,10,13,13,14,14,15,15,16,16,19,19,20,20,22,22,23,23,24,24,25,25,26,26,27,27,28,28,30,30,31,31,32,32,33,33,34,34,39,39,40,40,41,41,42,42,44,44],"right_children":[2,4,6,8,10,12,14,16,18,20,22,-1,-1,24,26,28,30,-1,-1,32,34,-1,36,38,40,42,44,46,48,-1,50,52,54,56,58,-1,-1,-1,-1,60,62,64,66,-1,68,-1,-1,-1,-1,-1,-1,-1,-1,-1,-1,-1,-1,-1,-1,-1,-1,-1,-1,-1,-1,-1,-1,-1,-1],"split_conditions":[2.7569084E1,1.7163355E1,1.030883E1,1.710284E1,3.1700003E1,6.340114E0,2.8975336E1,2.03E1,2E-1,2.7585596E2,1.935314E1,9.4640696E-1,5.9512157E0,8.8580444E1,3.3508893E2,1.433347E1,2.3391998E1,6.377543E0,5.52673E-1,2.7079565E2,2.450381E1,-4.3838313E-1,2.3969084E1,1.2492829E1,1.2636904E2,3.0398254E1,3.3832037E2,1.4264361E1,2.8413416E2,8.975241E0,1.623596E1,2.6989916E1,1.83E1,2.6819084E1,2.421492E1,-4.1778536E0,-7.315979E-1,-5.793011E-1,-2.7027118E0,2.8004501E1,1.803237E1,2.950823E2,2.877782E2,6.595637E0,3.0619085E1,8.379772E-2,5.1065097E0,-1.0693849E0,1.1548868E0,1.308888E0,3.8242724E-2,-9.2328006E-1,1.9261388E0,7.8610986E-1,6.712929E0,-9.744355E-1,2.9115727E0,6.2412643E-1,-4.464951E0,1.2011819E0,7.1407347E0,1.8352737E0,-1.0184183E0,-1.1381862E0,2.2191243E0,1.2122524E0,-2.0393817E0,-2.100119E0,9.478894E-1],"split_indices":[0,2,2,2,1,3,0,1,1,3,2,0,0,3,3,2,0,0,0,3,2,0,0,2,3,0,3,2,3,0,2,0,1,0,0,0,0,0,0,0,2,3,3,0,0,0,0,0,0,0,0,0,0,0,0,0,0,0,0,0,0,0,0,0,0,0,0,0,0],"split_type":[0,0,0,0,0,0,0,0,0,0,0,0,0,0,0,0,0,0,0,0,0,0,0,0,0,0,0,0,0,0,0,0,0,0,0,0,0,0,0,0,0,0,0,0,0,0,0,0,0,0,0,0,0,0,0,0,0,0,0,0,0,0,0,0,0,0,0,0,0],"sum_hessian":[8.86E2,6.88E2,1.98E2,5.08E2,1.8E2,5E0,1.93E2,5.03E2,5E0,1.73E2,7E0,1E0,4E0,5.7E1,1.36E2,4.94E2,9E0,4E0,1E0,1.28E2,4.5E1,1E0,6E0,4E0,5.3E1,1.28E2,8E0,3.65E2,1.29E2,1E0,8E0,1.11E2,1.7E1,3.8E1,7E0,5E0,1E0,1E0,3E0,1.1E1,4.2E1,6.2E1,6.6E1,3E0,5E0,3.59E2,6E0,1.04E2,2.5E1,7E0,1E0,1.07E2,4E0,1.5E1,2E0,3.7E1,1E0,1E0,6E0,4E0,7E0,2.8E1,1.4E1,5.7E1,5E0,5.5E1,1.1E1,1E0,4E0],"tree_param":{"num_deleted":"0","num_feature":"4","num_nodes":"69","size_leaf_vector":"1"}},{"base_weights":[1.4641692E-1,3.4635596E0,-1.1140291E-1,1.1376548E1,1.0203918E0,-6.143754E-1,1.5817288E0,3.0966187E-1,1.4117464E1,-1.8149266E0,7.1588764E0,9.004138E-3,-2.0138447E0,4.5229235E0,1.2084578E0,-6.5255356E-1,1.1646276E0,2.1258568E1,5.9797373E0,-3.4674902E0,3.344423E0,6.4416027E0,2.2041533E0,-1.320713E0,1.117984E0,-6.9763637E-1,-4.7176237E0,5.383711E0,9.274731E-1,7.509814E0,9.140187E0,-4.5438653E-1,7.481234E0,-5.5522428E0,6.962655E-2,8.3075695E0,-2.8053179E0,-1.5353616E0,7.4201527E0,2.6973357E0,-2.5645158E0,1.4270422E1,-3.351191E-1,-1.9061663E0,4.1175613E0,-6.2608266E0,3.2869742E0,5.3351817E0,2.920398E-1,1.0654221E-1,4.006542E0,3.0343702E0,4.4291383E-1,-8.1201345E-1,-4.237063E0,1.1916885E0,-3.7169978E-1,-6.1893314E-1,3.8605392E0,3.1266325E0,-3.1714252E-1,1.2597419E0,-8.20778E-1,-1.1188657E0,7.5559214E-2,3.3293676E0,9.833651E0,2.445315E0,-1.7177783E-1,4.24415E-2,-1.7845479E0,4.825753E0,-2.6268893E-1,-2.1277757E0,1.0111836E-1,-3.871731E-1,1.5494634E0,3.9164426E0,-4.8216268E-1,-1.7247908E0,5.1583236E-1],"categories":[],"categories_nodes":[],"categories_segments":[],"categories_sizes":[],"default_left":[0,0,0,0,0,0,0,0,0,0,0,0,0,0,0,0,0,0,0,0,0,0,0,0,0,0,0,0,0,0,0,0,0,0,0,0,0,0,0,0,0,0,0,0,0,0,0,0,0,0,0,0,0,0,0,0,0,0,0,0,0,0,0,0,0,0,0,0,0,0,0,0,0,0,0,0,0,0,0,0,0],"id":4,"left_children":[1,3,5,7,9,11,13,15,17,19,21,23,25,-1,27,-1,-1,29,31,33,35,-1,37,39,41,43,45,-1,47,-1,49,-1,51,53,55,57,-1,-1,59,61,63,65,67,69,71,73,75,77,79,-1,-1,-1,-1,-1,-1,-1,-1,-1,-1,-1,-1,-1,-1,-1,-1,-1,-1,-1,-1,-1,-1,-1,-1,-1,-1,-1,-1,-1,-1,-1,-1],"loss_changes":[7.589705E2,1.2256879E3,7.026891E2,4.5062952E2,8.8322076E2,5.5486487E2,9.3380676E2,4.3951916E1,5.7022754E2,3.1001212E2,1.0873541E3,6.517882E2,6.942212E2,0E0,8.533939E2,0E0,0E0,4.5615234E1,9.0100555E1,1.9948502E2,6.447703E2,0E0,5.344672E2,1.0114472E3,4.610738E3,7.818171E2,8.111532E2,0E0,5.109892E2,0E0,1.0634274E2,0E0,7.9943726E1,3.7639996E2,6.1100132E1,3.5764606E2,0E0,0E0,2.1460532E2,4.031539E2,5.0624188E2,1.0454678E3,4.4398984E2,8.865043E2,1.627603E3,2.9873438E2,1.0122388E2,1.253613E3,1.3982561E3,0E0,0E0,0E0,0E0,0E0,0E0,0E0,0E0,0E0,0E0,0E0,0E0,0E0,0E0,0E0,0E0,0E0,0E0,0E0,0E0,0E0,0E0,0E0,0E0,0E0,0E0,0E0,0E0,0E0,0E0,0E0,0E0],"parents":[2147483647,0,0,1,1,2,2,3,3,4,4,5,5,6,6,7,7,8,8,9,9,10,10,11,11,12,12,14,14,17,17,18,18,19,19,20,20,22,22,23,23,24,24,25,25,26,26,28,28,30,30,32,32,33,33,34,34,35,35,38,38,39,39,40,40,41,41,42,42,43,43,44,44,45,45,46,46,47,47,48,48],"right_children":[2,4,6,8,10,12,14,16,18,20,22,24,26,-1,28,-1,-1,30,32,34,36,-1,38,40,42,44,46,-1,48,-1,50,-1,52,54,56,58,-1,-1,60,62,64,66,68,70,72,74,76,78,80,-1,-1,-1,-1,-1,-1,-1,-1,-1,-1,-1,-1,-1,-1,-1,-1,-1,-1,-1,-1,-1,-1,-1,-1,-1,-1,-1,-1,-1,-1,-1,-1],"split_conditions":[4.3195293E1,2.2177416E1,2.7569084E1,1.0799999E1,2.56045E1,2.5630713E2,1.030883E1,2.0521166E1,1.4251863E1,3.309507E1,2.6108671E1,1.2429127E1,2.5898249E1,4.5229235E0,2.7689919E1,-6.5255356E-1,1.1646276E0,3.2057346E1,1.4372974E1,1.3115319E1,2.4554499E1,6.4416027E0,2.855867E1,9.686609E0,1.3084402E1,2.5554502E1,2.9927515E2,5.383711E0,1.2636904E2,7.509814E0,2.1877419E1,-4.5438653E-1,1.7414476E1,1.2413476E1,2.3275331E1,2.3550333E1,-2.8053179E0,-1.5353616E0,3.0579504E1,2.4810753E1,1.23964676E2,2.6548254E1,4.7489597E1,2.1434364E1,2.5642006E1,2.2782625E1,2.639617E1,2.8648252E1,1.4670251E2,1.0654221E-1,4.006542E0,3.0343702E0,4.4291383E-1,-8.1201345E-1,-4.237063E0,1.1916885E0,-3.7169978E-1,-6.1893314E-1,3.8605392E0,3.1266325E0,-3.1714252E-1,1.2597419E0,-8.20778E-1,-1.1188657E0,7.5559214E-2,3.3293676E0,9.833651E0,2.445315E0,-1.7177783E-1,4.24415E-2,-1.7845479E0,4.825753E0,-2.6268893E-1,-2.1277757E0,1.0111836E-1,-3.871731E-1,1.5494634E0,3.9164426E0,-4.8216268E-1,-1.7247908E0,5.1583236E-1],"split_indices":[3,0,0,2,0,3,2,0,2,3,0,2,0,0,0,0,0,3,2,2,0,0,0,2,2,0,3,0,3,0,0,0,2,2,0,0,0,0,0,0,3,0,3,2,0,2,0,0,3,0,0,0,0,0,0,0,0,0,0,0,0,0,0,0,0,0,0,0,0,0,0,0,0,0,0,0,0,0,0,0,0],"split_type":[0,0,0,0,0,0,0,0,0,0,0,0,0,0,0,0,0,0,0,0,0,0,0,0,0,0,0,0,0,0,0,0,0,0,0,0,0,0,0,0,0,0,0,0,0,0,0,0,0,0,0,0,0,0,0,0,0,0,0,0,0,0,0,0,0,0,0,0,0,0,0,0,0,0,0,0,0,0,0,0,0],"sum_hessian":[8.86E2,6.3E1,8.23E2,1.4E1,4.9E1,6.35E2,1.88E2,3E0,1.1E1,3.4E1,1.5E1,4.4E2,1.95E2,4E0,1.84E2,2E0,1E0,5E0,6E0,2.6E1,8E0,3E0,1.2E1,2E2,2.4E2,1.32E2,6.3E1,2E0,1.82E2,3E0,2E0,1E0,5E0,1.6E1,1E1,6E0,2E0,5E0,7E0,4.7E1,1.53E2,2.3E1,2.17E2,1.06E2,2.6E1,5.3E1,1E1,2.2E1,1.6E2,1E0,1E0,3E0,2E0,1.3E1,3E0,2E0,8E0,2E0,4E0,5E0,2E0,3.7E1,1E1,1.08E2,4.5E1,2.1E1,2E0,5E0,2.12E2,7.1E1,3.5E1,7E0,1.9E1,4.7E1,6E0,3E0,7E0,1E1,1.2E1,3E1,1.3E2],"tree_param":{"num_deleted":"0","num_feature":"4","num_nodes":"81","size_leaf_vector":"1"}},{"base_weights":[1.5660809E-1,1.0748758E0,-4.9354407E-1,6.028163E-1,1.2143823E1,-3.6916533E0,-5.2551903E-2,-3.1224406E-1,3.4146938E0,7.5000033E0,3.2157273E0,2.0383255E0,-4.9429626E0,2.5458302E1,-2.7670765E-1,-5.18104E-1,7.437406E0,3.0606155E0,5.079813E0,-1.0952435E0,4.0919223E0,-2.600045E0,1.682012E1,-7.8966146E0,-1.9156325E0,3.9944992E0,1.3477457E1,-2.581144E0,5.378462E-1,-6.682246E-2,-6.2862406E0,1.0356206E1,-1.5113091E0,3.7762368E0,-3.481503E0,-4.1934724E0,3.0513535E0,5.7116714E0,-9.093135E0,1.3095269E0,6.259527E0,-5.368592E0,-1.0011669E1,5.587998E0,-3.4221306E0,-5.620022E-1,2.3595269E0,-4.9247227E0,-3.143679E-2,2.201578E0,-3.2254383E-1,-1.89765E-1,1.3510135E0,2.5256195E0,-2.2712672E0,5.306935E-1,3.515957E0,7.3193043E-1,2.913462E0,1.7505723E0,-2.0931108E0,-1.7493364E0,-3.473999E-1,1.0325402E0,2.8200188E-1,-3.2507326E-2,2.8883433E0,-2.7493438E-1,-3.88571E0,-2.2684643E0,-6.286246E-1,-1.9920421E0,-3.585888E0,-1.9615601E-1,-1.97919E0,-1.0405859E0,-2.900796E0,5.4670973E0,-6.292375E-1,-2.129729E0,8.610396E-1,-1.493364E-1,2.8189564E0],"categories":[],"categories_nodes":[],"categories_segments":[],"categories_sizes":[],"default_left":[0,0,0,0,0,0,0,0,0,0,0,0,0,0,0,0,0,0,0,0,0,0,0,0,0,0,0,0,0,0,0,0,0,0,0,0,0,0,0,0,0,0,0,0,0,0,0,0,0,0,0,0,0,0,0,0,0,0,0,0,0,0,0,0,0,0,0,0,0,0,0,0,0,0,0,0,0,0,0,0,0,0,0],"id":5,"left_children":[1,3,5,7,9,11,13,15,17,-1,19,21,23,25,27,29,31,33,-1,35,-1,37,39,41,43,45,-1,47,49,51,53,55,-1,57,59,61,63,65,67,-1,-1,69,71,-1,73,-1,-1,75,77,79,81,-1,-1,-1,-1,-1,-1,-1,-1,-1,-1,-1,-1,-1,-1,-1,-1,-1,-1,-1,-1,-1,-1,-1,-1,-1,-1,-1,-1,-1,-1,-1,-1],"loss_changes":[5.300817E2,1.9155536E3,7.331833E2,9.119215E2,1.6413257E3,4.61784E2,2.6260737E3,4.3140515E2,3.645952E2,0E0,4.6431497E2,8.664944E2,4.498402E2,1.4918528E3,8.5546313E2,6.8157996E2,3.0705774E2,4.157713E2,0E0,1.1557262E2,0E0,5.916242E2,6.0062683E1,8.5270996E1,8.993098E2,8.2869995E1,0E0,7.1092267E2,4.831115E2,6.3370776E2,4.2266156E2,4.952765E1,0E0,5.9502905E2,3.3381552E2,1.8102753E1,6.2164307E-2,1.1500346E2,1.7746417E2,0E0,0E0,8.4646454E1,5.717285E0,0E0,2.2421979E2,0E0,0E0,3.947954E2,2.225717E3,7.3544543E2,3.8449313E2,0E0,0E0,0E0,0E0,0E0,0E0,0E0,0E0,0E0,0E0,0E0,0E0,0E0,0E0,0E0,0E0,0E0,0E0,0E0,0E0,0E0,0E0,0E0,0E0,0E0,0E0,0E0,0E0,0E0,0E0,0E0,0E0],"parents":[2147483647,0,0,1,1,2,2,3,3,4,4,5,5,6,6,7,7,8,8,10,10,11,11,12,12,13,13,14,14,15,15,16,16,17,17,19,19,21,21,22,22,23,23,24,24,25,25,27,27,28,28,29,29,30,30,31,31,33,33,34,34,35,35,36,36,37,37,38,38,41,41,42,42,44,44,47,47,48,48,49,49,50,50],"right_children":[2,4,6,8,10,12,14,16,18,-1,20,22,24,26,28,30,32,34,-1,36,-1,38,40,42,44,46,-1,48,50,52,54,56,-1,58,60,62,64,66,68,-1,-1,70,72,-1,74,-1,-1,76,78,80,82,-1,-1,-1,-1,-1,-1,-1,-1,-1,-1,-1,-1,-1,-1,-1,-1,-1,-1,-1,-1,-1,-1,-1,-1,-1,-1,-1,-1,-1,-1,-1,-1],"split_conditions":[1.2636904E2,1.23964676E2,1.3557207E2,2.5627419E1,2.286492E1,1.1132385E1,1.3570436E2,1.22878456E2,2.03E1,7.5000033E0,1E-1,1.0993271E1,1.5575981E1,2.3196169E1,2.4987831E1,1.182741E2,2.3687836E1,3.8E0,5.079813E0,2.6548254E1,4.0919223E0,1.0239453E1,2.3248255E1,1.31041975E1,1.5580141E1,2.2887835E1,1.3477457E1,2.6686514E2,1.474902E1,1.131181E2,8.714677E0,2.1650335E1,-1.5113091E0,2E-1,2.6119085E1,1.25134254E2,1.257426E1,2.1271168E1,1.2751914E2,1.3095269E0,6.259527E0,1.3078574E2,1.3078574E2,5.587998E0,1.3170593E2,-5.620022E-1,2.3595269E0,2.5989566E2,2.7108087E2,1.4079752E2,3.310659E1,-1.89765E-1,1.3510135E0,2.5256195E0,-2.2712672E0,5.306935E-1,3.515957E0,7.3193043E-1,2.913462E0,1.7505723E0,-2.0931108E0,-1.7493364E0,-3.473999E-1,1.0325402E0,2.8200188E-1,-3.2507326E-2,2.8883433E0,-2.7493438E-1,-3.88571E0,-2.2684643E0,-6.286246E-1,-1.9920421E0,-3.585888E0,-1.9615601E-1,-1.97919E0,-1.0405859E0,-2.900796E0,5.4670973E0,-6.292375E-1,-2.129729E0,8.610396E-1,-1.493364E-1,2.8189564E0],"split_indices":[3,3,3,0,0,2,3,3,1,0,1,2,2,0,0,3,0,1,0,0,0,2,0,2,2,0,0,3,2,3,2,0,0,1,0,3,2,0,3,0,0,3,3,0,3,0,0,3,3,3,0,0,0,0,0,0,0,0,0,0,0,0,0,0,0,0,0,0,0,0,0,0,0,0,0,0,0,0,0,0,0,0,0],"split_type":[0,0,0,0,0,0,0,0,0,0,0,0,0,0,0,0,0,0,0,0,0,0,0,0,0,0,0,0,0,0,0,0,0,0,0,0,0,0,0,0,0,0,0,0,0,0,0,0,0,0,0,0,0,0,0,0,0,0,0,0,0,0,0,0,0,0,0,0,0,0,0,0,0,0,0,0,0,0,0,0,0,0,0],"sum_hessian":[8.86E2,3.67E2,5.19E2,3.53E2,1.4E1,6.2E1,4.57E2,2.67E2,8.6E1,5E0,9E0,1.1E1,5.1E1,3E0,4.54E2,2.61E2,6E0,8.5E1,1E0,7E0,2E0,9E0,2E0,2.5E1,2.6E1,2E0,1E0,1.18E2,3.36E2,2.43E2,1.8E1,5E0,1E0,7.7E1,8E0,4E0,3E0,4E0,5E0,1E0,1E0,1.3E1,1.2E1,1E0,2.5E1,1E0,1E0,6.1E1,5.7E1,1.14E2,2.22E2,2.17E2,2.6E1,1E0,1.7E1,1E0,4E0,6.4E1,1.3E1,2E0,6E0,2E0,2E0,2E0,1E0,2E0,2E0,2E0,3E0,7E0,6E0,6E0,6E0,1.4E1,1.1E1,4.8E1,1.3E1,5E0,5.2E1,7E0,1.07E2,2.19E2,3E0],"tree_param":{"num_deleted":"0","num_feature":"4","num_nodes":"83","size_leaf_vector":"1"}},{"base_weights":[1.5688397E-1,2.6693742E0,-3.8451295E-2,9.151222E0,6.714323E-1,-3.9909437E0,8.5112154E-2,4.8710632E-1,1.1276659E1,-1.194472E0,4.7111335E0,-7.6515713E0,1.3636342E0,3.8530014E0,-7.178976E-2,-4.8408967E-1,1.0183983E0,5.092886E0,4.780314E0,4.4603288E-1,-5.3403373E0,1.5546473E1,1.0147882E0,-2.6040215E0,-1.4788892E1,4.446069E0,-1.464048E0,-4.1197467E0,7.664239E0,6.148018E0,-1.4525425E-1,-3.5776407E-1,5.9745483E0,-1.1750154E0,3.9797227E0,-9.481591E0,6.972351E-1,5.3205624E0,1.3470407E0,-3.9775074E0,4.632161E0,1.5006572E0,-9.136204E0,-1.2916112E0,-4.807357E0,4.037607E0,-4.6175404E0,-2.2199101E0,-1.5316899E-1,1.3560704E1,1.6204592E0,1.594821E0,6.3860393E0,-4.848788E0,-4.4179462E-2,2.394334E0,3.9228365E-1,-2.6760728E0,-1.9631509E-2,-3.4551895E0,1.0454064E-1,-8.44122E-1,6.8352413E-1,-1.347422E0,-2.1120186E-1,2.0529146E0,-4.0009996E-1,-9.437302E-1,1.1965141E0,-4.7486117E-1,-3.3379076E0,-2.3213575E0,3.0517504E0,2.6720238E-1,-1.6202179E-1,2.117661E0,6.9522595E0,9.7136104E-1,-1.293319E0,1.3141601E0,-1.9151688E-2,-1.8001786E-1,-3.5489976E0,1.7258458E0,-3.6832865E-2],"categories":[],"categories_nodes":[],"categories_segments":[],"categories_sizes":[],"default_left":[0,0,0,0,0,0,0,0,0,0,0,0,0,0,0,0,0,0,0,0,0,0,0,0,0,0,0,0,0,0,0,0,0,0,0,0,0,0,0,0,0,0,0,0,0,0,0,0,0,0,0,0,0,0,0,0,0,0,0,0,0,0,0,0,0,0,0,0,0,0,0,0,0,0,0,0,0,0,0,0,0,0,0,0,0],"id":6,"left_children":[1,3,5,7,9,11,13,15,17,19,21,23,25,27,29,-1,-1,-1,31,33,35,37,39,41,43,-1,45,47,49,51,53,-1,55,57,-1,59,61,-1,-1,63,65,67,69,-1,-1,-1,71,-1,73,75,77,79,-1,81,83,-1,-1,-1,-1,-1,-1,-1,-1,-1,-1,-1,-1,-1,-1,-1,-1,-1,-1,-1,-1,-1,-1,-1,-1,-1,-1,-1,-1,-1,-1],"loss_changes":[4.354227E2,8.2267834E2,4.0276776E2,2.7073254E2,3.825121E2,5.004618E2,4.732278E2,2.990978E1,3.6316882E2,2.4042792E2,6.250421E2,5.0187915E2,4.4025824E2,1.003928E3,3.5227603E2,0E0,0E0,0E0,5.7055893E1,5.55903E2,2.5664212E2,1.7164001E1,2.5319138E2,2.818354E2,8.730957E0,0E0,5.327334E2,1.4197868E2,7.620382E2,5.8642E2,3.6157175E2,0E0,4.575087E1,2.056705E2,0E0,1.2408002E2,3.4168255E1,0E0,0E0,6.9315186E0,1.146445E2,9.345965E1,4.251761E1,0E0,0E0,0E0,4.9406E2,0E0,2.9042304E0,5.239751E2,1.2908316E2,3.724405E1,0E0,4.6748114E2,3.4060275E2,0E0,0E0,0E0,0E0,0E0,0E0,0E0,0E0,0E0,0E0,0E0,0E0,0E0,0E0,0E0,0E0,0E0,0E0,0E0,0E0,0E0,0E0,0E0,0E0,0E0,0E0,0E0,0E0,0E0,0E0],"parents":[2147483647,0,0,1,1,2,2,3,3,4,4,5,5,6,6,7,7,8,8,9,9,10,10,11,11,12,12,13,13,14,14,18,18,19,19,20,20,21,21,22,22,23,23,24,24,26,26,27,27,28,28,29,29,30,30,32,32,33,33,35,35,36,36,39,39,40,40,41,41,42,42,46,46,48,48,49,49,50,50,51,51,53,53,54,54],"right_children":[2,4,6,8,10,12,14,16,18,20,22,24,26,28,30,-1,-1,-1,32,34,36,38,40,42,44,-1,46,48,50,52,54,-1,56,58,-1,60,62,-1,-1,64,66,68,70,-1,-1,-1,72,-1,74,76,78,80,-1,82,84,-1,-1,-1,-1,-1,-1,-1,-1,-1,-1,-1,-1,-1,-1,-1,-1,-1,-1,-1,-1,-1,-1,-1,-1,-1,-1,-1,-1,-1,-1],"split_conditions":[4.3195293E1,2.2177416E1,4.9506718E1,1.0799999E1,2.56045E1,2.2356585E1,5.843264E1,2.0521166E1,1.4251863E1,2.4554499E1,2.6108671E1,2.2017E1,4.4154087E1,2.2104502E1,2.0337831E1,-4.8408967E-1,1.0183983E0,5.092886E0,1.4372974E1,2.448575E1,1.4480773E1,2.583783E1,2.855867E1,4.803459E1,9.085988E0,4.446069E0,2.286492E1,1.1808878E1,1.2819235E1,2.0258669E1,6.438786E1,-3.5776407E-1,1.7414476E1,2.286492E1,3.9797227E0,1E-1,2.4864916E1,5.3205624E0,1.3470407E0,1E-1,3.0579504E1,1.1792404E1,2.0683668E1,-1.2916112E0,-4.807357E0,4.037607E0,2.4554499E1,-2.2199101E0,1.2204212E1,1.2144331E1,2.5031588E1,6.438786E1,6.3860393E0,6.268506E1,6.809127E1,2.394334E0,3.9228365E-1,-2.6760728E0,-1.9631509E-2,-3.4551895E0,1.0454064E-1,-8.44122E-1,6.8352413E-1,-1.347422E0,-2.1120186E-1,2.0529146E0,-4.0009996E-1,-9.437302E-1,1.1965141E0,-4.7486117E-1,-3.3379076E0,-2.3213575E0,3.0517504E0,2.6720238E-1,-1.6202179E-1,2.117661E0,6.9522595E0,9.7136104E-1,-1.293319E0,1.3141601E0,-1.9151688E-2,-1.8001786E-1,-3.5489976E0,1.7258458E0,-3.6832865E-2],"split_indices":[3,0,3,2,0,0,3,0,2,0,0,0,3,0,0,0,0,0,2,0,2,0,0,3,2,0,0,2,2,0,3,0,2,0,0,1,0,0,0,1,0,2,0,0,0,0,0,0,2,2,0,3,0,3,3,0,0,0,0,0,0,0,0,0,0,0,0,0,0,0,0,0,0,0,0,0,0,0,0,0,0,0,0,0,0],"split_type":[0,0,0,0,0,0,0,0,0,0,0,0,0,0,0,0,0,0,0,0,0,0,0,0,0,0,0,0,0,0,0,0,0,0,0,0,0,0,0,0,0,0,0,0,0,0,0,0,0,0,0,0,0,0,0,0,0,0,0,0,0,0,0,0,0,0,0,0,0,0,0,0,0,0,0,0,0,0,0,0,0,0,0,0,0],"sum_hessian":[8.86E2,6.3E1,8.23E2,1.4E1,4.9E1,2.4E1,7.99E2,3E0,1.1E1,3.4E1,1.5E1,1.4E1,1E1,3.1E1,7.68E2,2E0,1E0,5E0,6E0,2.5E1,9E0,3E0,1.2E1,9E0,5E0,1E0,9E0,1E1,2.1E1,8E0,7.6E2,1E0,5E0,2.3E1,2E0,5E0,4E0,2E0,1E0,5E0,7E0,6E0,3E0,1E0,4E0,1E0,8E0,5E0,5E0,1E1,1.1E1,7E0,1E0,1.5E1,7.45E2,3E0,2E0,2E0,2.1E1,4E0,1E0,1E0,3E0,4E0,1E0,5E0,2E0,2E0,4E0,1E0,2E0,7E0,1E0,1E0,4E0,7E0,3E0,9E0,2E0,2E0,5E0,1E1,5E0,9E0,7.36E2],"tree_param":{"num_deleted":"0","num_feature":"4","num_nodes":"85","size_leaf_vector":"1"}},{"base_weights":[1.3735129E-1,3.5435277E-1,-1.8123289E0,1.7708679E-1,3.1868408E0,-6.3351693E0,5.339265E-2,3.8312957E-1,-2.0856535E0,6.716682E-1,1.0466788E1,-1.0014602E1,-2.9692786E0,-6.2160063E0,1.9331446E0,1.5781368E-1,4.3614745E0,5.8946543E0,-3.5248652E0,-2.326903E0,2.267908E0,4.6338162E0,4.7035913E0,-4.250143E0,-5.170445E0,1.4935745E0,-4.7279134E0,6.9391884E-2,-7.1883287E0,4.5403185E0,-2.2046323E0,5.2284528E-2,4.6569057E0,2.674616E0,1.014201E1,9.205909E0,-4.9002433E0,6.2684417E0,-4.4336987E0,-5.8976655E0,7.1817284E0,9.032935E0,-1.0490404E0,1.8970057E0,4.361267E-1,-1.9032713E0,-3.101737E0,2.0583916E-1,9.9667746E-1,-2.7614517E0,-2.7102814E0,-4.6062472E-1,4.9185106E-1,-2.5860448E0,-1.811697E0,7.9259157E0,-2.3358507E0,3.015236E0,-5.2472715E0,8.615367E-2,-9.663195E-1,3.301984E0,-6.8247443E-1,1.3171333E0,-1.0770935E0,5.1885047E0,7.1736103E-1,-8.227616E-2,3.179819E0,-1.8262722E0,-3.7883723E-1,2.1065032E0,4.8832515E-1,-2.2033656E0,-5.652882E-1,-2.8804731E0,6.1757874E-1,2.9394143E0,-1.0008431E-1,5.905183E0,6.605828E-1,1.5311892E0,-1.7599621E0,-2.018715E-1,3.9812854E-1,-7.4837077E-1,2.4667741E-1,-1.7577973E-1,3.871731E-1,1.414833E-1,-2.041665E0,2.376606E-1,-8.831192E-1,4.0801654E0,-8.9863044E-1,-1.4857562E0,1.0444354E0,2.5074738E-1,1.4957074E0,-1.1985474E-1,-2.468154E0],"categories":[],"categories_nodes":[],"categories_segments":[],"categories_sizes":[],"default_left":[0,0,0,0,0,0,0,0,0,0,0,0,0,0,0,0,0,0,0,0,0,0,0,0,0,0,0,0,0,0,0,0,0,0,0,0,0,0,0,0,0,0,0,0,0,0,0,0,0,0,0,0,0,0,0,0,0,0,0,0,0,0,0,0,0,0,0,0,0,0,0,0,0,0,0,0,0,0,0,0,0,0,0,0,0,0,0,0,0,0,0,0,0,0,0,0,0,0,0,0,0],"id":7,"left_children":[1,3,5,7,9,11,13,15,17,19,21,23,25,27,29,31,33,35,37,39,41,-1,43,45,-1,47,49,51,53,55,57,59,61,63,65,67,69,71,73,75,77,79,81,-1,83,85,-1,87,-1,-1,89,-1,-1,-1,91,93,95,97,99,-1,-1,-1,-1,-1,-1,-1,-1,-1,-1,-1,-1,-1,-1,-1,-1,-1,-1,-1,-1,-1,-1,-1,-1,-1,-1,-1,-1,-1,-1,-1,-1,-1,-1,-1,-1,-1,-1,-1,-1,-1,-1],"loss_changes":[3.7591727E2,4.0061658E2,7.513524E2,3.5186365E2,8.5355505E2,2.922627E2,7.6625104E2,6.1871326E2,7.44355E2,1.7758902E2,2.7170593E2,4.2619714E2,1.24789444E2,9.217035E1,5.494049E2,3.10741E2,3.3365894E2,4.0255777E2,5.0841846E2,4.837452E2,5.480178E2,0E0,4.5628113E1,9.464227E1,0E0,1.1090451E1,7.4412994E1,1.0076501E1,8.446161E1,7.401919E2,3.3346527E2,4.9378436E2,6.852645E2,3.382492E2,4.0217657E2,1.0859094E2,5.2692413E0,6.048126E0,3.572079E2,3.1445865E2,8.19189E1,5.3871265E2,5.338582E2,0E0,3.857345E0,1.3332378E1,0E0,4.191649E0,0E0,0E0,1.204859E2,0E0,0E0,0E0,1.4122835E1,1.3422078E3,1.8468349E2,3.0188293E1,1.8450943E2,0E0,0E0,0E0,0E0,0E0,0E0,0E0,0E0,0E0,0E0,0E0,0E0,0E0,0E0,0E0,0E0,0E0,0E0,0E0,0E0,0E0,0E0,0E0,0E0,0E0,0E0,0E0,0E0,0E0,0E0,0E0,0E0,0E0,0E0,0E0,0E0,0E0,0E0,0E0,0E0,0E0,0E0],"parents":[2147483647,0,0,1,1,2,2,3,3,4,4,5,5,6,6,7,7,8,8,9,9,10,10,11,11,12,12,13,13,14,14,15,15,16,16,17,17,18,18,19,19,20,20,22,22,23,23,25,25,26,26,27,27,28,28,29,29,30,30,31,31,32,32,33,33,34,34,35,35,36,36,37,37,38,38,39,39,40,40,41,41,42,42,44,44,45,45,47,47,50,50,54,54,55,55,56,56,57,57,58,58],"right_children":[2,4,6,8,10,12,14,16,18,20,22,24,26,28,30,32,34,36,38,40,42,-1,44,46,-1,48,50,52,54,56,58,60,62,64,66,68,70,72,74,76,78,80,82,-1,84,86,-1,88,-1,-1,90,-1,-1,-1,92,94,96,98,100,-1,-1,-1,-1,-1,-1,-1,-1,-1,-1,-1,-1,-1,-1,-1,-1,-1,-1,-1,-1,-1,-1,-1,-1,-1,-1,-1,-1,-1,-1,-1,-1,-1,-1,-1,-1,-1,-1,-1,-1,-1,-1],"split_conditions":[2.908085E2,3.0756584E1,1.3570615E1,2.913575E1,2.6846567E2,3.1113998E2,2.9734662E2,2.8073256E1,1.1190442E1,3.124409E1,1.9386593E1,3.0914847E2,3.2627582E2,2.5031588E1,5E-1,2.8573093E2,4E-1,1.6628262E2,4.3195293E1,2.106506E2,3.1579508E1,4.6338162E0,3.1308672E1,2.6819084E1,-5.170445E0,3.2030374E2,3.3508893E2,2.4241999E1,3.0398254E1,3.0319086E1,2.4654501E1,2.7585596E2,2.4821173E1,1.8762356E1,2.8648252E1,9.686609E0,3.0144083E1,1.5379206E1,1.5315873E1,1.4480773E1,3.1127419E1,1.7116951E2,1.420596E2,1.8970057E0,3.1892004E1,2.639617E1,-3.101737E0,1.27279215E1,9.9667746E-1,-2.7614517E0,1.1212135E1,-4.6062472E-1,4.9185106E-1,-2.5860448E0,3.0450335E1,3.3832037E2,3.2006588E1,2.428575E1,3.1113998E2,8.615367E-2,-9.663195E-1,3.301984E0,-6.8247443E-1,1.3171333E0,-1.0770935E0,5.1885047E0,7.1736103E-1,-8.227616E-2,3.179819E0,-1.8262722E0,-3.7883723E-1,2.1065032E0,4.8832515E-1,-2.2033656E0,-5.652882E-1,-2.8804731E0,6.1757874E-1,2.9394143E0,-1.0008431E-1,5.905183E0,6.605828E-1,1.5311892E0,-1.7599621E0,-2.018715E-1,3.9812854E-1,-7.4837077E-1,2.4667741E-1,-1.7577973E-1,3.871731E-1,1.414833E-1,-2.041665E0,2.376606E-1,-8.831192E-1,4.0801654E0,-8.9863044E-1,-1.4857562E0,1.0444354E0,2.5074738E-1,1.4957074E0,-1.1985474E-1,-2.468154E0],"split_indices":[3,0,2,0,3,3,3,0,2,0,2,3,3,0,1,3,1,3,3,3,0,0,0,0,0,3,3,0,0,0,0,3,0,2,0,2,0,2,2,2,0,3,3,0,0,0,0,2,0,0,2,0,0,0,0,3,0,0,3,0,0,0,0,0,0,0,0,0,0,0,0,0,0,0,0,0,0,0,0,0,0,0,0,0,0,0,0,0,0,0,0,0,0,0,0,0,0,0,0,0,0],"split_type":[0,0,0,0,0,0,0,0,0,0,0,0,0,0,0,0,0,0,0,0,0,0,0,0,0,0,0,0,0,0,0,0,0,0,0,0,0,0,0,0,0,0,0,0,0,0,0,0,0,0,0,0,0,0,0,0,0,0,0,0,0,0,0,0,0,0,0,0,0,0,0,0,0,0,0,0,0,0,0,0,0,0,0,0,0,0,0,0,0,0,0,0,0,0,0,0,0,0,0,0,0],"sum_hessian":[8.86E2,7.98E2,8.8E1,7.52E2,4.6E1,2.5E1,6.3E1,6.9E2,6.2E1,3.5E1,1.1E1,1.1E1,1.4E1,1.4E1,4.9E1,6.54E2,3.6E1,9E0,5.3E1,1.2E1,2.3E1,5E0,6E0,7E0,4E0,4E0,1E1,2E0,1.2E1,3E1,1.9E1,6.4E2,1.4E1,2.9E1,7E0,7E0,2E0,4E0,4.9E1,9E0,3E0,7E0,1.6E1,4E0,2E0,6E0,1E0,3E0,1E0,2E0,8E0,1E0,1E0,9E0,3E0,2E1,1E1,7E0,1.2E1,5.98E2,4.2E1,7E0,7E0,2.3E1,6E0,3E0,4E0,1E0,6E0,1E0,1E0,3E0,1E0,2.2E1,2.7E1,6E0,3E0,2E0,1E0,2E0,5E0,7E0,9E0,1E0,1E0,5E0,1E0,2E0,1E0,5E0,3E0,1E0,2E0,1.3E1,7E0,7E0,3E0,4E0,3E0,5E0,7E0],"tree_param":{"num_deleted":"0","num_feature":"4","num_nodes":"101","size_leaf_vector":"1"}},{"base_weights":[1.0597309E-1,2.7588892E-1,-1.4206418E0,1.0622406E-1,2.2909982E0,-4.9049053E0,1.7037868E-2,2.4124242E-1,-4.5151763E0,1.2253559E0,3.6098306E0,-7.7413783E0,-2.3087337E0,-4.564557E0,1.3911755E0,-3.5817215E-1,7.753485E-1,2.2814965E0,-5.501434E0,-1.1505458E0,3.1174836E0,-3.4255314E0,-3.9295373E0,-6.3632584E0,-7.648309E-1,5.898285E-2,-5.280408E0,2.9403732E0,-2.4196436E0,2.0992282E-1,-4.733516E0,4.3238991E-1,5.071385E0,-8.023693E0,-3.1512864E0,6.694339E0,-4.3931003E0,6.3233323E0,1.8581913E0,-1.4039633E0,-2.6364763E0,-2.566771E0,3.2201387E-2,1.3243594E0,-1.5822905E0,-3.9153102E-1,4.180733E-1,-3.4060287E0,-2.5938761E0,5.4729943E0,-1.4303883E0,-7.8330665E0,2.0596457E0,1.2298605E-1,-2.1502333E0,8.2914704E-1,-1.7752064E0,6.828927E-1,-1.3019408E-1,4.9534483E0,3.6024982E-1,-2.9113084E-1,-2.6352139E0,-2.654513E-1,-2.2388926E0,6.7749256E-1,5.661983E0,5.0008816E-1,-2.0029428E0,-6.202336E-1,1.1477976E0,-5.6127894E-1,2.0967522E-1,-1.3868256E-1,1.1019665E0,-1.442517E0,-3.0116845E-2,2.5409386E0,-3.6141932E-1,-1.4516178E0,3.0023068E-1,-3.4531462E0,-6.59214E-1,2.1643188E0,-1.8562175E0],"categories":[],"categories_nodes":[],"categories_segments":[],"categories_sizes":[],"default_left":[0,0,0,0,0,0,0,0,0,0,0,0,0,0,0,0,0,0,0,0,0,0,0,0,0,0,0,0,0,0,0,0,0,0,0,0,0,0,0,0,0,0,0,0,0,0,0,0,0,0,0,0,0,0,0,0,0,0,0,0,0,0,0,0,0,0,0,0,0,0,0,0,0,0,0,0,0,0,0,0,0,0,0,0,0],"id":8,"left_children":[1,3,5,7,9,11,13,15,17,19,-1,21,23,25,27,29,31,-1,33,35,37,39,-1,41,43,45,47,49,51,53,55,57,59,61,63,65,67,-1,69,71,-1,-1,-1,73,-1,-1,-1,75,-1,77,79,81,83,-1,-1,-1,-1,-1,-1,-1,-1,-1,-1,-1,-1,-1,-1,-1,-1,-1,-1,-1,-1,-1,-1,-1,-1,-1,-1,-1,-1,-1,-1,-1,-1],"loss_changes":[2.3047623E2,2.7292935E2,4.4590726E2,4.6158197E2,6.288927E2,1.735904E2,4.092776E2,2.3014606E2,2.928641E2,2.5983087E2,0E0,2.3257489E2,8.903006E1,4.9957886E1,3.0230026E2,8.436157E2,5.576848E2,0E0,9.326868E1,6.9078296E2,6.845857E2,7.439048E1,0E0,5.7669235E1,1.2003879E2,7.280269E0,5.256595E1,4.063299E2,3.7985767E2,4.471239E2,3.6250446E2,5.649111E2,1.2199995E3,3.974231E1,1.1066311E2,3.895874E2,2.7403998E2,0E0,2.47381E2,8.181447E0,0E0,0E0,0E0,3.9467064E1,0E0,0E0,0E0,4.5874283E1,0E0,4.7047546E2,1.20849304E2,1.1978058E2,4.2724103E2,0E0,0E0,0E0,0E0,0E0,0E0,0E0,0E0,0E0,0E0,0E0,0E0,0E0,0E0,0E0,0E0,0E0,0E0,0E0,0E0,0E0,0E0,0E0,0E0,0E0,0E0,0E0,0E0,0E0,0E0,0E0,0E0],"parents":[2147483647,0,0,1,1,2,2,3,3,4,4,5,5,6,6,7,7,8,8,9,9,11,11,12,12,13,13,14,14,15,15,16,16,18,18,19,19,20,20,21,21,23,23,24,24,25,25,26,26,27,27,28,28,29,29,30,30,31,31,32,32,33,33,34,34,35,35,36,36,38,38,39,39,43,43,47,47,49,49,50,50,51,51,52,52],"right_children":[2,4,6,8,10,12,14,16,18,20,-1,22,24,26,28,30,32,-1,34,36,38,40,-1,42,44,46,48,50,52,54,56,58,60,62,64,66,68,-1,70,72,-1,-1,-1,74,-1,-1,-1,76,-1,78,80,82,84,-1,-1,-1,-1,-1,-1,-1,-1,-1,-1,-1,-1,-1,-1,-1,-1,-1,-1,-1,-1,-1,-1,-1,-1,-1,-1,-1,-1,-1,-1,-1,-1],"split_conditions":[2.908085E2,3.0144083E1,1.3570615E1,2.9702417E1,3E-1,3.1113998E2,2.9734662E2,2.4748251E1,6.809127E1,1.692738E2,3.6098306E0,3.0914847E2,1.0429132E1,2.5031588E1,1.839878E1,2.4362833E1,1.1200001E1,2.2814965E0,2.9933668E1,1.2605142E1,1.7116951E2,2.6819084E1,-3.9295373E0,3.442362E2,3.498287E2,2.4241999E1,8.000001E-1,2E-1,1.8998316E1,2.78E1,4.059299E1,1.3358861E1,1.3800002E1,1.3078574E2,2.1673283E2,1.257426E1,8.404002E1,6.3233323E0,2.0252881E2,2.639617E1,-2.6364763E0,-2.566771E0,3.2201387E-2,3.3508893E2,-1.5822905E0,-3.9153102E-1,4.180733E-1,2E-1,-2.5938761E0,3.0319086E1,1.1E0,2.5779503E1,3.8000002E0,1.2298605E-1,-2.1502333E0,8.2914704E-1,-1.7752064E0,6.828927E-1,-1.3019408E-1,4.9534483E0,3.6024982E-1,-2.9113084E-1,-2.6352139E0,-2.654513E-1,-2.2388926E0,6.7749256E-1,5.661983E0,5.0008816E-1,-2.0029428E0,-6.202336E-1,1.1477976E0,-5.6127894E-1,2.0967522E-1,-1.3868256E-1,1.1019665E0,-1.442517E0,-3.0116845E-2,2.5409386E0,-3.6141932E-1,-1.4516178E0,3.0023068E-1,-3.4531462E0,-6.59214E-1,2.1643188E0,-1.8562175E0],"split_indices":[3,0,2,0,1,3,3,0,3,3,0,3,2,0,2,0,1,0,0,2,3,0,0,3,3,0,1,1,2,1,3,2,1,3,3,2,3,0,3,0,0,0,0,3,0,0,0,1,0,0,1,0,1,0,0,0,0,0,0,0,0,0,0,0,0,0,0,0,0,0,0,0,0,0,0,0,0,0,0,0,0,0,0,0,0],"split_type":[0,0,0,0,0,0,0,0,0,0,0,0,0,0,0,0,0,0,0,0,0,0,0,0,0,0,0,0,0,0,0,0,0,0,0,0,0,0,0,0,0,0,0,0,0,0,0,0,0,0,0,0,0,0,0,0,0,0,0,0,0,0,0,0,0,0,0,0,0,0,0,0,0,0,0,0,0,0,0,0,0,0,0,0,0],"sum_hessian":[8.86E2,7.98E2,8.8E1,7.37E2,6.1E1,2.5E1,6.3E1,7.17E2,2E1,5.6E1,5E0,1.1E1,1.4E1,1.4E1,4.9E1,3.38E2,3.79E2,1E0,1.9E1,2.5E1,3.1E1,7E0,4E0,3E0,1.1E1,2E0,1.2E1,3.5E1,1.4E1,3E2,3.8E1,3.52E2,2.7E1,8E0,1.1E1,7E0,1.8E1,1E0,3E1,6E0,1E0,2E0,1E0,8E0,3E0,1E0,1E0,9E0,3E0,2.2E1,1.3E1,6E0,8E0,2.93E2,7E0,5E0,3.3E1,1.12E2,2.4E2,6E0,2.1E1,1E0,7E0,8E0,3E0,6E0,1E0,5E0,1.3E1,1E1,2E1,5E0,1E0,5E0,3E0,6E0,3E0,1.5E1,7E0,5E0,8E0,3E0,3E0,5E0,3E0],"tree_param":{"num_deleted":"0","num_feature":"4","num_nodes":"85","size_leaf_vector":"1"}},{"base_weights":[7.2100416E-2,-6.046609E-1,3.5217342E-1,-5.6249388E-3,-7.084885E0,1.3776616E1,2.005283E-1,-4.8928413E-1,3.3801768E0,3.2740161E0,-1.032421E1,1.5799759E1,2.4566346E-1,1.568541E0,-1.5362555E-1,1.7678336E0,-1.2056824E0,8.147395E0,-7.4460196E-1,-4.8823088E-1,3.3127878E0,-1.1341469E1,-1.7965139E0,8.411348E0,6.115316E0,9.8089206E-1,1.1429993E1,-4.9448633E0,2.7844998E-1,9.934551E0,1.050444E0,-5.6044326E0,-4.262978E-1,9.788297E0,-3.396019E-1,-2.320308E0,2.2146385E0,7.2457886E-1,-8.0092055E-1,-1.2379009E1,-5.3934803E0,-6.4403343E-1,-1.6439782E-1,-1.7614838E0,4.538862E0,2.2304087E0,-3.133558E0,-7.9641533E0,5.211352E0,8.44379E0,1.6895999E-1,3.4176424E0,8.3426744E-1,-1.2483356E0,7.0794225E-1,-2.930767E0,-5.7953405E-1,4.158068E0,-2.2218554E-1,4.6260934E0,1.5134251E0,9.438269E-1,-1.1847245E0,2.68071E-1,3.264084E-2,-8.964638E-1,-3.8883188E0,-2.4267541E-1,-1.9956087E0,1.3922422E-1,4.84748E0,-5.89727E-1,-2.2431417E0,-9.889036E-1,-3.2953274E0,2.8559794E0,-3.0036393E-1,3.997655E-1,6.599998E0,-1.3567041E0,9.566008E-2],"categories":[],"categories_nodes":[],"categories_segments":[],"categories_sizes":[],"default_left":[0,0,0,0,0,0,0,0,0,0,0,0,0,0,0,0,0,0,0,0,0,0,0,0,0,0,0,0,0,0,0,0,0,0,0,0,0,0,0,0,0,0,0,0,0,0,0,0,0,0,0,0,0,0,0,0,0,0,0,0,0,0,0,0,0,0,0,0,0,0,0,0,0,0,0,0,0,0,0,0,0],"id":9,"left_children":[1,3,5,7,9,11,13,15,17,19,21,23,-1,25,27,29,31,33,35,37,-1,39,41,43,-1,45,-1,47,49,51,53,55,57,59,-1,61,-1,63,-1,65,67,-1,-1,-1,-1,69,71,73,75,77,79,-1,-1,-1,-1,-1,-1,-1,-1,-1,-1,-1,-1,-1,-1,-1,-1,-1,-1,-1,-1,-1,-1,-1,-1,-1,-1,-1,-1,-1,-1],"loss_changes":[1.6833722E2,1.0092509E3,1.2756892E3,3.930341E2,7.720303E2,1.7056934E2,3.0159186E2,3.4170047E2,5.959782E2,1.8075592E2,1.2709766E2,3.1778442E1,0E0,2.710488E3,1.0261143E3,2.8835895E2,5.461416E2,2.242525E2,2.3481955E2,1.5163181E1,0E0,2.5803223E1,1.3551807E-1,4.7265747E2,0E0,6.599054E2,0E0,1.298751E3,4.053538E2,1.0028107E1,3.3736325E2,3.4822797E2,6.2547034E2,2.4279712E2,0E0,1.4597702E2,0E0,3.190198E-1,0E0,2.6860962E1,1.7698624E1,0E0,0E0,0E0,0E0,2.4034153E3,1.3747498E2,4.1492908E2,2.7720474E2,5.490923E2,3.179088E2,0E0,0E0,0E0,0E0,0E0,0E0,0E0,0E0,0E0,0E0,0E0,0E0,0E0,0E0,0E0,0E0,0E0,0E0,0E0,0E0,0E0,0E0,0E0,0E0,0E0,0E0,0E0,0E0,0E0,0E0],"parents":[2147483647,0,0,1,1,2,2,3,3,4,4,5,5,6,6,7,7,8,8,9,9,10,10,11,11,13,13,14,14,15,15,16,16,17,17,18,18,19,19,21,21,22,22,23,23,25,25,27,27,28,28,29,29,30,30,31,31,32,32,33,33,35,35,37,37,39,39,40,40,45,45,46,46,47,47,48,48,49,49,50,50],"right_children":[2,4,6,8,10,12,14,16,18,20,22,24,-1,26,28,30,32,34,36,38,-1,40,42,44,-1,46,-1,48,50,52,54,56,58,60,-1,62,-1,64,-1,66,68,-1,-1,-1,-1,70,72,74,76,78,80,-1,-1,-1,-1,-1,-1,-1,-1,-1,-1,-1,-1,-1,-1,-1,-1,-1,-1,-1,-1,-1,-1,-1,-1,-1,-1,-1,-1,-1,-1],"split_conditions":[1.2204212E1,1.1983188E1,1.2261158E1,2.7892E1,5.9084404E1,3.2E0,2.3867002E1,2.189617E1,1.4934306E2,5.7278324E1,1.8688634E2,1.2261157E1,2.4566346E-1,2.3848253E1,2.428575E1,3.2057346E1,2.2887835E1,1E-1,2E-1,2.3346167E1,3.3127878E0,3.6000001E0,2.3212835E1,1E-1,6.115316E0,1.7566378E1,1.1429993E1,1.964228E1,2.4362833E1,2.1602419E1,5.9084404E1,1.0094454E1,2.2898252E1,2.9358667E1,-3.396019E-1,1.0548061E1,2.2146385E0,2.0683668E1,-8.0092055E-1,2.1029503E1,2.5227417E1,-6.4403343E-1,-1.6439782E-1,-1.7614838E0,4.538862E0,1.6595179E1,2.5651104E1,1.4003028E1,2.7108087E2,1.5503006E1,2.4521172E1,3.4176424E0,8.3426744E-1,-1.2483356E0,7.0794225E-1,-2.930767E0,-5.7953405E-1,4.158068E0,-2.2218554E-1,4.6260934E0,1.5134251E0,9.438269E-1,-1.1847245E0,2.68071E-1,3.264084E-2,-8.964638E-1,-3.8883188E0,-2.4267541E-1,-1.9956087E0,1.3922422E-1,4.84748E0,-5.89727E-1,-2.2431417E0,-9.889036E-1,-3.2953274E0,2.8559794E0,-3.0036393E-1,3.997655E-1,6.599998E0,-1.3567041E0,9.566008E-2],"split_indices":[2,2,2,0,3,1,0,0,3,3,3,2,0,0,0,3,0,1,1,0,0,1,0,1,0,2,0,2,0,0,3,2,0,0,0,2,0,0,0,0,0,0,0,0,0,2,2,2,3,2,0,0,0,0,0,0,0,0,0,0,0,0,0,0,0,0,0,0,0,0,0,0,0,0,0,0,0,0,0,0,0],"split_type":[0,0,0,0,0,0,0,0,0,0,0,0,0,0,0,0,0,0,0,0,0,0,0,0,0,0,0,0,0,0,0,0,0,0,0,0,0,0,0,0,0,0,0,0,0,0,0,0,0,0,0,0,0,0,0,0,0,0,0,0,0,0,0,0,0,0,0,0,0,0,0,0,0,0,0,0,0,0,0,0,0],"sum_hessian":[8.86E2,2.59E2,6.27E2,2.38E2,2.1E1,6E0,6.21E2,2.09E2,2.9E1,5E0,1.6E1,5E0,1E0,1.27E2,4.94E2,5E1,1.59E2,1.3E1,1.6E1,4E0,1E0,1.4E1,2E0,3E0,2E0,1.26E2,1E0,4E1,4.54E2,3E0,4.7E1,2.3E1,1.36E2,1.1E1,2E0,1.4E1,2E0,3E0,1E0,1.1E1,3E0,1E0,1E0,1E0,2E0,9.7E1,2.9E1,3.1E1,9E0,5E0,4.49E2,2E0,1E0,9E0,3.8E1,1E1,1.3E1,2E0,1.34E2,4E0,7E0,3E0,1.1E1,2E0,1E0,1E0,1E1,1E0,2E0,8.7E1,1E1,2.4E1,5E0,1.3E1,1.8E1,5E0,4E0,4E0,1E0,1.3E1,4.36E2],"tree_param":{"num_deleted":"0","num_feature":"4","num_nodes":"81","size_leaf_vector":"1"}},{"base_weights":[8.83795E-2,1.8137481E0,-3.6753953E-2,3.4624872E-1,5.2186775E0,-6.6220517E0,6.0015116E-2,-1.0335503E0,3.9968586E0,8.359902E0,-9.118053E-1,-8.333744E0,1.8309838E0,7.314193E0,-2.6720096E-3,4.695867E-1,-4.9270763E0,6.427403E0,4.9508032E-1,1.2130932E1,6.5427554E-1,1.3496716E0,-2.563408E0,1.7216009E0,-1.0759554E1,-3.0882797E0,1.2092837E1,-9.984579E-1,2.8909117E-1,-1.6781242E0,1.1627672E1,-6.3083363E0,9.184502E-1,3.0984452E0,9.198055E-1,-8.0349123E-1,2.7513485E0,7.238614E0,4.5640793E0,6.8568194E-1,-3.5854417E-1,-8.863258E-2,-1.5025917E0,-3.4599724E-1,1.1207176E0,-3.9165025E0,-1.3879452E0,-1.149962E0,-2.3976403E-1,4.504465E0,6.069832E-2,3.4716291E0,-1.5647589E0,1.094911E1,1.6865835E-1,1.8988325E-1,-2.2683856E0,9.360581E-1,4.0270305E0,-2.3979344E0,-1.109654E0,-5.814469E-1,1.4240537E0,2.1512033E-1,9.5712584E-1,-3.0914308E-3,3.6223986E0,-3.136719E-1,4.1732827E-1,1.6498E-1,2.445193E0,-4.0163894E0,-3.7838873E-1,7.441849E-1,4.1521153E0,6.0711193E-1,-1.3208444E-2],"categories":[],"categories_nodes":[],"categories_segments":[],"categories_sizes":[],"default_left":[0,0,0,0,0,0,0,0,0,0,0,0,0,0,0,0,0,0,0,0,0,0,0,0,0,0,0,0,0,0,0,0,0,0,0,0,0,0,0,0,0,0,0,0,0,0,0,0,0,0,0,0,0,0,0,0,0,0,0,0,0,0,0,0,0,0,0,0,0,0,0,0,0,0,0,0,0],"id":10,"left_children":[1,3,5,7,9,11,13,15,17,19,21,23,-1,25,27,29,31,33,35,37,39,-1,41,43,45,47,49,51,53,55,57,59,-1,-1,61,-1,63,65,-1,-1,-1,67,-1,-1,-1,-1,-1,-1,-1,-1,-1,69,71,73,75,-1,-1,-1,-1,-1,-1,-1,-1,-1,-1,-1,-1,-1,-1,-1,-1,-1,-1,-1,-1,-1,-1],"loss_changes":[1.9157114E2,2.9799695E2,5.28043E2,2.2072658E2,3.542527E2,3.1224524E2,3.71545E2,1.8959381E2,9.895267E1,3.4076068E2,7.408694E1,2.868396E2,0E0,3.8531412E2,2.3591145E2,5.9465686E2,1.1862166E2,1.4088629E2,5.0328987E1,1.0525635E1,1.7816736E1,0E0,3.5864456E1,2.1679874E1,6.630481E1,2.0520115E0,1.7068512E2,4.7121262E2,8.043899E2,2.9031E2,1.9225891E1,5.6059875E0,0E0,0E0,5.2950256E1,0E0,1.2850285E0,1.75405E2,0E0,0E0,0E0,7.118531E0,0E0,0E0,0E0,0E0,0E0,0E0,0E0,0E0,0E0,2.826014E2,5.7153064E2,1.3706049E2,2.4549529E2,0E0,0E0,0E0,0E0,0E0,0E0,0E0,0E0,0E0,0E0,0E0,0E0,0E0,0E0,0E0,0E0,0E0,0E0,0E0,0E0,0E0,0E0],"parents":[2147483647,0,0,1,1,2,2,3,3,4,4,5,5,6,6,7,7,8,8,9,9,10,10,11,11,13,13,14,14,15,15,16,16,17,17,18,18,19,19,20,20,22,22,23,23,24,24,25,25,26,26,27,27,28,28,29,29,30,30,31,31,34,34,36,36,37,37,41,41,51,51,52,52,53,53,54,54],"right_children":[2,4,6,8,10,12,14,16,18,20,22,24,-1,26,28,30,32,34,36,38,40,-1,42,44,46,48,50,52,54,56,58,60,-1,-1,62,-1,64,66,-1,-1,-1,68,-1,-1,-1,-1,-1,-1,-1,-1,-1,70,72,74,76,-1,-1,-1,-1,-1,-1,-1,-1,-1,-1,-1,-1,-1,-1,-1,-1,-1,-1,-1,-1,-1,-1],"split_conditions":[9.686609E0,9.340941E0,9.83268E0,2E-1,1.1391472E2,2.6164919E1,1.0028439E1,2.4654501E1,1.3078574E2,9.605998E0,2.1194084E1,2.189617E1,1.8309838E0,6.638636E1,1.2204212E1,2.3848253E1,2.6525335E1,8.217153E0,2.4012835E1,6.438786E1,2.1783669E1,1.3496716E0,1.6498947E2,2.0733667E1,2.4810753E1,2.1783669E1,2.6380594E2,4.5239445E1,1.2261158E1,2.2237833E1,7.729527E0,9.20472E1,9.184502E-1,3.0984452E0,8.714677E0,-8.0349123E-1,8.557102E0,2.4554499E1,4.5640793E0,6.8568194E-1,-3.5854417E-1,2.4598253E1,-1.5025917E0,-3.4599724E-1,1.1207176E0,-3.9165025E0,-1.3879452E0,-1.149962E0,-2.3976403E-1,4.504465E0,6.069832E-2,3.6209553E1,4.803459E1,2.4598253E1,1.3084402E1,1.8988325E-1,-2.2683856E0,9.360581E-1,4.0270305E0,-2.3979344E0,-1.109654E0,-5.814469E-1,1.4240537E0,2.1512033E-1,9.5712584E-1,-3.0914308E-3,3.6223986E0,-3.136719E-1,4.1732827E-1,1.6498E-1,2.445193E0,-4.0163894E0,-3.7838873E-1,7.441849E-1,4.1521153E0,6.0711193E-1,-1.3208444E-2],"split_indices":[2,2,2,1,3,0,2,0,3,2,0,0,0,3,2,0,0,2,0,3,0,0,3,0,0,0,3,3,2,0,2,3,0,0,2,0,2,0,0,0,0,0,0,0,0,0,0,0,0,0,0,3,3,0,2,0,0,0,0,0,0,0,0,0,0,0,0,0,0,0,0,0,0,0,0,0,0],"split_type":[0,0,0,0,0,0,0,0,0,0,0,0,0,0,0,0,0,0,0,0,0,0,0,0,0,0,0,0,0,0,0,0,0,0,0,0,0,0,0,0,0,0,0,0,0,0,0,0,0,0,0,0,0,0,0,0,0,0,0,0,0,0,0,0,0,0,0,0,0,0,0,0,0,0,0,0,0],"sum_hessian":[8.86E2,5.9E1,8.27E2,4.2E1,1.7E1,1.1E1,8.16E2,3.1E1,1.1E1,1.1E1,6E0,1E1,1E0,6E0,8.1E2,2.3E1,8E0,6E0,5E0,7E0,4E0,1E0,5E0,2E0,8E0,2E0,4E0,1.83E2,6.27E2,2E1,3E0,7E0,1E0,3E0,3E0,2E0,3E0,4E0,3E0,2E0,2E0,3E0,2E0,1E0,1E0,5E0,3E0,1E0,1E0,3E0,1E0,2E1,1.63E2,6E0,6.21E2,1.5E1,5E0,1E0,2E0,3E0,4E0,2E0,1E0,1E0,2E0,2E0,2E0,2E0,1E0,1.3E1,7E0,3E0,1.6E2,2E0,4E0,6.3E1,5.58E2],"tree_param":{"num_deleted":"0","num_feature":"4","num_nodes":"77","size_leaf_vector":"1"}},{"base_weights":[8.1310794E-2,1.4873999E0,-2.0677926E-2,3.4947434E-1,4.123144E0,-4.86033E0,5.0431624E-2,1.6754277E0,-2.2373338E0,6.5611415E0,-6.452996E-1,-6.245413E0,1.556337E0,5.5735693E0,2.6974755E-3,4.910219E0,4.2298403E-1,-5.4215493E0,2.1762772E0,9.514575E0,5.234192E-1,1.1472211E0,-2.0275395E0,1.4633611E0,-8.121069E0,-2.6250381E0,9.378019E0,-1.3744794E0,1.4696948E-1,-2.1206667E-1,6.9004035E0,3.7561178E0,-1.3828863E0,-6.6992245E0,7.199776E-1,6.832225E0,-1.8927186E0,6.441391E0,4.65403E0,5.485451E-1,-9.561183E-1,-3.612709E-2,-1.202073E0,-2.9409716E-1,9.5260966E-1,-2.9373765E0,-1.0756571E0,-9.7746736E-1,-2.0379983E-1,3.4909608E0,5.15934E-2,-3.4278207E0,3.0335834E0,2.7538528E0,-1.1007567E-2,2.909598E0,2.6077804E-1,2.633761E0,1.8556672E-1,-1.0768371E0,1.6747639E0,-5.1814044E-1,-2.8011155E0,2.6181185E0,7.9799426E-1,2.3261049E0,-2.1485367E-1,-8.465195E-2,-3.456013E-1,-2.509369E-1,3.547291E-1,6.4813755E-2,-1.9352654E0,1.9338789E0,-3.2476533E-2,-1.3724267E-1,1.4242951E0,-6.2781966E-1,6.333144E-2],"categories":[],"categories_nodes":[],"categories_segments":[],"categories_sizes":[],"default_left":[0,0,0,0,0,0,0,0,0,0,0,0,0,0,0,0,0,0,0,0,0,0,0,0,0,0,0,0,0,0,0,0,0,0,0,0,0,0,0,0,0,0,0,0,0,0,0,0,0,0,0,0,0,0,0,0,0,0,0,0,0,0,0,0,0,0,0,0,0,0,0,0,0,0,0,0,0,0,0],"id":11,"left_children":[1,3,5,7,9,11,13,15,17,19,21,23,-1,25,27,29,31,33,35,37,39,-1,41,43,45,47,49,51,53,-1,55,57,59,61,-1,63,-1,65,-1,-1,67,69,-1,-1,-1,-1,-1,-1,-1,-1,-1,71,73,75,77,-1,-1,-1,-1,-1,-1,-1,-1,-1,-1,-1,-1,-1,-1,-1,-1,-1,-1,-1,-1,-1,-1,-1,-1],"loss_changes":[1.272312E2,1.785159E2,2.8519757E2,1.5123792E2,2.1349207E2,1.9940958E2,2.153807E2,1.1541348E2,2.2260715E2,2.0900397E2,5.099764E1,1.7093317E2,0E0,2.4295604E2,1.6133803E2,9.4310455E1,1.3761684E2,1.06017365E2,3.1965598E2,4.755664E1,1.1402704E1,0E0,2.3505697E1,1.5663685E1,3.3070007E1,1.482563E0,1.0195874E2,7.0734546E2,3.027237E2,0E0,9.282947E1,1.20651505E2,2.5058405E2,8.879776E1,0E0,1.6314789E1,0E0,7.1302734E1,0E0,0E0,7.09846E-2,4.890039E0,0E0,0E0,0E0,0E0,0E0,0E0,0E0,0E0,0E0,5.852226E2,2.6875006E2,2.710869E2,3.2133124E2,0E0,0E0,0E0,0E0,0E0,0E0,0E0,0E0,0E0,0E0,0E0,0E0,0E0,0E0,0E0,0E0,0E0,0E0,0E0,0E0,0E0,0E0,0E0,0E0],"parents":[2147483647,0,0,1,1,2,2,3,3,4,4,5,5,6,6,7,7,8,8,9,9,10,10,11,11,13,13,14,14,15,15,16,16,17,17,18,18,19,19,20,20,22,22,23,23,24,24,25,25,26,26,27,27,28,28,30,30,31,31,32,32,33,33,35,35,37,37,40,40,41,41,51,51,52,52,53,53,54,54],"right_children":[2,4,6,8,10,12,14,16,18,20,22,24,-1,26,28,30,32,34,36,38,40,-1,42,44,46,48,50,52,54,-1,56,58,60,62,-1,64,-1,66,-1,-1,68,70,-1,-1,-1,-1,-1,-1,-1,-1,-1,72,74,76,78,-1,-1,-1,-1,-1,-1,-1,-1,-1,-1,-1,-1,-1,-1,-1,-1,-1,-1,-1,-1,-1,-1,-1,-1],"split_conditions":[9.686609E0,9.340941E0,9.83268E0,8.942214E0,1.1391472E2,2.6164919E1,1.0028439E1,2.2148252E1,2.2996168E1,9.605998E0,2.1194084E1,2.189617E1,1.556337E0,6.638636E1,1.1019764E1,6.638636E1,8.217153E0,1.1800458E2,2.4654501E1,1.0744728E2,2.1783669E1,1.1472211E0,1.6498947E2,2.0733667E1,2.4810753E1,2.1783669E1,2.6380594E2,2.5217003E1,1.14862E1,-2.1206667E-1,1.2153473E2,7.264221E1,8.825508E0,8.189888E1,7.199776E-1,5.6234398E1,-1.8927186E0,8.8580444E1,4.65403E0,5.485451E-1,2.3196169E1,2.4598253E1,-1.202073E0,-2.9409716E-1,9.5260966E-1,-2.9373765E0,-1.0756571E0,-9.7746736E-1,-2.0379983E-1,3.4909608E0,5.15934E-2,2.3127419E1,2.6271166E1,1.187038E2,1.2204212E1,2.909598E0,2.6077804E-1,2.633761E0,1.8556672E-1,-1.0768371E0,1.6747639E0,-5.1814044E-1,-2.8011155E0,2.6181185E0,7.9799426E-1,2.3261049E0,-2.1485367E-1,-8.465195E-2,-3.456013E-1,-2.509369E-1,3.547291E-1,6.4813755E-2,-1.9352654E0,1.9338789E0,-3.2476533E-2,-1.3724267E-1,1.4242951E0,-6.2781966E-1,6.333144E-2],"split_indices":[2,2,2,2,3,0,2,0,0,2,0,0,0,3,2,3,2,3,0,3,0,0,3,0,0,0,3,0,2,0,3,3,2,3,0,3,0,3,0,0,0,0,0,0,0,0,0,0,0,0,0,0,0,3,2,0,0,0,0,0,0,0,0,0,0,0,0,0,0,0,0,0,0,0,0,0,0,0,0],"split_type":[0,0,0,0,0,0,0,0,0,0,0,0,0,0,0,0,0,0,0,0,0,0,0,0,0,0,0,0,0,0,0,0,0,0,0,0,0,0,0,0,0,0,0,0,0,0,0,0,0,0,0,0,0,0,0,0,0,0,0,0,0,0,0,0,0,0,0,0,0,0,0,0,0,0,0,0,0,0,0],"sum_hessian":[8.86E2,5.9E1,8.27E2,4.2E1,1.7E1,1.1E1,8.16E2,2.8E1,1.4E1,1.1E1,6E0,1E1,1E0,6E0,8.1E2,7E0,2.1E1,8E0,6E0,7E0,4E0,1E0,5E0,2E0,8E0,2E0,4E0,7.6E1,7.34E2,2E0,5E0,7E0,1.4E1,7E0,1E0,4E0,2E0,6E0,1E0,2E0,2E0,3E0,2E0,1E0,1E0,5E0,3E0,1E0,1E0,3E0,1E0,5.2E1,2.4E1,4.1E1,6.93E2,3E0,2E0,2E0,5E0,1.1E1,3E0,3E0,4E0,2E0,2E0,5E0,1E0,1E0,1E0,2E0,1E0,2.4E1,2.8E1,1.1E1,1.3E1,1.6E1,2.5E1,6.6E1,6.27E2],"tree_param":{"num_deleted":"0","num_feature":"4","num_nodes":"79","size_leaf_vector":"1"}},{"base_weights":[7.219277E-2,1.9584657E-1,-1.0387238E0,1.14443064E-1,2.433263E0,-3.3486314E0,-8.409381E-2,1.8501756E-1,-1.0748688E1,1.1187755E1,-4.628601E-1,-5.345632E0,-1.5277888E0,5.8825336E0,-8.027541E-1,3.9307464E-2,2.0369153E0,-3.6968012E0,-6.6791385E-1,6.7462344E0,2.1703887E0,2.740813E0,-4.5813494E0,-1.4170074E-1,-7.0645313E0,1.1116378E0,-2.5886383E0,9.34042E-1,2.8081176E0,2.0854192E0,-1.9526634E0,9.732823E-2,-1.0269205E1,5.693535E0,1.0579984E0,1.4047835E0,-1.1817753E0,2.7882662E0,7.043554E-1,-1.0975649E1,-2.729852E-1,3.443779E-1,-9.5421857E-1,-2.5754085E0,-1.1626383E0,-2.1534348E-1,9.6293455E-1,-1.671151E0,-1.3070569E0,-1.9406383E-1,6.4775395E-1,7.046218E-1,3.6267266E0,-5.695243E0,1.2202781E-1,5.1491065E-3,1.7121389E0,-3.8373153E0,-4.0555003E-1,-4.6771336E-1,1.7882766E0,7.9025185E-1,-6.41478E-1,-6.6977006E-1,-3.9437463E0,1.0869976E0,-1.2303149E0,-5.2241135E-2,-3.7715724E-1,-5.86496E-1,6.3308716E-2,-2.4279328E-1,2.3498383E-1,2.4579163E-1,-1.2509508E0,-1.989235E-1,1.11594774E-1,-9.380745E-1,5.4880637E-1,-4.2206466E-1,-2.519349E0,1.0846481E0,-9.440027E-1],"categories":[],"categories_nodes":[],"categories_segments":[],"categories_sizes":[],"default_left":[0,0,0,0,0,0,0,0,0,0,0,0,0,0,0,0,0,0,0,0,0,0,0,0,0,0,0,0,0,0,0,0,0,0,0,0,0,0,0,0,0,0,0,0,0,0,0,0,0,0,0,0,0,0,0,0,0,0,0,0,0,0,0,0,0,0,0,0,0,0,0,0,0,0,0,0,0,0,0,0,0,0,0],"id":12,"left_children":[1,3,5,7,9,11,13,15,17,19,21,23,25,27,29,31,33,-1,-1,-1,35,37,39,41,43,45,47,49,-1,51,53,55,57,-1,59,-1,-1,-1,61,63,65,-1,67,-1,69,71,-1,-1,73,75,-1,77,-1,79,81,-1,-1,-1,-1,-1,-1,-1,-1,-1,-1,-1,-1,-1,-1,-1,-1,-1,-1,-1,-1,-1,-1,-1,-1,-1,-1,-1,-1],"loss_changes":[1.2204978E2,1.4524623E2,1.9597293E2,5.938502E2,7.150928E2,8.637485E1,2.791528E2,2.071572E2,3.9634827E1,6.644477E2,3.028311E2,1.06339325E2,4.4878147E1,1.1172806E2,1.9669809E2,4.2745032E2,9.0864465E2,0E0,0E0,0E0,9.5189865E1,1.6694812E2,2.724935E2,5.286752E0,7.0765686E1,1.4612194E1,3.475557E1,5.947359E0,0E0,2.2630345E2,3.268122E2,3.1919412E2,7.266159E1,0E0,7.02176E2,0E0,0E0,0E0,6.5975555E1,4.6547028E1,1.1926672E2,0E0,4.901054E-1,0E0,3.6778278E0,3.0065143E0,0E0,0E0,5.8202118E1,1.0431055E0,0E0,7.467151E1,0E0,1.620303E2,3.311117E2,0E0,0E0,0E0,0E0,0E0,0E0,0E0,0E0,0E0,0E0,0E0,0E0,0E0,0E0,0E0,0E0,0E0,0E0,0E0,0E0,0E0,0E0,0E0,0E0,0E0,0E0,0E0,0E0],"parents":[2147483647,0,0,1,1,2,2,3,3,4,4,5,5,6,6,7,7,8,8,9,9,10,10,11,11,12,12,13,13,14,14,15,15,16,16,20,20,21,21,22,22,23,23,24,24,25,25,26,26,27,27,29,29,30,30,31,31,32,32,34,34,38,38,39,39,40,40,42,42,44,44,45,45,48,48,49,49,51,51,53,53,54,54],"right_children":[2,4,6,8,10,12,14,16,18,20,22,24,26,28,30,32,34,-1,-1,-1,36,38,40,42,44,46,48,50,-1,52,54,56,58,-1,60,-1,-1,-1,62,64,66,-1,68,-1,70,72,-1,-1,74,76,-1,78,-1,80,82,-1,-1,-1,-1,-1,-1,-1,-1,-1,-1,-1,-1,-1,-1,-1,-1,-1,-1,-1,-1,-1,-1,-1,-1,-1,-1,-1,-1],"split_conditions":[2.908085E2,2.8413416E2,1.3570615E1,2.8320908E2,1.6293728E1,3.1113998E2,1.4174356E1,2.2782625E1,2.2E0,2.865421E2,8E-1,2.9734662E2,3.2627582E2,3.3508893E2,2.5054499E1,2.2505037E1,1.06135185E2,-3.6968012E0,-6.6791385E-1,6.7462344E0,2E-1,2.4821173E1,1.8E0,2.5229502E1,1.8E0,3.2030374E2,3.3508893E2,2.428575E1,2.8081176E0,2.5031588E1,2.6525335E1,2.44E1,2.5506584E1,5.693535E0,2.6686514E2,1.4047835E0,-1.1817753E0,2.7882662E0,2.865421E2,1.81041E1,1.7599998E1,3.443779E-1,2.5523252E1,-2.5754085E0,2.5369087E1,1.27279215E1,9.6293455E-1,-1.671151E0,1.1212135E1,2.3994085E1,6.4775395E-1,2.3589918E1,3.6267266E0,1.5072783E1,3.0319086E1,5.1491065E-3,1.7121389E0,-3.8373153E0,-4.0555003E-1,-4.6771336E-1,1.7882766E0,7.9025185E-1,-6.41478E-1,-6.6977006E-1,-3.9437463E0,1.0869976E0,-1.2303149E0,-5.2241135E-2,-3.7715724E-1,-5.86496E-1,6.3308716E-2,-2.4279328E-1,2.3498383E-1,2.4579163E-1,-1.2509508E0,-1.989235E-1,1.11594774E-1,-9.380745E-1,5.4880637E-1,-4.2206466E-1,-2.519349E0,1.0846481E0,-9.440027E-1],"split_indices":[3,3,2,3,2,3,2,2,1,3,1,3,3,3,0,2,3,0,0,0,1,0,1,0,1,3,3,0,0,0,0,1,0,0,3,0,0,0,3,2,1,0,0,0,0,2,0,0,2,0,0,0,0,2,0,0,0,0,0,0,0,0,0,0,0,0,0,0,0,0,0,0,0,0,0,0,0,0,0,0,0,0,0],"split_type":[0,0,0,0,0,0,0,0,0,0,0,0,0,0,0,0,0,0,0,0,0,0,0,0,0,0,0,0,0,0,0,0,0,0,0,0,0,0,0,0,0,0,0,0,0,0,0,0,0,0,0,0,0,0,0,0,0,0,0,0,0,0,0,0,0,0,0,0,0,0,0,0,0,0,0,0,0,0,0,0,0,0,0],"sum_hessian":[8.86E2,7.98E2,8.8E1,7.71E2,2.7E1,2.5E1,6.3E1,7.67E2,4E0,6E0,2.1E1,1.1E1,1.4E1,6E0,5.7E1,7.12E2,5.5E1,3E0,1E0,2E0,4E0,1.2E1,9E0,3E0,8E0,4E0,1E1,3E0,3E0,1.6E1,4.1E1,7.09E2,3E0,2E0,5.3E1,3E0,1E0,2E0,1E1,3E0,6E0,1E0,2E0,6E0,2E0,3E0,1E0,2E0,8E0,2E0,1E0,1.5E1,1E0,1.4E1,2.7E1,7E2,9E0,2E0,1E0,3.5E1,1.8E1,6E0,4E0,1E0,2E0,3E0,3E0,1E0,1E0,1E0,1E0,2E0,1E0,5E0,3E0,1E0,1E0,3E0,1.2E1,6E0,8E0,1.3E1,1.4E1],"tree_param":{"num_deleted":"0","num_feature":"4","num_nodes":"83","size_leaf_vector":"1"}},{"base_weights":[5.52398E-2,2.440362E-1,-8.4496665E-1,-7.663353E-3,2.0005445E0,-4.001144E0,-2.3150975E-1,1.00458294E-1,-5.255132E0,5.5937047E0,1.7169768E-1,-5.2042785E0,1.9669815E0,1.1127746E0,-2.0277565E0,7.379322E-1,-2.4495552E-1,-7.2552757E0,2.8119886E0,-2.767353E-1,8.836284E0,-1.5099776E0,6.0452967E0,1.0594845E0,-6.1968174E0,5.6742984E-1,6.220243E0,7.916233E0,-2.7399867E0,1.6717938E-1,1.0712174E1,-1.0449671E1,-1.18678354E-1,-1.0871137E1,-3.119498E0,9.8304445E-1,-1.3151269E0,9.230448E0,6.0625978E0,1.8007889E0,-4.760345E0,1.2561323E1,-8.195816E0,-4.27977E-1,7.091118E-1,-3.253945E0,-8.308808E0,4.5905447E0,1.5597503E-1,9.1282123E-1,3.3805082E0,-1.5089918E0,-1.923476E0,-6.798184E-2,2.7091966E0,-6.789011E-1,5.244792E0,-3.8340838E0,-1.6908532E-1,2.0427227E0,-7.1885206E-2,9.981537E-3,-3.917602E0,9.573669E-3,-2.199605E0,8.7172705E-1,-4.5624575E-1,4.7110367E0,7.3344165E-1,-8.35195E-2,3.8358366E0,-1.7048916E0,2.6074047E0,3.841629E-1,4.5664353E0,-5.6772655E-1,-2.789568E0,-1.1957549E0,-6.5265656E-2,-5.6193924E-1,-2.629519E0,-8.606357E-1,4.5510736E-1,-7.056348E-1,2.9863853E0],"categories":[],"categories_nodes":[],"categories_segments":[],"categories_sizes":[],"default_left":[0,0,0,0,0,0,0,0,0,0,0,0,0,0,0,0,0,0,0,0,0,0,0,0,0,0,0,0,0,0,0,0,0,0,0,0,0,0,0,0,0,0,0,0,0,0,0,0,0,0,0,0,0,0,0,0,0,0,0,0,0,0,0,0,0,0,0,0,0,0,0,0,0,0,0,0,0,0,0,0,0,0,0,0,0],"id":13,"left_children":[1,3,5,7,9,11,13,15,17,19,21,23,-1,25,27,29,31,33,-1,35,37,39,41,43,45,47,-1,49,51,53,55,57,59,61,63,65,-1,-1,67,69,71,73,75,-1,-1,77,79,-1,81,-1,-1,83,-1,-1,-1,-1,-1,-1,-1,-1,-1,-1,-1,-1,-1,-1,-1,-1,-1,-1,-1,-1,-1,-1,-1,-1,-1,-1,-1,-1,-1,-1,-1,-1,-1],"loss_changes":[1.5095694E2,3.245258E2,2.972452E2,3.6534363E2,6.036028E2,3.5168228E2,3.1616302E2,1.391221E2,4.4837222E2,5.925416E2,6.215324E2,1.4955713E2,0E0,7.9076556E2,4.1830533E2,1.2620167E3,5.270951E2,1.4554028E2,0E0,6.639672E1,1.0301077E3,5.358716E2,1.4020867E3,1.6341606E1,9.727002E1,4.4624078E2,0E0,3.1059647E1,2.2987012E2,7.3850146E2,1.093739E3,1.0799939E2,3.4179285E2,1.4355725E2,9.316159E1,5.256122E1,0E0,0E0,6.243019E2,5.745737E2,3.5966498E2,2.8059143E2,1.7158325E1,0E0,0E0,2.1356361E1,1.5881226E1,0E0,3.04882E2,0E0,0E0,4.1968945E2,0E0,0E0,0E0,0E0,0E0,0E0,0E0,0E0,0E0,0E0,0E0,0E0,0E0,0E0,0E0,0E0,0E0,0E0,0E0,0E0,0E0,0E0,0E0,0E0,0E0,0E0,0E0,0E0,0E0,0E0,0E0,0E0,0E0],"parents":[2147483647,0,0,1,1,2,2,3,3,4,4,5,5,6,6,7,7,8,8,9,9,10,10,11,11,13,13,14,14,15,15,16,16,17,17,19,19,20,20,21,21,22,22,23,23,24,24,25,25,27,27,28,28,29,29,30,30,31,31,32,32,33,33,34,34,35,35,38,38,39,39,40,40,41,41,42,42,45,45,46,46,48,48,51,51],"right_children":[2,4,6,8,10,12,14,16,18,20,22,24,-1,26,28,30,32,34,-1,36,38,40,42,44,46,48,-1,50,52,54,56,58,60,62,64,66,-1,-1,68,70,72,74,76,-1,-1,78,80,-1,82,-1,-1,84,-1,-1,-1,-1,-1,-1,-1,-1,-1,-1,-1,-1,-1,-1,-1,-1,-1,-1,-1,-1,-1,-1,-1,-1,-1,-1,-1,-1,-1,-1,-1,-1,-1],"split_conditions":[3.8999999E0,1.1E0,5.3999996E0,8.000001E-1,1.4438198E1,2.7067003E1,1.9914217E1,2.3956583E1,1.9829433E1,1.8000001E0,2.2884789E1,9.923379E1,1.9669815E0,1.9881649E1,1.1598627E2,2.3814919E1,2.3994085E1,2.5054499E1,2.8119886E0,1.6E0,2E0,2.56045E1,2.7236194E2,4.1E0,1.6323528E1,5.7E0,6.220243E0,2.583783E1,2.11E1,4E-1,5.843264E1,1.4079752E2,2.4098253E1,2.2781584E1,2.5523252E1,1.332E1,-1.3151269E0,9.230448E0,8.8580444E1,2.5554502E1,3.0031588E1,2.528575E1,2.5379501E1,-4.27977E-1,7.091118E-1,2.737083E2,2.29545E1,4.5905447E0,1.23640076E2,9.1282123E-1,3.3805082E0,1.8800001E1,-1.923476E0,-6.798184E-2,2.7091966E0,-6.789011E-1,5.244792E0,-3.8340838E0,-1.6908532E-1,2.0427227E0,-7.1885206E-2,9.981537E-3,-3.917602E0,9.573669E-3,-2.199605E0,8.7172705E-1,-4.5624575E-1,4.7110367E0,7.3344165E-1,-8.35195E-2,3.8358366E0,-1.7048916E0,2.6074047E0,3.841629E-1,4.5664353E0,-5.6772655E-1,-2.789568E0,-1.1957549E0,-6.5265656E-2,-5.6193924E-1,-2.629519E0,-8.606357E-1,4.5510736E-1,-7.056348E-1,2.9863853E0],"split_indices":[1,1,1,1,2,0,2,0,2,1,2,3,0,2,3,0,0,0,0,1,1,0,3,1,2,1,0,0,1,1,3,3,0,0,0,2,0,0,3,0,0,0,0,0,0,3,0,0,3,0,0,1,0,0,0,0,0,0,0,0,0,0,0,0,0,0,0,0,0,0,0,0,0,0,0,0,0,0,0,0,0,0,0,0,0],"split_type":[0,0,0,0,0,0,0,0,0,0,0,0,0,0,0,0,0,0,0,0,0,0,0,0,0,0,0,0,0,0,0,0,0,0,0,0,0,0,0,0,0,0,0,0,0,0,0,0,0,0,0,0,0,0,0,0,0,0,0,0,0,0,0,0,0,0,0,0,0,0,0,0,0,0,0,0,0,0,0,0,0,0,0,0,0],"sum_hessian":[8.86E2,7.33E2,1.53E2,6.42E2,9.1E1,2.4E1,1.29E2,6.3E2,1.2E1,3E1,6.1E1,2.2E1,2E0,7.4E1,5.5E1,2.21E2,4.09E2,1.1E1,1E0,1.1E1,1.9E1,4.8E1,1.3E1,3E0,1.9E1,7.3E1,1E0,3E0,5.2E1,2.1E2,1.1E1,4E0,4.05E2,5E0,6E0,9E0,2E0,1E0,1.8E1,2.4E1,2.4E1,9E0,4E0,1E0,2E0,9E0,1E1,1E0,7.2E1,2E0,1E0,4E1,1.2E1,2.02E2,8E0,4E0,7E0,3E0,1E0,6E0,3.99E2,1E0,4E0,4E0,2E0,5E0,4E0,4E0,1.4E1,2.1E1,3E0,2.3E1,1E0,2E0,7E0,1E0,3E0,7E0,2E0,1E0,9E0,2.2E1,5E1,3.8E1,2E0],"tree_param":{"num_deleted":"0","num_feature":"4","num_nodes":"85","size_leaf_vector":"1"}},{"base_weights":[7.7860914E-2,1.2726725E0,-2.6067466E-2,4.7792172E0,-8.403419E-3,-4.0256634E0,6.395603E-2,1.016587E1,2.1292796E0,-8.433008E0,6.6573304E-1,-6.050882E0,2.4500809E0,2.8188758E0,-5.076619E-2,1.1802716E1,2.972454E-1,-3.9352834E-1,2.5604045E0,-6.309609E-1,-2.9525628E0,2.4376445E-1,3.2013292E0,-7.3520746E0,1.6296936E0,2.6753838E0,-1.3963718E0,-1.7401906E0,4.9702783E0,4.3046136E0,-1.0220857E-1,5.334183E-1,4.1593094E0,8.508784E-1,-1.1986717E0,1.7401671E0,-9.4068635E-1,-2.0512085E-1,-1.0505708E1,-8.1140786E-1,-5.870056E-2,-2.1248078E0,3.15897E-1,8.852112E0,9.9774104E-1,3.0025005E-1,5.4509287E0,-2.8299205E0,-5.7103117E-3,-1.1429129E-1,1.605851E0,-7.1151125E-1,1.1451463E0,-1.7743397E0,4.041386E-2,-6.799027E-1,5.773423E-1,-3.7446167E0,7.957615E-1,9.597245E-2,-1.223877E-1,-7.5322527E-1,-1.1620713E-1,5.34627E0,1.4636843E0,7.4181867E-1,-1.2754395E0,6.9974136E-1,-2.2977068E-1,4.4939724E-1,-1.6885469E0,-9.909352E-1,1.8840985E-2],"categories":[],"categories_nodes":[],"categories_segments":[],"categories_sizes":[],"default_left":[0,0,0,0,0,0,0,0,0,0,0,0,0,0,0,0,0,0,0,0,0,0,0,0,0,0,0,0,0,0,0,0,0,0,0,0,0,0,0,0,0,0,0,0,0,0,0,0,0,0,0,0,0,0,0,0,0,0,0,0,0,0,0,0,0,0,0,0,0,0,0,0,0],"id":14,"left_children":[1,3,5,7,9,11,13,15,17,19,21,23,25,27,29,31,-1,33,-1,-1,-1,35,-1,37,-1,-1,39,41,43,45,47,-1,-1,49,-1,51,53,55,57,-1,59,61,-1,63,65,67,-1,69,71,-1,-1,-1,-1,-1,-1,-1,-1,-1,-1,-1,-1,-1,-1,-1,-1,-1,-1,-1,-1,-1,-1,-1,-1],"loss_changes":[1.1017625E2,3.1898285E2,2.9442453E2,2.4956558E2,3.0661877E2,2.5089148E2,2.529835E2,7.841461E1,2.2959302E2,1.4971985E1,2.0849623E2,2.491247E2,1.3684445E2,3.2251764E2,1.7273528E2,7.8684875E1,0E0,5.2706234E1,0E0,0E0,0E0,8.8485306E1,0E0,2.9085028E2,0E0,0E0,6.841646E0,1.4054756E1,3.3042395E2,4.9423438E2,2.0029385E2,0E0,0E0,5.1950886E1,0E0,1.9693982E2,1.5056311E2,2.630935E1,2.6715662E2,0E0,5.2720624E-1,5.733013E0,0E0,3.0503186E2,1.0342288E2,1.9119703E1,0E0,3.233423E2,1.6648251E2,0E0,0E0,0E0,0E0,0E0,0E0,0E0,0E0,0E0,0E0,0E0,0E0,0E0,0E0,0E0,0E0,0E0,0E0,0E0,0E0,0E0,0E0,0E0,0E0],"parents":[2147483647,0,0,1,1,2,2,3,3,4,4,5,5,6,6,7,7,8,8,9,9,10,10,11,11,12,12,13,13,14,14,15,15,17,17,21,21,23,23,26,26,27,27,28,28,29,29,30,30,33,33,35,35,36,36,37,37,38,38,40,40,41,41,43,43,44,44,45,45,47,47,48,48],"right_children":[2,4,6,8,10,12,14,16,18,20,22,24,26,28,30,32,-1,34,-1,-1,-1,36,-1,38,-1,-1,40,42,44,46,48,-1,-1,50,-1,52,54,56,58,-1,60,62,-1,64,66,68,-1,70,72,-1,-1,-1,-1,-1,-1,-1,-1,-1,-1,-1,-1,-1,-1,-1,-1,-1,-1,-1,-1,-1,-1,-1,-1],"split_conditions":[4.5239445E1,2.2177416E1,4.9506718E1,2.9642395E1,2.2448256E1,1.5575981E1,5.843264E1,2.189617E1,2.1998253E1,9.085988E0,4.3195293E1,2.4554499E1,1.7134071E1,2.2104502E1,2.0337831E1,9.686609E0,2.972454E-1,2.1602419E1,2.5604045E0,-6.309609E-1,-2.9525628E0,1.2413476E1,3.2013292E0,2.175242E1,1.6296936E0,2.6753838E0,2.2258667E1,5.6234398E1,1.2819235E1,2.0258669E1,2.1414919E1,5.334183E-1,4.1593094E0,2.0850334E1,-1.1986717E0,1.093985E1,1.3004922E1,2.0850334E1,1E-1,-8.1140786E-1,2.4042E1,1.3084402E1,3.15897E-1,2.2356585E1,1.5188415E1,6.438786E1,5.4509287E0,1.0587918E1,6.438786E1,-1.1429129E-1,1.605851E0,-7.1151125E-1,1.1451463E0,-1.7743397E0,4.041386E-2,-6.799027E-1,5.773423E-1,-3.7446167E0,7.957615E-1,9.597245E-2,-1.223877E-1,-7.5322527E-1,-1.1620713E-1,5.34627E0,1.4636843E0,7.4181867E-1,-1.2754395E0,6.9974136E-1,-2.2977068E-1,4.4939724E-1,-1.6885469E0,-9.909352E-1,1.8840985E-2],"split_indices":[3,0,3,3,0,2,3,0,0,2,3,0,2,0,0,2,0,0,0,0,0,2,0,0,0,0,0,3,2,0,0,0,0,0,0,3,2,0,1,0,0,2,0,0,2,3,0,2,3,0,0,0,0,0,0,0,0,0,0,0,0,0,0,0,0,0,0,0,0,0,0,0,0],"split_type":[0,0,0,0,0,0,0,0,0,0,0,0,0,0,0,0,0,0,0,0,0,0,0,0,0,0,0,0,0,0,0,0,0,0,0,0,0,0,0,0,0,0,0,0,0,0,0,0,0,0,0,0,0,0,0,0,0,0,0,0,0,0,0,0,0,0,0,0,0,0,0,0,0],"sum_hessian":[8.86E2,7E1,8.16E2,1.8E1,5.2E1,1.7E1,7.99E2,5E0,1.3E1,3E0,4.9E1,1.3E1,4E0,3.1E1,7.68E2,4E0,1E0,1E1,3E0,1E0,2E0,4.8E1,1E0,1.2E1,1E0,1E0,3E0,1E1,2.1E1,8E0,7.6E2,1E0,3E0,8E0,2E0,2.1E1,2.7E1,4E0,8E0,1E0,2E0,9E0,1E0,1E1,1.1E1,7E0,1E0,2.5E1,7.35E2,7E0,1E0,7E0,1.4E1,4E0,2.3E1,2E0,2E0,7E0,1E0,1E0,1E0,7E0,2E0,2E0,8E0,9E0,2E0,2E0,5E0,1E1,1.5E1,1.4E1,7.21E2],"tree_param":{"num_deleted":"0","num_feature":"4","num_nodes":"73","size_leaf_vector":"1"}},{"base_weights":[7.254824E-2,2.0435525E-1,-5.561459E-1,8.5938E-2,2.7994483E0,-1.675538E0,7.760383E-1,1.738605E-1,-2.9253087E0,1.1630582E1,1.1224798E0,-2.38626E0,1.2659113E0,5.9234986E0,-4.7983208E-1,9.8720066E-2,1.7197832E1,-3.8559272E0,2.2134671E0,9.343472E-1,3.8942947E0,-1.3078666E0,8.600357E0,-1.2580736E0,-4.5388823E0,6.005901E0,-1.8655285E0,1.6998268E0,1.3186142E1,1.6048431E0,-2.9327867E0,-1.4085839E-2,4.035794E0,-1.0402909E-1,7.8430543E0,-6.730816E0,-1.6180077E0,2.378017E0,-2.8386989E0,4.3715525E0,3.2973952E0,-4.363928E0,7.1308005E-1,-5.411381E0,3.0815685E0,1.6268448E0,3.3907082E0,-2.818154E-1,-1.7984475E0,3.2836761E0,-5.407578E-1,-3.743889E-1,5.131998E0,-2.3095903E-1,5.6667037E0,-7.6868477E0,-1.2870915E-1,5.282898E-2,-5.0507057E-1,-1.5844737E0,2.6227188E0,-2.4157853E0,3.7826845E-1,3.601822E-1,-1.7412571E0,-8.611855E-1,1.5154785E0,-2.3450242E-1,-2.1623452E0,1.3664349E0,-2.5982323E-1,-1.5679322E-1,-1.872305E0,2.9475573E-2,1.8026521E0,-6.429208E-1,-2.4563248E0,2.583252E0,-1.1965462E0,8.8793874E-1,-7.45163E-2,-1.0380013E0,3.3615744E-1,1.1546506E0,4.306717E-1,-6.0381436E-1,9.912301E-2,1.349209E0,-4.3892962E-1,3.8842828E0,6.684079E-1,-3.1964645E0,-1.1797036E0,1.0234972E0,-1.4941874E0],"categories":[],"categories_nodes":[],"categories_segments":[],"categories_sizes":[],"default_left":[0,0,0,0,0,0,0,0,0,0,0,0,0,0,0,0,0,0,0,0,0,0,0,0,0,0,0,0,0,0,0,0,0,0,0,0,0,0,0,0,0,0,0,0,0,0,0,0,0,0,0,0,0,0,0,0,0,0,0,0,0,0,0,0,0,0,0,0,0,0,0,0,0,0,0,0,0,0,0,0,0,0,0,0,0,0,0,0,0,0,0,0,0,0,0],"id":15,"left_children":[1,3,5,7,9,11,13,15,17,19,21,23,25,27,29,31,33,35,-1,-1,-1,37,39,41,43,45,47,49,51,53,55,57,59,-1,-1,61,63,65,67,-1,69,71,73,75,77,79,-1,81,-1,83,85,-1,-1,87,89,91,93,-1,-1,-1,-1,-1,-1,-1,-1,-1,-1,-1,-1,-1,-1,-1,-1,-1,-1,-1,-1,-1,-1,-1,-1,-1,-1,-1,-1,-1,-1,-1,-1,-1,-1,-1,-1,-1,-1],"loss_changes":[7.361606E1,2.253204E2,2.3095068E2,1.8663231E2,4.6084998E2,1.7862724E2,4.6182483E2,8.7326733E2,2.202231E2,1.7071472E1,5.201154E2,1.594318E2,2.63535E2,4.0703613E2,3.0129626E2,3.0295023E2,4.7991064E2,1.11351105E2,0E0,0E0,0E0,1.308848E2,1.736167E2,2.847292E2,1.695987E2,1.439673E2,7.02464E1,3.726316E1,3.042943E2,2.3992548E2,3.5894107E2,2.1112062E2,8.793836E2,0E0,0E0,9.46611E1,1.4855939E2,1.12729645E2,1.3816393E2,0E0,3.0120285E1,1.2652591E2,9.383311E1,1.7300787E2,1.5162099E2,1.3233142E1,0E0,4.398914E1,0E0,7.4155426E-1,7.0766263E0,0E0,0E0,1.4057701E2,2.2151923E2,6.9536194E1,3.261882E2,0E0,0E0,0E0,0E0,0E0,0E0,0E0,0E0,0E0,0E0,0E0,0E0,0E0,0E0,0E0,0E0,0E0,0E0,0E0,0E0,0E0,0E0,0E0,0E0,0E0,0E0,0E0,0E0,0E0,0E0,0E0,0E0,0E0,0E0,0E0,0E0,0E0,0E0],"parents":[2147483647,0,0,1,1,2,2,3,3,4,4,5,5,6,6,7,7,8,8,9,9,10,10,11,11,12,12,13,13,14,14,15,15,16,16,17,17,21,21,22,22,23,23,24,24,25,25,26,26,27,27,28,28,29,29,30,30,31,31,32,32,35,35,36,36,37,37,38,38,40,40,41,41,42,42,43,43,44,44,45,45,47,47,49,49,50,50,53,53,54,54,55,55,56,56],"right_children":[2,4,6,8,10,12,14,16,18,20,22,24,26,28,30,32,34,36,-1,-1,-1,38,40,42,44,46,48,50,52,54,56,58,60,-1,-1,62,64,66,68,-1,70,72,74,76,78,80,-1,82,-1,84,86,-1,-1,88,90,92,94,-1,-1,-1,-1,-1,-1,-1,-1,-1,-1,-1,-1,-1,-1,-1,-1,-1,-1,-1,-1,-1,-1,-1,-1,-1,-1,-1,-1,-1,-1,-1,-1,-1,-1,-1,-1,-1,-1],"split_conditions":[3.8999999E0,2.7000003E0,1.2E1,2E0,8.8580444E1,2.8084024E2,1.3800002E1,1.9000001E0,2.9358667E1,5.843264E1,2.7020987E2,2.652593E2,2.4375336E1,1.3399999E1,1.935314E1,2.2782625E1,2.448575E1,2.494316E2,2.2134671E0,9.343472E-1,3.8942947E0,2.9E0,1.3288341E1,1.530741E1,2.744513E1,2.428575E1,2.7092003E1,1.2600001E1,2.442742E1,1.6323528E1,2.2782625E1,6E-1,4E-1,-1.0402909E-1,7.8430543E0,1.803237E1,2.1413193E1,1.626994E2,2.6989916E1,4.3715525E0,2.6289917E1,1.0094454E1,2.6989916E1,2.0291357E1,2.4196173E1,2.3956583E1,3.3907082E0,1.0661107E1,-1.7984475E0,2.5989566E2,2.2887835E1,-3.743889E-1,5.131998E0,1.0799999E1,2.3391998E1,1.83E1,2.6042212E1,5.282898E-2,-5.0507057E-1,-1.5844737E0,2.6227188E0,-2.4157853E0,3.7826845E-1,3.601822E-1,-1.7412571E0,-8.611855E-1,1.5154785E0,-2.3450242E-1,-2.1623452E0,1.3664349E0,-2.5982323E-1,-1.5679322E-1,-1.872305E0,2.9475573E-2,1.8026521E0,-6.429208E-1,-2.4563248E0,2.583252E0,-1.1965462E0,8.8793874E-1,-7.45163E-2,-1.0380013E0,3.3615744E-1,1.1546506E0,4.306717E-1,-6.0381436E-1,9.912301E-2,1.349209E0,-4.3892962E-1,3.8842828E0,6.684079E-1,-3.1964645E0,-1.1797036E0,1.0234972E0,-1.4941874E0],"split_indices":[1,1,1,1,3,3,1,1,0,3,3,3,0,1,2,2,0,3,0,0,0,1,2,2,2,0,0,1,0,2,2,1,1,0,0,2,2,3,0,0,0,2,0,2,0,0,0,2,0,3,0,0,0,2,0,1,2,0,0,0,0,0,0,0,0,0,0,0,0,0,0,0,0,0,0,0,0,0,0,0,0,0,0,0,0,0,0,0,0,0,0,0,0,0,0],"split_type":[0,0,0,0,0,0,0,0,0,0,0,0,0,0,0,0,0,0,0,0,0,0,0,0,0,0,0,0,0,0,0,0,0,0,0,0,0,0,0,0,0,0,0,0,0,0,0,0,0,0,0,0,0,0,0,0,0,0,0,0,0,0,0,0,0,0,0,0,0,0,0,0,0,0,0,0,0,0,0,0,0,0,0,0,0,0,0,0,0,0,0,0,0,0,0],"sum_hessian":[8.86E2,7.33E2,1.53E2,7.02E2,3.1E1,8.3E1,7E1,6.83E2,1.9E1,4E0,2.7E1,6.7E1,1.6E1,1.3E1,5.7E1,6.81E2,2E0,1.8E1,1E0,1E0,3E0,2.1E1,6E0,4.5E1,2.2E1,6E0,1E1,9E0,4E0,3.1E1,2.6E1,6.63E2,1.8E1,1E0,1E0,7E0,1.1E1,6E0,1.5E1,2E0,4E0,1.7E1,2.8E1,2E1,2E0,4E0,2E0,8E0,2E0,5E0,4E0,1E0,3E0,2.2E1,9E0,9E0,1.7E1,5.96E2,6.7E1,6E0,1.2E1,6E0,1E0,7E0,4E0,2E0,4E0,1.1E1,4E0,3E0,1E0,6E0,1.1E1,2.6E1,2E0,1E1,1E1,1E0,1E0,2E0,2E0,2E0,6E0,3E0,2E0,1E0,3E0,4E0,1.8E1,2E0,7E0,4E0,5E0,1E1,7E0],"tree_param":{"num_deleted":"0","num_feature":"4","num_nodes":"95","size_leaf_vector":"1"}},{"base_weights":[7.5513005E-2,-8.767807E-5,1.0992221E0,8.263937E-1,-1.4428219E-1,8.7570305E0,5.521452E-1,2.1513816E-2,2.1732252E0,3.6241531E0,-1.9273503E-1,3.2316926E0,4.0667954E-1,-2.38565E0,1.140427E0,-3.2659907E0,6.687266E-1,8.552666E-1,6.288978E0,2.2270107E-1,4.6253657E0,-4.7252774E0,-1.3324939E-1,-4.088077E0,1.9404293E0,8.886221E0,2.544403E-1,6.92363E-1,-4.489228E0,1.0835835E-1,4.7178516E0,8.645031E0,-1.1486447E-1,7.416087E0,-7.4731755E-1,1.8307596E0,-6.184451E-1,-1.0332581E1,1.8270813E0,3.5469215E0,-1.8717359E-1,-6.925759E-1,-1.7205883E0,3.2793922E0,4.697031E0,-3.2183845E0,1.0147363E0,-2.606453E-1,-1.5591686E0,4.9889547E-1,-6.2173593E-1,-1.4183083E0,2.5962949E0,3.4089105E0,7.3653035E-2,8.467177E-1,-4.0018064E-1,2.866344E0,5.459639E-1,8.674874E-1,-4.364548E-2,-4.7502136E-3,-5.4472506E-1,-5.295372E-1,-4.6367536E0,2.1078935E0,-1.1943527E0,3.6037621E0,-1.2296741E0,-4.017864E-1,-3.4223993E-3,-2.1085043E0,2.7174263E0,3.588399E0,5.670492E-2],"categories":[],"categories_nodes":[],"categories_segments":[],"categories_sizes":[],"default_left":[0,0,0,0,0,0,0,0,0,0,0,0,0,0,0,0,0,0,0,0,0,0,0,0,0,0,0,0,0,0,0,0,0,0,0,0,0,0,0,0,0,0,0,0,0,0,0,0,0,0,0,0,0,0,0,0,0,0,0,0,0,0,0,0,0,0,0,0,0,0,0,0,0,0,0],"id":16,"left_children":[1,3,5,7,9,11,13,15,17,19,21,-1,-1,23,25,27,29,31,33,35,-1,37,39,41,-1,43,45,-1,47,49,51,53,55,57,-1,59,61,63,65,67,69,-1,-1,71,-1,-1,73,-1,-1,-1,-1,-1,-1,-1,-1,-1,-1,-1,-1,-1,-1,-1,-1,-1,-1,-1,-1,-1,-1,-1,-1,-1,-1,-1,-1],"loss_changes":[6.864777E1,9.86762E1,2.5071884E2,1.3328986E2,1.2942545E2,4.5060852E1,1.0295923E2,1.6814581E2,2.4414323E2,3.5760873E2,1.8729637E2,0E0,0E0,1.771707E2,3.3400983E2,9.899669E1,1.4924284E2,2.730483E2,1.2733063E2,1.1953123E1,0E0,3.4954797E2,1.3739613E2,1.3140442E1,0E0,1.3846185E2,3.8662997E2,0E0,2.3680344E1,2.0347693E2,3.3837134E2,8.853E1,1.219288E2,1.0228088E2,0E0,6.710273E0,4.3003044E0,1.9218524E2,1.789653E2,6.965056E2,1.3768613E2,0E0,0E0,3.019245E2,0E0,0E0,3.8640833E2,0E0,0E0,0E0,0E0,0E0,0E0,0E0,0E0,0E0,0E0,0E0,0E0,0E0,0E0,0E0,0E0,0E0,0E0,0E0,0E0,0E0,0E0,0E0,0E0,0E0,0E0,0E0,0E0],"parents":[2147483647,0,0,1,1,2,2,3,3,4,4,5,5,6,6,7,7,8,8,9,9,10,10,13,13,14,14,15,15,16,16,17,17,18,18,19,19,21,21,22,22,23,23,25,25,26,26,28,28,29,29,30,30,31,31,32,32,33,33,35,35,36,36,37,37,38,38,39,39,40,40,43,43,46,46],"right_children":[2,4,6,8,10,12,14,16,18,20,22,-1,-1,24,26,28,30,32,34,36,-1,38,40,42,-1,44,46,-1,48,50,52,54,56,58,-1,60,62,64,66,68,70,-1,-1,72,-1,-1,74,-1,-1,-1,-1,-1,-1,-1,-1,-1,-1,-1,-1,-1,-1,-1,-1,-1,-1,-1,-1,-1,-1,-1,-1,-1,-1,-1,-1],"split_conditions":[3.0756584E1,6.0836647E1,3.0794085E1,2.3969084E1,2.0337831E1,5E-1,1.3410362E2,1.0703569E1,4.9506718E1,2.0258669E1,6.438786E1,3.2316926E0,4.0667954E-1,1.6293728E1,1.5474849E2,8.880603E0,5.7278324E1,2.4196173E1,2.5254503E1,6.438786E1,4.6253657E0,1.2324414E1,6.809127E1,1.3799087E1,1.9404293E0,3.1579508E1,1.6628262E2,6.92363E-1,2.0521166E1,4.7489597E1,1.17E1,1.3084402E1,1.0548061E1,5.6234398E1,-7.4731755E-1,2.003575E1,2.003575E1,2.3358665E1,1.332E1,2.3956583E1,1.02435486E2,-6.925759E-1,-1.7205883E0,1.3044722E1,4.697031E0,-3.2183845E0,1.7116951E2,-2.606453E-1,-1.5591686E0,4.9889547E-1,-6.2173593E-1,-1.4183083E0,2.5962949E0,3.4089105E0,7.3653035E-2,8.467177E-1,-4.0018064E-1,2.866344E0,5.459639E-1,8.674874E-1,-4.364548E-2,-4.7502136E-3,-5.4472506E-1,-5.295372E-1,-4.6367536E0,2.1078935E0,-1.1943527E0,3.6037621E0,-1.2296741E0,-4.017864E-1,-3.4223993E-3,-2.1085043E0,2.7174263E0,3.588399E0,5.670492E-2],"split_indices":[0,3,0,0,0,1,3,2,3,0,3,0,0,2,3,3,3,0,0,3,0,2,3,2,0,0,3,0,0,3,2,2,2,3,0,0,0,0,2,0,3,0,0,2,0,0,3,0,0,0,0,0,0,0,0,0,0,0,0,0,0,0,0,0,0,0,0,0,0,0,0,0,0,0,0],"split_type":[0,0,0,0,0,0,0,0,0,0,0,0,0,0,0,0,0,0,0,0,0,0,0,0,0,0,0,0,0,0,0,0,0,0,0,0,0,0,0,0,0,0,0,0,0,0,0,0,0,0,0,0,0,0,0,0,0,0,0,0,0,0,0,0,0,0,0,0,0,0,0,0,0,0,0],"sum_hessian":[8.86E2,8.26E2,6E1,1.22E2,7.04E2,3E0,5.7E1,7.7E1,4.5E1,8E0,6.96E2,2E0,1E0,9E0,4.8E1,1.2E1,6.5E1,3.5E1,1E1,7E0,1E0,8E0,6.88E2,8E0,1E0,4E0,4.4E1,2E0,1E1,5.8E1,7E0,3E0,3.2E1,9E0,1E0,2E0,5E0,4E0,4E0,9E0,6.79E2,5E0,3E0,3E0,1E0,2E0,4.2E1,2E0,8E0,3.4E1,2.4E1,2E0,5E0,2E0,1E0,9E0,2.3E1,6E0,3E0,1E0,1E0,4E0,1E0,2E0,2E0,2E0,2E0,4E0,5E0,8.9E1,5.9E2,1E0,2E0,2E0,4E1],"tree_param":{"num_deleted":"0","num_feature":"4","num_nodes":"75","size_leaf_vector":"1"}},{"base_weights":[7.319494E-2,5.2007344E-2,3.1755726E0,3.5744354E-1,-1.6533197E-1,-9.111397E-1,7.0412083E0,7.215555E-2,7.0473914E0,-5.4894166E0,-4.9264267E-2,2.8024926E0,2.0986177E-2,-2.9582554E-1,1.2006475E0,1.6057459E1,9.366112E-1,1.1208013E0,-7.0828876E0,5.826111E0,-9.5888995E-2,-3.9998463E-1,9.003502E0,1.4704645E0,-2.0533152E0,2.400499E0,6.4338107E0,1.9853058E0,-1.3108683E0,5.46587E-1,-4.222641E-2,-8.37473E0,-1.0123204E0,4.853776E0,-9.0540624E-1,-1.8399469E0,9.2143364E-2,-9.048632E-3,-8.997105E-1,3.960308E-1,3.6555452E0,3.2771152E-1,3.4322631E0,-1.1330788E0,4.219208E-2,-6.419232E-1,-2.758134E0,3.8876715E-1,-1.1107676E0,5.1264515E0,-1.7540345E-2],"categories":[],"categories_nodes":[],"categories_segments":[],"categories_sizes":[],"default_left":[0,0,0,0,0,0,0,0,0,0,0,0,0,0,0,0,0,0,0,0,0,0,0,0,0,0,0,0,0,0,0,0,0,0,0,0,0,0,0,0,0,0,0,0,0,0,0,0,0,0,0],"id":17,"left_children":[1,3,5,7,9,-1,11,13,15,17,19,-1,-1,21,23,25,27,29,31,33,35,37,39,41,-1,-1,-1,-1,43,-1,-1,45,-1,-1,-1,47,49,-1,-1,-1,-1,-1,-1,-1,-1,-1,-1,-1,-1,-1,-1],"loss_changes":[5.8139072E1,5.860916E1,1.654814E2,6.999337E2,3.1859402E2,0E0,6.349414E1,1.4694327E2,8.108387E2,1.2380359E2,1.3917117E2,0E0,0E0,2.6221997E2,1.9891412E2,8.885156E1,1.3635591E2,2.9100893E0,1.485733E1,4.1508746E2,1.65123E2,2.5462419E2,5.7251984E1,3.0793036E2,0E0,0E0,0E0,0E0,2.9167255E1,0E0,0E0,1.0968231E1,0E0,0E0,0E0,2.9099963E2,1.1657043E3,0E0,0E0,0E0,0E0,0E0,0E0,0E0,0E0,0E0,0E0,0E0,0E0,0E0,0E0],"parents":[2147483647,0,0,1,1,2,2,3,3,4,4,6,6,7,7,8,8,9,9,10,10,13,13,14,14,15,15,16,16,17,17,18,18,19,19,20,20,21,21,22,22,23,23,28,28,31,31,35,35,36,36],"right_children":[2,4,6,8,10,-1,12,14,16,18,20,-1,-1,22,24,26,28,30,32,34,36,38,40,42,-1,-1,-1,-1,44,-1,-1,46,-1,-1,-1,48,50,-1,-1,-1,-1,-1,-1,-1,-1,-1,-1,-1,-1,-1,-1],"split_conditions":[3.321908E1,1.2636904E2,1.3410362E2,1.23964676E2,1.2751914E2,-9.111397E-1,1.6645864E1,2.56045E1,2.286492E1,1.0853866E1,1.2829805E2,2.8024926E0,2.0986177E-2,1.2345048E2,2.3584808E1,1.2458597E2,1.1983188E1,2.1194084E1,1E-1,1.1132385E1,1.3557207E2,1.1669975E2,2.1650335E1,2.1603E1,-2.0533152E0,2.400499E0,6.4338107E0,1.9853058E0,1.25134254E2,5.46587E-1,-4.222641E-2,1.0993271E1,-1.0123204E0,4.853776E0,-9.0540624E-1,2.3248255E1,1.3570436E2,-9.048632E-3,-8.997105E-1,3.960308E-1,3.6555452E0,3.2771152E-1,3.4322631E0,-1.1330788E0,4.219208E-2,-6.419232E-1,-2.758134E0,3.8876715E-1,-1.1107676E0,5.1264515E0,-1.7540345E-2],"split_indices":[0,3,3,3,3,0,2,0,0,2,3,0,0,3,2,3,2,0,1,2,3,3,0,2,0,0,0,0,3,0,0,2,0,0,0,0,3,0,0,0,0,0,0,0,0,0,0,0,0,0,0],"split_type":[0,0,0,0,0,0,0,0,0,0,0,0,0,0,0,0,0,0,0,0,0,0,0,0,0,0,0,0,0,0,0,0,0,0,0,0,0,0,0,0,0,0,0,0,0,0,0,0,0,0,0],"sum_hessian":[8.86E2,8.81E2,5E0,3.66E2,5.15E2,2E0,3E0,3.52E2,1.4E1,1E1,5.05E2,2E0,1E0,2.66E2,8.6E1,5E0,9E0,2E0,8E0,3E0,5.02E2,2.64E2,2E0,8.4E1,2E0,3E0,2E0,2E0,7E0,1E0,1E0,5E0,3E0,1E0,2E0,4.8E1,4.54E2,2.32E2,3.2E1,1E0,1E0,8.2E1,2E0,2E0,5E0,1E0,4E0,1.8E1,3E1,3E0,4.51E2],"tree_param":{"num_deleted":"0","num_feature":"4","num_nodes":"51","size_leaf_vector":"1"}},{"base_weights":[7.481901E-2,-5.4094233E-2,5.609603E-1,1.4904175E-3,-5.573069E0,2.860993E-1,5.3699036E0,7.477707E-2,-2.247145E0,-7.717558E-1,-2.1541054E0,2.7935205E0,-1.4468388E-1,1.1576101E1,1.0563757E0,3.9741866E-2,7.909414E0,-6.8674874E-1,-6.293743E0,3.7224653E0,-1.8525406E0,2.6018772E0,-5.5661273E-1,8.1805E-1,4.085074E0,-1.4345639E0,2.8263981E0,1.5663503E-1,-1.2262726E0,3.0858948E0,4.7334138E-1,-1.8560073E0,1.6165383E0,-2.3003137E0,8.6415485E-2,-5.4965717E-1,5.0113044E0,-4.7298393E0,1.4484982E0,4.9094954E0,-2.3850555E0,-1.8854539E0,6.662794E-1,-1.9373576E-1,1.3154697E0,1.4948293E-2,9.129074E-1,-1.1413678E0,8.106654E-2,-6.8248904E-1,6.014065E-1,1.9228576E0,-1.689489E0,-1.0933113E0,1.7340173E0,-1.6692994E0,-3.3395463E-1,-3.611126E-1,1.6417005E0,6.0320664E-2,-1.3124748E0,-1.0036627E0,-1.7402391E-1,1.8398361E0,7.261647E-2,8.696595E-1,-9.568406E-1],"categories":[],"categories_nodes":[],"categories_segments":[],"categories_sizes":[],"default_left":[0,0,0,0,0,0,0,0,0,0,0,0,0,0,0,0,0,0,0,0,0,0,0,0,0,0,0,0,0,0,0,0,0,0,0,0,0,0,0,0,0,0,0,0,0,0,0,0,0,0,0,0,0,0,0,0,0,0,0,0,0,0,0,0,0,0,0],"id":18,"left_children":[1,3,5,7,9,11,13,15,17,-1,-1,19,21,23,25,27,29,31,33,35,37,39,41,-1,-1,-1,43,45,47,-1,-1,49,-1,-1,-1,51,53,55,-1,57,59,61,63,65,-1,-1,-1,-1,-1,-1,-1,-1,-1,-1,-1,-1,-1,-1,-1,-1,-1,-1,-1,-1,-1,-1,-1],"loss_changes":[5.5618683E1,2.1536104E2,2.4431677E2,1.1486531E2,1.5287521E1,1.9159161E2,2.5547736E2,1.8496507E2,1.3459232E2,0E0,0E0,1.1911029E2,1.7341917E2,3.5107666E1,8.58524E1,9.978829E1,2.8919052E1,1.3076038E2,5.646779E1,1.23888275E2,1.1895148E2,2.4186816E2,2.1738515E2,0E0,0E0,0E0,2.9090801E1,1.9006192E2,2.2095639E2,0E0,0E0,2.8822514E1,0E0,0E0,0E0,2.4829434E2,1.3418396E2,5.878166E0,0E0,5.475757E1,3.6901848E1,1.2004085E2,1.6084735E2,3.703965E1,0E0,0E0,0E0,0E0,0E0,0E0,0E0,0E0,0E0,0E0,0E0,0E0,0E0,0E0,0E0,0E0,0E0,0E0,0E0,0E0,0E0,0E0,0E0],"parents":[2147483647,0,0,1,1,2,2,3,3,4,4,5,5,6,6,7,7,8,8,11,11,12,12,13,13,14,14,15,15,16,16,17,17,18,18,19,19,20,20,21,21,22,22,26,26,27,27,28,28,31,31,35,35,36,36,37,37,39,39,40,40,41,41,42,42,43,43],"right_children":[2,4,6,8,10,12,14,16,18,-1,-1,20,22,24,26,28,30,32,34,36,38,40,42,-1,-1,-1,44,46,48,-1,-1,50,-1,-1,-1,52,54,56,-1,58,60,62,64,66,-1,-1,-1,-1,-1,-1,-1,-1,-1,-1,-1,-1,-1,-1,-1,-1,-1,-1,-1,-1,-1,-1,-1],"split_conditions":[2.7892E1,2.7817E1,3.3508893E2,3.2627582E2,1.2819235E1,2.8350334E1,3.011492E1,3.2030374E2,2.5627419E1,-7.717558E-1,-2.1541054E0,1.9513195E1,1.14862E1,2.8648252E1,3.0619085E1,2.6708666E1,2.5054499E1,2.5227417E1,3.4218845E2,1.2819235E1,2.0570463E1,1.8819699E2,3.0144083E1,8.1805E-1,4.085074E0,-1.4345639E0,1.19317045E1,2.6548254E1,2.6929502E1,3.0858948E0,4.7334138E-1,1.8532135E1,1.6165383E0,-2.3003137E0,8.6415485E-2,1.1770403E1,2.9642395E1,2.8073256E1,1.4484982E0,9.686609E0,1.0661107E1,1.5484185E1,3.0319086E1,3.1892004E1,1.3154697E0,1.4948293E-2,9.129074E-1,-1.1413678E0,8.106654E-2,-6.8248904E-1,6.014065E-1,1.9228576E0,-1.689489E0,-1.0933113E0,1.7340173E0,-1.6692994E0,-3.3395463E-1,-3.611126E-1,1.6417005E0,6.0320664E-2,-1.3124748E0,-1.0036627E0,-1.7402391E-1,1.8398361E0,7.261647E-2,8.696595E-1,-9.568406E-1],"split_indices":[0,0,3,3,2,0,0,3,0,0,0,2,2,0,0,0,0,0,3,2,2,3,0,0,0,0,2,0,0,0,0,2,0,0,0,2,3,0,0,2,2,2,0,0,0,0,0,0,0,0,0,0,0,0,0,0,0,0,0,0,0,0,0,0,0,0,0],"split_type":[0,0,0,0,0,0,0,0,0,0,0,0,0,0,0,0,0,0,0,0,0,0,0,0,0,0,0,0,0,0,0,0,0,0,0,0,0,0,0,0,0,0,0,0,0,0,0,0,0,0,0,0,0,0,0,0,0,0,0,0,0,0,0,0,0,0,0],"sum_hessian":[8.86E2,7.01E2,1.85E2,6.95E2,6E0,1.76E2,9E0,6.74E2,2.1E1,3E0,3E0,2.5E1,1.51E2,3E0,6E0,6.72E2,2E0,1.6E1,5E0,2.1E1,4E0,1.9E1,1.32E2,1E0,2E0,1E0,5E0,6.16E2,5.6E1,1E0,1E0,1.4E1,2E0,4E0,1E0,5E0,1.6E1,3E0,1E0,1.3E1,6E0,6.3E1,6.9E1,2E0,3E0,5.95E2,2.1E1,2E1,3.6E1,1.3E1,1E0,2E0,3E0,1E0,1.5E1,2E0,1E0,1E0,1.2E1,3E0,3E0,2.9E1,3.4E1,4E0,6.5E1,1E0,1E0],"tree_param":{"num_deleted":"0","num_feature":"4","num_nodes":"67","size_leaf_vector":"1"}},{"base_weights":[5.8690153E-2,1.3871316E0,1.8553067E-2,8.605957E-3,8.966871E0,-4.09023E0,5.697612E-2,1.8061906E0,-8.5066515E-1,3.531829E0,8.2379155E-2,-3.5354233E-1,-5.6015882E0,1.1210093E0,-7.7012074E-3,-1.3084331E-1,-5.125982E0,-2.2672052E0,-5.335892E-1,1.8907894E-1,9.284182E0,-1.29928E0,1.01529896E-1,-7.8433484E-1,8.6574936E-1,-4.6390116E-1,-1.8427907E0,2.554679E0,-2.1847417E0,3.7143937E-1,4.2706513E0,3.231644E-1,-5.373345E0,2.7445383E0,-5.5116364E-3,-3.803611E-1,3.2666856E-1,-9.130955E-2,4.8860735E-1,4.7181872E-1,3.6236367E0,-1.0089817E-1,-1.1553284E0,-1.3081638E0,6.3134706E-1,-2.8187947E0,2.4883462E-1,1.5817182E-1,2.5497131E0,-2.561001E-2,5.478045E-1],"categories":[],"categories_nodes":[],"categories_segments":[],"categories_sizes":[],"default_left":[0,0,0,0,0,0,0,0,0,0,0,0,0,0,0,0,0,0,0,0,0,0,0,0,0,0,0,0,0,0,0,0,0,0,0,0,0,0,0,0,0,0,0,0,0,0,0,0,0,0,0],"id":19,"left_children":[1,3,5,7,9,11,13,-1,15,-1,-1,-1,17,19,21,23,25,-1,-1,27,29,31,33,35,37,-1,-1,39,41,-1,-1,43,45,47,49,-1,-1,-1,-1,-1,-1,-1,-1,-1,-1,-1,-1,-1,-1,-1,-1],"loss_changes":[4.72689E1,2.7159332E2,1.3631871E2,1.2393869E2,9.432562E1,2.8604324E1,5.884873E1,0E0,6.395609E1,0E0,0E0,0E0,2.3942245E1,3.7101248E2,1.1398395E2,1.305307E1,1.4191895E0,0E0,0E0,2.5827927E2,1.8156747E2,4.1816296E2,2.1078432E2,1.2249855E1,7.6375504E0,0E0,0E0,1.9610391E2,6.954731E1,0E0,0E0,3.929645E2,4.56922E2,3.6554327E2,1.0502189E2,0E0,0E0,0E0,0E0,0E0,0E0,0E0,0E0,0E0,0E0,0E0,0E0,0E0,0E0,0E0,0E0],"parents":[2147483647,0,0,1,1,2,2,3,3,4,4,5,5,6,6,8,8,12,12,13,13,14,14,15,15,16,16,19,19,20,20,21,21,22,22,23,23,24,24,27,27,28,28,31,31,32,32,33,33,34,34],"right_children":[2,4,6,8,10,12,14,-1,16,-1,-1,-1,18,20,22,24,26,-1,-1,28,30,32,34,36,38,-1,-1,40,42,-1,-1,44,46,48,50,-1,-1,-1,-1,-1,-1,-1,-1,-1,-1,-1,-1,-1,-1,-1,-1],"split_conditions":[2.0683668E1,1.05855865E2,2.0850334E1,2.475336E1,2.0400335E1,1.0957847E1,2.189617E1,1.8061906E0,8.189888E1,3.531829E0,8.2379155E-2,-3.5354233E-1,1.1734564E1,2.1877419E1,2.2781584E1,5.518464E1,2.0258669E1,-2.2672052E0,-5.335892E-1,1.1457958E1,1.0548061E1,2.2448256E1,2.3127419E1,1.3397612E1,9.340941E0,-4.6390116E-1,-1.8427907E0,1E-1,8.404002E1,3.7143937E-1,4.2706513E0,4.9506718E1,1.2307565E2,2.3056581E1,1.89E1,-3.803611E-1,3.2666856E-1,-9.130955E-2,4.8860735E-1,4.7181872E-1,3.6236367E0,-1.0089817E-1,-1.1553284E0,-1.3081638E0,6.3134706E-1,-2.8187947E0,2.4883462E-1,1.5817182E-1,2.5497131E0,-2.561001E-2,5.478045E-1],"split_indices":[0,3,0,3,0,2,0,0,3,0,0,0,2,0,0,3,0,0,0,2,2,0,0,2,2,0,0,1,3,0,0,3,3,0,1,0,0,0,0,0,0,0,0,0,0,0,0,0,0,0,0],"split_type":[0,0,0,0,0,0,0,0,0,0,0,0,0,0,0,0,0,0,0,0,0,0,0,0,0,0,0,0,0,0,0,0,0,0,0,0,0,0,0,0,0,0,0,0,0,0,0,0,0,0,0],"sum_hessian":[8.86E2,2.5E1,8.61E2,2.2E1,3E0,7E0,8.54E2,2E0,2E1,2E0,1E0,3E0,4E0,4.8E1,8.06E2,1.8E1,2E0,2E0,2E0,4.4E1,4E0,6.2E1,7.44E2,1.1E1,7E0,1E0,1E0,2.2E1,2.2E1,2E0,2E0,4.5E1,1.7E1,2.8E1,7.16E2,9E0,2E0,3E0,4E0,2.1E1,1E0,1.1E1,1.1E1,1.2E1,3.3E1,1E1,7E0,2.1E1,7E0,6.87E2,2.9E1],"tree_param":{"num_deleted":"0","num_feature":"4","num_nodes":"51","size_leaf_vector":"1"}},{"base_weights":[4.9841657E-2,6.709712E-1,-4.6340734E-2,1.8333313E-1,3.075613E0,-8.775038E-1,1.1021519E-1,2.196966E0,-4.8145837E-1,7.5390024E0,9.232624E-2,-1.7380158E0,2.366618E0,4.7230606E0,5.2472632E-2,6.730849E-1,4.8313007E0,-3.719235E0,-1.5727915E-1,2.5879605E0,8.552811E-1,-1.5583501E0,9.6577007E-1,-1.3570687E0,-3.9666011E0,1.0021873E1,1.3111019E0,-1.3389565E0,8.529008E0,6.4064636E0,1.2553452E-2,-1.1173903E0,4.141855E0,-9.9041593E-1,2.9060273E0,6.0512435E-1,-2.4362118E0,-5.8473074E-1,2.1539612E0,3.6516505E-1,-2.3229885E0,9.183369E-1,3.5915062E0,-1.5710238E-1,4.899184E0,3.4126294E0,1.8907751E0,-3.943165E-1,9.41821E0,-1.4266315E0,1.3470404E-1,9.83336E-2,-5.6428415E-1,2.4125204E0,-7.315811E-1,-9.207016E-1,4.2549363E-1,-9.1241844E-2,1.4727235E0,-1.1372728E0,1.283056E-1,7.430801E-1,-6.4472586E-2,-1.6629449E-1,1.7978723E0,-1.4164269E0,-2.2411701E-1,1.4291489E0,-7.248651E-1,2.590671E0,-8.8835603E-1,7.153588E-2,7.793129E-1,3.4009016E0,8.3729327E-1,-7.1548626E-2,-2.2903602E0,3.0756493E0,2.4830077E-2],"categories":[],"categories_nodes":[],"categories_segments":[],"categories_sizes":[],"default_left":[0,0,0,0,0,0,0,0,0,0,0,0,0,0,0,0,0,0,0,0,0,0,0,0,0,0,0,0,0,0,0,0,0,0,0,0,0,0,0,0,0,0,0,0,0,0,0,0,0,0,0,0,0,0,0,0,0,0,0,0,0,0,0,0,0,0,0,0,0,0,0,0,0,0,0,0,0,0,0],"id":20,"left_children":[1,3,5,7,9,11,13,15,17,19,21,23,25,27,29,31,33,-1,35,-1,-1,-1,37,39,-1,41,43,-1,45,47,49,51,53,55,-1,57,59,-1,61,63,65,-1,-1,67,69,-1,71,-1,73,75,77,-1,-1,-1,-1,-1,-1,-1,-1,-1,-1,-1,-1,-1,-1,-1,-1,-1,-1,-1,-1,-1,-1,-1,-1,-1,-1,-1,-1],"loss_changes":[5.3022003E1,1.3897493E2,1.0016169E2,1.3492235E2,2.6561536E2,3.446891E2,1.723518E2,9.710844E1,2.9163177E2,1.6193634E1,6.5047386E1,4.0641165E2,1.9694666E2,3.1776566E2,1.6250674E2,1.10210754E2,2.6399777E2,0E0,1.3178418E2,0E0,0E0,0E0,4.575939E1,1.5888454E2,0E0,4.069702E0,1.27202576E2,0E0,9.1862946E1,1.0539218E2,1.1235084E2,1.3858155E1,1.735886E2,2.9386587E1,0E0,2.245585E2,7.53359E1,0E0,7.4180336E0,1.8443285E2,2.2703873E2,0E0,0E0,2.1161552E2,2.3115717E2,0E0,2.88482E0,0E0,6.496155E0,3.6697083E2,3.0865427E2,0E0,0E0,0E0,0E0,0E0,0E0,0E0,0E0,0E0,0E0,0E0,0E0,0E0,0E0,0E0,0E0,0E0,0E0,0E0,0E0,0E0,0E0,0E0,0E0,0E0,0E0,0E0,0E0],"parents":[2147483647,0,0,1,1,2,2,3,3,4,4,5,5,6,6,7,7,8,8,9,9,10,10,11,11,12,12,13,13,14,14,15,15,16,16,18,18,22,22,23,23,25,25,26,26,28,28,29,29,30,30,31,31,32,32,33,33,35,35,36,36,38,38,39,39,40,40,43,43,44,44,46,46,48,48,49,49,50,50],"right_children":[2,4,6,8,10,12,14,16,18,20,22,24,26,28,30,32,34,-1,36,-1,-1,-1,38,40,-1,42,44,-1,46,48,50,52,54,56,-1,58,60,-1,62,64,66,-1,-1,68,70,-1,72,-1,74,76,78,-1,-1,-1,-1,-1,-1,-1,-1,-1,-1,-1,-1,-1,-1,-1,-1,-1,-1,-1,-1,-1,-1,-1,-1,-1,-1,-1,-1],"split_conditions":[5.843264E1,1E-1,1.02435486E2,1.1440979E1,1.1E0,2.5946167E1,1.0483963E2,2.4325335E1,1.14862E1,5E-1,1.5000001E0,1.0139995E2,2.602117E1,1.0548061E1,2.0400335E1,1.0799999E1,2.8222221E1,-3.719235E0,2.4864916E1,2.5879605E0,8.552811E-1,-1.5583501E0,1.0429132E1,2.2448256E1,-3.9666011E0,2.598575E1,9.312208E1,-1.3389565E0,2.3100336E1,2.0258669E1,2.2577421E1,9.686609E0,4.3195293E1,1.093985E1,2.9060273E0,2.3935751E1,1.4480773E1,-5.8473074E-1,2.49545E1,2.2258667E1,1.1132385E1,9.183369E-1,3.5915062E0,7.264221E1,2.7162834E1,3.4126294E0,2.5700335E1,-3.943165E-1,2.0337831E1,2.2383673E1,2.2633669E1,9.83336E-2,-5.6428415E-1,2.4125204E0,-7.315811E-1,-9.207016E-1,4.2549363E-1,-9.1241844E-2,1.4727235E0,-1.1372728E0,1.283056E-1,7.430801E-1,-6.4472586E-2,-1.6629449E-1,1.7978723E0,-1.4164269E0,-2.2411701E-1,1.4291489E0,-7.248651E-1,2.590671E0,-8.8835603E-1,7.153588E-2,7.793129E-1,3.4009016E0,8.3729327E-1,-7.1548626E-2,-2.2903602E0,3.0756493E0,2.4830077E-2],"split_indices":[3,1,3,2,1,0,3,0,2,1,1,3,0,2,0,2,3,0,0,0,0,0,2,0,0,0,3,0,0,0,0,2,3,3,0,0,2,0,0,0,2,0,0,3,0,0,0,0,0,0,0,0,0,0,0,0,0,0,0,0,0,0,0,0,0,0,0,0,0,0,0,0,0,0,0,0,0,0,0],"split_type":[0,0,0,0,0,0,0,0,0,0,0,0,0,0,0,0,0,0,0,0,0,0,0,0,0,0,0,0,0,0,0,0,0,0,0,0,0,0,0,0,0,0,0,0,0,0,0,0,0,0,0,0,0,0,0,0,0,0,0,0,0,0,0,0,0,0,0,0,0,0,0,0,0,0,0,0,0,0,0],"sum_hessian":[8.86E2,1.18E2,7.68E2,9.9E1,1.9E1,1.21E2,6.47E2,2.4E1,7.5E1,7E0,1.2E1,9.6E1,2.5E1,7E0,6.4E2,1.6E1,8E0,1E0,7.4E1,5E0,2E0,1E0,1.1E1,9.4E1,2E0,2E0,2.3E1,2E0,5E0,3E0,6.37E2,1.1E1,5E0,4E0,4E0,5.6E1,1.8E1,3E0,8E0,3.4E1,6E1,1E0,1E0,1.7E1,6E0,3E0,2E0,1E0,2E0,4.9E1,5.88E2,4E0,7E0,3E0,2E0,2E0,2E0,4.7E1,9E0,1.2E1,6E0,7E0,1E0,3E1,4E0,2.3E1,3.7E1,5E0,1.2E1,4E0,2E0,1E0,1E0,1E0,1E0,4.2E1,7E0,2E0,5.86E2],"tree_param":{"num_deleted":"0","num_feature":"4","num_nodes":"79","size_leaf_vector":"1"}},{"base_weights":[4.921121E-2,1.2373648E-1,-6.203944E-1,9.9777095E-2,4.8607197E0,-3.549997E-1,-5.008026E0,8.107081E-3,1.3109862E0,4.083023E-1,2.7326958E0,-6.4550966E-1,5.689205E0,-1.9075379E0,-5.9647524E-1,1.19756326E-1,-1.5372806E0,2.7410316E-1,4.719591E0,-1.1240158E-1,2.9613763E-1,-2.013122E0,-1.0361789E-2,5.141251E-1,2.6423357E0,4.3567647E-3,1.5700849E0,-9.880356E-1,-7.6065884E0,1.3809638E0,-1.2551386E0,7.697464E0,1.8962374E0,-3.2459304E0,-8.926671E-1,3.781966E0,-5.306742E-1,4.8677083E-2,-4.1994217E-1,1.367451E0,1.9032224E-1,-5.6466017E-2,-1.076551E0,-2.5958786E0,-6.7013514E-1,8.1597567E-1,-4.570818E-1,3.1431034E0,4.2767414E-1,8.1150895E-1,-1.0602798E-1,2.8849984E-2,-1.3111944E0,-6.122814E-1,-8.687231E-2,-8.586121E-3,1.5935775E0,-5.5629665E-1,1.6122437E-1],"categories":[],"categories_nodes":[],"categories_segments":[],"categories_sizes":[],"default_left":[0,0,0,0,0,0,0,0,0,0,0,0,0,0,0,0,0,0,0,0,0,0,0,0,0,0,0,0,0,0,0,0,0,0,0,0,0,0,0,0,0,0,0,0,0,0,0,0,0,0,0,0,0,0,0,0,0,0,0],"id":21,"left_children":[1,3,5,7,9,11,13,15,17,19,-1,21,23,-1,-1,25,27,29,31,-1,-1,33,35,-1,-1,37,39,41,43,45,-1,47,49,51,53,55,57,-1,-1,-1,-1,-1,-1,-1,-1,-1,-1,-1,-1,-1,-1,-1,-1,-1,-1,-1,-1,-1,-1],"loss_changes":[4.4340317E1,9.019768E1,1.018586E2,8.837048E1,7.1941E1,1.5292409E2,7.747818E0,1.2803725E2,1.9662854E2,1.7294588E0,0E0,7.120729E1,3.4496765E1,0E0,0E0,1.15811325E2,1.5916122E2,2.2288567E2,9.470239E1,0E0,0E0,3.3016434E1,1.14479126E2,0E0,0E0,1.4256992E2,1.3969833E2,9.7079605E1,3.1583557E0,1.4415126E2,0E0,8.966214E1,1.5512121E1,4.5527283E1,9.796704E0,4.096232E1,7.309898E1,0E0,0E0,0E0,0E0,0E0,0E0,0E0,0E0,0E0,0E0,0E0,0E0,0E0,0E0,0E0,0E0,0E0,0E0,0E0,0E0,0E0,0E0],"parents":[2147483647,0,0,1,1,2,2,3,3,4,4,5,5,6,6,7,7,8,8,9,9,11,11,12,12,15,15,16,16,17,17,18,18,21,21,22,22,25,25,26,26,27,27,28,28,29,29,31,31,32,32,33,33,34,34,35,35,36,36],"right_children":[2,4,6,8,10,12,14,16,18,20,-1,22,24,-1,-1,26,28,30,32,-1,-1,34,36,-1,-1,38,40,42,44,46,-1,48,50,52,54,56,58,-1,-1,-1,-1,-1,-1,-1,-1,-1,-1,-1,-1,-1,-1,-1,-1,-1,-1,-1,-1,-1,-1],"split_conditions":[2.908085E2,2.8934854E2,2.1194187E1,3.0450335E1,2.4762835E1,1.9914217E1,6.7000003E0,2.9252417E1,2.6846567E2,2.3694084E1,2.7326958E0,1.3570615E1,2.5031588E1,-1.9075379E0,-5.9647524E-1,2.7975336E1,2.6714282E2,1.8329973E1,1.9386593E1,-1.1240158E-1,2.9613763E-1,3.1113998E2,1.4174356E1,5.141251E-1,2.6423357E0,2.6639917E1,1.2898015E2,1.6981165E1,3.0056585E1,3.2006588E1,-1.2551386E0,2.81652E2,3.1308672E1,2.9734662E2,1.0495713E1,2.428575E1,3.0914847E2,4.8677083E-2,-4.1994217E-1,1.367451E0,1.9032224E-1,-5.6466017E-2,-1.076551E0,-2.5958786E0,-6.7013514E-1,8.1597567E-1,-4.570818E-1,3.1431034E0,4.2767414E-1,8.1150895E-1,-1.0602798E-1,2.8849984E-2,-1.3111944E0,-6.122814E-1,-8.687231E-2,-8.586121E-3,1.5935775E0,-5.5629665E-1,1.6122437E-1],"split_indices":[3,3,2,0,0,2,1,0,3,0,0,2,0,0,0,0,3,2,2,0,0,3,2,0,0,0,3,2,0,0,0,3,0,3,2,0,3,0,0,0,0,0,0,0,0,0,0,0,0,0,0,0,0,0,0,0,0,0,0],"split_type":[0,0,0,0,0,0,0,0,0,0,0,0,0,0,0,0,0,0,0,0,0,0,0,0,0,0,0,0,0,0,0,0,0,0,0,0,0,0,0,0,0,0,0,0,0,0,0,0,0,0,0,0,0,0,0,0,0,0,0],"sum_hessian":[8.86E2,7.98E2,8.8E1,7.95E2,3E0,8.4E1,4E0,7.4E2,5.5E1,2E0,1E0,8.1E1,3E0,2E0,2E0,6.91E2,4.9E1,4.3E1,1.2E1,1E0,1E0,2.5E1,5.6E1,2E0,1E0,6.41E2,5E1,4.6E1,3E0,3.5E1,8E0,5E0,7E0,1.1E1,1.4E1,6E0,5E1,5.77E2,6.4E1,1.1E1,3.9E1,3.6E1,1E1,2E0,1E0,2.4E1,1.1E1,3E0,2E0,5E0,2E0,3E0,8E0,4E0,1E1,2E0,4E0,2.2E1,2.8E1],"tree_param":{"num_deleted":"0","num_feature":"4","num_nodes":"59","size_leaf_vector":"1"}},{"base_weights":[3.7768994E-2,-2.2649959E-1,2.1536997E-1,2.785693E-1,-1.5094323E0,7.0621E0,1.2367E-1,-8.998168E-2,5.177107E0,-7.2607975E0,-1.0038967E0,5.9639754E0,1.6124777E0,-3.7305553E0,2.1341132E-1,1.6728427E-1,-3.9601233E0,-3.0251663E0,7.7366967E0,-8.252768E0,-4.755135E-2,5.471341E0,-1.5877818E0,4.386633E0,-2.6238887E0,-5.900138E-2,-7.3922753E0,6.3205266E0,6.729044E-2,4.582603E-1,-2.1904936E0,7.434184E-1,-6.3862357E0,-1.5443574E0,8.198399E-1,1.3158504E1,2.025528E0,-3.582818E0,-4.3882384E0,2.2650876E0,4.1872673E0,1.1840183E0,-2.6624997E0,6.8708545E-1,2.3227913E0,-1.020392E0,-1.6035806E-1,8.100598E-1,-9.6890134E-1,-9.79301E0,6.917095E-1,-1.3945183E0,8.979151E0,-3.2466632E-1,9.4122416E-1,-1.0453107E-2,2.2889743E0,2.2032624E-1,-9.458414E-1,5.652484E-1,-7.4404454E-1,-2.462857E0,1.8138276E-1,7.049577E0,-1.4136258E-1,4.4762225E0,-1.4279E0,-1.5345292E0,-2.2212067E-1,-8.006504E-1,1.0596642E0,2.50132E0,-5.1142816E-2,-1.0894486E0,6.7450273E-1,2.517174E-1,5.7471085E-2,-8.917168E-1,2.3278199E-1,-3.6734803E0,2.2029877E-3,3.279368E0,-1.2884297E0,-2.3869505E-2,-1.1353786E0,1.0522841E0,5.0967485E-2],"categories":[],"categories_nodes":[],"categories_segments":[],"categories_sizes":[],"default_left":[0,0,0,0,0,0,0,0,0,0,0,0,0,0,0,0,0,0,0,0,0,0,0,0,0,0,0,0,0,0,0,0,0,0,0,0,0,0,0,0,0,0,0,0,0,0,0,0,0,0,0,0,0,0,0,0,0,0,0,0,0,0,0,0,0,0,0,0,0,0,0,0,0,0,0,0,0,0,0,0,0,0,0,0,0,0,0],"id":22,"left_children":[1,3,5,7,9,11,13,15,17,19,21,-1,23,25,27,29,31,33,35,37,-1,39,41,43,45,47,49,51,53,55,57,59,61,-1,-1,63,65,-1,67,69,-1,71,73,75,-1,-1,-1,-1,77,79,-1,-1,81,83,85,-1,-1,-1,-1,-1,-1,-1,-1,-1,-1,-1,-1,-1,-1,-1,-1,-1,-1,-1,-1,-1,-1,-1,-1,-1,-1,-1,-1,-1,-1,-1,-1],"loss_changes":[4.167955E1,2.3174557E2,3.3251227E2,4.6444357E2,2.8637042E2,4.5690997E2,1.8238483E2,2.3961981E2,4.0130505E2,5.5053986E1,3.6408203E2,0E0,8.202406E1,1.6089427E2,4.5825647E2,1.5605266E2,1.759175E2,7.5179985E1,4.0685504E2,4.741214E1,0E0,1.8605661E2,2.62317E2,4.434294E1,3.0548306E0,2.0190401E1,1.6227328E2,3.916854E2,1.7260532E2,7.146128E2,7.26824E1,2.6736567E1,1.3242676E2,0E0,0E0,9.9759973E2,7.709899E2,0E0,9.47007E0,5.3190212E1,0E0,2.43663E2,3.0795557E2,6.5175414E-2,0E0,0E0,0E0,0E0,2.3281006E1,1.20238556E2,0E0,0E0,3.060639E2,2.9481436E2,3.0821228E2,0E0,0E0,0E0,0E0,0E0,0E0,0E0,0E0,0E0,0E0,0E0,0E0,0E0,0E0,0E0,0E0,0E0,0E0,0E0,0E0,0E0,0E0,0E0,0E0,0E0,0E0,0E0,0E0,0E0,0E0,0E0,0E0],"parents":[2147483647,0,0,1,1,2,2,3,3,4,4,5,5,6,6,7,7,8,8,9,9,10,10,12,12,13,13,14,14,15,15,16,16,17,17,18,18,19,19,21,21,22,22,23,23,24,24,25,25,26,26,27,27,28,28,29,29,30,30,31,31,32,32,35,35,36,36,38,38,39,39,41,41,42,42,43,43,48,48,49,49,52,52,53,53,54,54],"right_children":[2,4,6,8,10,12,14,16,18,20,22,-1,24,26,28,30,32,34,36,38,-1,40,42,44,46,48,50,52,54,56,58,60,62,-1,-1,64,66,-1,68,70,-1,72,74,76,-1,-1,-1,-1,78,80,-1,-1,82,84,86,-1,-1,-1,-1,-1,-1,-1,-1,-1,-1,-1,-1,-1,-1,-1,-1,-1,-1,-1,-1,-1,-1,-1,-1,-1,-1,-1,-1,-1,-1,-1,-1],"split_conditions":[2.4748251E1,2.3956583E1,2.4794085E1,2.3814919E1,2.3994085E1,1E-1,2.483367E1,2.3687836E1,1.0931203E1,2.8879025E2,2.4042E1,5.9639754E0,8E-1,1.4813682E1,2.4917002E1,1.7566378E1,5.4784336E1,1.8000001E0,2.3867002E1,1E-1,-4.755135E-2,1.4000002E1,1.1440979E1,2E-1,2.4762835E1,9.449572E0,2.0380579E1,4.113912E1,9.0000004E-1,1.6179985E1,1.1453442E2,1.484318E1,6E-1,-1.5443574E0,8.198399E-1,1E-1,1.2413476E1,-3.582818E0,2.3969084E1,7.729527E0,4.1872673E0,2.4098253E1,2.826297E2,2.4762835E1,