{"learner":{"attributes":{"scikit_learn":"{\"_estimator_type\": \"regressor\"}"},"feature_names":["temperature_2m_mean","precipitation_sum","wind_speed_10m_max","wind_direction_10m_dominant"],"feature_types":["float","float","float","float"],"gradient_booster":{"model":{"gbtree_model_param":{"num_parallel_tree":"1","num_trees":"100"},"iteration_indptr":[0,1,2,3,4,5,6,7,8,9,10,11,12,13,14,15,16,17,18,19,20,21,22,23,24,25,26,27,28,29,30,31,32,33,34,35,36,37,38,39,40,41,42,43,44,45,46,47,48,49,50,51,52,53,54,55,56,57,58,59,60,61,62,63,64,65,66,67,68,69,70,71,72,73,74,75,76,77,78,79,80,81,82,83,84,85,86,87,88,89,90,91,92,93,94,95,96,97,98,99,100],"tree_info":[0,0,0,0,0,0,0,0,0,0,0,0,0,0,0,0,0,0,0,0,0,0,0,0,0,0,0,0,0,0,0,0,0,0,0,0,0,0,0,0,0,0,0,0,0,0,0,0,0,0,0,0,0,0,0,0,0,0,0,0,0,0,0,0,0,0,0,0,0,0,0,0,0,0,0,0,0,0,0,0,0,0,0,0,0,0,0,0,0,0,0,0,0,0,0,0,0,0,0,0],"trees":[{"base_weights":[-2.686794E-6,-1.8290979E0,6.0246973E0,1.0609206E0,-8.177993E0,-2.7038917E-1,2.0433292E1,5.684225E-1,1.8579319E1,5.311387E0,-9.3798485E0,1.506572E1,-3.860195E0,2.5887758E1,-3.087347E0,2.6620767E0,-2.8308485E0,4.359805E0,1.1284404E1,2.1734806E1,-8.358486E0,-1.1128742E1,-6.4396563E0,-4.5896215E0,1.9691463E1,8.697885E0,-6.223868E0,6.126577E0,3.468446E1,-3.0045586E0,8.614679E0,4.088812E0,-1.066505E1,3.852472E-2,-1.1166612E1,7.5402527E0,-2.1985583E0,3.2723625E1,-7.4877677E0,-4.0974772E-1,-2.6951072E0,2.2902524E0,-1.1362345E1,-8.492229E0,-1.7867969E0,1.2311387E1,3.480144E1,-5.385321E0,1.3106324E1,-3.588539E0,-1.2630479E1,-2.2059124E0,1.4734805E1,3.9221375E1,1.2230013E1,8.890253E0,-1.2146215E0,-1.6660364E0,1.954699E0,-5.2754587E-1,-4.5830545E0,-8.9830047E-1,3.8021502E0,-4.032482E0,1.4170872E0,-3.5955966E0,4.45367E0,1.2844404E1,-2.6597478E0,-2.6597478E0,-7.0974773E-1,-3.72039E0,-2.0978498E0,-2.8940525E0,4.170872E-1,7.3904E-1,-2.267546E0,6.7324543E0,-5.670585E-1,1.1667088E1,1.5402523E0,-3.5396216E0,3.0402524E0,5.9824543E0,-9.555964E-1,1.33904E0,-1.6718683E0,-4.893277E0,-2.0012043E0,7.690253E0,-2.6670585E0,7.084404E0,-1.4621545E-2,3.9536698E0,1.2233285E1,7.384404E0,-3.7463303E0],"categories":[],"categories_nodes":[],"categories_segments":[],"categories_sizes":[],"default_left":[0,0,0,0,0,0,0,0,0,0,0,0,0,0,0,0,0,0,0,0,0,0,0,0,0,0,0,0,0,0,0,0,0,0,0,0,0,0,0,0,0,0,0,0,0,0,0,0,0,0,0,0,0,0,0,0,0,0,0,0,0,0,0,0,0,0,0,0,0,0,0,0,0,0,0,0,0,0,0,0,0,0,0,0,0,0,0,0,0,0,0,0,0,0,0,0,0],"id":0,"left_children":[1,3,5,7,9,11,13,15,17,19,21,23,25,27,29,31,33,35,-1,37,39,41,43,-1,45,47,49,51,53,-1,55,57,59,61,63,-1,65,67,69,-1,-1,-1,71,73,75,77,79,81,83,85,87,89,91,93,95,-1,-1,-1,-1,-1,-1,-1,-1,-1,-1,-1,-1,-1,-1,-1,-1,-1,-1,-1,-1,-1,-1,-1,-1,-1,-1,-1,-1,-1,-1,-1,-1,-1,-1,-1,-1,-1,-1,-1,-1,-1,-1],"loss_changes":[9.179452E3,1.1733319E4,1.7601977E4,3.785662E3,3.2922773E3,7.5454536E3,7.6491816E3,3.0606853E3,3.0840898E3,3.9982727E3,8.744785E2,3.953167E3,3.3489685E3,8.131498E3,1.0591161E3,5.1014062E3,3.9230503E3,1.1452258E3,0E0,2.8139998E3,3.1448181E1,5.864121E2,6.628999E2,0E0,2.1363408E3,1.1881108E3,1.5417273E3,1.1801512E3,2.8821562E3,0E0,1.4508741E3,5.6756675E3,1.041093E3,4.7514473E3,1.5818018E3,0E0,1.3455765E3,2.8976758E3,1.9999695E-1,0E0,0E0,0E0,4.2626953E2,5.725249E2,5.828377E2,2.4881038E3,6.494658E2,6.172355E2,1.6225112E3,1.1113811E3,4.8343164E2,1.9027119E3,1.0513588E3,5.568672E2,2.4502324E3,0E0,0E0,0E0,0E0,0E0,0E0,0E0,0E0,0E0,0E0,0E0,0E0,0E0,0E0,0E0,0E0,0E0,0E0,0E0,0E0,0E0,0E0,0E0,0E0,0E0,0E0,0E0,0E0,0E0,0E0,0E0,0E0,0E0,0E0,0E0,0E0,0E0,0E0,0E0,0E0,0E0,0E0],"parents":[2147483647,0,0,1,1,2,2,3,3,4,4,5,5,6,6,7,7,8,8,9,9,10,10,11,11,12,12,13,13,14,14,15,15,16,16,17,17,19,19,20,20,21,21,22,22,24,24,25,25,26,26,27,27,28,28,30,30,31,31,32,32,33,33,34,34,36,36,37,37,38,38,42,42,43,43,44,44,45,45,46,46,47,47,48,48,49,49,50,50,51,51,52,52,53,53,54,54],"right_children":[2,4,6,8,10,12,14,16,18,20,22,24,26,28,30,32,34,36,-1,38,40,42,44,-1,46,48,50,52,54,-1,56,58,60,62,64,-1,66,68,70,-1,-1,-1,72,74,76,78,80,82,84,86,88,90,92,94,96,-1,-1,-1,-1,-1,-1,-1,-1,-1,-1,-1,-1,-1,-1,-1,-1,-1,-1,-1,-1,-1,-1,-1,-1,-1,-1,-1,-1,-1,-1,-1,-1,-1,-1,-1,-1,-1,-1,-1,-1,-1,-1],"split_conditions":[2.702117E1,2.4227882E2,2.6380594E2,1.5700001E1,1.1681987E1,1.2096214E1,3.18295E1,1.3627795E1,1.6299694E1,1E-1,2.1142147E1,2.7842003E1,2.777117E1,2.8658667E1,1.8374111E1,7E-1,1.3270935E2,1.5800001E1,1.1284404E1,3.498287E2,2.4269089E1,2.1606588E1,2.5717003E1,-4.5896215E0,1.8211543E2,1.2325001E2,3.0579504E1,2.7556067E2,3.1109933E2,-3.0045586E0,1.8723461E1,2.1469086E1,9.5931435E1,2.5710749E1,6.2E0,7.5402527E0,2.03E1,2.6281588E1,2.1410751E1,-4.0974772E-1,-2.6951072E0,2.2902524E0,9.700001E0,2.7899996E1,2.4000003E0,1.23964676E2,3.0262833E1,1E-1,1.7213303E2,1.23964676E2,1.692738E2,1.2261157E1,3.0230035E2,1.2616702E1,3.1171167E1,8.890253E0,-1.2146215E0,-1.6660364E0,1.954699E0,-5.2754587E-1,-4.5830545E0,-8.9830047E-1,3.8021502E0,-4.032482E0,1.4170872E0,-3.5955966E0,4.45367E0,1.2844404E1,-2.6597478E0,-2.6597478E0,-7.0974773E-1,-3.72039E0,-2.0978498E0,-2.8940525E0,4.170872E-1,7.3904E-1,-2.267546E0,6.7324543E0,-5.670585E-1,1.1667088E1,1.5402523E0,-3.5396216E0,3.0402524E0,5.9824543E0,-9.555964E-1,1.33904E0,-1.6718683E0,-4.893277E0,-2.0012043E0,7.690253E0,-2.6670585E0,7.084404E0,-1.4621545E-2,3.9536698E0,1.2233285E1,7.384404E0,-3.7463303E0],"split_indices":[0,3,3,1,2,2,0,2,2,1,2,0,0,0,2,1,3,1,0,3,0,0,0,0,3,3,0,3,3,0,2,0,3,0,1,0,1,0,0,0,0,0,1,1,1,3,0,1,3,3,3,2,3,2,0,0,0,0,0,0,0,0,0,0,0,0,0,0,0,0,0,0,0,0,0,0,0,0,0,0,0,0,0,0,0,0,0,0,0,0,0,0,0,0,0,0,0],"split_type":[0,0,0,0,0,0,0,0,0,0,0,0,0,0,0,0,0,0,0,0,0,0,0,0,0,0,0,0,0,0,0,0,0,0,0,0,0,0,0,0,0,0,0,0,0,0,0,0,0,0,0,0,0,0,0,0,0,0,0,0,0,0,0,0,0,0,0,0,0,0,0,0,0,0,0,0,0,0,0,0,0,0,0,0,0,0,0,0,0,0,0,0,0,0,0,0,0],"sum_hessian":[8.31E2,6.38E2,1.93E2,4.39E2,1.99E2,1.35E2,5.8E1,4.28E2,1.1E1,1.6E1,1.83E2,2.5E1,1.1E2,4.7E1,1.1E1,2.65E2,1.63E2,7E0,4E0,7E0,9E0,1.13E2,7E1,3E0,2.2E1,1.7E1,9.3E1,1.5E1,3.2E1,7E0,4E0,2.4E2,2.5E1,1.22E2,4.1E1,1E0,6E0,5E0,2E0,1E0,8E0,1E0,1.12E2,4.8E1,2.2E1,1.6E1,6E0,4E0,1.3E1,6.7E1,2.6E1,8E0,7E0,2.6E1,6E0,1E0,3E0,4.8E1,1.92E2,9E0,1.6E1,9.9E1,2.3E1,3.6E1,5E0,4E0,2E0,4E0,1E0,1E0,1E0,8.9E1,2.3E1,4.3E1,5E0,1.3E1,9E0,9E0,7E0,5E0,1E0,3E0,1E0,9E0,4E0,1.3E1,5.4E1,1.5E1,1.1E1,1E0,7E0,4E0,3E0,2E0,2.4E1,4E0,2E0],"tree_param":{"num_deleted":"0","num_feature":"4","num_nodes":"97","size_leaf_vector":"1"}},{"base_weights":[7.211207E-2,-1.2601327E0,4.580329E0,3.83216E0,-3.3254302E0,3.731164E-2,1.4918966E1,-3.8933892E0,7.4518514E0,-3.2341138E-1,-5.7140045E0,1.1114584E1,-2.6297846E0,1.9098427E1,-1.0175077E0,3.2258313E0,-8.406035E0,9.590589E0,-2.126503E0,-3.3223872E0,7.2830176E0,5.220483E-1,-6.643337E0,-3.5569565E0,1.4626316E1,1.5933382E1,-3.8779452E0,5.379159E0,2.6236065E1,-2.215863E0,7.643679E0,-3.8694942E0,2.101012E1,-1.1376142E1,2.0983114E0,6.7929316E0,3.2625965E1,8.133319E0,-4.5851336E0,-1.7284442E0,-1.10316925E1,4.206779E0,2.9094643E1,8.272246E0,-6.826586E0,-7.2416444E0,-2.8645844E0,8.98064E0,2.6247768E1,7.025147E0,-5.552109E-1,-1.5213346E0,-8.345704E0,1.9550898E0,6.2119355E0,2.957603E1,7.9468637E0,7.556715E0,-9.032043E-1,1.0039865E0,-2.629742E0,2.3521245E0,1.0786878E1,-2.0490153E0,-4.392889E0,3.8889544E0,-1.648396E0,-1.5156093E0,2.958305E0,1.283647E1,1.2434813E0,-1.9250027E0,4.012496E0,-3.6835952E0,1.3008747E0,3.6037235E0,-9.152261E-1,-5.2691817E0,-1.8778673E0,-2.1260627E-1,3.6320882E0,3.0559611E0,1.2218727E1,-2.129595E0,3.621917E0,-2.35411E0,-7.8120536E-1,-3.191212E0,-1.8273052E0,4.3475924E0,-1.167587E0,4.9146924E0,-4.182066E-1,8.750315E0,1.3092145E0,-7.696873E-1,6.5880437E0,1.9090936E0,-2.8290052E0,2.5250378E0,-3.795502E0,6.161179E0,1.0269818E1,5.823887E0,-2.9970644E0,1.2052598E0,-9.413315E-1],"categories":[],"categories_nodes":[],"categories_segments":[],"categories_sizes":[],"default_left":[0,0,0,0,0,0,0,0,0,0,0,0,0,0,0,0,0,0,0,0,0,0,0,0,0,0,0,0,0,0,0,0,0,0,0,0,0,0,0,0,0,0,0,0,0,0,0,0,0,0,0,0,0,0,0,0,0,0,0,0,0,0,0,0,0,0,0,0,0,0,0,0,0,0,0,0,0,0,0,0,0,0,0,0,0,0,0,0,0,0,0,0,0,0,0,0,0,0,0,0,0,0,0,0,0,0,0],"id":1,"left_children":[1,3,5,7,9,11,13,15,17,19,21,23,25,27,29,31,33,35,37,39,41,43,45,-1,47,49,51,53,55,-1,57,59,61,63,65,67,69,71,73,75,77,79,81,83,85,87,89,91,93,-1,-1,95,97,99,-1,101,103,-1,105,-1,-1,-1,-1,-1,-1,-1,-1,-1,-1,-1,-1,-1,-1,-1,-1,-1,-1,-1,-1,-1,-1,-1,-1,-1,-1,-1,-1,-1,-1,-1,-1,-1,-1,-1,-1,-1,-1,-1,-1,-1,-1,-1,-1,-1,-1,-1,-1],"loss_changes":[5.0028037E3,6.775239E3,8.9234795E3,5.230336E3,3.2822612E3,3.958601E3,3.8825742E3,1.9547078E3,2.622063E3,4.6777427E3,1.4812861E3,2.2707954E3,2.5641287E3,4.363336E3,7.735446E2,3.1097463E3,1.1782346E3,6.480662E3,6.4269495E2,1.7872971E3,3.7692754E3,1.992886E3,4.8116602E2,0E0,1.2733301E3,9.749829E2,1.0612378E3,8.5170605E2,1.5975215E3,0E0,9.225001E2,6.653181E2,1.0959417E3,3.306748E2,8.1369727E2,3.4659043E3,3.0063955E3,4.6715417E2,1.4259795E3,2.2715154E3,6.693762E2,2.0279003E3,1.1250088E3,1.078874E3,5.7126465E1,6.8148535E2,6.2701465E2,1.3282638E3,3.2000586E2,0E0,0E0,1.7238008E3,6.1824365E2,1.5222546E3,0E0,3.492246E2,1.4279487E3,0E0,6.758469E1,0E0,0E0,0E0,0E0,0E0,0E0,0E0,0E0,0E0,0E0,0E0,0E0,0E0,0E0,0E0,0E0,0E0,0E0,0E0,0E0,0E0,0E0,0E0,0E0,0E0,0E0,0E0,0E0,0E0,0E0,0E0,0E0,0E0,0E0,0E0,0E0,0E0,0E0,0E0,0E0,0E0,0E0,0E0,0E0,0E0,0E0,0E0,0E0],"parents":[2147483647,0,0,1,1,2,2,3,3,4,4,5,5,6,6,7,7,8,8,9,9,10,10,11,11,12,12,13,13,14,14,15,15,16,16,17,17,18,18,19,19,20,20,21,21,22,22,24,24,25,25,26,26,27,27,28,28,30,30,31,31,32,32,33,33,34,34,35,35,36,36,37,37,38,38,39,39,40,40,41,41,42,42,43,43,44,44,45,45,46,46,47,47,48,48,51,51,52,52,53,53,55,55,56,56,58,58],"right_children":[2,4,6,8,10,12,14,16,18,20,22,24,26,28,30,32,34,36,38,40,42,44,46,-1,48,50,52,54,56,-1,58,60,62,64,66,68,70,72,74,76,78,80,82,84,86,88,90,92,94,-1,-1,96,98,100,-1,102,104,-1,106,-1,-1,-1,-1,-1,-1,-1,-1,-1,-1,-1,-1,-1,-1,-1,-1,-1,-1,-1,-1,-1,-1,-1,-1,-1,-1,-1,-1,-1,-1,-1,-1,-1,-1,-1,-1,-1,-1,-1,-1,-1,-1,-1,-1,-1,-1,-1,-1],"split_conditions":[2.7079498E1,2.3264917E1,2.6380594E2,2.1469086E1,1.343802E2,1.2096214E1,3.1542002E1,2.0527418E1,1.61198E1,1.1356353E2,1.17662735E1,2.7842003E1,2.7387835E1,2.913575E1,1.8374111E1,2.0369083E1,1.3094632E2,1.4323003E2,4.942567E1,1.06135185E2,3.1999998E0,1E-1,1.4200001E1,-3.5569565E0,1.8211543E2,1.6570702E2,3.0054502E1,3.7E0,3.1109933E2,-2.215863E0,1.8723461E1,5.168295E1,3.3458668E1,9.1693695E1,1.3377426E2,1.030883E1,1.3276144E1,2.1981585E1,1.8792551E1,9.178235E0,1.24811535E1,2.5700333E1,1.5192682E1,9.983106E0,2.5371168E1,2.483367E1,1.4524402E2,1.23964676E2,3.0262833E1,7.025147E0,-5.552109E-1,2.9973253E1,3.466637E1,1.9586117E1,6.2119355E0,1.7974781E1,3.1171167E1,7.556715E0,3.18295E1,1.0039865E0,-2.629742E0,2.3521245E0,1.0786878E1,-2.0490153E0,-4.392889E0,3.8889544E0,-1.648396E0,-1.5156093E0,2.958305E0,1.283647E1,1.2434813E0,-1.9250027E0,4.012496E0,-3.6835952E0,1.3008747E0,3.6037235E0,-9.152261E-1,-5.2691817E0,-1.8778673E0,-2.1260627E-1,3.6320882E0,3.0559611E0,1.2218727E1,-2.129595E0,3.621917E0,-2.35411E0,-7.8120536E-1,-3.191212E0,-1.8273052E0,4.3475924E0,-1.167587E0,4.9146924E0,-4.182066E-1,8.750315E0,1.3092145E0,-7.696873E-1,6.5880437E0,1.9090936E0,-2.8290052E0,2.5250378E0,-3.795502E0,6.161179E0,1.0269818E1,5.823887E0,-2.9970644E0,1.2052598E0,-9.413315E-1],"split_indices":[0,0,3,0,3,2,0,0,2,3,2,0,0,0,2,0,3,3,3,3,1,1,1,0,3,3,0,1,3,0,2,3,3,3,3,2,2,0,2,2,2,0,2,2,0,0,3,3,0,0,0,0,3,2,0,2,0,0,0,0,0,0,0,0,0,0,0,0,0,0,0,0,0,0,0,0,0,0,0,0,0,0,0,0,0,0,0,0,0,0,0,0,0,0,0,0,0,0,0,0,0,0,0,0,0,0,0],"split_type":[0,0,0,0,0,0,0,0,0,0,0,0,0,0,0,0,0,0,0,0,0,0,0,0,0,0,0,0,0,0,0,0,0,0,0,0,0,0,0,0,0,0,0,0,0,0,0,0,0,0,0,0,0,0,0,0,0,0,0,0,0,0,0,0,0,0,0,0,0,0,0,0,0,0,0,0,0,0,0,0,0,0,0,0,0,0,0,0,0,0,0,0,0,0,0,0,0,0,0,0,0,0,0,0,0,0,0],"sum_hessian":[8.31E2,6.42E2,1.89E2,1.85E2,4.57E2,1.32E2,5.7E1,5.9E1,1.26E2,2.03E2,2.54E2,2.5E1,1.07E2,4.5E1,1.2E1,2.3E1,3.6E1,1.03E2,2.3E1,1.46E2,5.7E1,3.3E1,2.21E2,3E0,2.2E1,6E0,1.01E2,1.6E1,2.9E1,7E0,5E0,1.7E1,6E0,2.8E1,8E0,9.3E1,1E1,4E0,1.9E1,1.22E2,2.4E1,5.1E1,6E0,1.6E1,1.7E1,1.9E2,3.1E1,1.6E1,6E0,4E0,2E0,6.7E1,3.4E1,1.4E1,2E0,2.4E1,5E0,1E0,4E0,7E0,1E1,4E0,2E0,1.3E1,1.5E1,3E0,5E0,1.9E1,7.4E1,7E0,3E0,1E0,3E0,1E1,9E0,1E1,1.12E2,9E0,1.5E1,3.2E1,1.9E1,3E0,3E0,3E0,1.3E1,1.3E1,4E0,4.6E1,1.44E2,1E0,3E1,9E0,7E0,5E0,1E0,6.5E1,2E0,2E0,3.2E1,1E1,4E0,1E1,1.4E1,3E0,2E0,1E0,3E0],"tree_param":{"num_deleted":"0","num_feature":"4","num_nodes":"107","size_leaf_vector":"1"}},{"base_weights":[1.532017E-1,-8.3031267E-1,3.4808152E0,2.8036914E0,-2.304318E0,1.9429171E-1,1.0957139E1,-2.6035058E0,5.3361964E0,2.788405E0,-3.1841156E0,8.203248E0,-1.7355894E0,1.3744647E1,-8.736941E-1,2.7378004E0,-5.997772E0,6.606496E0,-3.889412E0,8.348874E0,-6.5150013E0,-7.09399E0,-2.9649553E0,-9.188807E0,1.087129E1,7.4605603E0,-3.1845963E0,4.0560846E0,1.8614353E1,-5.4473267E0,6.618857E0,-2.798965E0,1.6584082E1,4.883035E-1,-8.760662E0,4.768745E0,2.152369E1,3.1768777E0,-8.446874E0,1.4614083E1,2.2654705E0,-1.0908629E1,-3.0871944E0,-5.900614E-1,-4.525398E0,-8.3776134E-1,-3.1170151E0,6.5509453E0,1.9810514E1,-2.3242624E0,1.4242026E1,-2.4664397E0,-1.0596474E1,6.1579585E0,1.7437739E0,2.1919485E1,8.099644E0,-2.3834229E0,-2.0426953E0,6.4232073E0,-2.4317741E0,8.642896E-1,-2.0026116E0,1.7876139E0,8.629502E0,-1.1761028E0,7.3475113E0,-2.9504666E0,2.7142491E0,1.0588927E0,7.1398797E0,9.466896E0,3.5002306E-1,-1.3222466E0,7.3024616E0,-4.950055E0,-9.839097E-2,-1.1707238E0,5.0305734E0,-1.2919582E0,3.3719163E0,-4.517728E0,-1.4820187E0,-2.3191339E-1,-1.4403586E0,-5.596362E-1,5.4269023E0,-1.4513644E0,2.446582E0,3.5877244E0,-3.0842772E-1,8.141463E0,2.259058E0,2.14637E0,-2.2640123E0,8.257959E0,-5.6726533E-1,-6.5388866E-2,-1.740242E0,-1.695036E0,-3.7302787E0,-6.762721E-1,4.290413E0,3.4819212E0,8.687948E0,4.1517134E0,-2.3976517E0,-9.022462E-1,-7.668457E-2,-9.151398E-1,-8.635483E-2],"categories":[],"categories_nodes":[],"categories_segments":[],"categories_sizes":[],"default_left":[0,0,0,0,0,0,0,0,0,0,0,0,0,0,0,0,0,0,0,0,0,0,0,0,0,0,0,0,0,0,0,0,0,0,0,0,0,0,0,0,0,0,0,0,0,0,0,0,0,0,0,0,0,0,0,0,0,0,0,0,0,0,0,0,0,0,0,0,0,0,0,0,0,0,0,0,0,0,0,0,0,0,0,0,0,0,0,0,0,0,0,0,0,0,0,0,0,0,0,0,0,0,0,0,0,0,0,0,0,0,0],"id":2,"left_children":[1,3,5,7,9,11,13,15,17,19,21,23,25,27,29,31,33,35,37,39,41,-1,43,45,47,49,51,53,55,57,59,61,63,65,67,69,71,73,75,77,79,81,83,85,87,-1,-1,89,91,93,95,97,99,-1,101,103,105,107,-1,-1,109,-1,-1,-1,-1,-1,-1,-1,-1,-1,-1,-1,-1,-1,-1,-1,-1,-1,-1,-1,-1,-1,-1,-1,-1,-1,-1,-1,-1,-1,-1,-1,-1,-1,-1,-1,-1,-1,-1,-1,-1,-1,-1,-1,-1,-1,-1,-1,-1,-1,-1],"loss_changes":[2.725823E3,3.4507168E3,4.666383E3,2.560931E3,2.060977E3,2.0699294E3,1.9247632E3,1.1042096E3,1.5140449E3,3.572121E3,1.6833557E3,1.3063654E3,1.4628896E3,2.1419805E3,4.472732E2,1.8863451E3,6.6732947E2,2.9677363E3,5.421042E2,1.6057852E3,3.5789624E2,0E0,1.4352131E3,1.7192993E0,7.584946E2,1.0284338E3,4.7421582E2,6.1164764E2,8.997881E2,1.7147232E1,7.214431E2,4.1555048E2,7.345851E2,1.3658856E3,5.8636096E2,2.2976953E3,2.4139863E3,1.2309288E3,6.4842883E2,9.0320605E2,1.4049154E3,1.9810266E2,5.9751724E1,3.726464E3,9.666787E2,0E0,0E0,7.090989E2,4.2554907E2,4.0051202E2,1.9809094E3,6.509961E2,2.4677124E0,0E0,8.3552625E2,1.3338555E3,9.418203E2,4.5427933E0,0E0,0E0,4.427637E0,0E0,0E0,0E0,0E0,0E0,0E0,0E0,0E0,0E0,0E0,0E0,0E0,0E0,0E0,0E0,0E0,0E0,0E0,0E0,0E0,0E0,0E0,0E0,0E0,0E0,0E0,0E0,0E0,0E0,0E0,0E0,0E0,0E0,0E0,0E0,0E0,0E0,0E0,0E0,0E0,0E0,0E0,0E0,0E0,0E0,0E0,0E0,0E0,0E0,0E0],"parents":[2147483647,0,0,1,1,2,2,3,3,4,4,5,5,6,6,7,7,8,8,9,9,10,10,11,11,12,12,13,13,14,14,15,15,16,16,17,17,18,18,19,19,20,20,22,22,23,23,24,24,25,25,26,26,27,27,28,28,29,29,30,30,31,31,32,32,33,33,34,34,35,35,36,36,37,37,38,38,39,39,40,40,41,41,42,42,43,43,44,44,47,47,48,48,49,49,50,50,51,51,52,52,54,54,55,55,56,56,57,57,60,60],"right_children":[2,4,6,8,10,12,14,16,18,20,22,24,26,28,30,32,34,36,38,40,42,-1,44,46,48,50,52,54,56,58,60,62,64,66,68,70,72,74,76,78,80,82,84,86,88,-1,-1,90,92,94,96,98,100,-1,102,104,106,108,-1,-1,110,-1,-1,-1,-1,-1,-1,-1,-1,-1,-1,-1,-1,-1,-1,-1,-1,-1,-1,-1,-1,-1,-1,-1,-1,-1,-1,-1,-1,-1,-1,-1,-1,-1,-1,-1,-1,-1,-1,-1,-1,-1,-1,-1,-1,-1,-1,-1,-1,-1,-1],"split_conditions":[2.7079498E1,2.3264917E1,2.6380594E2,2.1469086E1,1.0883676E1,1.2096214E1,3.18295E1,2.0527418E1,7E-1,3E-1,1.0931203E1,2.7842003E1,2.777117E1,2.913575E1,1.8374111E1,2.0369083E1,1.0587918E1,1.4323003E2,2.2542002E1,2.4702417E1,1.5E0,-7.09399E0,1.343802E2,1E-1,1.8211543E2,1.3220929E2,2.1611998E1,1.2261157E1,3.1171167E1,1.4973577E1,1.8723461E1,1.9923254E1,3.3458668E1,1.0365251E1,1E-1,4E-1,1.3276144E1,2.2306585E1,2.29545E1,2.3348251E1,1.0182337E1,9.902121E1,9.726664E0,1.2969128E2,3.4864203E2,-8.3776134E-1,-3.1170151E0,1.23964676E2,1.8924088E2,2.7387835E1,1.7213303E2,3.0010752E1,3E-1,6.1579585E0,3.6000004E0,1.7974781E1,1E-1,3.251909E1,-2.0426953E0,6.4232073E0,3.2104507E1,8.642896E-1,-2.0026116E0,1.7876139E0,8.629502E0,-1.1761028E0,7.3475113E0,-2.9504666E0,2.7142491E0,1.0588927E0,7.1398797E0,9.466896E0,3.5002306E-1,-1.3222466E0,7.3024616E0,-4.950055E0,-9.839097E-2,-1.1707238E0,5.0305734E0,-1.2919582E0,3.3719163E0,-4.517728E0,-1.4820187E0,-2.3191339E-1,-1.4403586E0,-5.596362E-1,5.4269023E0,-1.4513644E0,2.446582E0,3.5877244E0,-3.0842772E-1,8.141463E0,2.259058E0,2.14637E0,-2.2640123E0,8.257959E0,-5.6726533E-1,-6.5388866E-2,-1.740242E0,-1.695036E0,-3.7302787E0,-6.762721E-1,4.290413E0,3.4819212E0,8.687948E0,4.1517134E0,-2.3976517E0,-9.022462E-1,-7.668457E-2,-9.151398E-1,-8.635483E-2],"split_indices":[0,0,3,0,2,2,0,0,1,1,2,0,0,0,2,0,2,3,0,0,1,0,3,1,3,3,2,2,0,2,2,0,3,2,1,1,2,0,0,0,2,3,2,3,3,0,0,3,3,0,3,0,1,0,1,2,1,0,0,0,0,0,0,0,0,0,0,0,0,0,0,0,0,0,0,0,0,0,0,0,0,0,0,0,0,0,0,0,0,0,0,0,0,0,0,0,0,0,0,0,0,0,0,0,0,0,0,0,0,0,0],"split_type":[0,0,0,0,0,0,0,0,0,0,0,0,0,0,0,0,0,0,0,0,0,0,0,0,0,0,0,0,0,0,0,0,0,0,0,0,0,0,0,0,0,0,0,0,0,0,0,0,0,0,0,0,0,0,0,0,0,0,0,0,0,0,0,0,0,0,0,0,0,0,0,0,0,0,0,0,0,0,0,0,0,0,0,0,0,0,0,0,0,0,0,0,0,0,0,0,0,0,0,0,0,0,0,0,0,0,0,0,0,0,0],"sum_hessian":[8.31E2,6.42E2,1.89E2,1.85E2,4.57E2,1.32E2,5.7E1,5.9E1,1.26E2,6.7E1,3.9E2,2.5E1,1.07E2,4.6E1,1.1E1,2.3E1,3.6E1,1.11E2,1.5E1,4.2E1,2.5E1,3E0,3.87E2,3E0,2.2E1,1.4E1,9.3E1,1.6E1,3E1,7E0,4E0,1.7E1,6E0,1.1E1,2.5E1,1E2,1.1E1,6E0,9E0,2E1,2.2E1,1E1,1.5E1,1.54E2,2.33E2,1E0,2E0,1.6E1,6E0,6E0,8E0,8.6E1,7E0,1E0,1.5E1,2.2E1,8E0,3E0,4E0,1E0,3E0,7E0,1E1,4E0,2E0,1E1,1E0,2.4E1,1E0,9.5E1,5E0,7E0,4E0,5E0,1E0,4E0,5E0,2E0,1.8E1,1.3E1,9E0,5E0,5E0,7E0,8E0,1.45E2,9E0,2.28E2,5E0,9E0,7E0,3E0,3E0,2E0,4E0,4E0,4E0,5.2E1,3.4E1,3E0,4E0,1.2E1,3E0,1E1,1.2E1,6E0,2E0,2E0,1E0,2E0,1E0],"tree_param":{"num_deleted":"0","num_feature":"4","num_nodes":"111","size_leaf_vector":"1"}},{"base_weights":[1.8820447E-1,-8.077768E-1,2.2084568E0,2.1462486E0,-2.278664E0,1.4050294E0,1.0950136E1,-1.1936461E1,2.601221E0,1.6430686E0,-3.020783E0,5.835253E0,2.5762033E-1,2.6042418E1,4.0915413E0,-4.745926E0,-1.8119632E0,2.1334066E1,1.9478217E0,5.6963835E0,-5.6170382E0,-3.614467E0,2.5155735E0,1.1821413E1,1.7244835E0,-4.5688054E-1,1.1608624E1,7.4777186E-1,8.865589E0,7.553317E0,1.2000475E0,-1.830803E0,8.412585E0,-4.0180707E0,2.6625159E0,9.671204E0,-2.0923097E0,-1.2475142E1,-2.265553E0,-1.8326141E1,-3.3921852E0,2.2039225E1,-2.0866373E0,1.7807388E0,2.0787413E1,-4.002933E0,6.401526E0,-1.5729753E0,2.2617939E0,6.626257E0,-2.551529E0,4.950303E0,-4.3288956E0,-4.9214256E-1,1.5324296E0,4.866985E0,1.5744436E0,-1.5141267E0,5.447973E0,-4.3951435E0,8.653107E-2,-1.7103682E-1,-1.0562623E0,-1.3015698E0,-6.4627438E0,-1.6172142E0,-7.0273477E-1,8.652133E0,3.4285522E0,-1.019715E0,1.7944182E0,1.7895111E0,-1.3300278E0,3.4138467E0,7.3613186E0,4.3714647E0,-1.9111521E0,-2.9064703E0,3.0796084E0,4.4495913E-1,-9.301705E-1,-4.1858563E-1,4.339685E0,9.8318714E-1,-1.8855784E0,-1.1096838E0,3.3998878E0,-1.859265E0,-4.1340524E-1],"categories":[],"categories_nodes":[],"categories_segments":[],"categories_sizes":[],"default_left":[0,0,0,0,0,0,0,0,0,0,0,0,0,0,0,0,0,0,0,0,0,0,0,0,0,0,0,0,0,0,0,0,0,0,0,0,0,0,0,0,0,0,0,0,0,0,0,0,0,0,0,0,0,0,0,0,0,0,0,0,0,0,0,0,0,0,0,0,0,0,0,0,0,0,0,0,0,0,0,0,0,0,0,0,0,0,0,0,0],"id":3,"left_children":[1,3,5,7,9,11,13,15,17,19,21,23,25,27,29,-1,-1,31,33,35,37,39,41,43,45,47,49,-1,-1,-1,51,-1,-1,-1,53,55,57,59,61,63,65,67,69,71,73,75,77,79,81,-1,83,85,87,-1,-1,-1,-1,-1,-1,-1,-1,-1,-1,-1,-1,-1,-1,-1,-1,-1,-1,-1,-1,-1,-1,-1,-1,-1,-1,-1,-1,-1,-1,-1,-1,-1,-1,-1,-1],"loss_changes":[1.6758789E3,2.429422E3,1.9160232E3,1.2227969E3,1.0905393E3,1.2845663E3,2.2742192E3,4.183966E1,2.1738906E3,1.7976467E3,1.0411621E3,1.2592156E3,1.6435848E3,5.0488428E2,1.0062852E3,0E0,0E0,1.275386E3,1.9653955E3,1.2276224E3,4.7740314E2,8.665532E2,2.8313984E3,1.8535015E3,8.828208E2,5.831087E2,1.8369508E3,0E0,0E0,0E0,3.5318854E2,0E0,0E0,0E0,1.7868207E3,6.6834375E2,9.294262E2,1.9858118E2,3.2045616E1,8.649158E1,5.7689014E2,1.03391846E2,2.9563428E2,3.124666E2,1.08882324E2,7.524749E2,1.2184802E3,6.395267E2,2.519483E3,0E0,1.5117813E2,5.939718E2,3.0058868E1,0E0,0E0,0E0,0E0,0E0,0E0,0E0,0E0,0E0,0E0,0E0,0E0,0E0,0E0,0E0,0E0,0E0,0E0,0E0,0E0,0E0,0E0,0E0,0E0,0E0,0E0,0E0,0E0,0E0,0E0,0E0,0E0,0E0,0E0,0E0,0E0],"parents":[2147483647,0,0,1,1,2,2,3,3,4,4,5,5,6,6,7,7,8,8,9,9,10,10,11,11,12,12,13,13,14,14,17,17,18,18,19,19,20,20,21,21,22,22,23,23,24,24,25,25,26,26,30,30,34,34,35,35,36,36,37,37,38,38,39,39,40,40,41,41,42,42,43,43,44,44,45,45,46,46,47,47,48,48,50,50,51,51,52,52],"right_children":[2,4,6,8,10,12,14,16,18,20,22,24,26,28,30,-1,-1,32,34,36,38,40,42,44,46,48,50,-1,-1,-1,52,-1,-1,-1,54,56,58,60,62,64,66,68,70,72,74,76,78,80,82,-1,84,86,88,-1,-1,-1,-1,-1,-1,-1,-1,-1,-1,-1,-1,-1,-1,-1,-1,-1,-1,-1,-1,-1,-1,-1,-1,-1,-1,-1,-1,-1,-1,-1,-1,-1,-1,-1,-1],"split_conditions":[2.6221163E1,2.3264917E1,3.0456027E2,8.766573E0,1.0853866E1,1.2682018E1,3.1109933E2,8.28E0,9E0,4E-1,1.4800001E1,1.2546265E2,9.299999E0,2.6848251E1,2.6281588E1,-4.745926E0,-1.8119632E0,3.2359375E1,9.340941E0,2.4946167E1,1.5E0,1.0931203E1,1.4524402E2,1.0235533E2,1.7116951E2,2.9973253E1,1.45E1,7.4777186E-1,8.865589E0,7.553317E0,3.1171167E1,-1.830803E0,8.412585E0,-4.0180707E0,2.1762835E1,6.751069E1,1.6441052E2,2.461075E1,9.726664E0,2.3367002E1,2.4646166E1,1.4101021E1,3.4900005E1,8.724094E1,1.1488191E2,2.6494087E1,2.7144083E1,1.484318E1,1E-1,6.626257E0,1.350001E2,2.795033E1,3.191075E1,-4.9214256E-1,1.5324296E0,4.866985E0,1.5744436E0,-1.5141267E0,5.447973E0,-4.3951435E0,8.653107E-2,-1.7103682E-1,-1.0562623E0,-1.3015698E0,-6.4627438E0,-1.6172142E0,-7.0273477E-1,8.652133E0,3.4285522E0,-1.019715E0,1.7944182E0,1.7895111E0,-1.3300278E0,3.4138467E0,7.3613186E0,4.3714647E0,-1.9111521E0,-2.9064703E0,3.0796084E0,4.4495913E-1,-9.301705E-1,-4.1858563E-1,4.339685E0,9.8318714E-1,-1.8855784E0,-1.1096838E0,3.3998878E0,-1.859265E0,-4.1340524E-1],"split_indices":[0,0,3,2,2,2,3,2,2,1,1,3,1,0,0,0,0,3,2,0,1,2,3,3,3,0,1,0,0,0,0,0,0,0,0,3,3,0,2,0,0,2,1,3,3,0,0,2,1,0,3,0,0,0,0,0,0,0,0,0,0,0,0,0,0,0,0,0,0,0,0,0,0,0,0,0,0,0,0,0,0,0,0,0,0,0,0,0,0],"split_type":[0,0,0,0,0,0,0,0,0,0,0,0,0,0,0,0,0,0,0,0,0,0,0,0,0,0,0,0,0,0,0,0,0,0,0,0,0,0,0,0,0,0,0,0,0,0,0,0,0,0,0,0,0,0,0,0,0,0,0,0,0,0,0,0,0,0,0,0,0,0,0,0,0,0,0,0,0,0,0,0,0,0,0,0,0,0,0,0,0],"sum_hessian":[8.31E2,5.57E2,2.74E2,1.85E2,3.72E2,2.52E2,2.2E1,5E0,1.8E2,5.9E1,3.13E2,5.1E1,2.01E2,6E0,1.6E1,2E0,3E0,5E0,1.75E2,3.8E1,2.1E1,2.83E2,3E1,2E1,3.1E1,1.9E2,1.1E1,1E0,5E0,1E0,1.5E1,1E0,4E0,7E0,1.68E2,2.5E1,1.3E1,6E0,1.5E1,3E0,2.8E2,5E0,2.5E1,1E1,1E1,1.4E1,1.7E1,1.35E2,5.5E1,6E0,5E0,9E0,6E0,6.1E1,1.07E2,9E0,1.6E1,1.2E1,1E0,5E0,1E0,7E0,8E0,1E0,2E0,9.5E1,1.85E2,2E0,3E0,2.2E1,3E0,6E0,4E0,4E0,6E0,1E0,1.3E1,3E0,1.4E1,4.5E1,9E1,4.3E1,1.2E1,2E0,3E0,4E0,5E0,3E0,3E0],"tree_param":{"num_deleted":"0","num_feature":"4","num_nodes":"89","size_leaf_vector":"1"}},{"base_weights":[1.8567143E-1,-5.570988E-1,1.6921446E0,2.1286893E0,-1.3778491E0,1.074539E0,8.412234E0,9.956727E-2,1.1171042E1,1.224899E0,-2.3609567E0,4.4034443E0,2.3291974E-1,1.960303E1,3.3094234E0,-8.1831306E-1,1.1675361E1,1.3935061E1,-3.8466332E0,3.7298248E0,-4.146782E0,-8.337675E0,-1.8771315E0,5.433034E0,-2.7157488E0,-2.9142502E-1,8.603026E0,6.3560605E-1,6.6491914E0,6.42032E0,8.411293E-1,1.0137074E1,-1.3745875E0,2.655974E1,-2.567215E0,3.8763037E0,9.316006E0,6.179896E0,-5.1887517E0,-1.143738E1,-1.8213766E0,-1.0612699E1,5.1218643E0,-2.1689093E-1,-2.8812945E0,3.8380089E0,6.6056433E0,-8.038605E0,4.516342E-2,1.6407873E1,-1.9364662E0,3.6942315E0,-3.3548923E0,3.3874743E0,8.278576E-1,-1.2241724E0,4.7728285E-1,2.380933E0,9.036608E0,-1.3335028E0,7.415943E-1,2.8036623E0,-4.0501456E0,1.6077652E0,6.3241878E0,-2.192989E0,4.6307764E0,-9.869316E-1,-4.4888663E0,-9.202098E-1,1.5066129E0,-4.789752E0,-1.9506292E0,3.7331955E0,-4.400513E-1,-6.477544E-1,5.238003E0,-3.1675234E0,-7.3885E-1,2.867211E0,-2.1273477E-1,-2.8287654E0,2.5435296E-1,2.370968E0,-7.871624E-2,6.8370147E0,2.7890978E0,7.8655016E-1,-1.4613224E0,-8.433605E-1,2.5499163E0,-1.3360516E0,-1.2167206E-1],"categories":[],"categories_nodes":[],"categories_segments":[],"categories_sizes":[],"default_left":[0,0,0,0,0,0,0,0,0,0,0,0,0,0,0,0,0,0,0,0,0,0,0,0,0,0,0,0,0,0,0,0,0,0,0,0,0,0,0,0,0,0,0,0,0,0,0,0,0,0,0,0,0,0,0,0,0,0,0,0,0,0,0,0,0,0,0,0,0,0,0,0,0,0,0,0,0,0,0,0,0,0,0,0,0,0,0,0,0,0,0,0,0],"id":4,"left_children":[1,3,5,7,9,11,13,15,17,19,21,23,25,27,29,31,33,35,-1,37,39,41,43,45,-1,47,49,-1,-1,-1,51,53,55,57,59,61,-1,63,65,67,69,71,73,75,77,79,-1,81,83,85,87,89,91,-1,-1,-1,-1,-1,-1,-1,-1,-1,-1,-1,-1,-1,-1,-1,-1,-1,-1,-1,-1,-1,-1,-1,-1,-1,-1,-1,-1,-1,-1,-1,-1,-1,-1,-1,-1,-1,-1,-1,-1],"loss_changes":[9.319203E2,1.2329666E3,1.1323113E3,2.4024805E3,1.0980503E3,7.07797E2,1.2485292E3,1.157075E3,1.7702979E3,1.6032347E3,8.836638E2,7.5574176E2,8.934379E2,2.6647607E2,7.4114233E2,6.294488E2,1.7641198E3,3.6677793E3,0E0,1.8020088E3,6.234048E2,7.5863464E2,4.81182E2,1.1853187E3,0E0,5.010244E2,1.01888275E3,0E0,0E0,0E0,2.039406E2,1.1427734E1,7.8488654E2,2.63042E1,5.8300842E1,1.5517361E3,0E0,6.6966187E2,9.0032324E2,2.0929565E2,2.7120926E2,3.3628125E2,2.112264E2,3.8144028E3,5.5226E2,1.1770765E3,0E0,1.0685541E2,4.4917325E2,1.0580127E2,9.303211E1,3.3651227E2,2.0874893E1,0E0,0E0,0E0,0E0,0E0,0E0,0E0,0E0,0E0,0E0,0E0,0E0,0E0,0E0,0E0,0E0,0E0,0E0,0E0,0E0,0E0,0E0,0E0,0E0,0E0,0E0,0E0,0E0,0E0,0E0,0E0,0E0,0E0,0E0,0E0,0E0,0E0,0E0,0E0,0E0],"parents":[2147483647,0,0,1,1,2,2,3,3,4,4,5,5,6,6,7,7,8,8,9,9,10,10,11,11,12,12,13,13,14,14,15,15,16,16,17,17,19,19,20,20,21,21,22,22,23,23,25,25,26,26,30,30,31,31,32,32,33,33,34,34,35,35,37,37,38,38,39,39,40,40,41,41,42,42,43,43,44,44,45,45,47,47,48,48,49,49,50,50,51,51,52,52],"right_children":[2,4,6,8,10,12,14,16,18,20,22,24,26,28,30,32,34,36,-1,38,40,42,44,46,-1,48,50,-1,-1,-1,52,54,56,58,60,62,-1,64,66,68,70,72,74,76,78,80,-1,82,84,86,88,90,92,-1,-1,-1,-1,-1,-1,-1,-1,-1,-1,-1,-1,-1,-1,-1,-1,-1,-1,-1,-1,-1,-1,-1,-1,-1,-1,-1,-1,-1,-1,-1,-1,-1,-1,-1,-1,-1,-1,-1,-1],"split_conditions":[2.6221163E1,2.2542002E1,3.0456027E2,2.2206583E1,1.2031756E1,1.2616702E1,3.1109933E2,2E-1,1.964228E1,3E-1,1.2616702E1,3.6000001E0,9.299999E0,2.6848251E1,2.6281588E1,2.9955341E1,2.1877419E1,1.187038E2,-3.8466332E0,2.5254503E1,2.4014915E1,6E-1,1.3270935E2,6E-1,-2.7157488E0,1.3004922E1,1.45E1,6.3560605E-1,6.6491914E0,6.42032E0,3.1171167E1,1.4255272E1,8.973719E1,2.1029503E1,2.2148252E1,8.0624596E1,9.316006E0,1.19466305E1,1.6441052E2,9.340941E0,1.191812E1,2.3800333E1,2.4289917E1,1.7974781E1,1.3854987E2,1.2546265E2,6.6056433E0,2.9358667E1,1.3089354E1,1.04000025E1,1.350001E2,2.795033E1,3.2104507E1,3.3874743E0,8.278576E-1,-1.2241724E0,4.7728285E-1,2.380933E0,9.036608E0,-1.3335028E0,7.415943E-1,2.8036623E0,-4.0501456E0,1.6077652E0,6.3241878E0,-2.192989E0,4.6307764E0,-9.869316E-1,-4.4888663E0,-9.202098E-1,1.5066129E0,-4.789752E0,-1.9506292E0,3.7331955E0,-4.400513E-1,-6.477544E-1,5.238003E0,-3.1675234E0,-7.3885E-1,2.867211E0,-2.1273477E-1,-2.8287654E0,2.5435296E-1,2.370968E0,-7.871624E-2,6.8370147E0,2.7890978E0,7.8655016E-1,-1.4613224E0,-8.433605E-1,2.5499163E0,-1.3360516E0,-1.2167206E-1],"split_indices":[0,0,3,0,2,2,3,1,2,1,2,1,1,0,0,3,0,3,0,0,0,1,3,1,0,2,1,0,0,0,0,2,3,0,0,3,0,2,3,2,2,0,0,2,3,3,0,0,2,1,3,0,0,0,0,0,0,0,0,0,0,0,0,0,0,0,0,0,0,0,0,0,0,0,0,0,0,0,0,0,0,0,0,0,0,0,0,0,0,0,0,0,0],"split_type":[0,0,0,0,0,0,0,0,0,0,0,0,0,0,0,0,0,0,0,0,0,0,0,0,0,0,0,0,0,0,0,0,0,0,0,0,0,0,0,0,0,0,0,0,0,0,0,0,0,0,0,0,0,0,0,0,0,0,0,0,0,0,0,0,0,0,0,0,0,0,0,0,0,0,0,0,0,0,0,0,0,0,0,0,0,0,0,0,0,0,0,0,0],"sum_hessian":[8.31E2,5.57E2,2.74E2,1.3E2,4.27E2,2.52E2,2.2E1,1.07E2,2.3E1,1.17E2,3.1E2,5E1,2.02E2,6E0,1.6E1,1E2,7E0,2.1E1,2E0,8E1,3.7E1,2.2E1,2.88E2,4.7E1,3E0,1.91E2,1.1E1,1E0,5E0,1E0,1.5E1,4E0,9.6E1,3E0,4E0,1.4E1,7E0,6.3E1,1.7E1,8E0,2.9E1,1.9E1,3E0,1.09E2,1.79E2,4.4E1,3E0,7E0,1.84E2,6E0,5E0,9E0,6E0,3E0,1E0,5E1,4.6E1,1E0,2E0,3E0,1E0,1.1E1,3E0,6.1E1,2E0,1.6E1,1E0,3E0,5E0,2.5E1,4E0,7E0,1.2E1,1E0,2E0,9.9E1,1E1,8E0,1.71E2,1.9E1,2.5E1,6E0,1E0,6E0,1.78E2,2E0,4E0,2E0,3E0,4E0,5E0,4E0,2E0],"tree_param":{"num_deleted":"0","num_feature":"4","num_nodes":"93","size_leaf_vector":"1"}},{"base_weights":[1.9054848E-1,1.4118648E0,-3.6706358E-1,5.733851E-1,5.534063E0,-1.4811943E0,8.415837E-1,1.2686539E0,-3.6615798E0,1.311301E1,1.1617445E0,1.419926E0,-2.1436698E0,-2.4853355E-1,2.5819457E0,6.994447E-1,7.7869034E0,-4.651107E0,3.9036348E0,1.873756E1,5.146266E0,-3.781017E0,3.234775E0,-7.280128E-1,7.915744E0,-9.276927E0,-1.7001512E0,-1.1654242E0,5.972614E0,-3.1550497E-1,7.567707E0,1.1078176E0,-7.9127703E0,1.4467724E1,-1.9151382E0,-6.093877E-1,-6.9589763E0,-5.2471165E-2,2.1123482E1,-8.061447E0,6.1108027E0,1.2444773E1,9.945585E-1,-3.892735E0,7.731247E-1,-1.6442629E0,1.34095545E1,4.491783E0,-1.1946028E1,-1.9991701E0,5.07818E0,5.139928E-1,-4.50095E0,1.6201685E1,-3.9017532E0,-1.9025373E0,9.079536E0,7.614919E0,5.918686E0,-3.538261E-1,8.561155E-1,-2.8461843E0,4.6632043E-1,6.116926E0,-1.2518754E0,-2.9228325E0,3.5307908E0,-8.093102E-1,1.1593832E-1,-3.517427E0,-9.605625E-1,8.315693E0,2.2794733E0,-2.6895757E0,-6.6693425E-1,1.5712723E0,4.651114E0,-3.2005756E0,1.0192837E0,-1.9790286E0,2.4662852E0,1.3733056E0,-1.0009843E0,2.583973E0,-2.6778982E0,1.0056579E1,8.622947E-1,-1.9102845E0,3.931587E0,-4.4883E0,-6.5275097E-1,4.362724E-1,-7.9045194E-1,5.742776E0,4.1655427E-1,8.915413E-1,-2.2178705E0,-2.3886847E0,7.989141E-2,9.844191E0,2.6592214E0,-2.7153072E-1,-2.024266E0,-2.4538124E-1,-1.5990982E0,7.930295E-1,5.421851E0,2.2480931E0,-1.0402611E0],"categories":[],"categories_nodes":[],"categories_segments":[],"categories_sizes":[],"default_left":[0,0,0,0,0,0,0,0,0,0,0,0,0,0,0,0,0,0,0,0,0,0,0,0,0,0,0,0,0,0,0,0,0,0,0,0,0,0,0,0,0,0,0,0,0,0,0,0,0,0,0,0,0,0,0,0,0,0,0,0,0,0,0,0,0,0,0,0,0,0,0,0,0,0,0,0,0,0,0,0,0,0,0,0,0,0,0,0,0,0,0,0,0,0,0,0,0,0,0,0,0,0,0,0,0,0,0,0,0],"id":5,"left_children":[1,3,5,7,9,11,13,15,17,19,21,23,25,27,29,31,33,35,-1,37,39,-1,41,43,45,47,49,51,53,55,57,59,61,63,65,67,69,-1,71,73,-1,75,77,79,81,83,85,87,89,91,93,95,97,99,101,103,105,-1,107,-1,-1,-1,-1,-1,-1,-1,-1,-1,-1,-1,-1,-1,-1,-1,-1,-1,-1,-1,-1,-1,-1,-1,-1,-1,-1,-1,-1,-1,-1,-1,-1,-1,-1,-1,-1,-1,-1,-1,-1,-1,-1,-1,-1,-1,-1,-1,-1,-1,-1],"loss_changes":[5.6712744E2,8.9894183E2,7.714967E2,6.4653296E2,1.4428191E3,5.7577637E2,5.2237134E2,6.9207996E2,5.7199194E2,6.20521E2,8.6829987E2,7.8710944E2,7.530149E2,9.7665967E2,1.5336633E3,6.2072314E2,9.999718E2,2.7559204E2,0E0,4.0980762E2,1.7727023E3,0E0,5.2406506E2,2.0728896E2,7.573409E2,5.681598E2,4.7632733E2,8.369725E2,2.2853384E3,1.03117E3,9.955032E2,6.702452E2,1.3399637E2,1.0785984E3,8.6448346E2,2.599828E1,3.026637E2,0E0,5.0302954E2,6.4527893E0,0E0,2.9030151E1,6.5284515E2,5.128119E2,4.8434647E2,5.2505945E2,1.8106454E3,3.6406192E2,3.2092944E2,4.8897717E2,4.9234982E2,1.9653358E3,8.2717303E2,1.0499741E3,9.622722E1,2.1498918E2,5.3104395E2,0E0,5.72952E2,0E0,0E0,0E0,0E0,0E0,0E0,0E0,0E0,0E0,0E0,0E0,0E0,0E0,0E0,0E0,0E0,0E0,0E0,0E0,0E0,0E0,0E0,0E0,0E0,0E0,0E0,0E0,0E0,0E0,0E0,0E0,0E0,0E0,0E0,0E0,0E0,0E0,0E0,0E0,0E0,0E0,0E0,0E0,0E0,0E0,0E0,0E0,0E0,0E0,0E0],"parents":[2147483647,0,0,1,1,2,2,3,3,4,4,5,5,6,6,7,7,8,8,9,9,10,10,11,11,12,12,13,13,14,14,15,15,16,16,17,17,19,19,20,20,22,22,23,23,24,24,25,25,26,26,27,27,28,28,29,29,30,30,31,31,32,32,33,33,34,34,35,35,36,36,38,38,39,39,41,41,42,42,43,43,44,44,45,45,46,46,47,47,48,48,49,49,50,50,51,51,52,52,53,53,54,54,55,55,56,56,58,58],"right_children":[2,4,6,8,10,12,14,16,18,20,22,24,26,28,30,32,34,36,-1,38,40,-1,42,44,46,48,50,52,54,56,58,60,62,64,66,68,70,-1,72,74,-1,76,78,80,82,84,86,88,90,92,94,96,98,100,102,104,106,-1,108,-1,-1,-1,-1,-1,-1,-1,-1,-1,-1,-1,-1,-1,-1,-1,-1,-1,-1,-1,-1,-1,-1,-1,-1,-1,-1,-1,-1,-1,-1,-1,-1,-1,-1,-1,-1,-1,-1,-1,-1,-1,-1,-1,-1,-1,-1,-1,-1,-1,-1],"split_conditions":[1.2413477E1,1.19466305E1,2.578575E1,6E-1,2.3206583E1,2.2577421E1,2.6380594E2,1.9848064E2,2.7842003E1,7.375658E1,2.3800333E1,2.2306585E1,2.29545E1,2.7999997E0,2.8658667E1,1.1782784E1,1.0990322E1,1.0182337E1,3.9036348E0,1.1983188E1,1.3854987E2,-3.781017E0,2.448575E1,1.3708391E1,1.1821295E2,4.7139084E1,2.74E1,2.9358667E1,1.4805414E2,2.2392462E1,2.649839E2,1.0308831E1,1.1559705E2,3.440545E2,1.1440979E1,2.9E0,2.4564919E1,-5.2471165E-2,1.210157E1,2.2577421E1,6.1108027E0,2.423992E1,8.724094E1,1E-1,1.6311613E1,1.2860871E1,1.1875958E2,1.4182355E1,1.2546265E2,1.3397612E1,2.78E1,1.8792551E1,1.6334265E2,3.7999997E0,2.6727417E1,1.8374111E1,2.6117002E1,7.614919E0,3.2104507E1,-3.538261E-1,8.561155E-1,-2.8461843E0,4.6632043E-1,6.116926E0,-1.2518754E0,-2.9228325E0,3.5307908E0,-8.093102E-1,1.1593832E-1,-3.517427E0,-9.605625E-1,8.315693E0,2.2794733E0,-2.6895757E0,-6.6693425E-1,1.5712723E0,4.651114E0,-3.2005756E0,1.0192837E0,-1.9790286E0,2.4662852E0,1.3733056E0,-1.0009843E0,2.583973E0,-2.6778982E0,1.0056579E1,8.622947E-1,-1.9102845E0,3.931587E0,-4.4883E0,-6.5275097E-1,4.362724E-1,-7.9045194E-1,5.742776E0,4.1655427E-1,8.915413E-1,-2.2178705E0,-2.3886847E0,7.989141E-2,9.844191E0,2.6592214E0,-2.7153072E-1,-2.024266E0,-2.4538124E-1,-1.5990982E0,7.930295E-1,5.421851E0,2.2480931E0,-1.0402611E0],"split_indices":[2,2,0,1,0,0,3,3,0,3,0,0,0,1,0,2,2,2,0,2,3,0,0,2,3,3,1,0,3,2,3,2,3,3,2,1,0,0,2,0,0,0,3,1,2,2,3,2,3,2,1,2,3,1,0,2,0,0,0,0,0,0,0,0,0,0,0,0,0,0,0,0,0,0,0,0,0,0,0,0,0,0,0,0,0,0,0,0,0,0,0,0,0,0,0,0,0,0,0,0,0,0,0,0,0,0,0,0,0],"split_type":[0,0,0,0,0,0,0,0,0,0,0,0,0,0,0,0,0,0,0,0,0,0,0,0,0,0,0,0,0,0,0,0,0,0,0,0,0,0,0,0,0,0,0,0,0,0,0,0,0,0,0,0,0,0,0,0,0,0,0,0,0,0,0,0,0,0,0,0,0,0,0,0,0,0,0,0,0,0,0,0,0,0,0,0,0,0,0,0,0,0,0,0,0,0,0,0,0,0,0,0,0,0,0,0,0,0,0,0,0],"sum_hessian":[8.31E2,2.6E2,5.71E2,2.17E2,4.3E1,2.97E2,2.74E2,1.87E2,3E1,1.5E1,2.8E1,5.5E1,2.42E2,1.69E2,1.05E2,1.73E2,1.4E1,2.9E1,1E0,8E0,7E0,3E0,2.5E1,4.2E1,1.3E1,1.3E1,2.29E2,1.48E2,2.1E1,6.7E1,3.8E1,1.66E2,7E0,8E0,6E0,1.1E1,1.8E1,1E0,7E0,4E0,3E0,4E0,2.1E1,1.3E1,2.9E1,5E0,8E0,2E0,1.1E1,2.2E2,9E0,9.9E1,4.9E1,1E1,1.1E1,5.8E1,9E0,2E0,3.6E1,7.2E1,9.4E1,6E0,1E0,6E0,2E0,4E0,2E0,3E0,8E0,7E0,1.1E1,4E0,3E0,3E0,1E0,2E0,2E0,3E0,1.8E1,1.1E1,2E0,1.5E1,1.4E1,2E0,3E0,2E0,6E0,1E0,1E0,8E0,3E0,3.4E1,1.86E2,1E0,8E0,7.6E1,2.3E1,2.8E1,2.1E1,2E0,8E0,6E0,5E0,4.5E1,1.3E1,6E0,3E0,3.1E1,5E0],"tree_param":{"num_deleted":"0","num_feature":"4","num_nodes":"109","size_leaf_vector":"1"}},{"base_weights":[1.9350447E-1,4.7851877E0,9.185562E-2,-2.3147945E0,9.513794E0,-2.1648738E-1,1.5929805E0,1.0843301E0,-3.6781747E0,-2.9385254E0,1.7049194E1,-1.0400628E-1,-7.708576E0,-2.056383E-1,5.897134E0,-1.9279511E0,-1.6107469E0,1.9564797E0,-6.933956E0,7.445514E0,8.977844E0,-2.0948468E-1,8.624147E0,2.591451E0,-1.0607514E1,7.7205715E0,-1.7129445E0,8.115087E0,-6.03508E0,-3.2434216E0,5.0008965E-1,-9.603272E-1,-2.719883E0,-6.058426E-1,4.6706753E0,-1.1802731E-1,-8.737356E0,1.6395573E1,-9.738516E-1,1.3322582E0,-1.6610527E-1,-8.8820904E-1,-1.3699248E1,1.1067455E1,2.9785538E-1,-5.0434747E0,2.0767255E0,1.2207078E1,-7.451528E-1,-2.2246418E0,-3.145918E0,-1.1756142E0,-1.8263169E-1,-3.2631684E-2,-2.3999749E-1,2.0937403E-1,-2.3533991E-1,1.3444519E-1,-3.1028898E0,1.4923245E0,5.402178E0,-3.259867E0,2.8601727E0,-4.512639E0,-1.0477262E0,9.558594E-1,3.7394476E0,-6.4724755E-1,1.0417099E0,1.383683E0,-1.6799525E0,1.3021462E0,-1.2857891E0,-7.8469163E-1,4.1020474E0,-4.5205894E0,5.780571E-1,-1.4375267E0,2.6873934E-1],"categories":[],"categories_nodes":[],"categories_segments":[],"categories_sizes":[],"default_left":[0,0,0,0,0,0,0,0,0,0,0,0,0,0,0,0,0,0,0,0,0,0,0,0,0,0,0,0,0,0,0,0,0,0,0,0,0,0,0,0,0,0,0,0,0,0,0,0,0,0,0,0,0,0,0,0,0,0,0,0,0,0,0,0,0,0,0,0,0,0,0,0,0,0,0,0,0,0,0],"id":6,"left_children":[1,3,5,7,9,11,13,-1,15,17,19,21,23,25,27,29,-1,-1,31,-1,33,35,37,39,41,43,45,47,49,51,-1,-1,-1,53,-1,55,57,59,-1,-1,-1,61,63,65,67,69,71,73,75,-1,77,-1,-1,-1,-1,-1,-1,-1,-1,-1,-1,-1,-1,-1,-1,-1,-1,-1,-1,-1,-1,-1,-1,-1,-1,-1,-1,-1,-1],"loss_changes":[3.878875E2,6.2633685E2,3.775769E2,7.796484E1,1.0822649E3,5.697186E2,1.0772854E3,0E0,1.0365692E1,2.3420682E2,2.1613928E2,6.167886E2,3.2608026E2,1.1960002E3,1.1340441E3,2.9051704E1,0E0,0E0,2.8166962E0,0E0,3.252662E2,5.1450696E2,7.912173E2,1.9908768E1,2.2822815E2,3.9419104E2,1.0706891E3,1.2780571E3,4.5887756E0,4.7310295E0,0E0,0E0,0E0,2.0250022E-1,0E0,3.5671994E2,1.078736E2,2.4610596E0,0E0,0E0,0E0,4.1557367E2,2.9706055E1,8.142786E1,5.4258762E1,2.6757434E2,5.947477E2,5.5743384E2,4.8830475E2,0E0,3.0900475E1,0E0,0E0,0E0,0E0,0E0,0E0,0E0,0E0,0E0,0E0,0E0,0E0,0E0,0E0,0E0,0E0,0E0,0E0,0E0,0E0,0E0,0E0,0E0,0E0,0E0,0E0,0E0,0E0],"parents":[2147483647,0,0,1,1,2,2,3,3,4,4,5,5,6,6,8,8,9,9,10,10,11,11,12,12,13,13,14,14,15,15,18,18,20,20,21,21,22,22,23,23,24,24,25,25,26,26,27,27,28,28,29,29,33,33,35,35,36,36,37,37,41,41,42,42,43,43,44,44,45,45,46,46,47,47,48,48,50,50],"right_children":[2,4,6,8,10,12,14,-1,16,18,20,22,24,26,28,30,-1,-1,32,-1,34,36,38,40,42,44,46,48,50,52,-1,-1,-1,54,-1,56,58,60,-1,-1,-1,62,64,66,68,70,72,74,76,-1,78,-1,-1,-1,-1,-1,-1,-1,-1,-1,-1,-1,-1,-1,-1,-1,-1,-1,-1,-1,-1,-1,-1,-1,-1,-1,-1,-1,-1],"split_conditions":[1.1379906E1,7.178725E0,2.8296167E1,2.1762835E1,2.3848253E1,2.8052414E1,1.7974781E1,1.0843301E0,2.777117E1,2.043992E1,2.5012835E1,2.795033E1,1.3557207E2,2.8996164E1,2.2253124E1,2.5489916E1,-1.6107469E0,1.9564797E0,2.3367002E1,7.445514E0,2.6094086E1,2.7842003E1,1.484318E1,2.8169085E1,1.3089354E1,1.8924088E2,1.7574797E2,3.1171167E1,2.8917E1,1.1808878E1,5.0008965E-1,-9.603272E-1,-2.719883E0,2.5537836E1,4.6706753E0,1.3519186E1,1.1720751E1,1.17662735E1,-9.738516E-1,1.3322582E0,-1.6610527E-1,1.2860871E1,3E-1,1.0139995E2,1.4658676E1,1.030883E1,1.6199999E1,1.1281604E2,3.1239916E1,-2.2246418E0,2.5071096E1,-1.1756142E0,-1.8263169E-1,-3.2631684E-2,-2.3999749E-1,2.0937403E-1,-2.3533991E-1,1.3444519E-1,-3.1028898E0,1.4923245E0,5.402178E0,-3.259867E0,2.8601727E0,-4.512639E0,-1.0477262E0,9.558594E-1,3.7394476E0,-6.4724755E-1,1.0417099E0,1.383683E0,-1.6799525E0,1.3021462E0,-1.2857891E0,-7.8469163E-1,4.1020474E0,-4.5205894E0,5.780571E-1,-1.4375267E0,2.6873934E-1],"split_indices":[3,3,0,0,0,0,2,0,0,0,0,0,3,0,2,0,0,0,0,0,0,0,2,0,2,3,3,0,0,2,0,0,0,0,0,2,2,2,0,0,0,2,1,3,2,2,2,3,0,0,2,0,0,0,0,0,0,0,0,0,0,0,0,0,0,0,0,0,0,0,0,0,0,0,0,0,0,0,0],"split_type":[0,0,0,0,0,0,0,0,0,0,0,0,0,0,0,0,0,0,0,0,0,0,0,0,0,0,0,0,0,0,0,0,0,0,0,0,0,0,0,0,0,0,0,0,0,0,0,0,0,0,0,0,0,0,0,0,0,0,0,0,0,0,0,0,0,0,0,0,0,0,0,0,0,0,0,0,0,0,0],"sum_hessian":[8.31E2,1.7E1,8.14E2,7E0,1E1,6.76E2,1.38E2,1E0,6E0,4E0,6E0,6.67E2,9E0,9.8E1,4E1,4E0,2E0,1E0,3E0,2E0,4E0,6.6E2,7E0,2E0,7E0,1.5E1,8.3E1,3.4E1,6E0,3E0,1E0,2E0,1E0,2E0,2E0,6.54E2,6E0,4E0,3E0,1E0,1E0,2E0,5E0,1E1,5E0,4.4E1,3.9E1,2.3E1,1.1E1,3E0,3E0,2E0,1E0,1E0,1E0,2.94E2,3.6E2,1E0,5E0,1E0,3E0,1E0,1E0,4E0,1E0,2E0,8E0,3E0,2E0,2E0,4.2E1,2.9E1,1E1,2E0,2.1E1,1E0,1E1,2E0,1E0],"tree_param":{"num_deleted":"0","num_feature":"4","num_nodes":"79","size_leaf_vector":"1"}},{"base_weights":[1.4465716E-1,1.7066042E0,-1.1332102E-1,9.524345E-1,7.240977E0,-2.0224223E0,4.0569463E-1,-7.3927306E-2,5.0614023E0,-3.056853E0,1.3301643E1,1.5959373E-1,-4.9789915E0,1.2047245E1,4.3149758E-2,6.105168E0,-9.792089E-1,6.9880924E0,-4.874054E0,3.9098513E-1,-4.189537E0,1.6302246E1,-1.6054779E0,-2.5787725E0,5.366175E0,-1.1678319E1,-2.5531232E0,1.8829771E1,6.6358876E0,-3.5394375E0,2.2151014E-1,4.667562E-1,1.0726051E1,-3.1909032E0,1.9323689E0,8.701029E0,-1.343081E0,-3.5411227E-1,-1.7135469E0,-1.9232087E0,-1.715599E-1,6.3576527E0,6.299242E0,-8.239405E0,1.0734409E-1,1.2281624E1,-2.8290792E0,-1.4992819E1,-7.2495574E-1,2.869185E0,-6.082891E0,6.4210434E0,2.6531057E1,-2.3351836E0,1.3016318E1,-7.9255376E0,4.2708764E0,4.9772806E0,-2.772839E-2,-1.1422089E0,1.066697E0,5.4002833E0,7.7651083E-1,-2.996898E-1,-2.0482087E0,2.3438902E0,-5.4000574E-1,2.9688756E0,-1.3840954E0,-2.1401289E0,3.9698136E0,-9.9326646E-1,-3.0778265E0,1.5124102E0,-1.4495372E0,-3.8724794E0,4.398828E0,-1.270797E0,2.5301514E0,-5.0033016E0,7.838116E-1,-2.9839957E-1,5.3082276E-2,-7.061906E-1,1.758818E0,-2.3427467E0,2.1141425E-1,5.0952024E0,-3.7901769E0,1.0716315E1,-1.5583879E-1,2.2249284E0,5.963198E0,-2.6709306E0,-7.568036E-1,3.53752E0,-1.9106436E-1,2.5669165E0,-1.2435777E0,-5.328666E-1,1.6937335E-1],"categories":[],"categories_nodes":[],"categories_segments":[],"categories_sizes":[],"default_left":[0,0,0,0,0,0,0,0,0,0,0,0,0,0,0,0,0,0,0,0,0,0,0,0,0,0,0,0,0,0,0,0,0,0,0,0,0,0,0,0,0,0,0,0,0,0,0,0,0,0,0,0,0,0,0,0,0,0,0,0,0,0,0,0,0,0,0,0,0,0,0,0,0,0,0,0,0,0,0,0,0,0,0,0,0,0,0,0,0,0,0,0,0,0,0,0,0,0,0,0,0],"id":7,"left_children":[1,3,5,7,9,11,13,15,17,19,21,23,25,27,29,31,33,35,37,-1,39,41,-1,43,45,47,49,51,53,55,57,59,61,63,65,67,-1,-1,-1,-1,-1,69,-1,71,73,75,77,79,81,83,85,87,89,-1,91,93,95,97,99,-1,-1,-1,-1,-1,-1,-1,-1,-1,-1,-1,-1,-1,-1,-1,-1,-1,-1,-1,-1,-1,-1,-1,-1,-1,-1,-1,-1,-1,-1,-1,-1,-1,-1,-1,-1,-1,-1,-1,-1,-1,-1],"loss_changes":[3.3544635E2,4.8561847E2,7.0928076E2,4.4318936E2,9.144251E2,9.8784064E2,2.3756697E3,4.8145303E2,4.360537E2,3.5092094E1,5.9098157E2,1.282758E3,1.0265436E3,4.9899292E2,3.5031247E2,2.8159244E2,4.8913E2,3.9245367E2,5.6357117E0,0E0,3.651104E1,2.4004224E2,0E0,8.9798645E2,1.7916355E3,6.063142E2,9.5528796E2,4.985852E2,1.1133706E3,9.245262E2,6.1887573E2,9.275164E1,3.0861145E2,3.3592798E2,7.383697E2,3.0028186E2,0E0,0E0,0E0,0E0,0E0,4.654161E2,0E0,1.5519019E2,1.02352075E3,1.2089395E3,2.7341452E2,4.2918896E2,1.3922467E0,3.2651526E2,3.5701917E2,1.0196821E3,1.0129321E3,0E0,1.5994836E2,6.732825E1,3.7661533E2,8.843827E2,5.1571765E2,0E0,0E0,0E0,0E0,0E0,0E0,0E0,0E0,0E0,0E0,0E0,0E0,0E0,0E0,0E0,0E0,0E0,0E0,0E0,0E0,0E0,0E0,0E0,0E0,0E0,0E0,0E0,0E0,0E0,0E0,0E0,0E0,0E0,0E0,0E0,0E0,0E0,0E0,0E0,0E0,0E0,0E0],"parents":[2147483647,0,0,1,1,2,2,3,3,4,4,5,5,6,6,7,7,8,8,9,9,10,10,11,11,12,12,13,13,14,14,15,15,16,16,17,17,18,18,20,20,21,21,23,23,24,24,25,25,26,26,27,27,28,28,29,29,30,30,31,31,32,32,33,33,34,34,35,35,41,41,43,43,44,44,45,45,46,46,47,47,48,48,49,49,50,50,51,51,52,52,54,54,55,55,56,56,57,57,58,58],"right_children":[2,4,6,8,10,12,14,16,18,20,22,24,26,28,30,32,34,36,38,-1,40,42,-1,44,46,48,50,52,54,56,58,60,62,64,66,68,-1,-1,-1,-1,-1,70,-1,72,74,76,78,80,82,84,86,88,90,-1,92,94,96,98,100,-1,-1,-1,-1,-1,-1,-1,-1,-1,-1,-1,-1,-1,-1,-1,-1,-1,-1,-1,-1,-1,-1,-1,-1,-1,-1,-1,-1,-1,-1,-1,-1,-1,-1,-1,-1,-1,-1,-1,-1,-1,-1],"split_conditions":[6.025518E1,5.6052673E1,1.1356353E2,1.5484185E1,2.1935753E1,9.3691315E1,1.1598627E2,2.0527418E1,4.942567E1,9.983106E0,2.4667002E1,8.404002E1,1.0139995E2,2.3885756E1,2.1469086E1,4.428572E1,2.3885756E1,1.964228E1,2.270867E1,3.9098513E-1,1.2218805E1,1.1620809E1,-1.6054779E0,1.030883E1,2.4667002E1,2.5371168E1,1.06135185E2,2.328575E1,2.5225334E1,1.3094632E2,2.2542002E1,1.0799999E1,5.0169846E1,2.3048254E1,2.488575E1,2.6323256E1,-1.343081E0,-3.5411227E-1,-1.7135469E0,-1.9232087E0,-1.715599E-1,2.3837835E1,6.299242E0,9E0,1.2324414E1,7.9077177E0,3.2E0,1.8947083E1,3E-1,2.3689919E1,2.6592001E1,2.3100336E1,1E-1,-2.3351836E0,1.1488191E2,1.2096214E1,9.6932955E0,1.6299694E1,2.4912836E1,-1.1422089E0,1.066697E0,5.4002833E0,7.7651083E-1,-2.996898E-1,-2.0482087E0,2.3438902E0,-5.4000574E-1,2.9688756E0,-1.3840954E0,-2.1401289E0,3.9698136E0,-9.9326646E-1,-3.0778265E0,1.5124102E0,-1.4495372E0,-3.8724794E0,4.398828E0,-1.270797E0,2.5301514E0,-5.0033016E0,7.838116E-1,-2.9839957E-1,5.3082276E-2,-7.061906E-1,1.758818E0,-2.3427467E0,2.1141425E-1,5.0952024E0,-3.7901769E0,1.0716315E1,-1.5583879E-1,2.2249284E0,5.963198E0,-2.6709306E0,-7.568036E-1,3.53752E0,-1.9106436E-1,2.5669165E0,-1.2435777E0,-5.328666E-1,1.6937335E-1],"split_indices":[3,3,3,2,0,3,3,0,3,2,0,3,3,0,0,3,0,2,0,0,2,2,0,2,0,0,3,0,0,3,0,2,3,0,0,0,0,0,0,0,0,0,0,2,2,2,1,2,1,0,0,0,1,0,3,2,2,2,0,0,0,0,0,0,0,0,0,0,0,0,0,0,0,0,0,0,0,0,0,0,0,0,0,0,0,0,0,0,0,0,0,0,0,0,0,0,0,0,0,0,0],"split_type":[0,0,0,0,0,0,0,0,0,0,0,0,0,0,0,0,0,0,0,0,0,0,0,0,0,0,0,0,0,0,0,0,0,0,0,0,0,0,0,0,0,0,0,0,0,0,0,0,0,0,0,0,0,0,0,0,0,0,0,0,0,0,0,0,0,0,0,0,0,0,0,0,0,0,0,0,0,0,0,0,0,0,0,0,0,0,0,0,0,0,0,0,0,0,0,0,0,0,0,0,0],"sum_hessian":[8.31E2,1.17E2,7.14E2,1.04E2,1.3E1,1.52E2,5.62E2,8.4E1,2E1,5E0,8E0,8.8E1,6.4E1,1.6E1,5.46E2,1E1,7.4E1,1.7E1,3E0,1E0,4E0,7E0,1E0,5.8E1,3E1,1.6E1,4.8E1,6E0,1E1,2.5E1,5.21E2,5E0,5E0,4.2E1,3.2E1,1.5E1,2E0,1E0,2E0,2E0,2E0,3E0,4E0,1.8E1,4E1,1.6E1,1.4E1,1.2E1,4E0,1.9E1,2.9E1,3E0,3E0,3E0,7E0,1.6E1,9E0,2.5E1,4.96E2,2E0,3E0,2E0,3E0,2.7E1,1.5E1,1.2E1,2E1,1.4E1,1E0,1E0,2E0,6E0,1.2E1,2E1,2E1,1E0,1.5E1,1.3E1,1E0,1.1E1,1E0,3E0,1E0,7E0,1.2E1,2.3E1,6E0,2E0,1E0,2E0,1E0,5E0,2E0,1.3E1,3E0,3E0,6E0,1.8E1,7E0,1.25E2,3.71E2],"tree_param":{"num_deleted":"0","num_feature":"4","num_nodes":"101","size_leaf_vector":"1"}},{"base_weights":[1.2455636E-1,3.635333E0,4.6864904E-2,-1.605936E0,7.1166806E0,-3.4518993E0,1.3471468E-1,9.666344E-1,-2.7559597E0,-1.3861282E0,1.2173447E1,1.7549477E0,-4.473987E0,1.8673007E0,-6.417591E-2,-1.0745591E0,-1.241066E0,1.503003E0,-4.237665E0,5.425136E0,6.1925535E0,-2.123825E0,2.0086899E0,-7.4353766E0,-2.1300125E-1,2.7192752E0,-3.3291576E0,-6.581084E0,3.759737E-2,9.5964813E-1,-1.1764812E0,-3.586197E-1,-2.0046697E0,-1.3245875E0,3.4936533E0,8.7652594E-2,-1.043374E0,-4.775034E0,-3.6153498E0,-1.5131367E0,1.1976526E0,-2.4288157E-1,5.773005E0,2.435677E0,-5.107976E0,-3.0209992E0,-2.455154E0,-1.2023791E-1,2.3013732E0,-7.4235536E-2,5.0607723E-1,-4.7306788E-1,-1.22996524E-1,5.085686E-1,-1.7824599E0,9.1598094E-1,-1.4904076E0,-1.6119179E0,5.56856E-1,4.468421E0,6.1278236E-1,-2.2870884E0,3.6009637E-1,-1.9865588E0,1.7073681E0,-2.4300538E-1,1.8724445E-1,3.8513458E0,-2.9460704E-1],"categories":[],"categories_nodes":[],"categories_segments":[],"categories_sizes":[],"default_left":[0,0,0,0,0,0,0,0,0,0,0,0,0,0,0,0,0,0,0,0,0,0,0,0,0,0,0,0,0,0,0,0,0,0,0,0,0,0,0,0,0,0,0,0,0,0,0,0,0,0,0,0,0,0,0,0,0,0,0,0,0,0,0,0,0,0,0,0,0],"id":8,"left_children":[1,3,5,7,9,11,13,-1,15,17,19,21,23,25,27,-1,29,-1,31,-1,33,35,-1,37,39,41,43,45,47,49,-1,-1,-1,51,-1,-1,-1,53,-1,-1,55,57,59,-1,61,63,-1,65,67,-1,-1,-1,-1,-1,-1,-1,-1,-1,-1,-1,-1,-1,-1,-1,-1,-1,-1,-1,-1],"loss_changes":[2.2676376E2,3.398692E2,2.5096803E2,5.3299E1,4.8983783E2,1.1428868E2,2.744175E2,0E0,4.312763E0,1.1242486E2,1.3545898E2,9.0875534E1,2.1292975E2,3.720874E2,4.744691E2,0E0,2.7359749E1,0E0,2.1760155E1,0E0,2.2037872E2,1.0830591E1,0E0,6.52511E1,6.0557255E1,6.4364166E2,2.8583997E2,3.8042297E1,2.521758E2,3.051116E0,0E0,0E0,0E0,4.5767307E-2,0E0,0E0,0E0,7.045268E1,0E0,0E0,9.525668E1,4.0841132E2,1.1605448E3,0E0,1.8371506E2,1.9454419E2,0E0,3.393909E2,1.6039922E3,0E0,0E0,0E0,0E0,0E0,0E0,0E0,0E0,0E0,0E0,0E0,0E0,0E0,0E0,0E0,0E0,0E0,0E0,0E0,0E0],"parents":[2147483647,0,0,1,1,2,2,3,3,4,4,5,5,6,6,8,8,9,9,10,10,11,11,12,12,13,13,14,14,16,16,18,18,20,20,21,21,23,23,24,24,25,25,26,26,27,27,28,28,29,29,33,33,37,37,40,40,41,41,42,42,44,44,45,45,47,47,48,48],"right_children":[2,4,6,8,10,12,14,-1,16,18,20,22,24,26,28,-1,30,-1,32,-1,34,36,-1,38,40,42,44,46,48,50,-1,-1,-1,52,-1,-1,-1,54,-1,-1,56,58,60,-1,62,64,-1,66,68,-1,-1,-1,-1,-1,-1,-1,-1,-1,-1,-1,-1,-1,-1,-1,-1,-1,-1,-1,-1],"split_conditions":[1.1379906E1,7.178725E0,3.1901085E1,2.1762835E1,2.3848253E1,2.1887835E1,6.025518E1,9.666344E-1,1.1808878E1,2.043992E1,2.5012835E1,2.0850334E1,2.3885756E1,2.488575E1,6.40176E1,-1.0745591E0,2.777117E1,1.503003E0,2.3367002E1,5.425136E0,2.6094086E1,2.043992E1,2.0086899E0,2.9180716E1,9.605998E0,2.2306585E1,1.0703569E1,2.22545E1,1.51E1,2.4912836E1,-1.1764812E0,-3.586197E-1,-2.0046697E0,2.5537836E1,3.4936533E0,8.7652594E-2,-1.043374E0,1.1681987E1,-3.6153498E0,-1.5131367E0,1.2413477E1,1.1019764E1,2.3048254E1,2.435677E0,2.5835747E1,2.2016998E1,-2.455154E0,2.578575E1,1.4524402E2,-7.4235536E-2,5.0607723E-1,-4.7306788E-1,-1.22996524E-1,5.085686E-1,-1.7824599E0,9.1598094E-1,-1.4904076E0,-1.6119179E0,5.56856E-1,4.468421E0,6.1278236E-1,-2.2870884E0,3.6009637E-1,-1.9865588E0,1.7073681E0,-2.4300538E-1,1.8724445E-1,3.8513458E0,-2.9460704E-1],"split_indices":[3,3,3,0,0,0,3,0,2,0,0,0,0,0,3,0,0,0,0,0,0,0,0,3,2,0,2,0,1,0,0,0,0,0,0,0,0,2,0,0,2,2,0,0,0,0,0,0,3,0,0,0,0,0,0,0,0,0,0,0,0,0,0,0,0,0,0,0,0],"split_type":[0,0,0,0,0,0,0,0,0,0,0,0,0,0,0,0,0,0,0,0,0,0,0,0,0,0,0,0,0,0,0,0,0,0,0,0,0,0,0,0,0,0,0,0,0,0,0,0,0,0,0,0,0,0,0,0,0,0,0,0,0,0,0,0,0,0,0,0,0],"sum_hessian":[8.31E2,1.7E1,8.14E2,7E0,1E1,1.9E1,7.95E2,1E0,6E0,4E0,6E0,3E0,1.6E1,8.1E1,7.14E2,3E0,3E0,1E0,3E0,2E0,4E0,2E0,1E0,9E0,7E0,7E1,1.1E1,1E1,7.04E2,2E0,1E0,2E0,1E0,2E0,2E0,1E0,1E0,7E0,2E0,1E0,6E0,3.6E1,3.4E1,1E0,1E1,4E0,6E0,6.59E2,4.5E1,1E0,1E0,1E0,1E0,1E0,6E0,5E0,1E0,1E1,2.6E1,9E0,2.5E1,7E0,3E0,3E0,1E0,3.42E2,3.17E2,1E1,3.5E1],"tree_param":{"num_deleted":"0","num_feature":"4","num_nodes":"69","size_leaf_vector":"1"}},{"base_weights":[9.438406E-2,7.995021E-1,-2.2752187E-1,2.930034E-1,3.2908022E0,-1.1907948E1,-1.4501005E-1,7.839946E-1,-2.6940725E0,8.3228855E0,4.0100467E-1,-4.1332726E0,-9.4485974E-1,-1.3794901E0,2.1281451E-1,1.1577775E0,-4.7946362E0,-3.3846927E0,2.7036805E0,3.1751251E0,1.1094029E1,-9.710627E0,1.941217E0,1.3678496E0,-2.8348567E0,1.2279734E1,-6.6358715E-2,7.921813E-1,7.184017E0,-6.2642765E0,-2.8928757E-1,-2.3366801E-1,-5.196672E0,4.2088556E0,-3.9725356E0,1.5178322E1,-1.0486282E0,-2.4845238E-1,-3.7186158E0,5.332462E0,-1.8602172E0,-1.8077004E0,4.2217765E0,-5.549814E0,-4.7141746E-1,4.858488E0,8.392943E0,-5.21296E0,1.8242964E-1,5.5611587E-1,-3.4484482E-1,3.2789075E0,-1.5597359E0,-1.0783464E0,-3.1217072E0,5.1063156E-1,-9.3951994E-1,-3.0322954E-1,7.303635E-1,-2.462681E0,-8.266317E-1,-1.1458054E-1,-1.4324107E0,4.5417026E-2,5.19102E0,3.482689E-1,4.6413455E0,-2.3158593E0,8.300386E-1,2.7037568E0,-1.0021046E0,3.4502915E-1,2.5221355E0,-1.9023973E0,3.6791337E0,6.826912E-1,-1.3484693E0,4.124763E0,-1.1898613E-1,-2.6081362E-1,-2.6063294E0,8.207466E-1,-9.29088E-2],"categories":[],"categories_nodes":[],"categories_segments":[],"categories_sizes":[],"default_left":[0,0,0,0,0,0,0,0,0,0,0,0,0,0,0,0,0,0,0,0,0,0,0,0,0,0,0,0,0,0,0,0,0,0,0,0,0,0,0,0,0,0,0,0,0,0,0,0,0,0,0,0,0,0,0,0,0,0,0,0,0,0,0,0,0,0,0,0,0,0,0,0,0,0,0,0,0,0,0,0,0,0,0],"id":9,"left_children":[1,3,5,7,9,11,13,15,17,19,21,-1,-1,23,25,27,29,31,-1,33,35,37,39,41,43,45,47,49,51,53,55,57,59,-1,61,63,-1,-1,-1,65,67,69,71,73,75,77,-1,79,81,-1,-1,-1,-1,-1,-1,-1,-1,-1,-1,-1,-1,-1,-1,-1,-1,-1,-1,-1,-1,-1,-1,-1,-1,-1,-1,-1,-1,-1,-1,-1,-1,-1,-1],"loss_changes":[1.8903065E2,3.283761E2,5.4955145E2,3.2183704E2,6.3649744E2,2.2106995E1,2.5163637E2,3.9756815E2,2.811275E2,1.9301794E2,4.7049817E2,0E0,0E0,5.1567114E2,1.489807E3,3.8427014E2,7.76427E1,1.7007346E2,0E0,5.988174E2,6.489309E2,8.512341E1,3.4510098E2,4.1545718E2,5.363813E2,1.0289705E3,5.553704E2,3.484041E2,5.206568E2,6.2107178E1,2.797224E1,2.7342278E1,1.17099915E2,0E0,1.2577667E1,2.5284753E2,0E0,0E0,0E0,5.7415845E2,3.7380286E2,3.949441E2,2.9887564E2,6.276542E2,5.1865393E2,3.7922687E2,0E0,2.9430896E2,5.210755E2,0E0,0E0,0E0,0E0,0E0,0E0,0E0,0E0,0E0,0E0,0E0,0E0,0E0,0E0,0E0,0E0,0E0,0E0,0E0,0E0,0E0,0E0,0E0,0E0,0E0,0E0,0E0,0E0,0E0,0E0,0E0,0E0,0E0,0E0],"parents":[2147483647,0,0,1,1,2,2,3,3,4,4,5,5,6,6,7,7,8,8,9,9,10,10,13,13,14,14,15,15,16,16,17,17,19,19,20,20,21,21,22,22,23,23,24,24,25,25,26,26,27,27,28,28,29,29,30,30,31,31,32,32,34,34,35,35,39,39,40,40,41,41,42,42,43,43,44,44,45,45,47,47,48,48],"right_children":[2,4,6,8,10,12,14,16,18,20,22,-1,-1,24,26,28,30,32,-1,34,36,38,40,42,44,46,48,50,52,54,56,58,60,-1,62,64,-1,-1,-1,66,68,70,72,74,76,78,-1,80,82,-1,-1,-1,-1,-1,-1,-1,-1,-1,-1,-1,-1,-1,-1,-1,-1,-1,-1,-1,-1,-1,-1,-1,-1,-1,-1,-1,-1,-1,-1,-1,-1,-1,-1],"split_conditions":[1.2413477E1,1.19466305E1,1.24811535E1,6E-1,2.3206583E1,2.423992E1,1.1356353E2,1.17662735E1,2.7842003E1,2.1469086E1,2.3800333E1,-4.1332726E0,-9.4485974E-1,4.942567E1,1.1598627E2,3.0456027E2,1.1692922E2,1.0182337E1,2.7036805E0,2.0527418E1,1.2324414E1,2.3348251E1,1.22940094E2,1.4658676E1,2.461075E1,1.1559705E2,1.3004922E1,1.1692922E2,3.498287E2,1.191812E1,2.3594086E1,2.5254503E1,2.4564919E1,4.2088556E0,1.1983188E1,4.7139084E1,-1.0486282E0,-2.4845238E-1,-3.7186158E0,1.0907716E2,1.5323326E2,1.2860871E1,4.1003212E1,2.03E1,1.4658676E1,2.3100336E1,8.392943E0,1.2682018E1,1.3270935E2,5.5611587E-1,-3.4484482E-1,3.2789075E0,-1.5597359E0,-1.0783464E0,-3.1217072E0,5.1063156E-1,-9.3951994E-1,-3.0322954E-1,7.303635E-1,-2.462681E0,-8.266317E-1,-1.1458054E-1,-1.4324107E0,4.5417026E-2,5.19102E0,3.482689E-1,4.6413455E0,-2.3158593E0,8.300386E-1,2.7037568E0,-1.0021046E0,3.4502915E-1,2.5221355E0,-1.9023973E0,3.6791337E0,6.826912E-1,-1.3484693E0,4.124763E0,-1.1898613E-1,-2.6081362E-1,-2.6063294E0,8.207466E-1,-9.29088E-2],"split_indices":[2,2,2,1,0,0,3,2,0,0,0,0,0,3,3,3,3,2,0,0,2,0,3,2,0,3,2,3,3,2,0,0,0,0,2,3,0,0,0,3,3,2,3,1,2,0,0,2,3,0,0,0,0,0,0,0,0,0,0,0,0,0,0,0,0,0,0,0,0,0,0,0,0,0,0,0,0,0,0,0,0,0,0],"split_type":[0,0,0,0,0,0,0,0,0,0,0,0,0,0,0,0,0,0,0,0,0,0,0,0,0,0,0,0,0,0,0,0,0,0,0,0,0,0,0,0,0,0,0,0,0,0,0,0,0,0,0,0,0,0,0,0,0,0,0,0,0,0,0,0,0,0,0,0,0,0,0,0,0,0,0,0,0,0,0,0,0,0,0],"sum_hessian":[8.31E2,2.6E2,5.71E2,2.17E2,4.3E1,3E0,5.68E2,1.87E2,3E1,1.5E1,2.8E1,2E0,1E0,1.27E2,4.41E2,1.76E2,1.1E1,2.9E1,1E0,6E0,9E0,3E0,2.5E1,4.4E1,8.3E1,9E0,4.32E2,1.67E2,9E0,8E0,3E0,1.1E1,1.8E1,2E0,4E0,7E0,2E0,1E0,2E0,1.3E1,1.2E1,2.1E1,2.3E1,3.8E1,4.5E1,7E0,2E0,1.9E1,4.13E2,1.08E2,5.9E1,7E0,2E0,6E0,2E0,2E0,1E0,9E0,2E0,7E0,1.1E1,1E0,3E0,1E0,6E0,1E1,3E0,5E0,7E0,2E0,1.9E1,1.4E1,9E0,3.7E1,1E0,2.7E1,1.8E1,2E0,5E0,9E0,1E1,6.6E1,3.47E2],"tree_param":{"num_deleted":"0","num_feature":"4","num_nodes":"83","size_leaf_vector":"1"}},{"base_weights":[8.336611E-2,3.056021E0,1.7610094E-2,3.8681695E0,1.7188578E0,5.54893E-2,-5.099018E0,-3.9276886E-1,5.6556344E0,-1.3843428E-1,1.5892199E0,-2.8293538E0,2.3768692E0,1.2882378E0,-1.7595603E0,-1.0517635E0,2.456734E0,1.422974E-1,-1.7305647E0,-5.182083E0,2.395608E0,1.5834275E-1,9.1124845E-1,-3.193148E0,1.1891079E0,6.804781E-2,1.1429787E1,-3.675869E0,3.0044038E0,7.153651E-1,-6.745866E0,1.8235892E0,9.337247E0,-2.3172761E-1,-1.2020856E0,8.865585E-2,5.80481E-1,-4.324502E-3,1.6729E0,6.987227E0,-8.6236574E-2,-4.9887177E-1,-2.4155626E0,2.6792955E0,-1.5758416E-1,-6.6613543E-1,9.8804975E-1,-3.3522007E0,-5.562552E-1,3.9359674E-1,3.2496884E0,4.8557615E0,-8.7200016E-1],"categories":[],"categories_nodes":[],"categories_segments":[],"categories_sizes":[],"default_left":[0,0,0,0,0,0,0,0,0,0,0,0,0,0,0,0,0,0,0,0,0,0,0,0,0,0,0,0,0,0,0,0,0,0,0,0,0,0,0,0,0,0,0,0,0,0,0,0,0,0,0,0,0],"id":10,"left_children":[1,3,5,-1,7,9,11,13,15,17,19,-1,21,-1,23,-1,-1,25,27,29,31,-1,-1,33,35,37,39,41,43,45,47,49,51,-1,-1,-1,-1,-1,-1,-1,-1,-1,-1,-1,-1,-1,-1,-1,-1,-1,-1,-1,-1],"loss_changes":[1.6257718E2,2.1462448E2,1.582412E2,0E0,1.4354242E2,2.4113551E2,2.1673715E2,8.442787E1,1.6797298E2,3.220585E2,5.0930127E2,0E0,2.06139E0,0E0,4.6068737E1,0E0,0E0,5.1297235E2,1.00582697E3,9.704904E1,3.0857404E2,0E0,0E0,1.0694885E1,2.0940437E0,2.7715988E2,5.626065E2,6.6488354E2,6.74098E2,3.0019838E1,1.5256958E2,3.4066992E2,5.501708E2,0E0,0E0,0E0,0E0,0E0,0E0,0E0,0E0,0E0,0E0,0E0,0E0,0E0,0E0,0E0,0E0,0E0,0E0,0E0,0E0],"parents":[2147483647,0,0,1,1,2,2,4,4,5,5,6,6,7,7,8,8,9,9,10,10,12,12,14,14,17,17,18,18,19,19,20,20,23,23,24,24,25,25,26,26,27,27,28,28,29,29,30,30,31,31,32,32],"right_children":[2,4,6,-1,8,10,12,14,16,18,20,-1,22,-1,24,-1,-1,26,28,30,32,-1,-1,34,36,38,40,42,44,46,48,50,52,-1,-1,-1,-1,-1,-1,-1,-1,-1,-1,-1,-1,-1,-1,-1,-1,-1,-1,-1,-1],"split_conditions":[1.1379906E1,9.107359E0,2.9035288E1,3.8681695E0,1.4565548E1,2.1142147E1,2.6682245E2,2.1762835E1,5.2191844E0,1.7727943E1,2.3327417E1,-2.8293538E0,2.4394081E1,1.2882378E0,1.2096214E1,-1.0517635E0,2.456734E0,1.7630812E1,2.8296167E1,2.2027418E1,2.9617004E1,1.5834275E-1,9.1124845E-1,2.3367002E1,2.6094086E1,2.3099998E1,2.4946167E1,2.6017004E1,2.652593E2,2.0369083E1,2.62E1,2.8879025E2,2.1791153E1,-2.3172761E-1,-1.2020856E0,8.865585E-2,5.80481E-1,-4.324502E-3,1.6729E0,6.987227E0,-8.6236574E-2,-4.9887177E-1,-2.4155626E0,2.6792955E0,-1.5758416E-1,-6.6613543E-1,9.8804975E-1,-3.3522007E0,-5.562552E-1,3.9359674E-1,3.2496884E0,4.8557615E0,-8.7200016E-1],"split_indices":[3,2,2,0,2,2,3,0,3,2,0,0,0,0,2,0,0,2,0,0,0,0,0,0,0,1,0,0,3,0,1,3,2,0,0,0,0,0,0,0,0,0,0,0,0,0,0,0,0,0,0,0,0],"split_type":[0,0,0,0,0,0,0,0,0,0,0,0,0,0,0,0,0,0,0,0,0,0,0,0,0,0,0,0,0,0,0,0,0,0,0,0,0,0,0,0,0,0,0,0,0,0,0,0,0,0,0,0,0],"sum_hessian":[8.31E2,1.7E1,8.14E2,1E0,1.6E1,8.09E2,5E0,1.1E1,5E0,7.19E2,9E1,3E0,2E0,2E0,9E0,1E0,4E0,6.12E2,1.07E2,9E0,8.1E1,1E0,1E0,6E0,3E0,6.09E2,3E0,7.6E1,3.1E1,2E0,7E0,7.6E1,5E0,2E0,4E0,2E0,1E0,6.01E2,8E0,1E0,2E0,5.3E1,2.3E1,1.1E1,2E1,1E0,1E0,3E0,4E0,7.3E1,3E0,3E0,2E0],"tree_param":{"num_deleted":"0","num_feature":"4","num_nodes":"53","size_leaf_vector":"1"}},{"base_weights":[7.789329E-2,2.3419738E0,1.9527558E-3,1.0611202E1,-1.0828164E0,-1.5455511E0,1.3073568E-1,-1.1371765E0,1.6043564E1,-2.8867254E0,9.901967E-1,-3.077568E0,6.728694E0,3.9589033E0,-2.1837687E-3,-1.1315575E-1,5.8209453E0,9.769106E0,-1.5887915E0,-6.018287E0,-6.2240726E-1,1.0913867E1,3.607483E-1,-3.2037532E-1,9.434383E0,5.2907676E-1,-4.087421E-1,3.9797668E0,-1.0818673E-1,-1.21011585E-1,-3.1004896E0,5.44986E-1,-6.4379187E0,8.245033E0,-1.5502614E0,1.444117E1,-1.0083973E0,1.2533665E0,-4.814587E-1,7.1883035E0,-4.7935452E0,1.4740875E1,1.1841736E-1,2.2989202E-1,9.571385E0,-3.9642217E0,4.169967E-2,-1.6129155E0,5.979717E-1,-2.1208408E0,-5.0120604E-1,3.2879438E0,4.2232135E-1,1.3081174E0,-9.0743047E-1,8.959294E-1,4.967474E0,7.3179245E-2,4.5256045E-1,3.8805482E0,-3.2318976E0,-3.3697898E0,1.1676205E0,3.490776E-1,5.981721E0,8.2970506E-1,-7.704964E-1,1.0014506E-3,2.5835903E0,4.2643175E0,-2.840166E-1,-8.759969E-1,-3.1317317E0,-1.5784823E0,1.19469866E-1],"categories":[],"categories_nodes":[],"categories_segments":[],"categories_sizes":[],"default_left":[0,0,0,0,0,0,0,0,0,0,0,0,0,0,0,0,0,0,0,0,0,0,0,0,0,0,0,0,0,0,0,0,0,0,0,0,0,0,0,0,0,0,0,0,0,0,0,0,0,0,0,0,0,0,0,0,0,0,0,0,0,0,0,0,0,0,0,0,0,0,0,0,0,0,0],"id":11,"left_children":[1,3,5,7,9,11,13,-1,15,-1,17,19,21,23,25,-1,-1,27,29,31,33,35,37,39,41,43,45,-1,-1,47,-1,-1,49,51,53,55,-1,57,-1,59,61,63,65,67,69,71,73,-1,-1,-1,-1,-1,-1,-1,-1,-1,-1,-1,-1,-1,-1,-1,-1,-1,-1,-1,-1,-1,-1,-1,-1,-1,-1,-1,-1],"loss_changes":[1.4304573E2,7.7614E2,1.6083147E2,6.8670044E2,3.6358215E2,8.0663763E2,3.7909293E2,0E0,3.383203E2,0E0,4.0041302E2,3.7891086E2,2.625723E2,5.888002E2,1.559439E2,0E0,0E0,1.4646982E2,1.7847374E2,9.060187E1,2.5961267E2,3.5065912E2,1.0784179E1,5.382714E2,5.4204047E2,8.44565E2,6.551938E2,0E0,0E0,1.551617E2,0E0,0E0,5.743634E1,4.0256714E1,2.5721744E2,7.1802734E1,0E0,6.6232634E-1,0E0,7.586763E2,6.029924E2,4.708407E2,4.2665726E1,5.772646E2,5.0181348E2,2.805368E2,6.9034845E2,0E0,0E0,0E0,0E0,0E0,0E0,0E0,0E0,0E0,0E0,0E0,0E0,0E0,0E0,0E0,0E0,0E0,0E0,0E0,0E0,0E0,0E0,0E0,0E0,0E0,0E0,0E0,0E0],"parents":[2147483647,0,0,1,1,2,2,3,3,4,4,5,5,6,6,8,8,10,10,11,11,12,12,13,13,14,14,17,17,18,18,19,19,20,20,21,21,22,22,23,23,24,24,25,25,26,26,29,29,32,32,33,33,34,34,35,35,37,37,39,39,40,40,41,41,42,42,43,43,44,44,45,45,46,46],"right_children":[2,4,6,8,10,12,14,-1,16,-1,18,20,22,24,26,-1,-1,28,30,32,34,36,38,40,42,44,46,-1,-1,48,-1,-1,50,52,54,56,-1,58,-1,60,62,64,66,68,70,72,74,-1,-1,-1,-1,-1,-1,-1,-1,-1,-1,-1,-1,-1,-1,-1,-1,-1,-1,-1,-1,-1,-1,-1,-1,-1,-1,-1,-1],"split_conditions":[9E0,2.1571167E1,1.0308831E1,6.638636E1,2.3206583E1,1.6441052E2,1.0650465E1,-1.1371765E0,8.766573E0,-2.8867254E0,7.9077177E0,2.3148249E1,1E-1,1.0495713E1,1.3270935E2,-1.1315575E-1,5.8209453E0,3E-1,8.854829E0,5.2191844E0,9.107359E0,3.440545E2,9.83268E0,7.375658E1,2.4150335E1,1.3124313E2,1.4474353E2,3.9797668E0,-1.0818673E-1,8.189888E1,-3.1004896E0,5.44986E-1,1.25134254E2,2.4702417E1,2.3477417E1,2.1194084E1,-1.0083973E0,2.4269089E1,-4.814587E-1,1.0446206E1,2.448575E1,2.1271168E1,1.0399721E2,1.4000002E1,2.690867E1,1.4179466E2,1.1599879E1,-1.6129155E0,5.979717E-1,-2.1208408E0,-5.0120604E-1,3.2879438E0,4.2232135E-1,1.3081174E0,-9.0743047E-1,8.959294E-1,4.967474E0,7.3179245E-2,4.5256045E-1,3.8805482E0,-3.2318976E0,-3.3697898E0,1.1676205E0,3.490776E-1,5.981721E0,8.2970506E-1,-7.704964E-1,1.0014506E-3,2.5835903E0,4.2643175E0,-2.840166E-1,-8.759969E-1,-3.1317317E0,-1.5784823E0,1.19469866E-1],"split_indices":[2,0,2,3,0,3,2,0,2,0,2,0,1,2,3,0,0,1,2,3,2,3,2,3,0,3,3,0,0,3,0,0,3,0,0,0,0,0,0,2,0,0,3,1,0,3,2,0,0,0,0,0,0,0,0,0,0,0,0,0,0,0,0,0,0,0,0,0,0,0,0,0,0,0,0],"split_type":[0,0,0,0,0,0,0,0,0,0,0,0,0,0,0,0,0,0,0,0,0,0,0,0,0,0,0,0,0,0,0,0,0,0,0,0,0,0,0,0,0,0,0,0,0,0,0,0,0,0,0,0,0,0,0,0,0,0,0,0,0,0,0,0,0,0,0,0,0,0,0,0,0,0,0],"sum_hessian":[8.31E2,2.6E1,8.05E2,7E0,1.9E1,6.1E1,7.44E2,2E0,5E0,3E0,1.6E1,5.2E1,9E0,2.4E1,7.2E2,1E0,4E0,3E0,1.3E1,2.3E1,2.9E1,5E0,4E0,1.4E1,1E1,3.12E2,4.08E2,2E0,1E0,1.2E1,1E0,1E0,2.2E1,2E0,2.7E1,4E0,1E0,3E0,1E0,5E0,9E0,6E0,4E0,3.03E2,9E0,4.5E1,3.63E2,3E0,9E0,1.9E1,3E0,1E0,1E0,5E0,2.2E1,1E0,3E0,1E0,2E0,4E0,1E0,5E0,4E0,2E0,4E0,2E0,2E0,2.96E2,7E0,6E0,3E0,4E1,5E0,2.2E1,3.41E2],"tree_param":{"num_deleted":"0","num_feature":"4","num_nodes":"75","size_leaf_vector":"1"}},{"base_weights":[7.1723565E-2,6.034844E-1,-3.1566185E-1,2.6337558E-1,3.8729155E0,-2.7330925E0,7.444274E-2,5.087107E-1,-6.6522536E0,-4.2440534E0,5.8338737E0,-4.9766245E0,3.6507792E0,4.309393E0,-2.073556E-1,2.6920894E-1,1.08030405E1,-8.535941E0,-1.2218151E0,-4.4841155E-1,-2.7466316E0,6.2790394E0,3.7889678E0,-7.486091E0,-1.7052467E0,4.9089484E0,1.0390339E0,1.30138855E1,1.0473511E0,-4.243708E0,1.0209996E-2,6.9037455E-1,-2.293429E0,-2.0623972E-1,3.8498108E0,-5.7478297E-1,-2.7623847E0,6.659953E-1,-1.032787E0,2.7012864E-1,-1.0107288E0,6.671672E0,-3.1707373E0,-8.37787E0,2.4887915E0,2.0549662E0,-5.994112E0,3.2057648E0,-4.368927E0,2.6713576E0,7.774041E0,-1.7802086E0,6.552849E0,1.0885093E0,-8.705387E0,8.887682E0,-1.843927E-1,5.4107815E-2,6.004103E-1,-2.8807807E0,-4.515528E-1,3.6595002E-1,-6.625214E-2,-4.9831927E-1,1.4104158E-1,2.5997243E0,-7.382263E-2,-2.3127303E0,3.282303E-1,-2.0456169E0,-7.3373556E0,1.6597877E0,-1.3847439E0,-2.0600434E-1,-3.0907576E0,1.0949903E-1,1.7957101E0,-1.5458589E0,-1.8497773E-1,-7.376206E-1,2.0732994E0,-1.8459884E0,1.7530656E-1,-9.9217075E-1,3.3474991E0,2.003615E0,-1.7512323E0,-3.1465926E0,-1.3614808E-1,3.9185076E0,-7.268692E-1,-4.008377E-1,2.2547714E-1],"categories":[],"categories_nodes":[],"categories_segments":[],"categories_sizes":[],"default_left":[0,0,0,0,0,0,0,0,0,0,0,0,0,0,0,0,0,0,0,0,0,0,0,0,0,0,0,0,0,0,0,0,0,0,0,0,0,0,0,0,0,0,0,0,0,0,0,0,0,0,0,0,0,0,0,0,0,0,0,0,0,0,0,0,0,0,0,0,0,0,0,0,0,0,0,0,0,0,0,0,0,0,0,0,0,0,0,0,0,0,0,0,0],"id":12,"left_children":[1,3,5,7,9,11,13,15,17,19,21,23,25,27,29,31,33,35,37,39,-1,-1,41,43,45,-1,47,49,51,53,55,57,59,-1,-1,-1,-1,61,-1,-1,63,65,67,69,-1,71,73,75,77,79,-1,81,83,85,87,89,91,-1,-1,-1,-1,-1,-1,-1,-1,-1,-1,-1,-1,-1,-1,-1,-1,-1,-1,-1,-1,-1,-1,-1,-1,-1,-1,-1,-1,-1,-1,-1,-1,-1,-1,-1,-1],"loss_changes":[1.715795E2,3.8927878E2,4.5475394E2,5.446143E2,5.500215E2,9.777706E2,4.9734882E2,7.5893427E2,1.0209238E2,1.2638762E2,7.541978E2,3.977052E2,5.8062524E2,7.246247E2,3.4340836E2,3.2860968E2,1.7207495E2,1.7947632E1,1.9062628E1,4.702471E0,0E0,0E0,5.227234E2,4.6357764E2,3.8323978E2,0E0,2.0148727E2,8.6467615E2,3.2300793E2,4.852887E2,6.442986E2,1.741505E2,2.3328996E2,0E0,0E0,0E0,0E0,1.7428789E0,0E0,0E0,4.633171E0,2.5043365E2,1.6327762E2,5.1014734E2,0E0,3.2712054E2,2.444581E2,9.258105E1,1.1530731E1,1.25741066E2,0E0,1.4836186E2,3.5477625E2,4.2616153E2,1.5710089E2,4.093308E2,3.9447516E2,0E0,0E0,0E0,0E0,0E0,0E0,0E0,0E0,0E0,0E0,0E0,0E0,0E0,0E0,0E0,0E0,0E0,0E0,0E0,0E0,0E0,0E0,0E0,0E0,0E0,0E0,0E0,0E0,0E0,0E0,0E0,0E0,0E0,0E0,0E0,0E0],"parents":[2147483647,0,0,1,1,2,2,3,3,4,4,5,5,6,6,7,7,8,8,9,9,10,10,11,11,12,12,13,13,14,14,15,15,16,16,17,17,18,18,19,19,22,22,23,23,24,24,26,26,27,27,28,28,29,29,30,30,31,31,32,32,37,37,40,40,41,41,42,42,43,43,45,45,46,46,47,47,48,48,49,49,51,51,52,52,53,53,54,54,55,55,56,56],"right_children":[2,4,6,8,10,12,14,16,18,20,22,24,26,28,30,32,34,36,38,40,-1,-1,42,44,46,-1,48,50,52,54,56,58,60,-1,-1,-1,-1,62,-1,-1,64,66,68,70,-1,72,74,76,78,80,-1,82,84,86,88,90,92,-1,-1,-1,-1,-1,-1,-1,-1,-1,-1,-1,-1,-1,-1,-1,-1,-1,-1,-1,-1,-1,-1,-1,-1,-1,-1,-1,-1,-1,-1,-1,-1,-1,-1,-1,-1],"split_conditions":[1.3519186E1,1.3213764E1,1.4291592E1,1.3089354E1,6.9252464E1,1.692738E2,1.4565548E1,1.30447235E1,1E-1,6.025518E1,1.3246826E1,2.5254503E1,1.7574797E2,2.2633669E1,1.481259E1,1.2413477E1,2.028158E1,2.0683668E1,2.649839E2,2.028158E1,-2.7466316E0,6.2790394E0,2.6606583E1,9E0,1.3849476E1,4.9089484E0,1.3E0,1.4372974E1,1.4458382E1,1.4658676E1,1.488242E1,1.1620809E1,1.24811535E1,-2.0623972E-1,3.8498108E0,-5.7478297E-1,-2.7623847E0,2.52045E1,-1.032787E0,2.7012864E-1,4.803459E1,7E-1,1.3356437E1,7.7E0,2.4887915E0,2.8996164E1,2.6069082E1,2.7844058E2,1.4003028E1,2.0850334E1,7.774041E0,1.3570436E2,5.725588E1,2.8350334E1,2E-1,1E-1,3E-1,5.4107815E-2,6.004103E-1,-2.8807807E0,-4.515528E-1,3.6595002E-1,-6.625214E-2,-4.9831927E-1,1.4104158E-1,2.5997243E0,-7.382263E-2,-2.3127303E0,3.282303E-1,-2.0456169E0,-7.3373556E0,1.6597877E0,-1.3847439E0,-2.0600434E-1,-3.0907576E0,1.0949903E-1,1.7957101E0,-1.5458589E0,-1.8497773E-1,-7.376206E-1,2.0732994E0,-1.8459884E0,1.7530656E-1,-9.9217075E-1,3.3474991E0,2.003615E0,-1.7512323E0,-3.1465926E0,-1.3614808E-1,3.9185076E0,-7.268692E-1,-4.008377E-1,2.2547714E-1],"split_indices":[2,2,2,2,3,3,2,2,1,3,2,0,3,0,2,2,0,0,3,0,0,0,0,1,2,0,1,2,2,2,2,2,2,0,0,0,0,0,0,0,3,1,2,1,0,0,0,3,2,0,0,3,3,0,1,1,1,0,0,0,0,0,0,0,0,0,0,0,0,0,0,0,0,0,0,0,0,0,0,0,0,0,0,0,0,0,0,0,0,0,0,0,0],"split_type":[0,0,0,0,0,0,0,0,0,0,0,0,0,0,0,0,0,0,0,0,0,0,0,0,0,0,0,0,0,0,0,0,0,0,0,0,0,0,0,0,0,0,0,0,0,0,0,0,0,0,0,0,0,0,0,0,0,0,0,0,0,0,0,0,0,0,0,0,0,0,0,0,0,0,0,0,0,0,0,0,0,0,0,0,0,0,0,0,0,0,0,0,0],"sum_hessian":[8.31E2,3.5E2,4.81E2,3.18E2,3.2E1,6.6E1,4.15E2,3.08E2,1E1,6E0,2.6E1,4.9E1,1.7E1,2.5E1,3.9E2,3.02E2,6E0,7E0,3E0,4E0,2E0,2E0,2.4E1,2.7E1,2.2E1,2E0,1.5E1,6E0,1.9E1,1.9E1,3.71E2,2.6E2,4.2E1,1E0,5E0,1E0,6E0,2E0,1E0,1E0,3E0,1.7E1,7E0,2.6E1,1E0,1.2E1,1E1,1.1E1,4E0,4E0,2E0,1.3E1,6E0,9E0,1E1,7E0,3.64E2,1.88E2,7.2E1,3E0,3.9E1,1E0,1E0,2E0,1E0,1.3E1,4E0,3E0,4E0,2.5E1,1E0,8E0,4E0,5E0,5E0,6E0,5E0,3E0,1E0,2E0,2E0,4E0,9E0,2E0,4E0,5E0,4E0,8E0,2E0,5E0,2E0,1.63E2,2.01E2],"tree_param":{"num_deleted":"0","num_feature":"4","num_nodes":"93","size_leaf_vector":"1"}},{"base_weights":[5.721362E-2,-2.691186E-1,6.075831E-1,1.9989896E-1,-1.5662599E0,3.5494873E-1,3.473417E0,-1.0718641E-1,6.120974E0,-2.5909004E0,1.3284488E0,2.0618553E0,-2.1831743E-1,1.0847169E1,5.739601E-1,1.2417552E0,-1.0453569E0,9.335087E0,-7.225167E-1,-4.6770687E0,-1.1921097E0,8.235995E0,-1.1859769E0,5.959406E-1,1.1090933E1,-8.3823854E-1,4.5266128E0,3.4241867E-1,3.68237E0,8.208351E0,-1.3705101E0,5.080141E-1,1.1536704E1,-8.953497E0,-5.7961404E-1,-5.119912E-1,1.7848581E1,-1.8809754E0,4.3472597E-1,-3.5205598E0,-9.791461E0,1.0894771E1,-1.7670037E0,3.1797962E0,5.6921587E0,2.1361911E0,-2.001065E0,2.0622964E0,-4.2338843E0,1.5247289E1,-1.1068985E0,-2.7550445E0,8.237839E-2,5.1964366E-1,9.579151E0,1.5142797E0,4.243585E0,8.842781E-1,-4.3958488E0,-2.672584E-1,1.5466614E0,6.9571457E0,9.687901E-1,-1.7962805E0,-6.236752E0,1.388827E-1,-1.0141327E0,2.198289E0,-9.119599E-1,2.2447407E0,8.752772E0,2.9229927E-1,-8.515154E-1,2.2329026E-1,-1.3840072E0,-3.4079864E0,-5.7076264E-2,3.1767198E-1,4.584975E0,-7.5670165E-1,4.5824262E-1,-5.859818E-1,3.7158005E0,-5.4953384E-1,9.8884237E-1,-3.5429826E-1,-1.4151367E0,1.125795E-1,1.3469186E0,1.8915551E0,-1.6311136E0,1.4578635E0,6.152408E0,1.490524E0,-1.1485094E0,-9.5223314E-1,3.0223057E-1,2.7031944E0,-4.4393748E-1,3.7273605E0,1.1039351E0,-2.682438E-1,9.4966966E-1,1.3288268E0,-3.8035324E-1,-1.5315789E0,-2.0904923E-2],"categories":[],"categories_nodes":[],"categories_segments":[],"categories_sizes":[],"default_left":[0,0,0,0,0,0,0,0,0,0,0,0,0,0,0,0,0,0,0,0,0,0,0,0,0,0,0,0,0,0,0,0,0,0,0,0,0,0,0,0,0,0,0,0,0,0,0,0,0,0,0,0,0,0,0,0,0,0,0,0,0,0,0,0,0,0,0,0,0,0,0,0,0,0,0,0,0,0,0,0,0,0,0,0,0,0,0,0,0,0,0,0,0,0,0,0,0,0,0,0,0,0,0,0,0,0,0],"id":13,"left_children":[1,3,5,7,9,11,13,15,17,19,21,23,25,27,29,31,33,35,37,39,41,43,45,47,49,51,53,-1,-1,55,57,59,61,63,65,67,69,71,-1,73,75,77,79,81,-1,83,85,87,89,91,-1,93,95,97,99,101,-1,103,105,-1,-1,-1,-1,-1,-1,-1,-1,-1,-1,-1,-1,-1,-1,-1,-1,-1,-1,-1,-1,-1,-1,-1,-1,-1,-1,-1,-1,-1,-1,-1,-1,-1,-1,-1,-1,-1,-1,-1,-1,-1,-1,-1,-1,-1,-1,-1,-1],"loss_changes":[1.4959346E2,3.184969E2,2.2320964E2,7.0069214E2,4.157208E2,2.803045E2,5.28271E2,4.6575027E2,4.2466388E2,2.9499005E2,6.5240265E2,9.463721E2,6.362131E2,8.2967834E1,2.933017E2,1.1347672E3,7.94056E2,1.0989678E3,2.0335684E1,2.0803705E2,4.5701755E2,4.825949E2,8.009474E1,4.5491272E2,6.7059155E2,3.3727393E2,5.0115625E2,0E0,0E0,1.3754904E2,1.1303113E2,9.2777844E2,8.932377E2,2.967633E2,6.030894E2,1.6099806E2,6.036345E2,1.6434006E1,0E0,1.6655576E2,1.0325464E2,1.13309906E2,1.5564734E2,4.022419E2,0E0,3.3653687E1,4.5658363E1,1.989777E2,2.2448447E2,3.3751794E2,0E0,5.329851E2,3.9481458E2,2.6799207E2,1.3892596E2,1.4761473E1,0E0,8.191165E1,2.1127533E1,0E0,0E0,0E0,0E0,0E0,0E0,0E0,0E0,0E0,0E0,0E0,0E0,0E0,0E0,0E0,0E0,0E0,0E0,0E0,0E0,0E0,0E0,0E0,0E0,0E0,0E0,0E0,0E0,0E0,0E0,0E0,0E0,0E0,0E0,0E0,0E0,0E0,0E0,0E0,0E0,0E0,0E0,0E0,0E0,0E0,0E0,0E0,0E0],"parents":[2147483647,0,0,1,1,2,2,3,3,4,4,5,5,6,6,7,7,8,8,9,9,10,10,11,11,12,12,13,13,14,14,15,15,16,16,17,17,18,18,19,19,20,20,21,21,22,22,23,23,24,24,25,25,26,26,29,29,30,30,31,31,32,32,33,33,34,34,35,35,36,36,37,37,39,39,40,40,41,41,42,42,43,43,45,45,46,46,47,47,48,48,49,49,51,51,52,52,53,53,54,54,55,55,57,57,58,58],"right_children":[2,4,6,8,10,12,14,16,18,20,22,24,26,28,30,32,34,36,38,40,42,44,46,48,50,52,54,-1,-1,56,58,60,62,64,66,68,70,72,-1,74,76,78,80,82,-1,84,86,88,90,92,-1,94,96,98,100,102,-1,104,106,-1,-1,-1,-1,-1,-1,-1,-1,-1,-1,-1,-1,-1,-1,-1,-1,-1,-1,-1,-1,-1,-1,-1,-1,-1,-1,-1,-1,-1,-1,-1,-1,-1,-1,-1,-1,-1,-1,-1,-1,-1,-1,-1,-1,-1,-1,-1,-1],"split_conditions":[2.5979502E1,2.5019087E1,3.0456027E2,2.4912836E1,3.2E0,1.2602743E2,3.1109933E2,9.3691315E1,7.8999996E0,1.2356367E2,1.4524402E2,1.2364628E2,2.130093E1,2.6848251E1,2.6281588E1,8.973719E1,1.0399721E2,1.2856635E2,2.4996172E1,2.5750336E1,1.2856635E2,1.8947083E1,5.799999E0,1.6363178E1,1.8792551E1,2.702117E1,2.6380594E2,3.4241867E-1,3.68237E0,2.6221163E1,3.1171167E1,2.3885756E1,2.1887835E1,4.7999997E0,2.4200335E1,1.1379906E1,6E-1,2.4946167E1,4.3472597E-1,1.0948973E1,3E-1,2.530867E1,2.3441502E1,1.3800002E1,5.6921587E0,3.6000001E0,2.2805367E1,1.3288341E1,2.6637835E1,1.255879E1,-1.1068985E0,2.6069082E1,1.4474353E2,2.1611998E1,2.712636E2,2.6075335E1,4.243585E0,3.3508893E2,3.251909E1,-2.672584E-1,1.5466614E0,6.9571457E0,9.687901E-1,-1.7962805E0,-6.236752E0,1.388827E-1,-1.0141327E0,2.198289E0,-9.119599E-1,2.2447407E0,8.752772E0,2.9229927E-1,-8.515154E-1,2.2329026E-1,-1.3840072E0,-3.4079864E0,-5.7076264E-2,3.1767198E-1,4.584975E0,-7.5670165E-1,4.5824262E-1,-5.859818E-1,3.7158005E0,-5.4953384E-1,9.8884237E-1,-3.5429826E-1,-1.4151367E0,1.125795E-1,1.3469186E0,1.8915551E0,-1.6311136E0,1.4578635E0,6.152408E0,1.490524E0,-1.1485094E0,-9.5223314E-1,3.0223057E-1,2.7031944E0,-4.4393748E-1,3.7273605E0,1.1039351E0,-2.682438E-1,9.4966966E-1,1.3288268E0,-3.8035324E-1,-1.5315789E0,-2.0904923E-2],"split_indices":[0,0,3,0,1,3,3,3,1,3,3,3,2,0,0,3,3,3,0,0,3,2,1,2,2,0,3,0,0,0,0,0,0,1,0,3,1,0,0,2,1,0,2,1,0,1,2,2,0,2,0,0,3,2,3,0,0,3,0,0,0,0,0,0,0,0,0,0,0,0,0,0,0,0,0,0,0,0,0,0,0,0,0,0,0,0,0,0,0,0,0,0,0,0,0,0,0,0,0,0,0,0,0,0,0,0,0],"split_type":[0,0,0,0,0,0,0,0,0,0,0,0,0,0,0,0,0,0,0,0,0,0,0,0,0,0,0,0,0,0,0,0,0,0,0,0,0,0,0,0,0,0,0,0,0,0,0,0,0,0,0,0,0,0,0,0,0,0,0,0,0,0,0,0,0,0,0,0,0,0,0,0,0,0,0,0,0,0,0,0,0,0,0,0,0,0,0,0,0,0,0,0,0,0,0,0,0,0,0,0,0,0,0,0,0,0,0],"sum_hessian":[8.31E2,5.22E2,3.09E2,3.84E2,1.38E2,2.85E2,2.4E1,3.66E2,1.8E1,1.02E2,3.6E1,7.1E1,2.14E2,6E0,1.8E1,1.5E2,2.16E2,1.2E1,6E0,4E1,6.2E1,9E0,2.7E1,6.2E1,9E0,1.9E2,2.4E1,1E0,5E0,3E0,1.5E1,1.41E2,9E0,1.1E1,2.05E2,6E0,6E0,4E0,2E0,3.4E1,6E0,2E0,6E1,7E0,2E0,5E0,2.2E1,4.8E1,1.4E1,7E0,2E0,6.1E1,1.29E2,1.4E1,1E1,2E0,1E0,9E0,6E0,1.09E2,3.2E1,3E0,6E0,1E1,1E0,1.5E2,5.5E1,1E0,5E0,4E0,2E0,1E0,3E0,7E0,2.7E1,5E0,1E0,1E0,1E0,4.9E1,1.1E1,5E0,2E0,1E0,4E0,1.8E1,4E0,2.9E1,1.9E1,1E0,1.3E1,3E0,4E0,7E0,5.4E1,2.8E1,1.01E2,2E0,1.2E1,6E0,4E0,1E0,1E0,3E0,6E0,5E0,1E0],"tree_param":{"num_deleted":"0","num_feature":"4","num_nodes":"107","size_leaf_vector":"1"}},{"base_weights":[9.2065744E-2,1.6605069E-1,-1.7627468E0,4.5095697E-2,6.097586E0,-7.5127735E0,4.669609E-1,3.5320646E-1,-6.489765E-1,8.23491E0,-2.3731117E0,-8.885438E0,-5.4168934E-1,7.6654615E0,-1.3560123E0,5.220924E-1,-4.1061535E0,-5.922737E0,-1.4718391E-1,4.0315523E0,5.32998E0,-4.8786164E-3,-9.4599235E-1,-6.2189716E-1,-2.9026043E0,1.00744E1,-2.9554367E-1,-2.4262784E0,1.6552765E0,4.445529E-1,1.0529856E1,-5.3012395E0,-2.462183E0,-6.834446E0,-2.5043907E0,-2.6490011E0,5.038374E-1,2.1036784E-1,1.0407518E1,9.176136E-1,3.4180176E0,-4.5429897E-1,-3.6398745E0,1.2009514E-2,5.3645056E-1,6.55057E0,-1.5510407E-1,1.6483757E0,-1.1164453E0,-7.174196E-1,-2.4348536E0,-1.1886574E0,-2.354828E-1,1.539661E-1,-1.2586992E0,7.819955E-2,2.217241E0,-5.1489717E-1,4.8083842E-1,5.412987E-1,3.63217E0,-5.246081E-1,2.0162293E-1,-1.5095261E0,-2.8898072E-1],"categories":[],"categories_nodes":[],"categories_segments":[],"categories_sizes":[],"default_left":[0,0,0,0,0,0,0,0,0,0,0,0,0,0,0,0,0,0,0,0,0,0,0,0,0,0,0,0,0,0,0,0,0,0,0,0,0,0,0,0,0,0,0,0,0,0,0,0,0,0,0,0,0,0,0,0,0,0,0,0,0,0,0,0,0],"id":14,"left_children":[1,3,5,7,9,11,13,15,17,19,21,23,-1,25,27,29,31,33,35,-1,37,-1,-1,-1,-1,39,-1,41,-1,43,45,-1,47,49,51,53,55,57,59,-1,-1,61,63,-1,-1,-1,-1,-1,-1,-1,-1,-1,-1,-1,-1,-1,-1,-1,-1,-1,-1,-1,-1,-1,-1],"loss_changes":[1.1446656E2,5.7440155E2,4.1377628E2,1.6831621E2,3.0921625E2,5.4462128E1,3.2533865E2,4.125959E2,6.395411E2,1.248822E2,7.30394E0,1.7611633E1,0E0,1.1411865E2,1.6051883E2,4.0349316E2,4.024888E2,4.8331116E1,3.6291412E2,0E0,2.577608E2,0E0,0E0,0E0,0E0,2.1654053E0,0E0,4.1423775E1,0E0,2.8418988E2,5.1084512E2,0E0,2.1082742E2,7.170776E1,1.1929581E1,2.2713416E2,2.9449875E2,1.8847578E1,5.126947E1,0E0,0E0,1.2839048E1,3.6133698E1,0E0,0E0,0E0,0E0,0E0,0E0,0E0,0E0,0E0,0E0,0E0,0E0,0E0,0E0,0E0,0E0,0E0,0E0,0E0,0E0,0E0,0E0],"parents":[2147483647,0,0,1,1,2,2,3,3,4,4,5,5,6,6,7,7,8,8,9,9,10,10,11,11,13,13,14,14,15,15,16,16,17,17,18,18,20,20,25,25,27,27,29,29,30,30,32,32,33,33,34,34,35,35,36,36,37,37,38,38,41,41,42,42],"right_children":[2,4,6,8,10,12,14,16,18,20,22,24,-1,26,28,30,32,34,36,-1,38,-1,-1,-1,-1,40,-1,42,-1,44,46,-1,48,50,52,54,56,58,60,-1,-1,62,64,-1,-1,-1,-1,-1,-1,-1,-1,-1,-1,-1,-1,-1,-1,-1,-1,-1,-1,-1,-1,-1,-1],"split_conditions":[1.91E1,1.51E1,2.19E1,1.6363178E1,2.5394087E1,2.461075E1,1.3270935E2,8.700001E0,1.679314E1,1.4524402E2,1.5700001E1,1.0587918E1,-5.4168934E-1,2.397325E1,2.6459389E1,7.7E0,9E0,2E-1,2.483367E1,4.0315523E0,2.0082708E1,-4.8786164E-3,-9.4599235E-1,-6.2189716E-1,-2.9026043E0,2.1029503E1,-2.9554367E-1,1.7072504E1,1.6552765E0,1.7116951E2,7.8999996E0,-5.3012395E0,2.247951E1,1.6595179E1,2.4812836E1,1.1488191E2,1.1200001E1,2.7020987E2,2.4194086E1,9.176136E-1,3.4180176E0,2.74E1,2.7680887E2,1.2009514E-2,5.3645056E-1,6.55057E0,-1.5510407E-1,1.6483757E0,-1.1164453E0,-7.174196E-1,-2.4348536E0,-1.1886574E0,-2.354828E-1,1.539661E-1,-1.2586992E0,7.819955E-2,2.217241E0,-5.1489717E-1,4.8083842E-1,5.412987E-1,3.63217E0,-5.246081E-1,2.0162293E-1,-1.5095261E0,-2.8898072E-1],"split_indices":[1,1,1,2,0,0,3,1,2,3,1,2,0,0,2,1,1,1,0,0,2,0,0,0,0,0,0,2,0,3,1,0,3,2,0,3,1,3,0,0,0,1,3,0,0,0,0,0,0,0,0,0,0,0,0,0,0,0,0,0,0,0,0,0,0],"split_type":[0,0,0,0,0,0,0,0,0,0,0,0,0,0,0,0,0,0,0,0,0,0,0,0,0,0,0,0,0,0,0,0,0,0,0,0,0,0,0,0,0,0,0,0,0,0,0,0,0,0,0,0,0,0,0,0,0,0,0,0,0,0,0,0,0],"sum_hessian":[8.31E2,8E2,3.1E1,7.85E2,1.5E1,8E0,2.3E1,5.44E2,2.41E2,1.2E1,3E0,6E0,2E0,4E0,1.9E1,5.25E2,1.9E1,2E1,2.21E2,3E0,9E0,1E0,2E0,1E0,5E0,3E0,1E0,1.7E1,2E0,5.22E2,3E0,1E0,1.8E1,1.5E1,5E0,4.5E1,1.76E2,5E0,4E0,1E0,2E0,7E0,1E1,4.02E2,1.2E2,1E0,2E0,2E0,1.6E1,4E0,1.1E1,2E0,3E0,1.5E1,3E1,1.71E2,5E0,2E0,3E0,1E0,3E0,3E0,4E0,6E0,4E0],"tree_param":{"num_deleted":"0","num_feature":"4","num_nodes":"65","size_leaf_vector":"1"}},{"base_weights":[7.107627E-2,8.1406504E-1,-9.7541325E-2,4.664413E-1,7.0998926E0,-6.7715087E0,4.2898744E-2,-4.8232794E-1,1.9306273E0,-1.0024964E0,1.1137351E1,-7.834625E0,-2.1550636E0,1.6387343E0,-2.2874853E-1,1.2294313E0,-5.8291035E0,7.0163264E0,-3.4920707E-1,4.571337E0,5.2776833E0,-9.481139E0,-1.1887739E0,-5.307541E-1,-1.0541989E0,4.234255E0,-2.5696892E-1,-6.450348E0,-8.339093E-2,-4.0454326E0,3.1704702E0,-2.5442712E0,-8.354441E0,1.2346449E1,3.14376E-1,-1.145536E0,2.1909657E0,-1.7504815E0,3.278061E0,-1.0313065E0,-3.3632946E0,-1.8852311E-1,-5.031624E-2,2.3769517E0,6.2460217E0,-9.32221E0,4.1928914E-1,2.711173E0,-8.494084E0,-4.3487086E0,4.24442E-2,-2.4191923E0,-1.1693053E-1,2.214087E0,-6.7239385E-3,-1.1618651E0,1.6112778E0,-3.6388094E0,-1.4852426E0,4.7516365E0,-3.2458037E-1,-1.3531456E0,7.011789E-1,-5.7995844E-1,1.8098586E0,1.4253325E0,-1.7403026E0,-5.991417E-1,-3.3294563E0,-5.066578E-1,6.48631E-1,2.905289E-1,-2.8327055E0,-2.0235047E0,-3.3278248E-1,3.9546769E0,-9.149484E-3],"categories":[],"categories_nodes":[],"categories_segments":[],"categories_sizes":[],"default_left":[0,0,0,0,0,0,0,0,0,0,0,0,0,0,0,0,0,0,0,0,0,0,0,0,0,0,0,0,0,0,0,0,0,0,0,0,0,0,0,0,0,0,0,0,0,0,0,0,0,0,0,0,0,0,0,0,0,0,0,0,0,0,0,0,0,0,0,0,0,0,0,0,0,0,0,0,0],"id":15,"left_children":[1,3,5,7,9,11,13,15,17,-1,19,21,23,25,27,29,31,33,35,-1,37,39,-1,41,-1,43,45,47,49,51,53,55,57,59,61,63,-1,-1,-1,-1,-1,-1,-1,65,-1,67,69,-1,71,73,75,-1,-1,-1,-1,-1,-1,-1,-1,-1,-1,-1,-1,-1,-1,-1,-1,-1,-1,-1,-1,-1,-1,-1,-1,-1,-1],"loss_changes":[1.0431318E2,3.3319412E2,6.367121E2,2.0513988E2,3.7447562E2,5.1825317E1,2.8908878E2,8.308818E2,6.7493414E2,0E0,6.3743103E1,3.255945E1,6.964241E0,4.783607E2,5.149455E2,7.1929736E2,1.6124078E2,6.391186E2,2.5821387E2,0E0,3.148667E2,3.463965E1,0E0,9.599328E-4,0E0,1.2135122E3,3.533439E2,4.8824622E2,2.996781E2,2.759753E2,6.856799E2,1.3647949E2,9.413129E1,4.8610095E2,9.838353E1,2.2651953E2,0E0,0E0,0E0,0E0,0E0,0E0,0E0,7.653599E2,0E0,2.987204E1,2.0205347E2,0E0,1.1682025E2,1.16720795E2,5.2084064E2,0E0,0E0,0E0,0E0,0E0,0E0,0E0,0E0,0E0,0E0,0E0,0E0,0E0,0E0,0E0,0E0,0E0,0E0,0E0,0E0,0E0,0E0,0E0,0E0,0E0,0E0],"parents":[2147483647,0,0,1,1,2,2,3,3,4,4,5,5,6,6,7,7,8,8,10,10,11,11,12,12,13,13,14,14,15,15,16,16,17,17,18,18,20,20,21,21,23,23,25,25,26,26,27,27,28,28,29,29,30,30,31,31,32,32,33,33,34,34,35,35,43,43,45,45,46,46,48,48,49,49,50,50],"right_children":[2,4,6,8,10,12,14,16,18,-1,20,22,24,26,28,30,32,34,36,-1,38,40,-1,42,-1,44,46,48,50,52,54,56,58,60,62,64,-1,-1,-1,-1,-1,-1,-1,66,-1,68,70,-1,72,74,76,-1,-1,-1,-1,-1,-1,-1,-1,-1,-1,-1,-1,-1,-1,-1,-1,-1,-1,-1,-1,-1,-1,-1,-1,-1,-1],"split_conditions":[7.375658E1,7.170969E1,8.0624596E1,2.3885756E1,2.1194084E1,2.4912836E1,1.1090103E1,2.3264917E1,1.1440979E1,-1.0024964E0,2.2306585E1,1.135285E1,2.5946167E1,2.3689919E1,1.127553E1,1.1019764E1,4.3458557E1,2.4702417E1,1.7429354E1,4.571337E0,2.3367002E1,1.0182337E1,-1.1887739E0,2.5537836E1,-1.0541989E0,2.3327417E1,2.3885756E1,9.1693695E1,2.1469086E1,5.0169846E1,1.2860871E1,3.3458668E1,2.3550333E1,1E-1,9.605998E0,2E0,2.1909657E0,-1.7504815E0,3.278061E0,-1.0313065E0,-3.3632946E0,-1.8852311E-1,-5.031624E-2,2.29545E1,6.2460217E0,9.504273E0,1.01376915E1,2.711173E0,2.0683668E1,1.2096214E1,1.135285E1,-2.4191923E0,-1.1693053E-1,2.214087E0,-6.7239385E-3,-1.1618651E0,1.6112778E0,-3.6388094E0,-1.4852426E0,4.7516365E0,-3.2458037E-1,-1.3531456E0,7.011789E-1,-5.7995844E-1,1.8098586E0,1.4253325E0,-1.7403026E0,-5.991417E-1,-3.3294563E0,-5.066578E-1,6.48631E-1,2.905289E-1,-2.8327055E0,-2.0235047E0,-3.3278248E-1,3.9546769E0,-9.149484E-3],"split_indices":[3,3,3,0,0,0,2,0,2,0,0,2,0,0,2,2,3,0,2,0,0,2,0,0,0,0,0,3,0,3,2,3,0,1,2,1,0,0,0,0,0,0,0,0,0,2,2,0,0,2,2,0,0,0,0,0,0,0,0,0,0,0,0,0,0,0,0,0,0,0,0,0,0,0,0,0,0],"split_type":[0,0,0,0,0,0,0,0,0,0,0,0,0,0,0,0,0,0,0,0,0,0,0,0,0,0,0,0,0,0,0,0,0,0,0,0,0,0,0,0,0,0,0,0,0,0,0,0,0,0,0,0,0,0,0,0,0,0,0,0,0,0,0,0,0,0,0,0,0,0,0,0,0,0,0,0,0],"sum_hessian":[8.31E2,1.53E2,6.78E2,1.46E2,7E0,1.3E1,6.65E2,8.9E1,5.7E1,2E0,5E0,1E1,3E0,9.6E1,5.69E2,6.8E1,2.1E1,1.7E1,4E1,2E0,3E0,6E0,4E0,2E0,1E0,4E1,5.6E1,1.2E1,5.57E2,1.8E1,5E1,1E1,1.1E1,9E0,8E0,3.7E1,3E0,1E0,2E0,2E0,4E0,1E0,1E0,3.7E1,3E0,3E0,5.3E1,1E0,1.1E1,1.5E1,5.42E2,8E0,1E1,2.1E1,2.9E1,9E0,1E0,4E0,7E0,7E0,2E0,2E0,6E0,3.4E1,3E0,2.9E1,8E0,1E0,2E0,2.4E1,2.9E1,1E0,1E1,8E0,7E0,2E0,5.4E2],"tree_param":{"num_deleted":"0","num_feature":"4","num_nodes":"77","size_leaf_vector":"1"}},{"base_weights":[5.4938827E-2,7.061011E-2,-1.9451855E0,2.0817413E0,2.6051182E-2,-4.5246452E-1,3.3865497E0,5.1052395E-2,-3.3492877E0,1.0367303E0,-2.7069106E0,5.3686017E-1,5.345348E0,-8.084369E-2,7.160576E-1,-1.4422201E0,-1.18268E0,-9.832306E-2,-1.2551324E0,1.3764896E0,-2.2847979E-1,2.245508E0,2.9924712E0,-3.0882707E-2,-8.466568E0,8.294563E0,4.7918677E-1,-6.504078E-1,1.4087678E-3,-7.2612767E-3,5.5543673E-1,-1.9725801E-1,1.6934937E0,7.369825E-2,-1.7700955E-1,1.4390603E-1,-3.4825647E0,3.119188E0,2.979561E-1,-3.2392013E-1,5.3148955E-1],"categories":[],"categories_nodes":[],"categories_segments":[],"categories_sizes":[],"default_left":[0,0,0,0,0,0,0,0,0,0,0,0,0,0,0,0,0,0,0,0,0,0,0,0,0,0,0,0,0,0,0,0,0,0,0,0,0,0,0,0,0],"id":16,"left_children":[1,3,-1,5,7,9,11,13,15,-1,17,19,21,23,25,27,-1,-1,-1,29,-1,-1,31,33,35,37,39,-1,-1,-1,-1,-1,-1,-1,-1,-1,-1,-1,-1,-1,-1],"loss_changes":[8.571524E1,7.441489E1,0E0,6.1052048E1,6.886247E1,7.103075E1,6.411389E1,7.1016556E1,1.0994873E0,0E0,1.6197319E1,7.5896826E0,1.2842056E1,2.8295483E2,2.365724E2,3.1607208E0,0E0,0E0,0E0,2.7059417E0,0E0,0E0,5.2119965E1,1.04210304E2,1.180043E2,5.108484E1,2.658542E2,0E0,0E0,0E0,0E0,0E0,0E0,0E0,0E0,0E0,0E0,0E0,0E0,0E0,0E0],"parents":[2147483647,0,0,1,1,3,3,4,4,5,5,6,6,7,7,8,8,10,10,11,11,12,12,13,13,14,14,15,15,19,19,22,22,23,23,24,24,25,25,26,26],"right_children":[2,4,-1,6,8,10,12,14,16,-1,18,20,22,24,26,28,-1,-1,-1,30,-1,-1,32,34,36,38,40,-1,-1,-1,-1,-1,-1,-1,-1,-1,-1,-1,-1,-1,-1],"split_conditions":[3.1311724E1,1.1379906E1,-1.9451855E0,2.4335754E1,3.321908E1,2.1762835E1,7.178725E0,2.8296167E1,1.3410362E2,1.0367303E0,2.3367002E1,2.777117E1,2.5012835E1,2.8169085E1,2.8350334E1,1.3356437E1,-1.18268E0,-9.832306E-2,-1.2551324E0,1.1808878E1,-2.2847979E-1,2.245508E0,2.6094086E1,1.6199999E1,1.3557207E2,1E-1,1.7574797E2,-6.504078E-1,1.4087678E-3,-7.2612767E-3,5.5543673E-1,-1.9725801E-1,1.6934937E0,7.369825E-2,-1.7700955E-1,1.4390603E-1,-3.4825647E0,3.119188E0,2.979561E-1,-3.2392013E-1,5.3148955E-1],"split_indices":[2,3,0,0,0,0,3,0,3,0,0,0,0,0,0,2,0,0,0,2,0,0,0,2,3,1,3,0,0,0,0,0,0,0,0,0,0,0,0,0,0],"split_type":[0,0,0,0,0,0,0,0,0,0,0,0,0,0,0,0,0,0,0,0,0,0,0,0,0,0,0,0,0,0,0,0,0,0,0,0,0,0,0,0,0],"sum_hessian":[8.31E2,8.3E2,1E0,1.7E1,8.13E2,6E0,1.1E1,8.08E2,5E0,2E0,4E0,5E0,6E0,6.75E2,1.33E2,2E0,3E0,2E0,2E0,3E0,2E0,2E0,4E0,6.72E2,3E0,3E0,1.3E2,1E0,1E0,1E0,2E0,2E0,2E0,4.5E2,2.22E2,1E0,2E0,2E0,1E0,5.9E1,7.1E1],"tree_param":{"num_deleted":"0","num_feature":"4","num_nodes":"41","size_leaf_vector":"1"}},{"base_weights":[3.863746E-2,1.6620547E0,-9.571009E-3,-2.434934E-1,6.3245993E0,-2.6362362E0,1.1616791E-1,2.235673E0,-2.0243876E0,3.1157875E-1,3.226941E0,-3.3407686E0,-7.3161654E-2,1.02528515E1,6.335895E-2,-5.1463014E-1,5.1146336E0,1.678299E0,-3.0336847E0,1.4553629E0,-4.679661E-1,-1.5258113E0,-4.720058E0,8.0075E-1,-1.8891869E0,5.246117E0,2.012431E0,-5.375927E-1,3.2350463E-1,3.4977037E-1,-1.2262383E0,2.1393807E0,-1.4029084E-1,1.2332302E0,-4.779957E-1,-3.5284793E0,-2.6038057E-1,5.43298E-1,1.11615375E-1,-3.2873077E0,3.2060463E0,-5.3158746E0,-3.6622873E-1,4.2726862E-1,-2.8367157E0,-1.3520085E0,2.2576025E0,2.6426855E-1,-2.5705488E0,7.490916E0,6.0996328E-2,-6.623955E-1,2.578503E-1,-3.198761E-1,-1.2900357E0,-1.4680376E0,-1.793667E-1,-5.8152986E-1,-1.8182322E0,6.4912036E-2,-2.2971497E-1,2.3589478E-1,-1.1817158E0,4.256158E-3,1.4042389E0,2.3554661E0,-1.0108742E0,5.247133E0,1.3568556E0,-1.5190792E0,5.450762E-2],"categories":[],"categories_nodes":[],"categories_segments":[],"categories_sizes":[],"default_left":[0,0,0,0,0,0,0,0,0,0,0,0,0,0,0,0,0,0,0,0,0,0,0,0,0,0,0,0,0,0,0,0,0,0,0,0,0,0,0,0,0,0,0,0,0,0,0,0,0,0,0,0,0,0,0,0,0,0,0,0,0,0,0,0,0,0,0,0,0,0,0],"id":17,"left_children":[1,3,5,7,9,11,13,15,17,19,-1,21,23,25,27,29,31,33,35,37,-1,39,41,-1,43,-1,45,47,49,-1,51,-1,-1,-1,-1,53,-1,-1,-1,55,-1,57,59,-1,61,-1,-1,63,65,67,69,-1,-1,-1,-1,-1,-1,-1,-1,-1,-1,-1,-1,-1,-1,-1,-1,-1,-1,-1,-1],"loss_changes":[6.513027E1,2.1477286E2,2.6749796E2,8.399827E1,1.8319101E2,6.656906E1,4.131433E2,6.597626E1,4.619965E1,1.0832414E1,0E0,6.539526E1,4.9863792E1,2.032601E2,1.2055184E2,7.409071E0,4.836444E1,3.0424088E1,6.581917E0,4.8199272E-1,0E0,3.3630597E2,3.9558502E1,0E0,2.2877472E1,0E0,1.4173248E2,3.8050397E2,1.01179266E3,0E0,1.0088434E1,0E0,0E0,0E0,0E0,8.714645E0,0E0,0E0,0E0,5.3229202E1,0E0,2.3473572E1,8.639082E-1,0E0,2.3066345E1,0E0,0E0,1.8548813E2,5.760774E2,4.8479883E2,3.225486E2,0E0,0E0,0E0,0E0,0E0,0E0,0E0,0E0,0E0,0E0,0E0,0E0,0E0,0E0,0E0,0E0,0E0,0E0,0E0,0E0],"parents":[2147483647,0,0,1,1,2,2,3,3,4,4,5,5,6,6,7,7,8,8,9,9,11,11,12,12,13,13,14,14,15,15,16,16,17,17,18,18,19,19,21,21,22,22,24,24,26,26,27,27,28,28,30,30,35,35,39,39,41,41,42,42,44,44,47,47,48,48,49,49,50,50],"right_children":[2,4,6,8,10,12,14,16,18,20,-1,22,24,26,28,30,32,34,36,38,-1,40,42,-1,44,-1,46,48,50,-1,52,-1,-1,-1,-1,54,-1,-1,-1,56,-1,58,60,-1,62,-1,-1,64,66,68,70,-1,-1,-1,-1,-1,-1,-1,-1,-1,-1,-1,-1,-1,-1,-1,-1,-1,-1,-1,-1],"split_conditions":[2.0527418E1,2.0369083E1,2.1469086E1,5.168295E1,3.2359375E1,1.3094632E2,2.1571167E1,4.428572E1,9E0,2.043992E1,3.226941E0,9.1693695E1,1.3377426E2,9E0,1.1356353E2,1.0799999E1,1.9923254E1,1.9923254E1,1.1782784E1,1.1440979E1,-4.679661E-1,8.973719E1,1.61198E1,8.0075E-1,9.6932955E0,5.246117E0,1.0446206E1,9.2092026E1,1.1692922E2,3.4977037E-1,4.381366E1,2.1393807E0,-1.4029084E-1,1.2332302E0,-4.779957E-1,1.9067003E1,-2.6038057E-1,5.43298E-1,1.11615375E-1,1.314E1,3.2060463E0,9.801326E0,2.1102419E1,4.2726862E-1,2.0683668E1,-1.3520085E0,2.2576025E0,9.0253494E1,2.2177416E1,2.3100336E1,1.187038E2,-6.623955E-1,2.578503E-1,-3.198761E-1,-1.2900357E0,-1.4680376E0,-1.793667E-1,-5.8152986E-1,-1.8182322E0,6.4912036E-2,-2.2971497E-1,2.3589478E-1,-1.1817158E0,4.256158E-3,1.4042389E0,2.3554661E0,-1.0108742E0,5.247133E0,1.3568556E0,-1.5190792E0,5.450762E-2],"split_indices":[0,0,0,3,3,3,0,3,2,0,0,3,3,2,3,2,0,0,2,2,0,3,2,0,2,0,2,3,3,0,3,0,0,0,0,0,0,0,0,2,0,2,0,0,0,0,0,3,0,0,3,0,0,0,0,0,0,0,0,0,0,0,0,0,0,0,0,0,0,0,0],"split_type":[0,0,0,0,0,0,0,0,0,0,0,0,0,0,0,0,0,0,0,0,0,0,0,0,0,0,0,0,0,0,0,0,0,0,0,0,0,0,0,0,0,0,0,0,0,0,0,0,0,0,0,0,0,0,0,0,0,0,0,0,0,0,0,0,0,0,0,0,0,0,0],"sum_hessian":[8.31E2,2.3E1,8.08E2,1.7E1,6E0,3.6E1,7.72E2,7E0,1E1,3E0,3E0,2.8E1,8E0,3E0,7.69E2,4E0,3E0,2E0,8E0,2E0,1E0,1.3E1,1.5E1,3E0,5E0,1E0,2E0,2.32E2,5.37E2,1E0,3E0,2E0,1E0,1E0,1E0,6E0,2E0,1E0,1E0,1.2E1,1E0,1.3E1,2E0,1E0,4E0,1E0,1E0,1.67E2,6.5E1,1.8E1,5.19E2,2E0,1E0,2E0,4E0,7E0,5E0,3E0,1E1,1E0,1E0,1E0,3E0,1.59E2,8E0,4E0,6.1E1,3E0,1.5E1,1.1E1,5.08E2],"tree_param":{"num_deleted":"0","num_feature":"4","num_nodes":"71","size_leaf_vector":"1"}},{"base_weights":[4.8157983E-2,6.1545927E-2,-1.6615838E0,-3.0164478E-2,7.723777E-1,1.7332865E-2,-6.987242E0,-3.6789489E0,1.339345E0,-2.0836635E-2,6.9789333E0,-6.4031357E-1,-3.9598048E0,8.0998486E-1,-4.766488E0,1.0395209E0,7.1509037E0,1.1858666E-2,-5.9579983E0,-1.5289739E0,4.8753986E0,-3.6232683E-1,7.2682E-1,-7.0102715E0,-2.0919037E-1,6.567354E-1,5.7786803E0,4.6133426E-1,2.5528054E0,-9.496828E-3,2.3655195E0,3.5938267E-2,-3.6287065E0,6.605416E-2,-7.5409245E-1,-2.2824464E0,-6.0312885E-1,-9.3482214E-1,5.395386E-1,3.4101456E-1,-8.018402E-1,3.0670779E0,-6.2222904E-1],"categories":[],"categories_nodes":[],"categories_segments":[],"categories_sizes":[],"default_left":[0,0,0,0,0,0,0,0,0,0,0,0,0,0,0,0,0,0,0,0,0,0,0,0,0,0,0,0,0,0,0,0,0,0,0,0,0,0,0,0,0,0,0],"id":18,"left_children":[1,3,-1,5,7,9,11,13,15,17,19,-1,-1,21,23,25,27,29,31,33,-1,-1,-1,35,37,39,41,-1,-1,-1,-1,-1,-1,-1,-1,-1,-1,-1,-1,-1,-1,-1,-1],"loss_changes":[6.2570633E1,5.4196747E1,0E0,2.4365738E2,2.4468425E2,1.9491876E2,1.2256012E2,5.7561584E1,1.4067436E2,1.4177626E2,3.404026E2,0E0,0E0,1.26883955E1,9.056384E1,1.449596E2,1.7415009E1,2.493203E2,1.5066342E2,5.7204614E0,0E0,0E0,0E0,2.6402588E0,2.8948183E1,1.2609267E2,2.3063417E2,0E0,0E0,0E0,0E0,0E0,0E0,0E0,0E0,0E0,0E0,0E0,0E0,0E0,0E0,0E0,0E0],"parents":[2147483647,0,0,1,1,3,3,4,4,5,5,6,6,7,7,8,8,9,9,10,10,13,13,14,14,15,15,16,16,17,17,18,18,19,19,23,23,24,24,25,25,26,26],"right_children":[2,4,-1,6,8,10,12,14,16,18,20,-1,-1,22,24,26,28,30,32,34,-1,-1,-1,36,38,40,42,-1,-1,-1,-1,-1,-1,-1,-1,-1,-1,-1,-1,-1,-1,-1,-1],"split_conditions":[3.1311724E1,2.1142147E1,-1.6615838E0,2.1068459E1,2.3348251E1,2.0774214E1,2.5052422E1,2.2027418E1,2.8879025E2,2.0418695E1,3.0131586E1,-6.4031357E-1,-3.9598048E0,2.0369083E1,2.6600004E1,2.9617004E1,1.4000001E0,2.0268991E1,1.2E0,2.4646166E1,4.8753986E0,-3.6232683E-1,7.2682E-1,2.62E1,2.2306585E1,2.7577415E1,2.1791153E1,4.6133426E-1,2.5528054E0,-9.496828E-3,2.3655195E0,3.5938267E-2,-3.6287065E0,6.605416E-2,-7.5409245E-1,-2.2824464E0,-6.0312885E-1,-9.3482214E-1,5.395386E-1,3.4101456E-1,-8.018402E-1,3.0670779E0,-6.2222904E-1],"split_indices":[2,2,0,2,0,2,0,0,3,2,0,0,0,0,1,0,1,2,1,0,0,0,0,1,0,0,2,0,0,0,0,0,0,0,0,0,0,0,0,0,0,0,0],"split_type":[0,0,0,0,0,0,0,0,0,0,0,0,0,0,0,0,0,0,0,0,0,0,0,0,0,0,0,0,0,0,0,0,0,0,0,0,0,0,0,0,0,0,0],"sum_hessian":[8.31E2,8.3E2,1E0,7.36E2,9.4E1,7.32E2,4E0,1E1,8.4E1,7.29E2,3E0,3E0,1E0,2E0,8E0,8.1E1,3E0,7.26E2,3E0,2E0,1E0,1E0,1E0,5E0,3E0,7.6E1,5E0,1E0,2E0,7.23E2,3E0,2E0,1E0,1E0,1E0,4E0,1E0,1E0,2E0,6.7E1,9E0,3E0,2E0],"tree_param":{"num_deleted":"0","num_feature":"4","num_nodes":"43","size_leaf_vector":"1"}},{"base_weights":[3.223472E-2,2.3053901E-1,-3.129469E-1,6.791559E-2,4.365909E0,-3.6698956E0,-6.361985E-2,-1.8614504E-1,2.3581111E0,7.027876E0,1.0011551E0,-7.7075434E-1,-1.078929E1,3.4315157E0,-2.7127245E-1,1.0526322E-2,-5.3117886E0,-1.5027766E0,7.1236606E0,-2.6911163E-1,9.797885E0,-5.919181E-1,2.3008223E0,-2.7666962E0,2.1906989E0,-7.9577297E-1,-3.5658355E0,1.39146805E1,-5.8036216E-2,-6.193198E0,-1.1262321E-1,2.5966674E-1,-3.0014515E0,1.4941387E0,-6.876926E0,3.9311084E-1,-7.5174384E0,-5.253601E-2,1.4957015E1,1.1998982E0,-9.075768E-1,4.4308686E0,6.977708E0,-1.6134233E0,1.1370187E0,-2.3359299E0,-5.384579E-1,1.5090417E0,4.8895262E-2,1.2641808E0,4.7230854E0,-1.4669616E0,1.043636E0,-2.4122515E0,-3.1481937E-1,4.673474E0,-2.8110263E-1,-1.9088928E-2,1.4052521E0,-2.0824306E0,-2.4459289E-1,1.3698132E0,-3.1555328E-1,-1.2573156E0,-2.9278748E0,-1.7492023E-1,2.1285965E0,-3.951391E0,-7.864897E-1,-1.5795302E0,2.0718918E0,5.8889275E0,5.616835E-1,1.3544999E-1,2.397048E0,-7.2754097E-1,1.6434327E-1,1.20784E-1,-6.723343E-1,-4.385216E-1,4.629692E-1,-1.5593062E-1,-1.0511467E0,2.562486E0,-6.8913406E-1,-1.9455755E-1,6.898918E-1],"categories":[],"categories_nodes":[],"categories_segments":[],"categories_sizes":[],"default_left":[0,0,0,0,0,0,0,0,0,0,0,0,0,0,0,0,0,0,0,0,0,0,0,0,0,0,0,0,0,0,0,0,0,0,0,0,0,0,0,0,0,0,0,0,0,0,0,0,0,0,0,0,0,0,0,0,0,0,0,0,0,0,0,0,0,0,0,0,0,0,0,0,0,0,0,0,0,0,0,0,0,0,0,0,0,0,0],"id":19,"left_children":[1,3,5,7,9,11,13,15,17,19,21,23,25,27,29,31,33,35,37,39,41,43,-1,45,47,-1,-1,49,51,53,55,57,59,61,63,65,67,69,71,-1,-1,-1,73,75,-1,-1,77,-1,79,-1,-1,81,-1,-1,-1,83,85,-1,-1,-1,-1,-1,-1,-1,-1,-1,-1,-1,-1,-1,-1,-1,-1,-1,-1,-1,-1,-1,-1,-1,-1,-1,-1,-1,-1,-1,-1],"loss_changes":[5.702337E1,3.5546024E2,2.5420782E2,2.9718173E2,1.7210126E2,4.251269E2,2.0705067E2,4.6376688E2,9.4906714E2,2.2497668E2,1.1076979E2,1.0063521E2,2.2018616E1,5.861123E2,2.5203043E2,3.3395938E2,1.9136267E2,3.3364572E2,1.2937007E3,5.9161404E1,9.110352E0,4.6400913E1,0E0,1.07659035E2,4.2324707E1,0E0,0E0,4.6256104E0,6.98838E1,5.8089233E1,2.1338608E2,5.882038E2,2.8719495E2,3.608684E1,6.7491394E1,1.5461575E2,1.5923126E2,5.0791675E2,6.358052E2,0E0,0E0,0E0,4.2644745E1,1.5362936E1,0E0,0E0,1.372087E1,0E0,1.3542769E1,0E0,0E0,1.7471825E1,0E0,0E0,0E0,2.622903E2,2.4328813E2,0E0,0E0,0E0,0E0,0E0,0E0,0E0,0E0,0E0,0E0,0E0,0E0,0E0,0E0,0E0,0E0,0E0,0E0,0E0,0E0,0E0,0E0,0E0,0E0,0E0,0E0,0E0,0E0,0E0,0E0],"parents":[2147483647,0,0,1,1,2,2,3,3,4,4,5,5,6,6,7,7,8,8,9,9,10,10,11,11,12,12,13,13,14,14,15,15,16,16,17,17,18,18,19,19,20,20,21,21,23,23,24,24,27,27,28,28,29,29,30,30,31,31,32,32,33,33,34,34,35,35,36,36,37,37,38,38,42,42,43,43,46,46,48,48,51,51,55,55,56,56],"right_children":[2,4,6,8,10,12,14,16,18,20,22,24,26,28,30,32,34,36,38,40,42,44,-1,46,48,-1,-1,50,52,54,56,58,60,62,64,66,68,70,72,-1,-1,-1,74,76,-1,-1,78,-1,80,-1,-1,82,-1,-1,-1,84,86,-1,-1,-1,-1,-1,-1,-1,-1,-1,-1,-1,-1,-1,-1,-1,-1,-1,-1,-1,-1,-1,-1,-1,-1,-1,-1,-1,-1,-1,-1],"split_conditions":[1.8924088E2,1.7116951E2,2.1154346E2,2.6999998E0,1.4372974E1,1.5072783E1,1.0990322E1,1.9191748E1,1.530741E1,2.7144083E1,1.9969458E1,1.2682018E1,2.3502419E1,2.4150335E1,1.1599879E1,2.9685751E1,8.8580444E1,1.4101021E1,1.1800458E2,2.3148249E1,2.777117E1,1E-1,2.3008223E0,1.9137915E2,3.1171167E1,-7.9577297E-1,-3.5658355E0,2.1673283E2,1.0650465E1,3.4864203E2,1.2261157E1,2.795033E1,3.0262833E1,1.964228E1,1.2920483E2,1.3708391E1,1.0139995E2,1.8947083E1,1.964228E1,1.1998982E0,-9.075768E-1,4.4308686E0,1.7574797E2,1.8211543E2,1.1370187E0,-2.3359299E0,1.0703569E1,1.5090417E0,1.3584932E1,1.2641808E0,4.7230854E0,3.289964E2,1.043636E0,-2.4122515E0,-3.1481937E-1,3.2E0,3.0398254E1,-1.9088928E-2,1.4052521E0,-2.0824306E0,-2.4459289E-1,1.3698132E0,-3.1555328E-1,-1.2573156E0,-2.9278748E0,-1.7492023E-1,2.1285965E0,-3.951391E0,-7.864897E-1,-1.5795302E0,2.0718918E0,5.8889275E0,5.616835E-1,1.3544999E-1,2.397048E0,-7.2754097E-1,1.6434327E-1,1.20784E-1,-6.723343E-1,-4.385216E-1,4.629692E-1,-1.5593062E-1,-1.0511467E0,2.562486E0,-6.8913406E-1,-1.9455755E-1,6.898918E-1],"split_indices":[3,3,3,1,2,2,2,2,2,0,2,2,0,0,2,0,3,2,3,0,0,1,0,3,0,0,0,3,2,3,2,0,0,2,3,2,3,2,2,0,0,0,3,3,0,0,2,0,2,0,0,3,0,0,0,1,0,0,0,0,0,0,0,0,0,0,0,0,0,0,0,0,0,0,0,0,0,0,0,0,0,0,0,0,0,0,0],"split_type":[0,0,0,0,0,0,0,0,0,0,0,0,0,0,0,0,0,0,0,0,0,0,0,0,0,0,0,0,0,0,0,0,0,0,0,0,0,0,0,0,0,0,0,0,0,0,0,0,0,0,0,0,0,0,0,0,0,0,0,0,0,0,0,0,0,0,0,0,0,0,0,0,0,0,0,0,0,0,0,0,0,0,0,0,0,0,0],"sum_hessian":[8.31E2,5.28E2,3.03E2,5.09E2,1.9E1,2E1,2.83E2,4.59E2,5E1,1E1,9E0,1.5E1,5E0,1.5E1,2.68E2,4.43E2,1.6E1,2.8E1,2.2E1,3E0,7E0,8E0,1E0,9E0,6E0,1E0,4E0,3E0,1.2E1,6E0,2.62E2,4.1E2,3.3E1,3E0,1.3E1,2.2E1,6E0,1.2E1,1E1,1E0,2E0,1E0,6E0,7E0,1E0,2E0,7E0,2E0,4E0,1E0,2E0,9E0,3E0,4E0,2E0,8E0,2.54E2,3.83E2,2.7E1,1.1E1,2.2E1,1E0,2E0,8E0,5E0,2E1,2E0,2E0,4E0,7E0,5E0,7E0,3E0,1E0,5E0,5E0,2E0,5E0,2E0,2E0,2E0,7E0,2E0,5E0,3E0,2.23E2,3.1E1],"tree_param":{"num_deleted":"0","num_feature":"4","num_nodes":"87","size_leaf_vector":"1"}},{"base_weights":[3.4543864E-2,1.10346325E-1,-1.0596166E0,4.5494158E-2,3.6508043E0,-5.6046624E0,-3.74722E-1,-1.4534262E-1,4.543554E-1,-9.4416045E-2,1.0411084E1,-2.7350159E0,2.1169865E0,9.586417E-2,-2.239641E0,2.0169497E-1,-1.096179E0,1.9521799E0,-7.7772364E-2,2.4261823E0,-4.481859E0,9.28949E-1,3.4396822E0,1.256614E0,-3.0396998E-1,1.7864019E0,-1.3956436E0,-1.6692963E-1,2.5070095E0,-3.860071E0,-5.7599574E-1,8.575215E-1,8.546479E0,-2.9945114E-1,4.753463E0,9.09029E-1,6.109314E-1,-1.6172539E0,-2.6323473E-1,3.9772182E0,-1.8200234E0,1.0703754E0,-2.4141164E0,3.946594E-2,-9.5281243E-1,1.6398615E0,-9.228263E-1,1.0821076E-1,-1.6396216E0,-7.6831244E-2,-1.4947438E0,4.0246016E-1,-1.7310065E0,3.522588E0,-5.275406E-1,9.769461E-1,-1.4040072E-1,-1.07506715E-1,2.9864612E0,-7.994385E-2,3.54863E-1,1.3499451E-3,3.3381634E0,1.2407075E0,-2.2235203E0,-2.593649E-1,7.212721E-1,-9.709526E-1,-6.897431E-2],"categories":[],"categories_nodes":[],"categories_segments":[],"categories_sizes":[],"default_left":[0,0,0,0,0,0,0,0,0,0,0,0,0,0,0,0,0,0,0,0,0,0,0,0,0,0,0,0,0,0,0,0,0,0,0,0,0,0,0,0,0,0,0,0,0,0,0,0,0,0,0,0,0,0,0,0,0,0,0,0,0,0,0,0,0,0,0,0,0],"id":20,"left_children":[1,3,5,7,9,11,13,15,17,19,21,-1,23,25,-1,27,29,31,33,35,37,-1,-1,-1,-1,39,41,43,45,47,49,51,53,55,57,-1,59,-1,-1,61,63,65,67,-1,-1,-1,-1,-1,-1,-1,-1,-1,-1,-1,-1,-1,-1,-1,-1,-1,-1,-1,-1,-1,-1,-1,-1,-1,-1],"loss_changes":[6.912305E1,1.7869725E2,1.6599515E2,5.983377E1,3.5544534E2,2.0913206E2,1.6088245E2,1.7279852E2,1.9462811E2,1.2146364E2,3.0637817E0,0E0,2.369902E1,1.1847989E2,0E0,3.2674002E2,1.9905885E2,4.5465552E2,1.9527124E2,5.822609E0,8.375244E0,0E0,0E0,0E0,0E0,1.8106094E2,6.537334E1,2.986096E2,8.9245264E2,1.510379E2,1.6646603E2,1.8737816E2,3.1701117E2,1.0581228E2,2.1627658E2,0E0,1.820705E0,0E0,0E0,3.976186E2,3.3037634E2,2.2726015E1,3.1588753E1,0E0,0E0,0E0,0E0,0E0,0E0,0E0,0E0,0E0,0E0,0E0,0E0,0E0,0E0,0E0,0E0,0E0,0E0,0E0,0E0,0E0,0E0,0E0,0E0,0E0,0E0],"parents":[2147483647,0,0,1,1,2,2,3,3,4,4,5,5,6,6,7,7,8,8,9,9,10,10,12,12,13,13,15,15,16,16,17,17,18,18,19,19,20,20,25,25,26,26,27,27,28,28,29,29,30,30,31,31,32,32,33,33,34,34,36,36,39,39,40,40,41,41,42,42],"right_children":[2,4,6,8,10,12,14,16,18,20,22,-1,24,26,-1,28,30,32,34,36,38,-1,-1,-1,-1,40,42,44,46,48,50,52,54,56,58,-1,60,-1,-1,62,64,66,68,-1,-1,-1,-1,-1,-1,-1,-1,-1,-1,-1,-1,-1,-1,-1,-1,-1,-1,-1,-1,-1,-1,-1,-1,-1,-1],"split_conditions":[3.078575E1,3.0398254E1,3.0860754E1,2.5979502E1,2.0284242E2,2.2321475E2,4E-1,2.5012835E1,1.2602743E2,3.0579504E1,1.3246826E1,-2.7350159E0,3.0831587E1,3.1542002E1,-2.239641E0,2.4646166E1,9.132194E1,1.2364628E2,2.4482647E1,1.4678549E2,3.0696167E1,9.28949E-1,3.4396822E0,1.256614E0,-3.0396998E-1,2.712636E2,1.6498947E2,2.4366999E1,2.6581793E2,1.1808878E1,3.2630984E2,1.22940094E2,1.8792551E1,2.6069082E1,2.6380594E2,9.09029E-1,1.0703569E1,-1.6172539E0,-2.6323473E-1,1.4512064E1,1.5408671E1,1.3356437E1,2.9959076E2,3.946594E-2,-9.5281243E-1,1.6398615E0,-9.228263E-1,1.0821076E-1,-1.6396216E0,-7.6831244E-2,-1.4947438E0,4.0246016E-1,-1.7310065E0,3.522588E0,-5.275406E-1,9.769461E-1,-1.4040072E-1,-1.07506715E-1,2.9864612E0,-7.994385E-2,3.54863E-1,1.3499451E-3,3.3381634E0,1.2407075E0,-2.2235203E0,-2.593649E-1,7.212721E-1,-9.709526E-1,-6.897431E-2],"split_indices":[0,0,0,0,3,3,1,0,3,0,2,0,0,0,0,0,3,3,2,3,0,0,0,0,0,3,3,0,3,2,3,3,2,0,3,0,2,0,0,2,2,2,3,0,0,0,0,0,0,0,0,0,0,0,0,0,0,0,0,0,0,0,0,0,0,0,0,0,0],"split_type":[0,0,0,0,0,0,0,0,0,0,0,0,0,0,0,0,0,0,0,0,0,0,0,0,0,0,0,0,0,0,0,0,0,0,0,0,0,0,0,0,0,0,0,0,0,0,0,0,0,0,0,0,0,0,0,0,0,0,0,0,0,0,0,0,0,0,0,0,0],"sum_hessian":[8.31E2,7.78E2,5.3E1,7.65E2,1.3E1,6E0,4.7E1,5.22E2,2.43E2,9E0,4E0,4E0,2E0,4.5E1,2E0,3.83E2,1.39E2,6.3E1,1.8E2,6E0,3E0,1E0,3E0,1E0,1E0,2.1E1,2.4E1,3.31E2,5.2E1,2.1E1,1.18E2,5.5E1,8E0,1.73E2,7E0,4E0,2E0,2E0,1E0,1.3E1,8E0,7E0,1.7E1,3.02E2,2.9E1,3.4E1,1.8E1,6E0,1.5E1,1.11E2,7E0,5.2E1,3E0,6E0,2E0,7E0,1.66E2,4E0,3E0,1E0,1E0,9E0,4E0,4E0,4E0,3E0,4E0,1.2E1,5E0],"tree_param":{"num_deleted":"0","num_feature":"4","num_nodes":"69","size_leaf_vector":"1"}},{"base_weights":[2.8401174E-2,-4.3898676E-2,1.0708674E0,3.6049366E-2,-2.2719347E0,6.583959E0,-3.1060591E-2,-8.0672437E-1,1.6189659E-1,-5.822529E0,1.4409403E0,3.7705767E0,3.0785522E0,4.465486E0,-1.245504E0,-1.728075E0,6.935156E-1,5.5476747E0,1.12009384E-1,-1.8233896E0,-7.841674E0,-5.2224284E-1,2.644008E0,6.9291496E-1,1.4083655E0,-4.2425536E-2,2.2433496E0,-4.3293548E-1,-1.6114857E0,-2.5339353E0,1.4423274E0,7.6561337E0,-1.22026935E-1,2.9151206E0,1.0337105E0,9.7011656E-1,-6.0450453E-2,9.0457344E-1,-1.4558632E0,-2.8560698E0,-3.3634186E0,-2.1922035E0,2.7798885E-1,-2.2217561E-1,1.4176102E0,-6.067467E-1,3.3222887E-1,-3.6128027E0,4.39834E-1,-1.1971029E-2,-1.157293E0,4.2630253E0,-2.4174778E-1,-5.691147E-3,3.0662477E0,-3.6412162E-1,7.1106887E-1,-4.7839892E-1,1.3378247E0,1.8281251E-1,2.1183856E0,-1.3091307E0,6.074771E-3,-1.3718416E-1,7.485203E-1,-1.4994584E-1,-1.7931324E0,-8.879616E-1,1.6620256E-2,4.4646224E-1,-4.8205093E-1,6.5119517E-1,-1.3270569E-2,-2.4446183E-1,2.6447298E-3,-1.5235094E0,1.0220338E-2,4.4589245E-1,-9.888394E-1],"categories":[],"categories_nodes":[],"categories_segments":[],"categories_sizes":[],"default_left":[0,0,0,0,0,0,0,0,0,0,0,0,0,0,0,0,0,0,0,0,0,0,0,0,0,0,0,0,0,0,0,0,0,0,0,0,0,0,0,0,0,0,0,0,0,0,0,0,0,0,0,0,0,0,0,0,0,0,0,0,0,0,0,0,0,0,0,0,0,0,0,0,0,0,0,0,0,0,0],"id":21,"left_children":[1,3,5,7,9,11,13,15,17,19,21,-1,23,25,27,29,31,33,35,37,39,41,-1,43,-1,45,-1,47,-1,49,51,53,55,-1,57,59,61,63,-1,-1,65,67,69,-1,71,73,-1,75,77,-1,-1,-1,-1,-1,-1,-1,-1,-1,-1,-1,-1,-1,-1,-1,-1,-1,-1,-1,-1,-1,-1,-1,-1,-1,-1,-1,-1,-1,-1],"loss_changes":[6.275498E1,1.3884293E2,3.282561E2,7.999433E1,3.6432855E2,1.5011398E2,2.5675867E2,1.3665866E2,1.7563359E2,9.874933E1,2.0723045E2,0E0,2.373339E1,1.3611111E2,1.2172623E2,1.5950377E2,2.1671007E2,1.0287834E2,9.63995E1,5.397576E1,3.563263E1,1.6645672E1,0E0,5.2052646E0,0E0,3.9163668E0,0E0,9.0398346E1,0E0,1.6161313E2,3.8460117E2,7.8931015E1,9.8105736E1,0E0,4.312739E1,2.3520683E2,1.8865947E2,9.805029E0,0E0,0E0,2.6950756E1,7.0656395E0,2.2920761E1,0E0,3.3985047E0,5.19642E-1,0E0,3.7586014E1,1.0654843E2,0E0,0E0,0E0,0E0,0E0,0E0,0E0,0E0,0E0,0E0,0E0,0E0,0E0,0E0,0E0,0E0,0E0,0E0,0E0,0E0,0E0,0E0,0E0,0E0,0E0,0E0,0E0,0E0,0E0,0E0],"parents":[2147483647,0,0,1,1,2,2,3,3,4,4,5,5,6,6,7,7,8,8,9,9,10,10,12,12,13,13,14,14,15,15,16,16,17,17,18,18,19,19,20,20,21,21,23,23,25,25,27,27,29,29,30,30,31,31,32,32,34,34,35,35,36,36,37,37,40,40,41,41,42,42,44,44,45,45,47,